{"weights": [[[-0.04051904935964504, 0.020466925713462127, 0.2714302963735682, 0.05582477097184078, -0.4601650267631928, 0.4120017079445599, 0.3130707938211874, 0.054044688341769065, 0.18650018150550804, -0.32438206007764453, 0.2672729616535923, -0.2409581696122645, 0.06586853109472846, -0.5434416925671893, -0.6095372597788382, -0.18672025639504833, 0.2441746692332402, -0.1886383316658662, 0.3933471776018816, 0.39391475906731666, 0.015501214710861664, 0.20222753918674558, -0.052504975543572294, 0.3854306915715277, -0.5842741624260528, -0.34751959042782216, -0.7846205116231484, -0.27224907994096154, 0.18773503325255164, 1.443478566912172, 0.2904311408896057, -0.04573881153398465, 0.3857181837735605, -0.6577288588668424, 0.7381600645563511, 0.2203125966005084, -0.2828860114651065, -1.027411434606245, 0.017913652442768824, -5.129445074998872, -0.01107573913694246, 0.2845324930731043, 0.6957351829690473, 0.18146698821121848, 0.14585243818344065, 0.4757056924565599, -0.15147024407834234, -0.5276671639986961, -0.21148311413924756, -0.5585451274144669], [-0.14232923242345533, 0.2058914434587656, -0.15317091609156885, 0.0889361873643692, 0.33955481456860087, 0.06564312256767556, 0.29989166126163064, 0.35232987257040044, -0.7314756022395711, -1.0778857703696358, -0.01806782791734671, -0.39704024804454613, -0.006530751963377523, 0.3779332502774302, 0.4218323464660699, -0.022107478999275582, -0.1448446399796197, 0.250318077282207, 0.5003565881142237, -0.38462276477619517, 0.12453227770763678, -0.41861478328796053, -0.4573461118982305, -0.4983070653571704, 0.05261568685564315, -0.6756736721268203, 0.512961560551073, 0.09603244836134074, -0.38360183220820476, -1.6668362077269694, -0.15537539230321423, 1.45089267406417, 0.48133875979125335, -0.5691271533185279, 0.9068955385465173, -0.5922525337117365, 1.2793389327579714, -0.23577802023593564, 0.48508077711339814, -1.1439800709843713, 1.0765098427151556, -0.15349760487543457, -0.08617267055554713, 0.35014596280854204, -0.5125259385723075, 0.35530794322416925, 0.1353104986039083, 0.05120360886654106, -1.7386211157835505, -0.49946812040176186], [-0.019310432815733247, 0.020872571791270708, -0.21234009668144221, -0.12670944450115762, -0.3195951049064355, 0.10123929225947613, -0.026374200904385046, -0.0645456761058854, -0.1391628232711489, 0.5520817516761621, 0.095233280114891, -0.03520262097085973, 0.08664870119889334, 0.13230109329964598, -0.05029380295427437, -0.0597422749462758, 0.06502638482769421, 0.19483767540322025, -0.16102068182690407, 0.1944132806257294, 3.5172159584388414, 0.9987733925501597, 4.527104911287598, 0.09671645370651953, -0.006937026215326297, -0.07476768896459145, 0.5714587774638812, -0.07092950750362798, 0.12314373563458098, -0.35708878273365574, -0.023556262338503317, 0.0414171790543619, -0.3963579638361059, 0.3330894599399621, 0.1025018459022502, -0.2029967490167546, 0.31352569678277686, -0.1599859339114789, -0.010948323504091063, 1.573796645393932, -0.11611828194940028, -0.17110835673933758, 0.12279226719689892, -0.11354139388286749, -0.16362779240891606, -0.02108134061557964, 0.10993059426327181, 0.0948482740805263, 3.611906831120965, 0.7148118615061628], [-0.594886869446034, 0.0020034198370629964, -0.015563243762949071, -0.19623633650987893, -0.34459077478228933, 0.2861692418399041, 0.5568912933364203, 0.2515947500885963, 0.42053321875402844, 0.15989978548772207, 0.046381581340382144, 0.3755300501196125, -0.29196492000425867, -0.3461244894165578, 0.019575478461812505, -0.6559699145367053, -0.05671472136420183, -0.13714778076875406, 0.04262056715330601, 0.6890061172783465, -1.7106041907265523, -0.29072527453344715, -0.9774780945955366, -1.3619556691172516, -0.08866355135620911, 0.023643890897784424, -0.008363978405901027, 0.27220874432966957, 0.4003234082237385, 0.9696371194498888, -0.29975669477005756, 0.48016387730456833, 0.7378390830240699, -1.0550885822973743, 0.2639780867054277, 0.4780095549616732, 0.11538308359884476, -0.4232966568032266, -0.02080049924100858, -0.046040472609813546, 0.5114119476514509, 0.09924758036825132, 0.10205794132314693, -0.5812433715757803, 0.29364684310304523, 0.3273834232403034, -0.18439834710825456, -0.4931484562801007, -1.667632352127322, -0.28422461178108327], [-0.20080759590946493, 0.6669479517589382, -0.23774938617636776, -0.18379205039965033, -0.6605219679125489, 0.9130177493223058, 0.05351062591815306, -0.038258656725264094, -0.1788199130209663, -0.3343110150568777, 1.0151587974234686, -0.2098755239468858, -0.26683465557060704, -0.26598971409095207, -0.5122930650987029, -0.02563545884833541, -0.2715011741532688, 0.5504429193843526, 0.01806727803453609, 0.48959216553406926, 3.352201197464783, 0.4576932730220158, 0.5840247778271472, 0.26031225699982014, 0.08886560408476157, -0.4404018029929615, -0.03466829686942295, -0.29686838906935253, -0.2246557395408697, 0.12876463229410423, -0.13999998211856352, 0.4946067479698044, 0.3756625527939441, 0.31552129006203655, 0.06315472303156541, 0.34244368507687933, -0.28860679692109276, -0.45393903705585514, -0.380675622483392, -0.14014309627250246, 0.8626301716574242, -0.738333732582375, 0.2076785855895961, -0.3871775799807006, -0.5880456266404626, 0.031003905621043958, 0.6022907344187337, 0.037994843285328365, -2.1710166130102744, 0.04286106873528893], [-0.04086313441113128, 0.13546717507106773, 0.01214741909801131, -0.10771162880025083, 0.28199430454799806, -0.2229407331212755, -0.3219453312908697, 0.20661822032397836, -0.253508736495065, -0.5379682634509021, 0.19980608751412365, -0.1322542461925763, 0.09608493288965377, 0.3120521378019605, 0.057885847247394394, 0.12989510556767897, -0.13190825749331353, 0.2235980064178886, 0.25614998101082453, -0.26877427324799563, 2.903608464978231, -0.3941181904864202, -0.23733489454707543, -0.19293242634848592, 0.4997082644222042, 0.12141463701071918, -0.2567667685664054, -0.7402612282040978, -0.2832439404804658, 1.0396882562071412, -0.07260836182722231, -0.14918912347848823, 0.537753780267137, 0.23594213426952237, -0.09545503033748393, -0.41115667073726986, -0.5457581204096571, 0.4968875755230271, -0.5862921153670484, 0.705831628353364, -0.11062707940722598, 0.058753188661103295, 0.29742288889794916, 0.12031710930317176, -0.07248421572126078, 0.021746373600829424, 0.15443620258333524, -0.09260818076401435, 1.3805280439191647, -0.3025699067063379], [0.021981978501093107, -0.1938213990683064, 0.07336922345862378, -0.03979844191239522, -0.2065822538014011, -0.1672363441649743, 0.2933213464630423, 0.33197164344200036, 0.4628905117166534, 1.3090075014399056, -0.14567889638782577, -0.32723946633907874, -0.4970867062697253, 0.3245711323072239, -0.6423112457125515, -0.3459733837136404, -0.3272401847062456, 0.8780897098004167, -0.43556024444177954, -0.10898649214896933, 0.42123523307879857, 0.40801801974031776, 1.1383171639141862, -0.3344473161069503, 0.46324363438839405, 0.11246290801140128, 0.26610036955462746, 0.5287300792538328, -0.28308241759338687, 0.15653177293126647, -0.26069851937853183, -0.6013870342054723, -0.08953705220595633, -0.18410823333639412, 0.21407566533138933, 0.21167423057977564, 0.698528776208162, 0.024022705717079592, -0.4824888427792986, -0.35832495238695455, -0.906756264975087, 0.49331242121063656, -0.4799590914528793, -1.2997892666813218, 0.9199818605341376, -0.9477354233498614, -1.1413958460223173, 1.100082485688341, -0.49609977252338106, -0.3961807334425536], [-0.05046073595178318, -0.32958876525812764, 0.15959749606242898, 0.23417076361990277, -0.1503855704596357, -0.020573598213094787, 0.22147703483649175, 0.009736493921506807, 0.08715719858993687, 0.7438893226888521, -0.19957422402086308, 0.034577317664017476, -0.2928816956509516, -0.27667143855225446, -0.06224454048895119, 0.009714669771305796, -0.003953637162766968, -0.2394852173168391, 0.11406952843124128, 0.11364308216928824, -1.0723454147418723, 0.24481922889935195, -0.6618532970953326, 0.09368793343282317, -0.4085969872692611, 0.08612526662752674, -0.27208100987825423, 0.2982890290415124, 0.3012667427538687, 0.30820898116241074, -0.34961495244304924, 0.5696422420942069, -0.268056747727643, -0.671615792921383, 0.1225886492698924, -0.13162283596955687, 0.594514960478352, -0.11138376212631845, -0.33493338854038773, -1.4493682912659431, -1.2503136804317374, 0.28618789739024736, -0.049059584702506334, 0.05373995504506359, -0.28964586415503035, -0.15782248049093117, -0.14254365723211265, 0.628212362222317, -1.0857726216674095, 3.5896718098120535], [-0.0797660019350072, 0.049228645510071764, -0.343448621609882, 0.003941456201864791, -0.5285787548105809, 0.5662802568213526, -0.4659351746100523, -0.7080269553793285, 0.7776046494516828, -0.40126525462023543, 0.3902178985892305, 0.6321383652979732, -0.5246927385732074, 0.5792691214078884, -0.045093757350445685, 0.5645130206554564, -0.13274209854962596, 0.04817438121705029, -0.2738758190151786, -0.4150863534403971, -0.1927764400409145, 0.13566447321766414, -0.3095417116085229, 0.010993409087732383, 0.18419795209683937, 0.4619132063112687, -0.20212948487584528, -1.1041733119378745, 0.7092457373644316, -0.7706950235270661, 0.35454897045848505, 1.1020304212132261, 0.3526615338488104, 0.5913720159368947, 0.12007664540473315, -0.17747569792324758, -0.9681128638365141, 0.09270875675491064, -0.27262961189065493, -1.2948015445317502, -1.6091467258503118, -0.890948175084367, -0.3296345118511275, -1.111374574266418, -0.027056811928717634, 1.00526691252393, -0.38691445664559776, -0.7002512788842646, 0.06751466991984728, -0.09687710592272925], [-0.129062343181475, 0.1882792621003859, 0.5669506350370003, 0.2919971959507861, -0.2872140560267988, -0.03058956881495469, -0.07279338838725041, -0.08264464138881455, -0.14169671629837338, 0.02154749911077752, 0.2619904031165048, -0.06515337490431174, 0.5538783994299324, -1.0191061580582779, -0.26124628809901007, 0.03816685716510467, -0.12282083838745367, -0.09736952154080623, 0.3797136367552596, 0.2635033941585651, -0.6577865640334057, 0.566095917018449, 0.02162697102699726, -0.2790036960428843, -0.34038006101283014, -0.3668951206954689, -0.2891103447166315, 0.6712407444638144, 0.5289519944304303, 0.44258665461036284, -0.5196616354383408, 0.6210151501734137, -0.468079071801101, 0.01987955179147423, -0.20860476277119264, -0.44501377276327997, 0.3654340788987382, 0.10962943447368445, -0.434134554734086, 0.29221362307174714, -0.7065243143399281, -0.9135031921260512, -0.5386731472078192, 0.2831546438566363, 0.3094814359237101, -1.2187957353408883, -0.15624686747700725, 1.11345660001749, 1.1088517080541571, 0.4418291354587009]], [[1.4971320067746658, 0.6288087763233988, -1.094010362306696, 0.7652746520586209, -0.02811524734974763, -0.7549800634776832, 0.35825358613037533, -0.7873669299591678, 0.6212366367230009, 0.4827912169390888], [1.1192544541792717, 0.3767105792391267, -0.6913398150591393, 0.4381231747898682, -0.20512130416949528, -0.7272541752103984, 0.3720546848148431, -0.7895340756729359, 0.44617293095492805, 0.5367265418386722], [0.31434911047510156, 0.48472424770026173, -1.1322064834445151, 1.0789950952358742, -1.131748100855268, -1.5281280138379043, 0.6193690946510876, -1.1915609244791692, 0.717880325208748, 0.8927636612865094], [0.4247683830067152, 0.45421854522792243, -0.9027488145928884, 0.6963369456631776, -0.8697683508068526, -1.2275336642107364, 0.5699834851717469, -1.1961316109189448, 0.6540804437934362, 0.7562816796174964], [0.19046280069588833, 0.3973588134897025, -1.173882296168862, 1.0079749976364778, -0.9562307179964281, -1.3901785443372463, 0.651935060927186, -1.2925974255006616, 0.6972079495298106, 0.8707757248472223], [1.3099473696660429, 0.5956339266971387, -1.0297712588169292, 0.7230488560091253, -0.26500295551655173, -0.8584113852650949, 0.33374587561730923, -0.8384062584801665, 0.6334330554643325, 0.572795223314906], [0.25492047846544424, 0.44217687891024343, -1.1682502163346362, 1.0749421565936188, -1.0813618925759327, -1.4865040073790377, 0.6477181479531681, -1.2369655499267493, 0.7233887329308178, 0.8838831859735297], [0.43470510110012855, 0.5153924167412732, -0.910240859737679, 0.6975290426709232, -0.8743364524290342, -1.2464783426288266, 0.5469709845313513, -1.221491844705965, 0.6601897252582722, 0.8218175830845051], [1.5573015016894673, 0.6568547504944904, -1.1434470206148895, 0.7994200284558355, 0.02951056984513306, -0.7443693964814874, 0.3652388300075, -0.7722485468519644, 0.6357109398637427, 0.4393644316771311], [0.41434603477352594, 0.4250678474991034, -0.8837939152923511, 0.6304078438652432, -0.7874967678755176, -1.1573602320785454, 0.5718297961916811, -1.2144340801961722, 0.639446489360873, 0.7315545481129856]], [[-0.55272266442497, -0.41479711572594946, -0.8045390025917887, -0.6529392615242143, -0.7717663796191087, -0.5355434776190573, -0.8077976288959822, -0.6698286253525758, -0.5686921483128173, -0.6171761056448938], [-0.4722407771494871, -0.3612216812167314, -0.6848618327805844, -0.558339213106656, -0.6646362269810926, -0.4624615301199537, -0.6830108067345405, -0.5673578953880081, -0.49775465630141386, -0.5388360041760621], [-0.508740362723562, -0.39051783000265156, -0.7560198251889586, -0.610668098359215, -0.7296602034435817, -0.5100709512825277, -0.7549462166044403, -0.624330998903742, -0.5236958641955223, -0.5906658305686253], [-0.48214389341558234, -0.3845667808050874, -0.7022248184310279, -0.572019854206757, -0.69397859671985, -0.4682193321674854, -0.7072037005242335, -0.585581964556109, -0.4920776877922171, -0.5543229612370378], [-0.40055372790991944, -0.32537653255413207, -0.5752383908975391, -0.4833601162614244, -0.5685653838836514, -0.39220937176374177, -0.5791864995092318, -0.49953229017095946, -0.4050081803148314, -0.4661259252985693], [-0.5640779421026995, -0.4297955878514621, -0.8215208354993888, -0.6634977104225424, -0.7911349705361176, -0.5541772566288774, -0.8305691454808136, -0.6667387558322698, -0.5871399815756982, -0.6280829564199051], [-0.45500374161626683, -0.35785097524607135, -0.6775625628346721, -0.5587397789332691, -0.6610650726869938, -0.44634945366612283, -0.6717691962031465, -0.5688736479044552, -0.4667123967752703, -0.5366402268961754], [-0.5556380586719492, -0.418328732489119, -0.8077888361650013, -0.6483179942538916, -0.7676714265350797, -0.5382648116416878, -0.8039154972774446, -0.6668464876601587, -0.5629766612731276, -0.6122610138948889], [-0.46326545323793566, -0.3554780672111321, -0.6874136346193906, -0.5588739738044755, -0.661795389952776, -0.4487480391177127, -0.6865106012816428, -0.5701173250010266, -0.4743667178774362, -0.5447252713545923], [-0.3052076175119736, -0.2657577119640116, -0.4035985894100052, -0.34589192900090654, -0.40519157062350514, -0.28229795750741604, -0.40978820885700007, -0.360513141141885, -0.2904067535358769, -0.35446618880599323]], [[2.1113608703817253, 1.7894943120388147, 1.9754193115443324, 1.849122677519695, 1.4697856913462408, 2.157950550839715, 1.7614011680165076, 2.1075979695068088, 1.7831227475765516, 0.8749577341113168]]], "biases": [[[0.472022684860763], [0.02644453155723423], [5.917166838455425], [0.7039822754324384], [-0.5821078584570987], [4.010676877352777], [0.36513518291020725], [3.02063040303404], [-2.671514549386424], [2.3963627322262404]], [[0.18191683257212507], [-0.010401151351281588], [-0.4415204213206135], [-0.4310457244251263], [-0.46994603863667794], [0.10340982773539249], [-0.46856583099013444], [-0.4234702880242566], [0.1928858766313228], [-0.42595452761236335]], [[1.1373626348116557], [0.8047281652115168], [1.002106375336269], [0.8660657905865063], [0.4816680872626481], [1.1813988555195725], [0.7788811735182087], [1.1299609155868282], [0.7989374475618877], [-0.03236885468111853]], [[-4.671654276860535]]], "sizes": [50, 10, 10, 10, 1]}