{"weights": [[[-0.03813174325646762, 0.04291214820341198, 0.27530972253737596, 0.03930794298765051, -0.53851204336664, 0.4017596911114928, 0.13586790253562778, -0.0013949691943535775, 0.43619249018864514, -0.6206012653361107, 0.40346117860928776, -0.08642873097383859, 0.07339501637578733, -0.401910655140195, -0.5290128895572727, -0.2019888086628938, 0.17044022022160454, -0.2675062449375737, 0.3743344634373591, 0.299960108743564, 0.08100331951455425, 0.2435897358650512, -0.031784942151291594, 0.11418149349641281, -0.61221122178564, -0.19718383103998044, -0.9231842406011566, -0.3131379543557716, 0.40572857103097304, 1.1976470660436302, -0.004941574074813569, 0.10505592149293848, 0.3225063871108918, -0.34501809105301606, 1.1125925598893, 0.11393303361651311, -0.118914012578629, -1.0319087938365312, 0.05818356425395614, -4.9202923873807105, 0.015701227836233417, 0.10356947781093069, 0.5044823039119108, 0.23213556737434007, -0.07056974891166748, 0.5052209288939028, -0.10819257084755045, -0.3600409334339164, -0.5660186575245685, -0.5526558319743029], [-0.1563362720933227, -0.0622463113713776, -0.4786115378402584, 0.04647795888871511, 0.3070162672151497, -0.36985315677588504, 0.4036750034041935, -0.1714468994132337, -0.43826049981954884, -1.1185778641859176, 0.06849426425466158, -0.5397165741636493, 0.6858493632991197, 0.9380676510488554, 0.3307696577903766, 0.38630741113119105, -0.1434922478410367, -0.15026332937257603, -0.0009289645076459834, 0.05883709188599445, -0.055433480625920434, -0.7880304554426848, -0.1853036183099036, -1.190978335755708, -0.22332100037438227, -0.6980784000410295, -0.17607049108348136, 0.15037575545522724, 0.27565040289076875, -1.1350183496834174, 0.08585804843956898, 1.4392555360410642, 0.35945576474417634, -0.23034005493674584, 0.9903791764074423, 0.5892231752880264, 0.6195511271111966, -0.09299605809239608, 0.08634714866980928, -0.47120784518143793, 1.1997092372329634, -0.4104784657734937, 0.3340144765288213, 0.250599458214, -0.16409672229502326, 0.8115718913739206, -0.37872889142003235, -0.3359639288013532, -1.895288123699534, -0.6053947507848929], [-0.022224125346594455, -0.0017781657112004594, -0.23681856515700872, -0.20829685909508672, -0.46009933031363737, 0.2075923130894674, 0.12190507697829794, -0.09169806920682776, -0.047645110837623676, 0.5284342409328131, 0.1818905898615477, 0.0029025609675045654, 0.0948584055158461, 0.21462093972907256, -0.09547718925076892, -0.18680327775807307, 0.1209213967089783, 0.014322736088380323, -0.19899780608709733, 0.25622176454428075, 3.646402325360164, 0.5413767337868058, 4.775925228691881, 0.0667780210408595, 0.004639088938610728, -0.10519108537455703, 0.5602540686586567, -0.094110947850201, 0.020965147661770545, -0.3667706463963418, 0.07240571153962105, 0.0908575986740216, -0.23482769273853732, 0.237634530367378, 0.1704932943457165, -0.051598131896842675, 0.20422325765195734, -0.2925939692791484, 0.054277518828695526, 1.5617724564849926, -0.1324488051492218, -0.05084941797405745, -0.019104072777439907, -0.07291017957002899, -0.1442551032996162, 0.10144477389134388, 0.08548947349918048, -0.035855864300236254, 3.8200599371480544, 0.5488009099953548], [-0.4783945847633811, -0.04994026116958117, -0.01551781597502473, 0.015505142917745735, -0.42793231852521807, 0.34750364161974123, 0.6780588732679449, 0.3022384382351997, 0.3338141588708708, 0.14486372858642413, 0.1450338278961526, 0.273387923198369, -0.5838413199691054, -0.8281170036584377, -0.04912309936499913, -0.5232884598928292, 0.14231289393419666, -0.011907017562460806, 0.25854044459039427, 0.6512095157324918, -1.5837593552388547, 0.09157078134610071, -1.1377968352209444, -1.0841402723288895, -0.28077889144201323, 0.19241657338923518, -0.04420857407113556, 0.480692171133512, 0.24056809323222497, 0.36743281167938474, -0.35046487832069106, 0.6682374275568113, 0.999089743351026, -1.4461206790414531, 0.522857208576182, 0.037786184604942936, 0.19995386541600763, -0.37332392313285795, 0.14848455567517027, -0.7802964401970223, 1.5655189626511816, -0.03409483640003365, -0.5631841293158459, -0.5703844091780131, 0.10134506964687531, 0.5003506126883831, -0.24114994239301393, -0.4123635413578168, -2.0581461542535124, -0.6663964529842232], [0.13700113390368057, 0.5911188899806645, 0.09669844974681095, -0.24240349724485322, -0.23442010828529702, 0.20964850470898222, 0.002378485782753588, -0.11167992021938669, 0.01686685571453922, -0.23763321636424625, 0.795349795694358, -0.2669107348107351, -0.1828524999974648, -0.4736655458765813, -0.4828957588134764, -0.0553595216027328, -0.28789215275649693, 0.6928623826061818, 0.11208892414665983, 0.14620018409879845, 4.5952698053107355, 1.070170539388733, -0.7367175029488268, 0.1498578366716124, 0.3418698908852727, -0.4417078776826769, -0.19134682924883425, -0.26146860976330083, -0.1687647161305048, 0.04538555820257846, 0.3769372039310351, 0.3701777551875552, -0.0015353228239107072, 0.6772932599791729, 0.11920786602556636, 0.11609012348219336, -0.17648563107730214, -0.4509150760823089, -0.4555796483290105, -0.6058959522395279, 1.300985736585735, -0.9721454736206001, -0.06617349975091583, -0.5328105405183017, -0.18887502921798197, -0.1127144439449994, 0.18427740463541126, 0.15083536760275126, -2.0293635756374733, 0.16861861992498214], [-0.0387593097011848, 0.08450611195697054, 0.0651923541650263, 0.035536845078242035, 0.31925038315085097, -0.30627790983968617, -0.18247342483316253, 0.2982906100356786, -0.2460733190181138, -0.4653804824624302, 0.06231748302155239, -0.11333779051766531, 0.08691182659273901, 0.18671380702167698, 0.09978172265408576, 0.08910162209778287, -0.12277854041967584, 0.13282800887223575, 0.16530220144143715, -0.2469381281527295, 2.9966766726508114, -0.5924262106509286, 0.3140981825731541, -0.17711176430939773, 0.45146210478840104, 0.31281849892757, -0.3621171489649303, -0.5485437582912319, -0.3391271835748628, 0.8084978137638115, -0.11074551585936533, -0.08937491161641516, 0.6162618564891482, 0.24039757591271332, -0.1807535484920172, -0.5511561352521822, -0.4098088431760303, 0.5615150757432323, -0.6809388651856318, 0.32465903931573736, -0.08571625197745081, 0.1377102679101423, 0.12673543872325155, 0.1960000317820848, -0.13746372757597386, 0.023619375253630958, 0.21946435952802434, -0.08475980628832144, 2.163405862518617, -0.5170496047139617], [-0.09759388890978973, 0.08182219046430202, 0.2934600667233774, -0.04141006968678455, -0.40910719932477535, 0.11180440540580043, 0.2590896254717256, 0.14676762184593783, 0.4943344011032339, 1.2890918387152732, -0.11055200802270865, -0.19205694960784134, -0.5679541759913371, 0.18955725932641573, -0.8251002792537281, -0.43146664197210816, -0.4024580443845198, 0.7287733379846772, -0.18399456661040076, -0.07269939929692296, 0.1826579402222801, 0.688883871094492, 0.7088365283887265, -0.31225626951178825, 0.5585848080107304, 0.0029285807257539397, 0.17761110478161768, 0.36661921608045195, -0.08394759045296389, 0.2763799272237347, -0.26332492623435644, -0.04148469549792716, -0.20756428747470165, -0.243735631416111, 0.04142939236686212, 0.07483402206303515, 0.8356280216276873, -0.2408219491766944, -0.48244530420538184, -0.7350605322622152, -0.8801381228662485, 0.46072204653050824, -0.5513208918905548, -1.5390288614181602, 0.6960658655209575, -0.9033628852914853, -0.9216568577275501, 1.0891302278605763, 0.6161010958675769, -0.3249190994504231], [-0.08746845261028653, -0.2831431084406688, 0.07914216268859786, 0.19371010086947354, -0.40334271776666747, 0.1286398061842955, 0.23947852043376733, -0.01727717234293255, 0.11810659835974506, 0.8194414368288766, -0.20264553910061353, 0.056218085314580904, -0.26342147024529805, -0.2677216560391069, -0.030210967803609632, -0.017946575438670155, 0.02494985891327803, -0.30355398690404334, 0.143054271559087, 0.2225075919976661, -1.4893264639443506, 0.26304252593760474, -0.5729709982586718, -0.02500723653469222, -0.5494344341435232, 0.17121900526025854, -0.34862030125178983, 0.27824989831946273, 0.5144286117765765, 0.5213288352803802, -0.6654291502128372, 0.6594215025322216, -0.3532703345246272, -0.5676612013631455, 0.276501172499766, -0.21754976728782738, 0.8507783982984964, -0.3349057746187963, -0.32603201706381435, -1.564683405195142, -1.0641638992069309, 0.234591922594362, 0.07709360333801693, 0.1293643333246097, -0.3764458165172492, -0.14819050505748704, -0.0710233731559424, 0.6449600648962648, -0.4707442817781547, 3.3635335378127347], [-0.058664444197455375, -0.04751804564481973, 0.07666235467582228, -0.5266016621825336, -0.13016331041452664, 0.3736455912789467, -0.045583656639351426, -0.507799887373622, 0.6776675022777476, 0.1849871667999864, -0.035328920500231384, 0.7623959039203055, -0.4248586898068692, 0.4270769536306909, -0.25867288497041196, 0.24987527203924595, -0.6665017497418225, 0.2886670619606605, -0.4358338881207175, -0.11537000605844472, -0.7375057258184339, 0.16801927998658753, 0.23898644632366095, -0.1815670233654071, 0.714645086596619, 0.3222544013500603, -0.5271456685205063, -0.9492419224594509, 0.356001266414361, -0.7030630926012034, 0.9423854446862332, 1.147092914172067, 0.42698592384589873, 0.031091369093012727, 0.3149910587160345, -0.2657885155969898, -0.6767410941300508, 0.05774168201401347, -0.32838624557750784, -1.435662402494101, -1.8925765033087134, -0.754377287927084, -0.27809467261008186, -0.7624295553156294, 0.37342092213605704, 0.8052675817338945, -0.3001561135611618, -1.01009854837737, 0.15292024361254347, -0.252842929115931], [0.07079584331522676, 0.08455017207542835, 0.427847314174191, 0.47577205890596386, -0.29837024775496224, -0.1949590290007998, -0.053511831455487456, -0.06856119954121732, -0.1814550107552299, -0.02604452240945785, 0.3249603509794432, -0.24510061233670263, 0.46884172039826905, -1.1647010917992708, 0.1708915505327774, -0.148625385080872, 0.21459825959486445, -0.10517975001476948, 0.5181577228692597, 0.018655511428530835, -0.510661224597826, 0.014554828862715289, -0.2621489591389836, -0.2456050371838705, -0.39792258902745714, -0.31931235038487205, 0.0808736747855648, 0.5430674745606638, 0.39312696482111864, 0.6394506642769106, -0.48225361051441673, 0.23406063392130336, -0.40730758985822696, 0.28041645312294794, -0.5160200916857035, -0.44629599208113574, 0.3621251419193054, -0.07834312160891106, -0.20624196645182, 0.3303229950004725, -0.0005270157995143619, -0.6599512115615384, -0.5009399577652306, 0.11643861795287581, 0.4477408238429486, -1.103405639617348, -0.23059591789384182, 0.9055545868745677, 1.7289384966182473, 0.10323402499431242]], [[1.4208545107259996, 0.5814202964204227, -0.7315618409095815, 0.338888158963321, -0.2984145061059477, -0.8623193752593045, 0.28101664575783064, -0.7598800159004357, 0.7028026925995271, 0.5390570240335618], [1.3238526424195378, 0.4847489271828324, -0.6109913037282121, 0.21678655066322616, -0.23372816183055362, -0.7359134666115451, 0.26555203219902546, -0.7063655562951493, 0.5962530829299818, 0.5088835132349475], [0.8097814737111416, 0.32409757196179234, -0.9285665890167549, 1.1761956508951867, -1.1534576789993478, -1.5836743564455849, 0.6820183360074665, -0.961636891528466, 0.9218472954202158, 0.6391105210055636], [0.27655999667372727, 0.29208556253473666, -1.0646692954021548, 0.8750605161649324, -0.8040467957126781, -1.0947008115687393, 0.6749138884533938, -1.2546555173289875, 0.5991134481610119, 0.7640554368376499], [-0.04698781469512657, 0.25706420312888034, -1.453673920350958, 1.2609294664887944, -0.8829895023925353, -1.2017260249619757, 0.8261523463669129, -1.4206328158485089, 0.4847274393608978, 0.926237297859558], [1.3849495973996413, 0.570890013524803, -0.7507192773283777, 0.3973859425863011, -0.37985383184931454, -0.9310805725944866, 0.30778584156092886, -0.7609761383229009, 0.7325931575567166, 0.5668616903251454], [0.24370577312153158, 0.2984902308845655, -1.1914046180221547, 1.2280863166207932, -1.0435908264282814, -1.358631324244528, 0.7789153645510971, -1.2738703370950748, 0.6310959540685068, 0.814783055381308], [0.3076750889590218, 0.3719062463220731, -1.0565481399148313, 0.8848794821023306, -0.803199212392765, -1.1401188972368208, 0.6394393296613022, -1.2868342367330392, 0.6053437650179645, 0.8225998556321081], [1.391519310619076, 0.5725406667120118, -0.7209019716895367, 0.3468001895605758, -0.3163667728706557, -0.8782554937234012, 0.30174382348199097, -0.753887757879127, 0.7099197459040492, 0.5361235755072715], [0.20992714538116747, 0.2705169149858902, -1.1119221170186695, 0.8475219031322414, -0.7447199995788738, -1.0363296782919211, 0.682876219693514, -1.2877929772354388, 0.5798145164841016, 0.7708893630003933]], [[-0.547840619994677, -0.4803922036267416, -0.7255541796071932, -0.6308227767566977, -0.7707827061880296, -0.554127945375357, -0.7488897633237624, -0.648403825345038, -0.5438187823115663, -0.617846066730516], [-0.47958576460528146, -0.42032862083090194, -0.611808107649665, -0.5487570732445496, -0.6764166800897291, -0.4870386849573027, -0.6398716437184667, -0.5582395925023061, -0.48935619918348294, -0.5490856649199225], [-0.5088340495813111, -0.45296850314738013, -0.6775121582689506, -0.5937109359245988, -0.7344464335889126, -0.5310255667818944, -0.7020160346273588, -0.6080343880000151, -0.5057201340025477, -0.5955139995708251], [-0.4878896204785221, -0.4449579838986313, -0.6278100599474126, -0.5608428634841925, -0.7046862674462446, -0.49245864844320686, -0.6617445344029854, -0.5749555662857987, -0.48145243211142574, -0.5636484166802519], [-0.41853689208177886, -0.3796551561122538, -0.5127664370714392, -0.48308325886300707, -0.5877054102672257, -0.42197697025712877, -0.549512246885911, -0.49955229517661337, -0.4114144169704568, -0.4826018813459543], [-0.5587207435383471, -0.4975714441030062, -0.7444786112295172, -0.6405501723183296, -0.7888723973778464, -0.5730148060245771, -0.7708996656493952, -0.6446719841203004, -0.5610695405660985, -0.6280573384240952], [-0.4634659173241647, -0.4166358333367831, -0.6027668644003246, -0.549093005273953, -0.6728651326998452, -0.4716112311995563, -0.6281484867911998, -0.5597631185555857, -0.4599685648318371, -0.5470333801579442], [-0.5525411507957978, -0.4851628908457524, -0.7307661389228646, -0.6275725592437011, -0.7679700059064598, -0.5584927712623184, -0.7467809512958614, -0.6467683768580975, -0.5400016089333108, -0.6140435160777077], [-0.4699856665436319, -0.413986991823428, -0.6101418127565034, -0.5472741894512946, -0.671178191497872, -0.47264810263599255, -0.640155852970561, -0.5589720024950564, -0.4655982315185319, -0.5533620547698385], [-0.33824984934580604, -0.31430525552985084, -0.3782385120421241, -0.366437859076267, -0.4414290110086157, -0.320397113186277, -0.4125446418356015, -0.38131981023485484, -0.3177140808253161, -0.385215313333414]], [[2.145567356419423, 1.8590817562463586, 2.02651803284148, 1.917616754414666, 1.5625673998988447, 2.1884177849503956, 1.831962072486348, 2.14524187385437, 1.845289148868052, 1.02950975906589]]], "biases": [[[0.596678467395073], [0.00790454327683813], [5.88650735073634], [1.3822136510059688], [-0.051850552680095134], [4.216200917875591], [0.6016729686506965], [3.2226269473475146], [-2.781338571119456], [2.1083363029118907]], [[0.04867046922477718], [0.00011443993744923383], [-0.291620219829508], [-0.559258079225965], [-0.5918046208137155], [0.025936122497507763], [-0.545848669656787], [-0.5647961743730683], [0.02782721544482522], [-0.5723695713252853]], [[1.0571959305459813], [0.8063755069811687], [0.9622097576166305], [0.8607724917215691], [0.5314516630683088], [1.0868937371311036], [0.7864799063917339], [1.0523605266364806], [0.7961026376079067], [0.061708820282144625]], [[-4.903726547992519]]], "sizes": [50, 10, 10, 10, 1]}