{"weights": [[[-0.030130864504517085, -0.007505839019993801, -0.014773386196016135, -0.24251983894924545, -0.3671338396130568, 0.43713140008060025, 0.37665903049310173, 0.33110088858931164, 0.0971261887114683, -0.38288164918493794, 0.21484761509744266, 0.338232955242365, -0.36629016268562303, 0.0330975215075429, -0.025338484007815305, -0.18232430175428585, -0.24947319723168715, -0.45805109188693993, 0.1601053598926458, 0.2553564601730625, -0.741726456825001, -0.22022163011724227, -0.21395701989342153, -0.515014770629256, 0.25979428751224987, 0.2761111311421675, 0.3522214408359265, -0.5746393405661734, -0.19816237188602928, 0.0009661020995166439, 0.27787118466853783, 0.8112230251981983, 0.896193235556598, -0.7946729281225173, 0.29446380300016817, 0.28377837390070443, 0.4355933876775588, -0.6140429328081433, -0.2770217053537463, -1.64555994164078, 0.5087531535023252, 0.12135127592414835, 0.04586625834040207, -0.5434544416223872, -0.2098827430216953, 0.39285952326102697, -0.04367968580537023, -0.14913168989452766, -4.941363641947072, -0.6238037973371225], [-0.2702627461928477, 0.07887423308459962, 0.05068897862768676, 0.488831640250882, -0.1368194201490627, -0.6231151975374761, -0.2809226406826725, 0.07749228962537587, -1.0470424963527734, -0.694318529468868, -0.5671159888027756, -0.2963354090613865, 0.23248413130884277, 0.8110445031962698, 0.2665690187147192, 0.2655190607922741, 0.9675593776790578, -0.05348568470794994, 0.5305194525648057, 0.15914569207160167, -0.4826277930892808, -0.2985611142021821, -0.2660161432947517, -0.9237376676157815, -0.5516770993784723, -0.8638045886017126, 0.563104111294724, 0.9960075073905973, 0.15583562399582251, -1.7765455028721038, -0.2937192790458494, 1.5714581826857008, 0.20215896687246887, -0.005817303880436038, -0.46223177171077345, -0.4360426993227936, 1.068374294263703, 0.11237770896909192, 0.6755054086431925, -0.920543388942847, 0.044558989001997173, 0.40488792978753463, -0.4739274923156764, 1.1087355118831226, 0.12631795815983862, 0.5043777142024802, -0.3689460475209721, -0.34164472783892963, -0.7338436848153376, -0.16349446430714437], [0.24250674206033368, 0.06428696512887039, -0.3408423162027655, -0.18934285474791293, -0.2592109238045249, 0.18470640396854573, 0.13661472963890295, 0.029760326439293088, -0.1737062776085956, 0.3117038510351966, -0.06373096048060897, 0.05822884561815386, -0.03581401446812802, 0.15574176431871548, -0.08283405185094689, -0.15226296949262205, 0.32450462483478093, 0.14298098229782227, -0.2291694975236944, 0.03373645297886009, 2.2251595266498057, 0.29351959458128274, 4.694435108111231, 0.1400188505736731, -0.010622868775571774, -0.227044408282245, 0.6327421247231558, -0.26407587823958806, -0.15738420387432697, 0.014664425559744686, 0.21150287692079672, 0.14242528806569207, -0.48374111303548867, 0.07872452188935196, -0.027165651480849484, 0.20090551815986582, 0.09052881583362175, -0.3211480463542052, 0.22545770623623473, 1.063701367287454, -0.16654675391587942, 0.30742420440905927, 0.1859875325715946, -0.18324142359132506, -0.07702693557790569, 0.26532358207682527, 0.06827186568555532, -0.2703919422125723, 5.8676189606469755, 0.16803039848474088], [-0.5013976229009854, -0.04630920522926441, 0.07090180462647652, 0.1461860272837413, -0.7578263491828464, 0.3313719722864252, 0.1590352887533063, 0.015761174249109198, 0.4756238137364722, 0.41359229560572497, 0.20924998295606465, 0.08297984095992367, -0.21836305196217873, -0.5597774032233509, -0.0021839486974672556, -0.2973768819939554, -0.24287443490336966, 0.3791135529371061, 0.21021279623491598, 0.4676703355270303, 0.18975707544344256, -1.1117332469742038, 0.1706012413523372, -0.27949044499015885, -0.08029143038263456, 0.10452840385887212, 0.6166702626835076, 0.7912528876245439, 0.1280217198499688, 0.00558285251085406, 0.032193402247971896, -0.8501866783652616, 0.3641362367818862, 0.17528618595790227, 0.09718996336076896, 0.4565083017326803, -0.6659260906618022, -0.3993753683952961, -0.19299613774793728, 0.1448528340485998, 1.1100261546426813, -0.5215223446028932, -0.259965904882949, -0.6589504625710422, -0.6406285512828863, 1.5589560312381305, 0.01785689707154999, -0.9885533446629733, -1.0970837722820759, 0.35718723350443526], [0.19418252509824124, -0.14310155077063363, -0.06959988788418221, 0.1769599688619593, -0.2148872097922286, -0.10026424813268574, -0.018624206444646723, 0.23699558995386116, -0.048618216492488986, 1.2000555972267895, -0.29055758772995266, 0.027413747960333596, -0.2752365609625537, -0.25401192369440845, 0.040140814658708196, 0.09740369038151989, 0.009545446835400298, -0.1399053303675171, -0.16317640248061507, -0.00133762072987858, -1.3176014778796818, 0.20441917747719715, -0.5878757182804255, 0.11304885586020218, -0.20041430474120495, 0.04748476197640803, 0.5304702171799107, 0.5848805932133432, -0.14748405792626162, -0.06702340889106621, -0.17284340058841682, 0.40580139522117237, -0.5499681866319701, -0.4465878055302638, -0.6100528764416603, -0.09012102808026029, 0.7662507604093765, 0.05504568560356772, -0.37322370323530724, -1.0486829338756036, -0.5418476579666699, 0.054142862314947304, -0.16548543718332437, -0.19035032072177588, -0.3433281249870202, -0.1845514223944771, 0.014158501754134271, 0.5603796708230445, 1.2364501955225617, 2.3779423595091917], [0.09470436920969977, 0.37912203482314316, 0.15835968841225376, 0.06873279577754107, 0.2657581941498803, -0.38162059904939366, -0.2955748214549857, 0.04389669786445865, -0.3383103547771533, -0.699631747302136, 0.04040149385492968, 0.043776868344857854, -0.017944778755101844, 0.38336647089452, -0.07293718990066507, 0.3377410053500869, -0.26794823998389183, 0.08840693556534686, 0.35964366915592877, -0.420998322124912, 2.540371926042649, -0.6578959118216219, 0.007678923856537121, -0.198104538497363, 0.6141625693216975, -0.2222275181825783, 0.10494359471904068, -0.7280965746259804, -0.3464226476639218, 0.6661909518282908, 0.25711828550007815, -0.11620203031193306, 0.6858292982758515, 0.007990543604967535, -0.5251288783474936, -0.5073026621534447, -0.46824656564806105, 0.7841368791916602, -0.44454824261626796, 0.8284946323307217, -0.25491382545559077, -0.15578041638075418, 0.09897194522993896, -0.0159694147681635, -0.3895085774143556, 0.054330449072220836, 0.22237357023085774, 0.15966181681530714, 0.4665733900341656, 0.34579599702169606], [-0.02204012307206764, 0.2061745589609341, 0.004644007458939321, 0.029396176029465954, 0.06860914212581548, -0.11416363503040945, -0.13856352154396587, 0.14261018785404667, 0.5860851625961817, 1.0937708340049364, -0.060535458066290904, 0.037330141260334855, -0.4176270742930389, -0.35793218338851596, -0.7101060629237091, -0.056420338303951864, -0.22980265005565678, 0.31074298395919037, -0.3904650284128651, 0.25526333492668174, -0.3724191226812596, 0.35009804534865363, 0.33041099440765953, -0.402793023743183, 0.30863397114350405, 0.27382913302921547, -0.10424895531467272, 0.5349760709819922, 0.2757689957721598, 0.09071664014846612, -0.14554791333122932, -0.22326916479007852, -0.3731854139357989, -0.38654906814622236, 0.2518216057299891, 0.24028615406494577, 0.8769731945617854, -0.022908973888483012, -0.5088821364115416, 0.007589234533368854, -0.2893951927316531, -0.12544342391630947, -0.25810985217835547, -0.9559387493423772, 1.0062154760277433, -1.2340430982160016, -0.6674583963126007, 0.857436589885339, -0.3349387574243178, -0.4715358235447212], [-0.20975968481156004, -0.09069600005819523, -0.039208880250262604, 0.09230755837503227, 0.31810521370865996, -0.33611567133763415, -0.42648811900007333, 0.03321223959051861, -0.4156414022449212, -0.11665368890200527, 0.6555563104868483, -0.3857056225435664, -0.11093607023592983, 0.2514098833133925, 0.39247927386995246, -0.061354628133005705, -0.22123821967416676, -0.015891743067100415, 0.3591947259526076, 0.3752664167937422, 4.063542306086467, 0.14510943387085715, -0.08343096451393962, 0.17212786517725237, -0.4145759453070968, 0.8622377033510221, -0.1970364998557973, 0.1130511016171714, 0.6477519499546939, -0.24961177999932246, -0.8704577764509898, -1.1470851687956312, 0.3009135788844711, 0.2485854174081603, 0.7226259162232508, -0.34304597460676334, 0.20414348770412896, 0.6107499355430357, -0.5538175895474375, 1.0720516999165304, 1.9313158400561476, -0.3695843278243327, 0.45914110617433995, 1.078725796840572, -0.5227706006458531, -0.2805727063174585, 0.19427113773092627, 0.6964139602635222, -0.5955863936004454, 0.31239353922151686], [0.09070732767349134, 0.1260401227057876, -0.012995660083129858, -0.08731693974183027, -0.3482232217487199, 0.5978731291834276, 0.5959288568125259, -0.15795782452614576, -0.2071810704579176, -0.3048961359212462, 1.3487981598436982, -0.31045522664112224, -0.1638260852092162, -0.4839446479213505, -0.46164408390602607, -0.49426389902188766, 0.3569750694066175, 0.4035843994724321, 0.15343646451049833, -0.44345430144101344, -0.14411524790993133, 0.25104097683899307, 0.02505033502308081, -0.23193695979157322, -0.3066989938926781, -0.28315826743389644, 0.3261968063786217, -0.17097086592962496, -0.018739869788053913, 0.7581638919356068, -0.22881903566441927, 0.3139131140139923, 0.3385134827476903, -0.3419525442553515, 0.4035752926279421, -0.5362541924916427, -0.9419789792620272, 0.4359190614981763, -0.28666598943905425, -4.132072748191314, -0.3123138097824809, -0.09517945670508393, 0.6497490660128917, 0.5257170941612, 0.2800522110803084, 0.9261610069195049, -0.6027346562570932, -0.7562559016261121, -0.7819485767386497, -0.31473271272158393], [0.5957816060404346, -0.1694346973776834, 0.10195957551513579, 0.5065685135016974, 0.2593696732276057, -1.1203741489357524, -0.5983272138250804, 0.2636125984171076, -0.054826655632534506, -0.17589223551081296, -0.7984233563266266, 0.1522030399699238, 0.3568616676954025, 0.4897056112455747, 0.5715236021175731, 0.40017035157365716, -0.03978613424184698, -0.5429078028505928, -0.10928256248506132, -0.386171650857848, -1.462192489332059, -0.8999481409818888, -0.9258005586482398, 0.42688549115725566, -0.26956581656274253, 0.4932375933046213, 0.010226314673202301, -0.680251740922174, 0.5301094458518142, 0.09642442604922331, 0.1416881887273663, -0.8914098909777912, -0.2922813551310523, 0.23573652056432454, -0.04555688336327172, -0.630760382667998, 0.42376815782198785, 0.5838744364909004, -0.05800684794164816, -0.02123633709310589, -0.31177387129116163, 0.091847963146623, -0.38621891418729754, 0.16652958220163333, 0.11195772884151439, -0.7501699501332829, -0.028643550414967352, 0.7038375650238156, 1.774470181223211, 0.2291815390162197]], [[0.6880134351711258, 0.2404591392879424, -0.8601735956893356, 0.4412685322924992, -0.7599557086309394, -0.8543743136698377, 0.3361589393360656, -0.6492277336133528, 1.112397455618563, 0.5638863998201065], [0.6015623564127923, 0.0793010965404791, -0.659281469227422, 0.3953312400408172, -0.6078520685327446, -0.7402797648216156, 0.3584147789461452, -0.5657944928861093, 1.1204866344980504, 0.5145068858034927], [1.0503849157568457, 0.9630619508596052, -1.6649413148065382, 0.6682882157196001, -1.1938032632291318, -1.2883465900585107, 0.4664706167564319, -0.9652075877867876, 0.39565982764333474, 0.790460080259696], [0.5578239369791087, 0.5247520912125948, -1.2996228251904822, 0.5808573945924845, -1.1217814771179868, -1.1731749938036113, 0.7013397420728593, -0.9755743949741708, 0.17556696600814664, 0.6558986306966642], [0.6728075045045263, 0.5477906458105565, -1.6931117501919728, 0.7856868207786258, -1.2278756795048849, -1.3660192819796673, 0.981618785375835, -0.9271862815949726, -0.1732442401117243, 0.7782793824800952], [0.6126125747615249, 0.45449101543894055, -0.9504718088076951, 0.36057546710789196, -0.922946893342761, -0.9545673609506053, 0.3137978770034697, -0.8526448003253011, 0.7673506941305344, 0.5716755138511652], [0.8219934776519994, 0.7513260641294652, -1.6474586986411386, 0.715007011468422, -1.2397284475151518, -1.3610787509016056, 0.7715045040222512, -0.9920972713538281, 0.07668690849880405, 0.7884952702116274], [0.6579922352983302, 0.6449146999243272, -1.3121371023315065, 0.551595851480461, -1.125223115333026, -1.1903625226946373, 0.5899883140222153, -1.0119559275282926, 0.32722633980667964, 0.6854618720251413], [0.6906771462601744, 0.17460658960318054, -0.8132444276382279, 0.46764480106583023, -0.7030123816813337, -0.8240407686257091, 0.37169887436228033, -0.5945656577566862, 1.1657010297934702, 0.551758818364539], [0.5290880646891772, 0.5367631753658013, -1.1702035351548714, 0.5263224786637917, -1.0774288715999405, -1.1189130980273534, 0.5860077386278092, -1.0103855068391097, 0.3564586061568977, 0.6238611457903793]], [[-0.5917117661604933, -0.5248850683464641, -0.8246974985096659, -0.7202346732987718, -0.8430029362743514, -0.600193633976451, -0.8388677178243608, -0.7354675671525998, -0.5839430511679794, -0.6818058056870516], [-0.5156866813208826, -0.45755030320538564, -0.691580397729854, -0.6178787181092268, -0.7292517054875407, -0.5274022095882815, -0.706492948403693, -0.6198773764495954, -0.52354147440641, -0.5916523966418623], [-0.5548294648379277, -0.49894322969428173, -0.7754817553567983, -0.6792375018068945, -0.8032986586800668, -0.5803577435050733, -0.7878450773036617, -0.6892068310267836, -0.5483572183100738, -0.6542656000229774], [-0.5286745357512425, -0.48639549131509696, -0.7151201073194879, -0.6364247255025098, -0.7636796041147313, -0.5373494222377212, -0.7358060465245876, -0.6440316062463265, -0.5198290659903907, -0.6123028867415641], [-0.4563951780794594, -0.4165032345426872, -0.5930794507097008, -0.5496724572671006, -0.6442940218961304, -0.4659672585847966, -0.6161742588978631, -0.5566875794387411, -0.44794979233803384, -0.5225105931237336], [-0.5970804820670722, -0.5372760937305889, -0.8379490820071882, -0.7273114688867739, -0.8580290873933205, -0.6130477226801598, -0.8573313064901079, -0.7294674190488648, -0.5955543085419903, -0.6901062932230404], [-0.5069832165515855, -0.45972243980450495, -0.6935007421650784, -0.62576379133174, -0.7347954394839531, -0.5201179975575869, -0.7045637532053457, -0.6291840668840958, -0.5010770129620569, -0.596021884132954], [-0.593638123370111, -0.5272683082654308, -0.8262585385758529, -0.7143862571996472, -0.8374614428919445, -0.601697319188699, -0.8335347160878601, -0.7310278020209069, -0.5775671197646979, -0.6757290906941775], [-0.5120649184267805, -0.4558993252712974, -0.6987641782842844, -0.6225472645830606, -0.7311994306338262, -0.5195005301055704, -0.714626864089911, -0.627017215713696, -0.505271174945429, -0.6011168062744778], [-0.38151175976784274, -0.3543723102790721, -0.45948764631221406, -0.4341595628292595, -0.5105022726467286, -0.37038778667256794, -0.4847364112680212, -0.43922580721237, -0.36031596445142466, -0.43049497671576303]], [[2.1212214265552896, 1.8074990114367935, 2.002201053158923, 1.8772849652109538, 1.5581125017709692, 2.152891820302806, 1.80890123849746, 2.113859729838785, 1.8156433797005465, 1.1416857501007576]]], "biases": [[[-0.4773424624868742], [0.10961718472079346], [6.160652552115448], [2.4237249947926482], [3.5269818700113884], [3.8695186781678292], [0.4787547284194037], [3.8654117131101438], [-0.14081957958187538], [1.1830547787607013]], [[0.3982013803107613], [0.3740169561568068], [0.1883638040179747], [-0.015444098864145805], [-0.00926223754677602], [0.16077803606985638], [0.040752183589789326], [0.03525162952226455], [0.43098572309442135], [0.015537215850913985]], [[0.9844679975568786], [0.7001942749248906], [0.8812613327584694], [0.7633991490241131], [0.47672550717417495], [1.0100559389172155], [0.704519697538283], [0.9746785924165042], [0.7082648980668094], [0.1176590587964808]], [[-4.768554420031382]]], "sizes": [50, 10, 10, 10, 1]}