{"weights": [[[-0.26978926893446215, 0.269438773232659, -0.07383020075061547, -0.24373955098052175, -0.4831408677638415, 0.5385263018659316, 0.5795146511279992, 0.25724472299912576, 0.1496196906264482, -0.12449936357772878, 0.27632478691404927, 0.16781568964361704, -0.41497346679806374, -0.21133209019230997, 0.0793483089974846, -0.536435294380801, -0.10248984082413522, -0.1935679697637848, 0.14248994066092358, 0.31840328232989756, -1.6251501386891907, -0.10788503449219976, -0.8174496821363338, -0.7698877323578113, 0.3409171982716931, 0.01691499213378329, 0.5418846287818672, -0.3281342237976786, -0.0957682810196121, 0.27292932570573164, 0.17717305131074496, 1.0128948934634985, 1.0202133969165659, -1.1147055486611028, 0.10290910181858176, 0.3987066647593448, -0.039410446944340434, -0.6046408823065194, -0.20818895899066597, -1.0155945821248848, 1.3519260065236074, -0.011150200106249014, -0.31643501149917935, -0.3979234821113143, -0.04247585557099939, 0.29448394429187624, -0.2571475135412133, -0.025311445123758016, -4.295957970093321, -0.5385116317297866], [-0.6951482904619519, -0.21860073089632365, -0.07344807400048806, 0.8186599633278164, 0.07214953589865096, -0.1133425424784697, -0.7710377195504645, 0.052955953961634356, -1.2405206564046887, -0.2959832874569931, -0.8713468542633941, 0.5156669891094496, 0.36798828750416396, 0.6425555108569263, 0.28242944518211033, 0.2761975898594731, 0.7693135320509774, -0.1662136659135102, 0.2371419435640426, 0.5621678166469929, -0.20754805246207508, -0.809472845788249, 0.013686938757050527, -1.0484111800245102, -0.48275469105949226, -0.7941999910961443, 0.4827213854050001, 0.8041640277372976, 0.1374037005249257, -1.3449405284185967, -0.5784845100384968, 0.6473213207433621, 0.41905829459501587, 0.122463809245941, 0.07733617416692795, -0.5286147569558229, 1.1241656097697437, 0.758324640745262, 0.16457100801907892, -0.38717575114894504, -0.044094363057764, 0.02314272760614723, -0.37973846920583815, 1.4515437618239646, -0.31086451204201115, 0.8591015901735672, -0.2949844625094829, -0.31235783666192024, -1.3251151822593417, -0.30346241412451547], [0.09141450705854903, 0.0908998909985991, -0.4081814400797836, -0.27240780564355244, -0.15596341116333015, 0.11776732132703654, -0.10265450946872946, 0.060878699309681476, -0.1801687269475447, 0.25460708208141597, 0.028563350865789993, -0.09580344287604238, 0.10179644663858063, 0.4945601008061213, 0.04817073404973394, -0.18915515105964245, 0.14735663362452714, 0.302329437589737, -0.11315138063169712, -0.09140922733619974, 2.8778324550281544, 0.5052457890815215, 4.838302095668378, 0.30869973831808395, -0.23892548044339165, -0.26076645505257295, 0.18107029890611356, -0.3223147062286509, 0.2507885315166405, -0.2616560427997241, 0.010579226634232369, 0.004674836403791752, -0.49351167803376494, -0.05336901922465376, 0.38233140230166357, 0.04944229633855912, 0.15045291366118357, 0.03272775910976237, 0.3871897245895631, 1.8963045222111357, -0.056561793404230024, 0.026812704074447597, 0.032046100458251126, -0.22618803044221417, -0.030589233066487875, 0.08425467302169092, -0.027214773101351796, -0.03579231246864131, 4.947217358856852, 0.4151345496153771], [-0.2458253875683919, -0.5465212604105549, 0.5374036487670119, 0.4983785845221286, -0.382309536502379, -0.3720937472552577, 0.14458446506030884, 0.07212694393108596, 0.35360390982262907, 0.723235155570102, 0.39856324303567103, 0.033665704988918715, -0.3877678336312438, -0.7131423445823157, 0.2632476754457884, 0.11231641377276091, -0.2872390466962286, 0.21421975109293345, -0.31955505631751513, 0.10441264967969179, 0.06974912825559611, -1.636333419173954, -0.2872633646214767, -0.5138816791207045, -0.007471882713025058, 0.41444512696886043, 0.2829814569316427, 0.408561154886701, 0.29962971215828627, 0.26267686300222093, 0.25140069540647875, -0.3480119851288043, 0.09511925799437344, -0.0015458336995918974, -0.33967708213957926, 0.3457304862505386, -0.4524318227848115, -0.3206157304310043, 0.0654697317186749, 0.020074345658404883, -0.12076059988935656, 0.1680300553801978, 0.07879401376474963, -0.38476111196436247, -0.008255820195109998, 1.1873416176774434, -0.2274058901735929, -1.0492645220520642, -1.2309046150621168, 0.39376513860206125], [0.0377003540198074, -0.09903852132674824, 0.17336344547877278, 0.2081976466570529, 0.03848758541950388, -0.2023914699207981, -0.07262795808449585, 0.08822820203991051, 0.22324649480931377, 1.1357284799805614, -0.1366659192970223, -0.0713309245205927, -0.3799887805518261, -0.48342089199569394, -0.1612995660309871, -0.08531102337284958, 0.06320907047877765, -0.09359490832520034, 0.02394206835099898, 0.04170075095791707, -1.509301678412617, 0.36845902260887176, -0.7265318440876595, -0.09754138663624644, 0.2049590161222804, -0.029687430633132825, 0.45537472267605433, 0.30576036083790953, -0.29830687380108517, 0.3382384260466137, 0.0892329684120009, -0.004087546698664398, -0.04192476310698782, -0.3166149533524349, -0.3346248451237783, -0.036416633408477346, 0.287892716838474, 0.00492090715810641, -0.5641239567861183, -1.7028462578691368, -0.543121685912654, 0.06514728131315296, -0.14110813303711933, -0.21089948579849455, -0.27113649083494723, -0.060967896865909824, -0.24123685089193148, 0.5869073370469825, 1.1905504013514407, 2.8413884756872045], [-0.1127263111089808, 0.38270384482483777, 0.23213572168293145, 0.03373068496771902, 0.28436600897546954, -0.03343427523619833, -0.5085362100787552, 0.04020888865889508, -0.5227193281598725, -0.6465903537424423, 0.32851034176803123, -0.15348503282066736, -0.1634811734259001, 0.3018623256968373, 0.2465634549969646, 0.2902092577332084, -0.1760463171739786, 0.06073425847661108, 0.36030594687021616, -0.41861348765530526, 3.083493676256977, -0.3470567723325524, -0.4269629990621326, -0.011400654798567134, 0.5606463155654621, 0.10735651633725977, 0.2613909528717982, -0.8422940059617549, -0.2970254668317835, 0.8742958589825437, -0.07998375672088691, -0.21370224245141123, 0.827187775685486, 0.6621858755688673, -0.7219027145853073, -0.39261452385273066, -0.5323138993061017, 0.3924957502615269, -0.9818469739571821, 0.6244413600749779, -0.5482293012844671, -0.15558304651800148, 0.09083961106523611, 0.622052008563229, -0.14383955440620255, -0.058563404759391896, 0.2526262023082834, -0.017956550878663664, 0.9267690399511327, 0.29641385237033563], [0.5370540785213778, -0.2620538034702665, -0.09514192922528139, -0.45900058271390265, 0.5979687848267212, -0.31238209073453255, 0.3644255125767374, 0.19988572940852717, 0.5781869624315565, 0.46679321743283547, 0.4829328976204282, -0.4145705668589439, -0.4569397714860108, -0.2862300055978425, -0.36284584739650744, -0.7993880612583212, -0.1778177558686022, 0.7852680822466885, -0.14116565070541887, -0.1332189432678735, 0.17759527500223848, -0.14484745244513902, 0.44546792391998086, -0.08750069983232732, 0.3981907388389989, 0.25435664769983996, -0.10279647377888575, 0.6375702688227131, -0.14334757537299794, 0.14696252995625328, 0.040991466115601435, -1.0365833452051214, 0.012821809026285946, -0.036289349904156075, 0.6308845343584552, 0.4065735475455073, -0.009621159361189536, 0.01718244298668706, -0.7048831704534867, 0.22316123887169534, -0.5238928326040981, -0.022839145421962897, -0.3394893919602297, -0.26695660732110077, 1.025986189216323, -0.9725438754935282, -0.7304435462559346, 0.612675707751427, -0.6059073581885377, -0.3579113912795902], [0.46046316886866495, 0.045446419751149165, -0.2583587077259721, 0.29535858403536525, 0.5758393770299738, -0.47564713240957757, 0.09543731500891747, 0.39473625786519184, -0.22677928172900538, -0.3419792057166309, 0.06365620622659851, -1.068224687449039, 0.3359671966824237, -0.25943780305651276, 0.24850197213281844, -0.21611243972290867, -0.04932629216236191, -0.17970076462626422, 0.2604114280924335, 0.26937785336668496, 2.5412215135978182, -0.21115295048079916, -0.5017269404894407, -0.11835801019855281, -0.1282842981169092, 0.42315079117184495, 0.23520645057509773, 0.5827827881142611, -0.16030596983726936, 0.2486997126412968, -0.8257525387176019, -1.2846551038246303, -0.1986875833481809, 0.628259734879087, 0.4393319755368547, 0.11920772024087639, 0.7869488039844382, -0.3940161578498563, -0.055520322138460254, 1.2546808588830636, 1.6119529364570424, 0.6984636165597615, 0.186516058627808, 0.24201602211448645, -0.3231628134944227, -0.5303364865126245, 0.31813910939788465, 0.6277913054298887, 0.5885264842445505, -0.20226661391775685], [0.08501280415391413, 0.9886404245103101, -0.22671936103155202, 0.15190639639852446, -0.6499499508017199, 1.1609100959075815, -0.42931310238607473, 0.14226421699201808, -0.0453796451101138, -1.20973446528259, 0.1988909472285657, -1.342063751646141, 0.13938008111802117, 0.02043028359348484, -0.1390073011456012, 0.08291932523711908, 0.17786407951675207, 0.09352391230831023, 0.9156699684473105, -0.20481516122841018, -0.25949515870550194, 1.1122456002419896, -0.08699809573579766, 0.4481476286992043, -0.15295413657051035, -0.2553382138729473, -0.20893547204328144, -0.5766231251263729, -0.30022390058731935, 0.6048103513569568, 0.07839092664042813, -0.19724427329809435, 0.5833860078471229, 0.2871280968888371, 0.9023245576868277, 0.07635112898952959, -0.47958182809299504, -1.0638016507018446, 0.12536353175665074, -3.7924003341042916, 0.009427345576532532, -0.228316971633834, 0.597842025129853, 0.13746010396628425, 0.2610280834123118, 0.40992281762756055, -0.012181811074227928, -0.730971701452418, -1.6903617188090925, -0.13462717148741954], [0.4578208159427606, -0.19386605576382637, 0.34673437664479373, 0.4713906427982126, 0.6512830377378312, -0.9945407209043526, -0.3316069312732933, 0.25996419130220677, 0.18314523133870547, -0.2443166689576971, -0.5187763901136767, -0.02091704108305241, 0.5710225404767308, 0.11608466988425528, 0.2901948217028251, 0.3112496466299316, -0.25015718487101757, -0.7903932282112518, -0.09529271616492337, -0.6304931643846295, -0.8698286567969078, -0.09504822130487886, -1.4340821076909982, -0.03203821648342358, -0.07737658868182079, 0.3010034523057261, 0.06346931636187139, -0.6557395385891344, 0.582837908597481, 0.23659757608895335, -0.46988966101879653, -0.5388394079468388, -0.14555759645769187, 0.6070482958110779, -0.3684562842419265, -0.6191495471088585, 0.7543038884533336, 0.3284821294771608, 0.12530840940940957, -0.23951176406224256, -0.4336000327252621, 0.6202365440889862, -0.4645993896793514, -0.6699866084132402, 0.18385045410887313, -0.7646486452860984, -0.2764961452551245, 0.8728358971977886, 1.2317644276867914, 0.409702110690961]], [[0.5958239152276149, 0.46955815096947606, -0.8693118703483702, 0.837669463891455, -0.8597038122099868, -0.8911423586556847, 0.6512133018776243, -0.7620061573502412, 1.2969285723042814, 0.3737343493068643], [0.33706823114319284, 0.2579706242890139, -0.643523105624352, 0.7014561227456781, -0.7007411617228269, -0.7497205646340269, 0.5566731365746886, -0.6572103946977345, 1.1761025287559317, 0.3653510564938037], [1.3876072286200956, 1.0380994994013193, -1.6336655010897525, 0.8538263015937254, -1.3014455463624641, -1.5848984120427396, 0.8152633759112354, -0.9317018756758062, 0.6606650691928222, 0.8948126345840218], [0.7479585820627337, 0.4696080106290512, -1.3766157611822107, 0.6246151811722255, -1.3501948345242611, -1.422681925586596, 0.913998859350341, -0.91870228665387, 0.16685109500844797, 0.8750119500043574], [0.9504961099158481, 0.5940309087027413, -1.6278559891329671, 0.6743863573363981, -1.4988418795796334, -1.6549263944358998, 1.099141484327601, -0.9212441803449397, -0.0302754000570019, 1.0234172661396417], [0.605939160930336, 0.45685966052165, -0.9834249145300386, 0.6702624281922894, -1.043413834446231, -1.0897060915288304, 0.6582349030313781, -0.8876168533341579, 0.7774851453179668, 0.6459680218562952], [1.126590323436549, 0.783418029073911, -1.5868512207774657, 0.712734054360112, -1.4403157517286924, -1.6609995336052914, 0.9761083998374704, -0.9527452908560803, 0.23836611739764602, 0.9999264749605522], [0.9575038014786305, 0.7179073183858591, -1.3029701038811823, 0.7413078641624316, -1.233146143388888, -1.3732487716785253, 0.7849050766878664, -0.98122582722131, 0.6459840191254179, 0.8158489168446015], [0.5482676602399963, 0.4283093985605877, -0.8181681583554531, 0.8499175255055347, -0.7904529483402055, -0.8367843308480418, 0.6489331720419237, -0.6974024036028269, 1.3639316235058532, 0.31122187158707965], [0.7226834019318837, 0.5448347671838718, -1.1249898358798942, 0.7150914124472526, -1.1577538514089736, -1.2416535278337522, 0.7507858438859005, -0.970182356688766, 0.6747336521514963, 0.7384318566783571]], [[-0.5871030351452444, -0.47854340335189766, -0.8717212945119317, -0.7526632131101035, -0.8772442995518462, -0.5888486087141257, -0.8770188904374211, -0.7481197877561415, -0.5754377332636484, -0.6666297702145757], [-0.48381920854276966, -0.40237866699657754, -0.6907960736799811, -0.6202849458963233, -0.7266191614726639, -0.49525996131398664, -0.703939011228061, -0.592528953369339, -0.49026941070247376, -0.546275229090564], [-0.5381078274665189, -0.4482055276332002, -0.8014249063593166, -0.6991568717914385, -0.8219971537499522, -0.5595601547263525, -0.8083118021224596, -0.6840944911813797, -0.5288325167317007, -0.6252291735135866], [-0.49786219988077435, -0.42986001009937796, -0.7169681653358051, -0.640523333942697, -0.7632393638246843, -0.5051864454554975, -0.7353859524723138, -0.6188745801686917, -0.4872026750891776, -0.5678870963404014], [-0.4239921463805827, -0.36769378591214, -0.586164824391986, -0.5489887073639328, -0.6373098550213422, -0.43618552945080974, -0.6089531665976885, -0.5248505935024246, -0.41450221538525683, -0.4760218106383629], [-0.5887406390933223, -0.4870648693343645, -0.8803101517043839, -0.7560841770568041, -0.8883006317931058, -0.5978586376840186, -0.89099567598304, -0.7383651756942573, -0.5833528483158564, -0.6715399175772846], [-0.4801939904292974, -0.4080439272845351, -0.7000748980919579, -0.6340973795612427, -0.7388722962073859, -0.49263482875822734, -0.7088754309212121, -0.6078099050787898, -0.4725039889066372, -0.5552447283084764], [-0.5855968545256631, -0.4788180646625927, -0.8683241573183735, -0.7433955178815127, -0.8678778985550349, -0.5872848025886771, -0.8673768082935366, -0.7394212320163084, -0.5657753885027568, -0.6571597168369023], [-0.4836511694803011, -0.4029096461514751, -0.7027988387326938, -0.6288227042834419, -0.7329372133191271, -0.49034642063918343, -0.7165076634856578, -0.603537070864962, -0.4751708514208679, -0.5586049290790637], [-0.34838052744237624, -0.3136012369910621, -0.4430149392904265, -0.4260991744618113, -0.4950958293179668, -0.3432684352553571, -0.4689641996825897, -0.40317483515030395, -0.32635904444386504, -0.38556337894229453]], [[1.9069111611752456, 1.5531652792207946, 1.7695756952048352, 1.618421916339007, 1.3252451695851166, 1.9245543249148718, 1.5710651706153924, 1.8919837425308283, 1.5714530349796658, 0.9239405018909743]]], "biases": [[[0.019996921806429566], [-0.9381349081965038], [6.298266034543261], [2.379707319139977], [3.7948159277532465], [4.07903042924224], [0.35692940670650736], [2.7777816857387303], [0.3041514362689978], [1.3953618491926032]], [[-0.043960071476610504], [-0.09172414706179066], [-0.20339053709968088], [-0.41372220898533946], [-0.40100180154765913], [-0.28176398286168447], [-0.3680519084634075], [-0.29279906583165904], [-0.015162244633690392], [-0.3096059219905146]], [[1.2336908356387644], [0.750487343959502], [1.0491181540893815], [0.8367585928341679], [0.4614203879560398], [1.2549069978955467], [0.775947937564752], [1.2098995467181968], [0.7734233073650296], [0.0360520528150932]], [[-4.575898729327161]]], "sizes": [50, 10, 10, 10, 1]}