{"weights": [[[-0.2896942920527883, -0.1683485852602517, -0.00780438499905949, 0.2462620283125856, -0.6392426171944858, 0.6386422844197032, 0.6476361037928281, -0.10261309070359072, 0.6184769625993299, -0.026481307461646206, 0.15006696340329437, 0.6327381379415976, -0.6310184909375023, -0.5481473034566933, -0.19574426685271706, -0.6446885118768982, -0.2464089610848146, 0.05199149360754547, 0.2327131835951003, 0.46100460073968974, 0.07851672478888336, -0.44933569789338523, -0.6071710226505989, -0.808681906965801, -0.10836737052121881, 0.17219362927560317, -0.1659512497083784, 0.27498661252266593, 0.3023143831355211, 0.13430689618154884, 0.054811185925172076, 0.9197623918731825, 0.8582395493068017, -0.9347977832592663, 0.1574871975729224, -0.017206425470168648, 0.09224553751855505, -0.5200241199863002, -0.05036647400697619, -1.1756152846103143, 1.1402095770140932, -0.011968017355632358, -0.09421461186874801, -0.8170698275162048, 0.04309413468884957, 0.8956960500477921, 0.06547744654562881, -1.070027384817473, -3.326186242654084, -0.6989093188835303], [-0.30583172701150596, 0.8307938697087871, 0.03475904934473611, 0.006342779720790666, -0.04338629366341088, -0.15668798888074045, -0.5401522537227266, -0.0321552644689583, -1.478219869195549, -0.7338274628583062, 0.7153639770044966, -0.31624753961367763, -0.029704239958088307, 0.17205610161153592, 0.12687338337301352, 0.38433029206026453, 0.10959615273700156, 0.053973119457425965, 0.8665782275504402, 0.4936179734381357, -0.6152870231884027, -0.08610393487233779, 0.3567246037934217, -0.27551840997970506, 0.40028757846707635, -0.4348752983586481, 0.19211503535247407, 1.1418682428157134, 0.1671677483299821, -0.8441068370800148, -0.4108219469335503, 0.7094351465448181, -0.186349203893483, -0.0019556286706455834, 0.6270283360556901, -0.30396441373457816, 0.003982287038310688, -0.41453849746309984, -0.2301540711206274, -1.8660218028746, -0.02228695300128832, 0.1811116703199643, -0.029403414905478212, 0.031298794354619894, -0.527299249948819, 0.15748016211575305, 0.17597940134257437, 0.2383194887517412, -2.321992321899035, 0.08141489963751762], [0.07412760172793817, -0.04535220458173057, -0.27614474366086456, -0.22240112312711602, -0.4191306820040988, 0.13859902220890324, 0.08228131337840325, -0.0018113599469834097, -0.17412633907292763, 0.3570978894536902, 0.12565534930842698, 0.031034244556222487, 0.03616137298611241, 0.16962196479462296, 0.06371250135691933, -0.1039095632323425, 0.27911654530537056, 0.1419452407873245, -0.1490240706503601, 0.08708173136875849, 2.3447675981849088, 1.4947361091588447, 4.037858938058936, 0.30886998344992417, -0.21775269019428067, -0.10687183725088435, 0.2386403012997174, -0.17893364306294487, 0.2121809341411737, -0.3717621246177155, -0.10406721448081498, 0.27750768654294916, -0.6595794985870281, 0.2459413992188333, 0.2384481390890211, 0.005483877113313093, 0.4100854013566828, -0.20410799780951536, 0.13427075331815433, 1.4635189402153408, -0.12010334479580775, -0.026633229206286628, 0.06386676045855927, -0.15125792902650417, -0.002982000267261319, 0.297178925410371, -0.00726333245480625, -0.3133784510036861, 5.083724037312188, 0.40960383058581035], [0.8538194419915495, -0.7754232877473461, 0.32171878576000273, -0.24419055172946041, 0.7510305781277927, -1.10285099252245, -0.26443433358808643, -0.07134658890653833, 0.9654917810733108, 0.15802065727768058, -0.49812584081708655, 0.6598826517795278, -0.11838121599128801, 0.05660972926334978, 0.6555873442984943, 0.6029108249644715, -0.36660106557626676, -0.6724158089732107, -0.26725849843569216, -1.3259697949907414, -0.30763746201559483, -0.4656006067344929, -1.8905236995097394, -0.4646665328721471, -0.03552300150770164, 0.7308381959797231, -0.18647486818498119, 0.8571228814009152, 0.7766417474798893, -0.8369751006636027, 0.21439473106707566, -0.5457357186599829, -0.5391797899619655, -0.27734936548805866, 0.20036822300672938, -0.5750440111350248, 0.04582278441368529, 0.7474155707824961, 0.3371725305341463, -0.4912201979598436, -1.599752432270407, 0.37175526474026976, 0.4564623089323952, 0.20717789527067326, 0.32540427752068946, -0.03569831085956434, -0.4345105063938415, 0.09993048398565448, 0.14780937610059508, 0.47229119056938296], [0.14285843257177155, -0.1654732642596871, 0.2639918532750769, 0.39644327403928914, -0.3265111107217647, -0.1507872028144673, -0.08221439346132296, 0.13753866572557996, 0.20891097673291267, 1.1643990657362557, -0.4759380871470069, 0.09835130247700294, -0.30754146190119075, -0.4117612575595717, -0.0923069815233503, 0.14771353435895254, 0.087884260732558, -0.19916594100283594, -0.15452798476753563, -0.07673905773391416, -1.5391607433597014, 0.37169254823515646, -0.6863627832165687, -0.04451483329946087, -0.10914117780291682, 0.05264676518195486, 0.34391845066787835, 0.5059133386630147, -0.3355622433406779, -0.12499209574118614, -0.04373822668076633, 0.5896976612369971, -0.13551024595273067, -0.18583938188340474, -0.9912827611410586, -0.10336234903223591, 0.30560210525350023, 0.28274289441724326, -0.412434789965362, -1.7567472921297176, -0.9367370853888374, -0.243635976859884, -0.1321855292791137, -0.4764768414437945, -0.19245612773340948, -0.20851273180441895, 0.19274836862537445, 0.2499611103872189, 1.8239626553140276, 2.2417548976141948], [0.17613425314053655, 0.04233165591909306, -0.1719936542167279, 0.005188307057721315, 0.06033500731446043, -0.18956207745978854, -0.31774841723044883, 0.19725408053827462, -0.3959598061619211, -0.658078920895832, 0.05325768225061171, 0.018905758260320933, 0.048640914999659786, 0.4922493744415355, 0.11154791746935824, 0.2539758498094495, -0.1454694524331992, 0.10020942472978957, 0.22764543445649654, -0.04246846309155915, 4.142878079200986, -0.21548455129784844, -0.22459897157937803, 0.3095806773875645, 0.2957846172428038, -0.03462558910296417, -0.26470238914724414, -0.6267225368945951, -0.5509026404798301, 0.3907401662025375, 0.045054889206128074, -0.00796296550956097, 0.5582156398323227, -0.1282064693330534, 0.0037521300840215824, -0.5058254347704325, -0.31247337319812213, 0.5431228988480888, -0.341501005866727, 0.7255482854230829, 0.08221928162057758, 0.016844793672171024, 0.1798568009675395, -0.05776158167376361, -0.11606033765928518, 0.01835478428038293, 0.47990564963364474, -0.34456384804999424, 2.2476029318192845, -0.5707400843512491], [-0.7979661881052915, 0.4108320573335913, 0.13748708947277846, 0.33248746107895627, 0.6567962717649345, 0.4045286219140938, 0.20799576904973377, 0.4400498124541594, 0.32897720427758304, 0.7413706996617336, -0.29669711466090015, -0.13554707984064482, -0.7725671116822523, -0.8231336918554021, -0.48997770115423284, -0.3551342541676264, 0.0752220925512592, 0.16170327793464825, -0.06754306507597278, 0.14433410095013782, -0.8974391324588898, -1.0686499120079074, 0.47882939471329933, 0.14808827521280968, -0.07175791500977631, -0.10228258102977283, -0.14302446419816622, -0.7101544477383529, 0.8463639960102886, -0.7575641986222436, -0.201974719376948, 0.4378907642098703, 0.23651092379002647, 0.47332376203635196, -0.5035060781364209, 1.1764287138270948, 0.796730688552429, -0.3170584064287231, -0.2644143451090986, -0.5959897916980016, -0.6623842200923546, -0.02737426207039422, -0.38228448984924174, -0.597712438898532, 0.5957359601071098, -0.5429641684663784, -0.551966739859348, 0.45283976667215037, -0.9623254961391023, -1.0683979367576313], [-0.19023276876864437, 0.16383546580188624, 0.4591373487383111, 0.24354864376359556, 0.7444015615109248, -0.027645472271721455, 0.03489565982011774, -0.4051399666572923, 0.12581357259341458, -0.09469939770030729, 0.36619821661763235, -0.31398137996558384, -0.24199206679045904, -0.744673182615789, 0.005363536478032321, -0.11063309104389707, -0.32166390575847253, 0.057630950301839505, 0.3373241859168333, -0.1478440883327091, 3.206064234795543, -0.6038362009810357, -0.20346605460920733, -0.16224750872597674, 0.47257724644078497, 0.1801684723345793, -0.24678565878650632, 0.2551283506952423, 0.5701147340370155, 0.13434406969526286, 0.4358696893342569, -0.743945167951916, 0.7246435090222985, -0.1341495378686529, 0.0961572588931356, 0.10478115941916506, -0.840165759664077, -0.5072323079052111, 0.11444336638467598, -0.46594972791218003, 0.59083633369016, -0.05617445756157013, 0.5088777666646966, 0.8546733070275212, -0.8162202462036178, -0.48726634627196713, 0.30417115466530703, 1.1323656883733824, 1.2519214528834302, 1.143872820254726], [-0.18153953678931925, 0.23657087716277025, -0.07050217916343843, -0.12252284417346862, -0.21743616649022218, 0.11067788480487711, 0.07975347824043444, 0.14884668850679658, 0.12805695739494496, -0.3803785417652142, -0.13685213168157087, -0.17521606665558495, 0.19802670378914666, -0.07795185611428514, -0.5878268308346539, 0.41001884591201077, 0.24817393480494718, 0.3692708681657333, -0.055438318798875424, 0.125837443014758, 0.25788997635302435, 0.3862734473557809, -0.3706836528249435, 0.33389097026844483, -0.4583554293005197, -0.026144611037619916, -0.5712807599964153, -0.9538106027210154, 0.14087980216467155, 1.0096190188113274, 0.3602638481330531, -0.2449963113250136, 0.7365467693963589, -0.4715769846199851, 0.6338855573925434, -0.1792333663350442, -0.14384875751239629, -0.48556552716222623, 0.11744074465512246, -4.214112678903167, 0.5427656648070537, -0.23066990681247332, 0.7839660028822201, -0.0027070708457448086, 0.1629156238264362, 0.05054581616582728, 0.13198354217459188, -0.369369542427277, -1.3889493118325622, -0.16858794068609642], [0.05505598045378843, -0.15993063396961849, 0.7322470915025533, 0.5738081338036757, -0.3405632106629401, -0.008422029376415924, 0.027590540655048262, -0.6822420944568659, 0.16549351563239698, -0.01419461906988962, 0.3873836728340929, -0.4991111641683484, 0.3494415557813495, -0.6636732767206756, 0.22257775317516756, -0.34453267244434543, 0.06714719006004706, -0.027299347915006676, 0.37673190294128317, -0.17091524243308195, -1.0965539742008144, -0.7992444423437997, 0.20861396718024014, -0.04435652107023621, 0.31398220579935726, -0.13474239267527766, 0.11524038254333917, -0.38457747132775005, 0.03629612590902594, 0.6371604316415419, -0.20304522549517204, 0.41435263519057164, -0.11575008737695751, 0.5344449987025331, -0.8242023093501537, -0.34963490025733607, -0.037638812618401706, -0.04196265961630449, -0.2827017482782833, -0.13002476023583875, -0.4453103632836879, -0.7506155591586341, -0.6067812248457326, 0.13589875474830945, 0.1427177785517871, -0.1214035212143407, -0.2965543135518628, 0.24152158424998044, 1.2512492214452584, 0.3387695870670474]], [[0.5641065415557893, 0.43699649637195725, -0.6446362108231348, 0.46002150490311394, -0.8224101050282093, -1.2012652063730582, 0.3810657521402259, -0.9656669535967944, 0.7828452323870484, 0.7726076777970244], [0.36655583593797264, 0.36990119354423895, -0.4763947083585299, 0.37669383916238225, -0.6184034842230568, -1.044019514774817, 0.3641448462045599, -0.8190617079044913, 0.8375899749556074, 0.734617495705719], [1.2719625106669554, 1.2755393293327941, -1.755012911372166, 1.1068422528534372, -1.3104735474551688, -1.4581281935331456, 0.24285923924361866, -0.7755425192111339, 1.6599999657828992, 0.6328565580582901], [0.9178646789186184, 0.2330662462848441, -1.2159218153172153, 0.27138409506787353, -1.0569921492264611, -1.5952589592814796, 0.8427973675357701, -1.1737434755464917, -0.030118993892747716, 0.7712824103773602], [1.1678605722752502, 0.28434775616774216, -1.4373788610863862, 0.2682087339421863, -1.1709049559145022, -1.7978549614230444, 1.044001073403648, -1.2260013186832426, -0.23637138016008152, 0.8559829615950281], [0.6155920070824996, 0.37718696835175375, -0.7856619900488435, 0.40785688796351727, -0.9083942763711386, -1.3027239787666653, 0.42175907958132364, -1.0370538053176401, 0.5641031238995368, 0.752696492237506], [1.399929267901035, 1.1488789455088586, -1.466980086255653, 1.0180611046483379, -1.318514961605346, -1.4442162273742807, 0.30341583621484497, -0.9761110806161287, 1.2322782104938426, 0.7597914380736474], [0.9103651517549092, 0.4203713458691073, -1.0627705937522736, 0.4687425444875753, -1.1228271992792072, -1.52704970101929, 0.5644013448133112, -1.1827745781995915, 0.3660020685437411, 0.8058161529391028], [0.5408507880493753, 0.48488233665922736, -0.5436999957340155, 0.4927667296324193, -0.7273421185441704, -1.1229932705899497, 0.40438806126528265, -0.8482593098840879, 0.9749587015973596, 0.8021035437537759], [0.797468002221777, 0.24942751552981354, -1.0660853517141926, 0.3502948491615754, -1.0100635807872964, -1.4968779353586266, 0.6797133893803805, -1.1822317919060803, 0.19590875957138082, 0.7246517825277864]], [[-0.5809539274607869, -0.4988264562614366, -0.9138995518526856, -0.7785339923696166, -0.9008029391812862, -0.6033299173659729, -0.8515619127303303, -0.7425502783509716, -0.5691990549979014, -0.7091491923935019], [-0.5138834861122152, -0.4484075560539908, -0.7332001096511116, -0.6671272127414654, -0.7706436171345192, -0.5353664622109877, -0.6833263914096773, -0.6194730661222906, -0.5188098529326371, -0.6158966908751874], [-0.5460119451760916, -0.479313737996835, -0.8380223401507249, -0.7304833506446338, -0.8496708504444316, -0.5832448757349968, -0.7790132965805336, -0.6890575341955866, -0.5362883340444745, -0.6772564065873848], [-0.5256998261957987, -0.4747578243784607, -0.7654986974126596, -0.6878648396285661, -0.808485210806578, -0.5447268988311329, -0.7186751220511234, -0.6449428702383809, -0.5137442791001309, -0.637458731239894], [-0.4564307745969749, -0.413806169446458, -0.6021098624863869, -0.5877850615383258, -0.6702166334703324, -0.47288893962734596, -0.5703323408872019, -0.5479742496602898, -0.44499966961374043, -0.5401393211266188], [-0.5863156562476499, -0.5096115003220391, -0.9368249626610079, -0.788704333843459, -0.9205812659209501, -0.6170355928315404, -0.8781911755601981, -0.7398968528904363, -0.5805261409083459, -0.7196968103352779], [-0.5029240703935883, -0.44949200357212443, -0.7268069030898584, -0.6704109900574303, -0.7700322410550323, -0.5250623325538433, -0.6736759454508802, -0.6235051523163324, -0.49414737321437113, -0.6160678791739645], [-0.5834695159950815, -0.5017687579616846, -0.9155167886560225, -0.7732066366678063, -0.8958834043496416, -0.6054705687538405, -0.8465371584573498, -0.738851612021839, -0.563344692131764, -0.7037115091643255], [-0.5081559827391519, -0.445681681365918, -0.7334598438448726, -0.6673867359260075, -0.7667369514000589, -0.5246957206750977, -0.684966073977175, -0.6218776094022554, -0.4985684140140728, -0.6214154570675541], [-0.37869309985118244, -0.3526115830490112, -0.4353141080110949, -0.45400500499079033, -0.5158162765382382, -0.3716829683248995, -0.42237192256808676, -0.42092347913199574, -0.3540682284318351, -0.4365477919755827]], [[1.9702968242681442, 1.6387597625177794, 1.8308047611270446, 1.7113978518077686, 1.3710719326469014, 2.011949057654532, 1.6247035941270247, 1.9650285741354392, 1.6315713358515982, 0.9350885932563006]]], "biases": [[[1.1994445006093448], [-1.1404048238441842], [6.7996374248392994], [0.004695000547171368], [3.4843285871119316], [4.517355788279877], [0.7634377870669181], [3.8179174820436295], [0.1052620171768896], [1.9131897021314226]], [[-0.13097608072844866], [-0.11436499287968196], [0.18093698300887187], [-0.13026999243788653], [-0.026736733153142022], [-0.19933905297051405], [0.11561126989434538], [-0.16155641436760362], [-0.04800007856504935], [-0.19076558714069028]], [[1.1101963743285217], [0.6968375371810502], [0.936702756946039], [0.783339607726765], [0.39549451175680883], [1.1613067715919214], [0.6815341188779299], [1.1001466324674458], [0.6867323790617526], [-0.011372128415273202]], [[-4.9827903125293656]]], "sizes": [50, 10, 10, 10, 1]}