{"weights": [[[-0.10223659917317562, 0.22487487366546788, 0.35692593999536826, 0.22541793844449043, 0.1733129421405601, -0.13035626802110142, -0.07723065928233515, -0.08221576457098607, 0.012740668362068008, -0.26841466734191727, -0.17470070304396568, -0.11053614465080186, 0.04167098184067422, -0.2684984578666629, 0.21726329589061613, 0.13817679980105238, -0.39433581609663065, -0.08471218632804652, 0.258082621102052, -0.0522223288218078, -2.168947379573245, -0.9661647311774161, -3.8673293499676085, 0.14386821298224686, 0.057621534625567176, 0.4168539475617784, -0.6231030546703042, 0.16235686210660302, -0.22065569788019065, -0.2584868403265235, -0.2254796017380215, -0.0018763535147140772, 0.8535977431016117, -0.10264977144417207, -0.12898213112970078, -0.4904017243217175, -0.10133053574648256, 0.3327774269804061, -0.2786381007872577, -1.0856230114371577, -0.0699742400245145, 0.11230323358814465, 0.08068588249544266, 0.2767432971609285, -0.13350271822595908, 0.10574294961326196, -0.06379864206625088, 0.0954693118293417, -3.5022674550523765, -0.8546653182940429], [-0.374335806403926, 0.013218322262235594, 0.3594339251706409, 0.4420544482227489, -0.11854815630675761, -0.12520955353466065, -0.19843205900328142, 0.17652349049264218, -0.7719305592469343, -0.5442533008324032, -0.09708623767261058, -0.663978653028905, -0.20142654215093575, 0.32718523487623646, 0.3814181516878084, 0.47285974735534797, 0.31979644243136335, -0.09698104740726715, 0.49241052727217216, 0.10950401853134814, -0.3984015124594715, -0.4438030646809519, 0.005670175615179281, -0.618921167544006, -0.10281454988168179, -0.6708122208164735, 0.2408873708331191, 0.6058950841538178, 0.13397237668470105, -1.3191924948950333, -0.7527627027520475, 0.9168637609622603, 0.5194409184646599, -0.34427332705433233, 0.02590558006429002, -0.18523795515407696, 1.2918676764862913, 0.11451487884764223, 0.35061962670179225, -1.1485782653534096, 0.22863606210360554, 0.3952436871317715, -1.1771187256932607, 0.9525995724352118, 0.3414286089513313, 0.29746060286509807, -0.04240236244850772, -0.6614839538150109, -1.5892947003240956, -0.06153826300865432], [0.05242654904133722, 0.18355773669299214, -0.27225184940193775, -0.31070080861583704, -0.29521705415119814, 0.28933401824763766, -0.1431494836334707, -0.32596828215831886, -0.4356505451713381, 0.4230698022972882, 0.08007501341016644, -0.33609362253883884, -0.2224841993429341, 0.30420258652602145, 0.48792824521663175, 0.1518559753959623, -0.05585145890548014, 0.24061174548334782, 0.292585753600985, 0.02642038727682263, 3.5682550523168852, 0.18623578382730815, -0.3723248775109976, 0.546772578591667, -0.2442222487369154, -0.4550077655699692, -0.19144713644415315, -0.5972282004988605, -0.1590665113909938, -0.5997368574231087, 0.3939100377819261, 0.15287361239896008, 0.735084176886466, -0.3063494076149205, 0.355196242840066, -0.30681991942283987, -0.37923628646118956, -0.009113260297817399, 0.7240922726711633, 0.7300952532644422, 0.3601046355276975, 0.4516257701275311, 0.33133851287845634, -0.0025195932830750023, -0.24036096610620605, 0.3555720102326835, 0.22497685659820205, -0.3363158210067746, 3.7139781171486885, -1.4899569713883427], [0.18690405649594957, 0.07842391414798426, -0.3864856164343041, -0.16692524101768058, -0.532604059490049, 0.7623298738022463, 0.11766383338561398, -0.0509177800573822, 0.03571472374276554, -0.18550080458057125, 0.36359687174388455, 0.14098997847523478, -0.16976592624930675, -0.06712379891897961, 0.048707608225399206, -0.7782624461881477, -0.08845279431674463, 0.2479180596820502, 0.31409852529398496, 0.3108135859909153, -0.37944416648877444, -0.6141843216104624, -0.7084062823671409, -0.010859644135068913, 0.1391167238695113, -0.2548808489930475, 0.35090658427673094, -0.1549817478593899, -0.19795705521569518, 0.066018677187033, 0.11171655939846276, 0.46822668347172197, 0.4268486629923373, -0.4436209459985826, 0.5114445496196637, 0.06942543007277227, -0.6684476022102935, -0.6637183626545023, 0.33794835709278337, -0.8283525942277455, 0.8218451776931721, 0.07661181668652646, -0.49313790365878096, -0.8133620567743893, -0.7652631035070189, 1.2035536365797077, 0.03868859878865927, -0.4888233498091405, -1.8063745512190834, -0.6331388589555337], [0.16920445602582362, -0.04470212712760034, -0.06470951385217391, 0.1410066903048461, -0.13882949819294246, 0.06700704629088094, 0.02260918686779773, 0.17723551894173536, -0.13453218749353224, 1.1090122542053706, -0.07752788923085524, -0.1077017610449987, -0.2764595118293174, -0.4187669973363552, 0.22806016501627854, 0.005021967360516816, 0.007116405614178612, -0.06113585333360654, -0.1298265697727748, -0.18895199893032322, -1.587330252104772, 0.4809853022378981, -0.7115240352049915, 0.10791544749232176, -0.35289365916779264, -0.16787502926249828, 0.37724483996612734, 0.563386895338466, -0.07449925669630378, 0.29698572997277894, -0.4533516393378262, 0.3455417936821861, -0.6741205185224632, -0.026938659198279865, -0.42504232804135583, -0.22910845426005574, 0.3693011014185951, 0.009917239470494053, -0.2234020269244201, -1.3931868621031098, -0.7239746654473104, 0.037576031578453906, -0.39803083543616136, -0.17237232250854825, -0.23806706322717605, -0.1244870424895733, -0.08875179141683093, 0.4750033229320326, 1.269471982607508, 2.233700554844553], [0.20131460538066573, 0.2692865226793699, 0.08104972812563671, 0.16650431066942536, 0.24964510355230113, -0.2713021227918568, -0.44668948527766994, 0.09202069471810326, -0.2642460767988978, -0.7901565704042472, 0.14597526984122774, 0.00997059054925206, 0.08818252067344215, 0.12245937033678224, -0.062245013832628926, 0.14239429131993675, -0.0678241860138891, 0.19368910478157497, 0.1878751021045119, -0.17931526571831446, 2.8050361267389583, -0.3849863979868689, -0.1810023393314561, 0.15271019008510797, 0.40587071531790647, 0.04435852146593483, 0.06087090975350225, -0.24499058569467044, -0.3835181479274029, 0.7606098816230036, -0.2809145171362827, -0.1663614482546382, 0.12152421278652548, 0.5583835962043836, -0.532854833518421, -0.4887967276882419, -0.2893659652868302, 0.38779156128419434, -0.7649420339847225, 0.19091105937356037, -0.2921334716286287, 0.10166926209501145, 0.1519522652480318, -0.06552885603161965, -0.38851199183665464, 0.1330003912723408, 0.4227893107268448, -0.11508572007117397, 1.7401294001421173, 0.31597415012492874], [0.02873803111719504, -0.2317628559371521, -0.10732711788769492, -0.434292204382292, 0.13262951812950582, 0.3963791213289188, 0.20727139556870133, -0.026047328642189282, 0.25423642406091107, 0.5851147517181393, 0.22247278193168843, -0.2861244155669577, -0.108019012292478, -0.33155424844239734, -0.4411712270592608, -0.3470843474940871, -0.3421445666792267, 0.31539160366209684, 0.49864950828822885, 0.20405767625719956, -1.0219736684166503, 0.28906983333728065, 0.4958013929080597, -0.9996473945055975, 0.5842463755179137, -0.30061495374908814, 0.4304360958015715, 0.11841099549065605, 0.12815857855367518, -0.08006052339520559, 0.0232833133180128, 0.17415311900512612, 0.17070517639553173, 0.3594006890365204, 0.3710593272752749, 0.12316867589828975, 0.42758175272563625, -0.1799366244301345, -0.4672427389676217, 0.29511513872139744, -0.11126088221212042, -0.5573722152461329, -0.3992005222899346, -0.5349622628671753, 0.7536030641802474, -1.1743878590108592, -0.9415678429230137, 1.329116842400757, -0.3575222712183539, -0.5526757150303724], [-0.1393307092098783, -0.022222699312811813, -0.2417155899645851, 0.40565716816610514, 0.46224400111149994, -0.21858384540850606, 0.0921171242273343, 0.21917114827627168, -0.6013439657318344, -0.3942743742146449, 0.20163039127702573, -1.1075789054205722, 0.27143401483140583, 0.32993614254813475, 0.3298047918771768, 0.03648818422742146, -0.24764209485057043, -0.1519140290380503, 0.4584721065983113, 0.2578969234557087, 1.8336451030057221, -0.4000322646160848, -0.23038516367247477, 0.18956480441349755, -0.1922683150296376, 0.5469276682919085, 0.2903045782347605, 0.06253170843982331, 0.03618353915825415, -0.15182071559019983, -0.2641363840949744, -0.9731910607806019, 0.059690297558740855, -0.5344509151186747, 0.7279325316202664, 0.053445288811930114, -0.0988533994362493, 0.09687850911600092, 0.44988955782382045, 1.0677785196137595, 1.2176440423177695, -0.24036047042277459, -0.4135640341641884, 1.4619598281137365, -0.5809825907941142, -0.33991860200671364, -0.1519123771343601, 1.1478581909978893, -0.42053455704495735, 0.8687879303932491], [-0.07473378083944435, 0.2688445648174491, -0.2437630334450011, 0.03519496824272055, -0.4265585310672383, 0.3479057383546641, 0.37512660864239294, 0.010143866377086088, -0.28574052977755, -0.09564259321388693, 0.6253455218485598, -0.5898801245824641, -0.2893602444845992, -0.23763394033362675, -0.14357495654060182, 0.27561649169391367, 0.406111786518153, 0.18023829796783786, 0.026958099904574127, -0.006892604931422145, 0.03224385276232523, 0.4513230343435872, -0.1608942611999801, 0.3877920185439076, -0.464707680667622, -0.07349096203075235, -0.22039625216204858, -0.4144241628122464, -0.37163697527439377, 0.7150782393378462, 0.29035556991573624, -0.0655984072967084, 0.8038620782562512, -0.24084051734443282, 0.44259678522378404, -0.14902402202620998, -0.6473205827366257, -0.7198260253468487, 0.21535058657717304, -3.865972740263151, 0.017965344035463675, 0.18702901415798598, 1.0683584254450704, 0.12657656945128792, 0.45095367870156927, 0.47391849456195084, -0.2972786511216707, -0.7425389408948379, -1.1590667608100773, -0.6958661175127413], [0.19364757900540291, -0.48283461595219784, -0.007715392314412068, 0.6188152365556293, 0.31539816450256575, -0.9724704941205999, -0.4716237529832429, 0.0018775879071741928, 0.05271373895221294, -0.15614512446373235, -0.5415494823524946, 0.004587769583125089, 0.5524083613685773, 0.3621060444527623, 0.6686693853086593, 0.21080231085330295, -0.09707952579773409, -0.3163679842699856, 0.06040224355289552, -0.1755261589538906, -0.828931688380015, -0.9550713984886197, -1.215840697663851, 0.1084189682041214, -0.2769610569310327, 0.004674554553636798, 0.6757916919645892, -0.22267038179941218, 0.03770099875576481, 0.3072629795567022, 0.30344446461997454, -0.9083964975274902, -0.5264155655207818, 0.2706850274998109, -0.19529569516164058, -0.453072046777169, -0.14904444300255276, 0.7468458686683482, 0.023579018854247843, -0.22627623765301702, -0.11710717915343372, 0.0791967198474769, -0.8419212370977052, 0.13503270847069707, 0.035927418925059004, -0.4633232451249492, -0.056962337331657856, 0.5043112399704814, 1.5863630589635733, 0.6295544244924768]], [[0.8838227120542719, 0.5338009183990093, -0.7974180327024311, 0.6830567562105161, -0.9051288586060995, -0.876147306933703, 0.33856886506584427, -0.6512664005785133, 1.0302223783255597, 0.4139367041157531], [0.7185344937865632, 0.4682286364980847, -0.5842732485827276, 0.5572560018360038, -0.7013714855610244, -0.6601014525595388, 0.292904196231942, -0.528860431425012, 1.135352488459327, 0.2749143224947358], [1.370159953394746, 0.7068032806267001, -1.4301724377875642, 1.0664220628025898, -1.3014910496407865, -1.602510358747858, 0.6963521308939221, -0.869145932873389, 0.5572162709684609, 0.8805523661859637], [1.0599300446284392, 0.5241602993439364, -1.1113043954117083, 0.8233065221490821, -1.1639948390665724, -1.2997767659528188, 0.5922192266254316, -0.8311925911521862, 0.588630637475151, 0.6801370832049592], [1.2853450213969233, 0.6158793992997775, -1.3372550013116957, 0.994349824937753, -1.2975202156214247, -1.5705699603907028, 0.7725334829719862, -0.8947834387643445, 0.4520286753562237, 0.8685798338764519], [0.906298790924316, 0.5088084943697945, -0.880440055076414, 0.6962136558429112, -0.9702289688448448, -0.9820549985127808, 0.37642393189573703, -0.6965074431136559, 0.8947597592937044, 0.4798900617405084], [1.3288313698568963, 0.6633565491918324, -1.3924690640485164, 1.0305765970592549, -1.3027508882919865, -1.5888919163511077, 0.7458685068141331, -0.8815132871273058, 0.49720354607743694, 0.8781569859440206], [1.116706931426236, 0.6008980618766934, -1.1947210388577854, 0.8791280829465467, -1.1815644360841024, -1.3446672733448166, 0.5799907213901694, -0.8420661904192035, 0.6498744557625257, 0.7186714247694598], [0.866906526344085, 0.5506394727307508, -0.7520923223440653, 0.6826460170247323, -0.8639372126533312, -0.8252301995973335, 0.332315199195876, -0.6071525581567941, 1.0829679558408694, 0.3642469862744132], [1.0086024115636936, 0.5514163478575428, -1.0746195594229115, 0.8085270045796078, -1.1202262478548268, -1.225441415613149, 0.521300723790747, -0.8115733746005752, 0.7030107879697209, 0.6284373551167344]], [[-0.5906415181320549, -0.5077748580278786, -0.8698953129746169, -0.7183199851848495, -0.8417310601853798, -0.6012959907712253, -0.8631471552167972, -0.7531482022452961, -0.5813189453055972, -0.6883351683932163], [-0.5357107025624187, -0.4698676974339767, -0.7367650545313846, -0.6161729485963956, -0.7190096070334819, -0.5451803023705477, -0.7265850052467107, -0.6384814316352968, -0.543295779068943, -0.6008622225437361], [-0.5608692106870219, -0.4938278881958115, -0.8151494397243633, -0.6731683972588387, -0.7925051363988959, -0.5862592492841328, -0.804607197379374, -0.7029140648715202, -0.5536975328226381, -0.658411268043402], [-0.5433510367056718, -0.4929616572514727, -0.7559275929054049, -0.6312072963995059, -0.7505661252306697, -0.5500803755078592, -0.7521695967629954, -0.6589680906811045, -0.5340510218426449, -0.6181319072340264], [-0.4823480849555265, -0.4390098079539682, -0.6307398823522353, -0.5435613787856568, -0.6247243068151876, -0.4872068849531867, -0.6276806724862792, -0.5700438377696561, -0.47392408373297834, -0.5281187032739025], [-0.5932540504455583, -0.5163277056812752, -0.8837220848554732, -0.7258197866899178, -0.8587071991840005, -0.6122939278565763, -0.8828535053501388, -0.7472609334375002, -0.5900658700182664, -0.6966273294940875], [-0.5245074634271504, -0.47086032035284286, -0.7313753058671143, -0.6185354596260477, -0.7171069387970701, -0.5345022951299035, -0.7170228323789958, -0.6420234337250534, -0.5185327384273671, -0.6004514507398406], [-0.5927811251012085, -0.5107383097113884, -0.8712242964782858, -0.7122395910999296, -0.8357661530992742, -0.6029969501645542, -0.8575401318938457, -0.7484229529527209, -0.5750437145194671, -0.6819741574260223], [-0.5288371652772509, -0.466169407245803, -0.7361014531525902, -0.6148343899545186, -0.7131500435415263, -0.5332119710993509, -0.7267581317717131, -0.6393658446882761, -0.5219085415032544, -0.6051060467176412], [-0.4096954397729764, -0.38047559998530944, -0.4940493969374248, -0.43040253682853685, -0.49393965589253297, -0.39337984074837845, -0.49587566140878653, -0.45174845514562645, -0.38819456326684787, -0.4364450135554125]], [[1.9539038219771856, 1.6543981738816729, 1.82761946160257, 1.7102718623285749, 1.395638183419513, 1.985339783522123, 1.6367046564547545, 1.9469647034366515, 1.6425854671534144, 0.9965820475482401]]], "biases": [[[-5.796038429126652], [-0.6413113525430969], [4.067853282276386], [1.2478535816516099], [3.246945096341988], [3.966071463889593], [1.8785910135697268], [2.9037462248534522], [0.6972542567871484], [1.5554452371243337]], [[-0.06139268412338771], [0.030713746830507115], [-0.28607040751227486], [-0.30436584835686403], [-0.3317396451364553], [-0.15422900676669382], [-0.31831460649285936], [-0.2840690856704307], [-0.025638351567041653], [-0.2657249370050411]], [[1.1523891087805704], [0.7370860845421595], [0.9768766472851551], [0.8093023212200792], [0.42538006233734477], [1.1944592787201853], [0.7162241789531508], [1.1382723006065325], [0.7209082920147069], [0.036245826141662496]], [[-4.984368234333104]]], "sizes": [50, 10, 10, 10, 1]}