{"weights": [[[-0.46903747063423656, 0.15353892758233653, 0.3384263017293122, -0.09676193173961592, -0.2652241844634234, 0.11572305333556102, 0.14615958202332854, -0.05545475991685884, 0.337136255033299, -0.05528119172184495, 0.15888251863498418, -0.1252556174553933, -0.028075567120213845, -0.1318655193602436, -0.10665531894850118, -0.12345815251076828, -0.05760586540084018, -0.19450267130463034, 0.35344645406561775, 0.10166498825198216, -1.0587646129114714, -0.7748453701525111, -0.22099871326922832, -0.8865419458004943, 0.3780155931453523, -0.24255756187739277, 0.477481740639624, -0.09681210573591571, -0.032361102287714105, 0.11203983404172584, -0.016208487293594503, 0.5507445603398993, 0.7692948465420287, -0.4694782754830506, -0.06692508476383881, 0.38213599916439395, 0.002720293944838374, -0.14594489316115092, -0.17859551480146887, -0.9913261973975944, 0.7591971718944248, -0.002328337556428609, -0.44209394170057803, -0.028527199588762448, -0.332609053758234, 0.8168481868089588, -0.4147195325591716, -0.1258970872001611, -4.206723924710098, -0.2693901261247877], [0.34358237035359557, 0.8608206981742217, -0.01176531852278478, 0.8597799371123287, 0.10407437097235042, -0.8514799983400204, -0.32231966131670914, -0.08098326132349364, -1.4478305811116392, -0.8930736955146956, -0.16820202300451104, -0.5961279601518984, 0.6196192546593012, 0.19535266047384559, 0.481757184201763, -0.22569712685187449, 0.14302551585089127, 0.2832113729840729, 0.4914597177529946, 0.32767477635135395, 0.24752360136028403, 0.5429372276445418, 1.3178847817592787, 0.2601953533316706, -0.453154814983749, -0.2589008142250927, -0.6678728385314482, -0.1810772157755189, -0.6099103711841167, -0.2546868513856503, -0.41305487084822995, 0.7448019252169462, 0.529654396868979, 0.570210928228619, -0.02539616877977684, -0.0698878699027369, 0.3686695815331713, -0.2901551592110262, 0.0915044880973366, -1.4565991569062713, 0.4062209096680482, 0.5514922040715521, -0.07396269354347548, 0.2898083622690756, 0.0787075647631727, 0.6958391763528212, -0.033850168071409815, -0.8099099449664496, -0.8483367804955608, -0.6313341375695396], [0.049727587733711616, -0.04294917753732761, -0.1634759634781853, -0.12300063933095787, -0.24003780434984562, 0.13315526862210805, 0.12628258621218616, -0.050277138470556905, 0.0005855142320122493, 0.414730192175169, -0.07716470099764194, 0.031514138005335306, -0.07280303714564752, 0.25843954417419024, 0.049889141306621615, -0.20952868661440846, 0.012250477562377899, 0.120267878807593, -0.28707343205511193, 0.1753840334279225, 2.9595460737703543, 0.5532099330623905, 4.626568701305021, 0.10843876235161636, 0.10899034513010729, -0.08804503500122254, 0.5771934470474764, -0.12976133644155755, -0.11461507791597782, -0.3088129503128729, 0.27386733350224607, 0.04668662758814201, -0.3174847923656965, -0.09422764566653705, -0.008374882022876068, 0.20966764337389782, 0.12482638593093547, -0.10608342881600738, 0.10926015082867352, 1.3105383337826886, -0.2801338269103845, 0.2236074352131671, 0.03991873096264869, -0.13818289241013593, -0.08902315515188755, 0.10739171885780971, 0.04553110042468945, -0.06536305716333558, 5.222296077398631, 0.25979122817128936], [-0.5976286212294039, 0.31955597953038367, 0.34967190067172477, 0.1357136573546721, -1.061655562776852, 0.43630688637773984, 0.22647109294855203, -0.08829364127798728, 0.07962517703803741, 0.13995130523269447, 0.7466060030128044, 0.19984629629774064, 0.5556052090770416, -1.134159962198995, -0.287162667365601, -0.11829039347250059, 0.03922585035704892, -0.09641401246544305, 0.11361544676501861, 0.4772939035332949, -2.417983291302011, -0.6913536983225625, -0.123612183690112, -0.8004815682663485, -0.4741985381307623, 0.06203069432365175, -0.3288066472259162, 0.36913454661574513, 0.24879825686487833, 0.752357875868902, -0.41478607907040743, 0.9260100590955348, 0.9300375706341454, -0.08248336386807842, -0.3406473928177309, -0.6082136138900311, -0.2741684894919265, 0.12886689017788755, -0.8427162005089288, -0.15917307928784988, -0.5809238318356753, -0.5075970788617151, -0.3861370462126904, 0.23787679888403365, 0.7154793485562755, -1.1647349771314726, -0.14932400937641602, 0.6237728139515902, -0.5159226845072008, -0.4132725830110169], [-0.14502887086206567, -0.13149433767755409, 0.4230113300786625, 0.22800920182813916, -0.08713947943153072, -0.0108426875284424, 0.038722612528448795, -0.015725063958699624, 0.10383686336844353, 0.8668122679034875, -0.2602735114092451, -0.0327214092584346, -0.17182055350167966, -0.3803662838356668, -0.0982659730068875, -0.03363725836051534, -0.017591438444565757, -0.12768199481292902, 0.03870372966870206, -0.01583441787449175, -0.7449209810168175, 0.2425425971365276, -0.6174696385056787, 0.17998424387400752, -0.02867380811249244, 0.19649753884089938, 0.3319437422297764, 0.3793174540850414, -0.15702035668656938, 0.670554889019528, -0.5683921798888064, 0.25895530751850354, -0.5051248784314548, 0.18896397428204503, -0.8162647787114924, -0.34270860443336093, 0.7973847586577838, -0.16081552495331497, -0.8548237940313558, -1.3810416776834955, -0.617291946584933, -0.0595412320159109, -0.4083975751942259, 0.22866888484930187, -0.42962305815567803, -0.07310504386197487, -0.29064401650527455, 0.8173785966037999, 1.9180994553083355, 2.9775768219863075], [-0.19566233615241288, 0.26790943420499863, 0.20776229482652214, -0.07971493535960315, 0.5145813230549413, -0.17690341881739358, -0.4072532199044961, -0.06690221115176417, -0.10809614102953906, -0.673960709562665, -0.030769119688582012, -0.0022399431499883285, 0.07668273446078565, 0.34275520272151516, -0.16526840878422652, 0.31896179948009074, -0.08930174687448401, 0.1931323790425881, 0.27760756257697533, -0.45207578887796823, 3.1114652110338232, -0.44059163454193895, 0.04303586078058725, -0.2955597836325137, 0.17140106830562862, -0.16745310049880852, -0.017885979105716484, -0.6782536737201158, -0.1970172374871997, 0.7561730594760709, 0.1664834265879521, -0.6555639986465557, 0.8852596613482955, 0.26817299431448144, -0.21629646009677048, -0.22822946034583028, -0.4315107172181596, 0.46719852945450163, -0.14251776246861786, 0.9191170632013057, -0.3236942406051506, -0.3299349816371374, 0.1682704522162571, 0.3000482548884117, -0.20670345199631093, 0.023877230684829838, 0.21914929094559116, -0.005646431534170817, 1.3933203674305938, -0.01310521680408109], [0.09718557751413275, -0.4019956178701352, 0.05420493561295532, -0.7179608814390808, 0.4330452211819371, 0.5594326894269481, 0.9805142752530182, -0.5189864399166576, 0.5131267269499639, 0.7884373478882587, 0.02452207554687603, 0.04709498087794926, -1.0733081910981308, 0.14621061887342468, -0.5692826468989357, -0.5472390353642606, -0.6190660854452785, 0.6516298628550502, -0.27551665747450055, 0.38016295823451, -0.5522712913129029, -0.19973700740265216, 0.5813540735174206, -0.5912922546753782, 0.8710996113731407, -0.0712689676715434, 1.0556200544715586, 0.5249607731558747, 0.06648254901677804, 0.1941673940956501, 0.12145191583733898, -0.93660844823433, -0.57089282155905, 0.04758280726403416, -0.10364179880154095, 0.895404385634901, 0.8293895719654594, -0.35983847162533644, -0.5761916543071209, -0.7251308058961993, -0.5847982934570747, 0.3157113916397307, -0.229747954987925, -0.9234929363557048, 0.8603333034441618, -0.7137110476967194, -0.32152797724130444, 0.13200236440552224, -0.6343141113869664, 0.14230822244017557], [-0.16452344796540702, 0.24457286798971342, 0.1484277165657971, -0.3755554834643313, 0.189048889619719, 0.05931791721896392, -0.08049011443980646, 0.4646105345199955, -0.8354877065206477, 0.1226588520313578, 0.657475071482439, -1.4110173778172836, 0.5730010821171517, -0.2416887094691797, 0.45310122233100797, 0.07496738348746061, -0.4788898579148007, -0.022961107576649646, 0.348645882126257, 0.46358111415351627, 2.3318795163003574, -0.16319380134125627, 0.267783520629062, 0.36623703537651225, 0.6363861995799999, -0.27337521049508623, 0.1774261138333468, -0.38211664759184494, -0.33436213274420584, 0.5506542914116039, -0.48668995791308645, -0.6683459888840477, 0.3691735681567535, 0.08069767341570139, -0.10438776614527602, 0.49386530160722675, -0.2573128742398987, -0.07376203290642375, -0.18944567419672867, 1.5543471975232623, 1.6727296937893266, 0.3094100165388015, 0.2129001672519361, 0.5406267266776741, -0.4911267854298643, -0.7506304935843697, 0.24988685281444212, 1.1135740639697564, 1.1771379088720688, -0.5539240504824937], [-0.28155819157129197, -0.22634282294186123, 0.1354728926677364, -0.4490541778021514, -0.03534578583139953, 1.1253379565058421, 0.11967429070577099, 0.9302856847638827, 0.1486434061770559, -0.8649258405734361, -0.21613639752795225, -0.889497538037121, 0.07006036071137788, -0.615586917749559, -0.022630680253805824, 0.15916854926356375, 0.8197829537960132, 0.4399030205678422, 0.0783538221182104, -0.3735984144854819, -0.18423425103232655, 0.32018380561671683, 0.7202913863933794, 0.1850743503404473, -0.053570366659602325, -0.15701280599079237, 0.13661684729008225, 0.04494952220079776, -0.9834176341232941, 0.2665136673847784, -0.02730430886049334, -0.49497506201737157, 0.6610135943352116, -0.25106986936249454, 0.7998813962066733, 0.2796839969204424, -0.4501020198487033, -0.32514324608184436, 0.06706244622137024, -3.8264863718238105, 0.5513898902467852, -0.6538360583886687, 1.1771941339065721, -0.022407852367821283, -0.02942669211159496, 0.6786695117693741, -0.0893302385378724, -0.6298237340532313, -0.972825009687626, -0.6317395050497494], [0.11925598946074055, -0.4749896326524406, 0.49735527441053157, 0.23303100972168192, 0.34790102524362326, -0.6353413921310623, -0.4561517320355085, -0.022431574140133664, 0.31277388021514796, 0.5667840846208233, -0.5199201840701005, 0.038059713647622666, 0.20480932656805922, 0.2725488272406136, 0.27899094312277795, 0.29966421589768905, -0.4909846074929975, -0.4843429181522713, -0.07304216135387258, -0.25873477626073144, 0.34423626344948643, -0.3336901493869309, -1.0793059403292562, 0.09776341400987092, 0.27617639398929617, 0.23500563390147414, -0.10439016610289596, -0.4337068045172239, 0.6730969029491853, 0.5094920723053472, 0.09430434555664448, -0.46950055503700805, -0.42842185768573005, 0.18508038885195702, -0.29394356322434323, -0.32429696068375485, 0.4215199875839038, 0.03185282433909774, -0.16666946737542118, 0.01070083229237874, -0.41849278413575686, 0.2828942396439545, -0.30609545718768155, 0.3692600387317096, 0.1546080512505811, -0.33182424168631103, -0.5691792402745784, 0.7107334378229334, 1.7801034041642572, 0.3286432699331717]], [[0.6356994859391076, 0.9299943155977943, -1.0509849912524374, 0.7467853568277705, -0.7030445828235378, -1.0081303669125956, 0.2446801289413346, -0.9742324807002919, 1.2463755753134627, 0.47142617275864235], [0.3589159108722306, 0.7672026776499841, -0.7775320617264949, 0.6554250358226054, -0.6032769823599076, -0.8788872265264657, 0.08795344287741827, -0.8189456668626315, 1.1949975709095968, 0.4235835484667135], [1.2294938938208704, 0.2780916115609649, -1.7949013455329623, 1.030894696567803, -1.608711264543648, -1.7261132203328808, 0.9188848053673004, -0.17114228215381735, -0.4667084706578645, 1.0650191966294233], [0.7967188010808167, 0.2406189086639263, -1.2490970224079678, 0.7041311002382002, -1.198010550739819, -1.4819146206714746, 0.705055669596222, -0.7559814757626735, 0.21134027664785282, 0.9278658015728087], [1.1260482522990625, 0.21370682343669506, -1.6678426100513886, 0.9296498146667188, -1.5536277072922557, -1.6890591059475697, 0.928132793967449, -0.27917110019478647, -0.35181094976782157, 1.0449815398150688], [0.6405824826282662, 0.6259870193297732, -1.0043450283442152, 0.6689276326879106, -0.7421168111415596, -1.1577281123952334, 0.2948542251830152, -1.1556739754505454, 0.9236085155163424, 0.7604476427655963], [1.2234549020370393, 0.24920850930285163, -1.7808989265288815, 1.0088266181142718, -1.620744016983791, -1.7157780902106978, 0.9461538419368053, -0.15546778828113356, -0.4784170125004556, 1.0666953219949435], [0.8676077499581385, 0.466897279454933, -1.2629448793278504, 0.7755002323554337, -1.087699703161101, -1.4401901328989495, 0.6177320009592151, -0.9353283030778662, 0.43629466518407495, 0.9831403409030849], [0.6387671587212782, 1.0528498243773898, -1.0085068192144597, 0.7941119367419648, -0.7433334364683573, -0.9401652748576623, 0.2944911955478674, -0.7624325906574354, 1.3740158540768113, 0.3414992132981087], [0.7061057135354333, 0.43083940354685507, -1.0685771491239815, 0.6713743541881371, -0.9429757833322887, -1.3353496920557806, 0.5228301175489021, -1.061492400609659, 0.6278157301095274, 0.9141211806188567]], [[-0.6502429226470666, -0.550363468085645, -0.9571744467957797, -0.7477748791330422, -0.9113276341360864, -0.6499955352782357, -0.9606858298684737, -0.7597562610846585, -0.6526026059573874, -0.6987147791447654], [-0.5519952760661829, -0.47117637064600115, -0.8142583238942113, -0.6397682015763274, -0.7828396285686682, -0.562401492956328, -0.8127472236148797, -0.6368667814163914, -0.5666340604868986, -0.6008189831916166], [-0.600411457105615, -0.5167278919817406, -0.8997100787176749, -0.7007902475643086, -0.86107014169409, -0.6206931089088884, -0.898951565920707, -0.7060337635023429, -0.6027563947557912, -0.6640745700135491], [-0.565287171655606, -0.49928996637166145, -0.8349811526935023, -0.6553928376938732, -0.8151736419408451, -0.571524116075881, -0.8401981760031336, -0.6578386234653043, -0.5638537486117029, -0.6189441136912437], [-0.47278613265737085, -0.4175696835002802, -0.6929263601419529, -0.5593946239871121, -0.6765537172874072, -0.48524366770983673, -0.697159570808397, -0.5603084817537282, -0.46875041358847264, -0.5197468730416367], [-0.6619461556168953, -0.5668829202296387, -0.9763654130642256, -0.7592205802242201, -0.9327049097562308, -0.6681335695913933, -0.9856801421617875, -0.7588697923020192, -0.6709401488516291, -0.7116673355154098], [-0.5353663744101221, -0.4673407814327073, -0.8041906986972948, -0.6388459555827168, -0.7768940921760612, -0.5476186121220139, -0.7987571729318397, -0.6362204376246021, -0.5361792386496049, -0.5965820758510316], [-0.652651796057594, -0.5531550981402825, -0.9606122316963633, -0.7432222216369316, -0.907409004660674, -0.6521747046035505, -0.9570807107585079, -0.7567555252557521, -0.6465379238505492, -0.6938074322406974], [-0.540685586903612, -0.46356557523757524, -0.8098909191900229, -0.6358537638644448, -0.7738936985872085, -0.5471900388620771, -0.8093940560814675, -0.634290892339598, -0.5406711011669157, -0.6019440249422663], [-0.37555642921926347, -0.3399883983667662, -0.5235650360394674, -0.42992755539699484, -0.5176181221004514, -0.37091454377467536, -0.5303544975142289, -0.42904605623402536, -0.35580108018258966, -0.4158316836975766]], [[2.015915113832603, 1.6825437100641136, 1.8762793224219942, 1.7420905634177384, 1.3924952573132048, 2.062811614656414, 1.6538855013128175, 2.0132846823699877, 1.6624525918092987, 0.9304154246515915]]], "biases": [[[-1.04045032153197], [-1.4238219621171917], [6.718165430067622], [2.168939795297728], [3.774288602930194], [4.556656305176556], [0.009426630502027042], [3.0522812183103163], [-0.047740848331734385], [1.849314173989938]], [[0.1395670546337218], [0.09637491867506316], [-0.14738433714949456], [-0.22913678307711116], [-0.1768968692244132], [-0.04231045691006499], [-0.1545916519972271], [-0.14189546264669378], [0.25043449429171166], [-0.1405966911271967]], [[1.1541211865408334], [0.7425260309066848], [0.9838154476717429], [0.8131884653529226], [0.41055762076138863], [1.209865993020941], [0.709216042657882], [1.1477405316120342], [0.7169460390535836], [-0.023608469267913348]], [[-4.818646184483755]]], "sizes": [50, 10, 10, 10, 1]}