{"weights": [[[-0.04538913056954569, 0.03271989185780023, 0.06012713700157382, 0.1182138615401381, 0.18702246973160033, -0.08222537146859364, 0.01186741163787685, 0.07605475812534503, 0.2920138637888764, -0.2697516762862741, 0.020913695580959058, -0.07665752946747188, -0.09653506739900854, -0.1786283332169312, -0.012874515104872605, 0.16523612470014906, -0.29413622690531377, -0.3277531189367115, 0.1739439002523465, 0.09638233843906155, -2.3731806772887842, -1.5315401143035776, -3.9306377122048684, -0.06269520743696616, 0.20067221965130216, -0.03014792508695602, -0.2619281889998436, 0.032658352864230196, -0.18642148888317642, 0.41428082713328057, 0.02442607459363746, 0.03527533075831352, 0.30466699844609996, -0.138670116855714, -0.236316295526504, 0.13051631741303146, -0.24521935841372705, 0.018360001069963546, -0.21438053342527258, -1.8417225438876326, 0.06763284846569301, -0.1487194053169142, 0.05361093959646169, 0.1423902827111395, -0.03590996198858799, -0.1143342955408436, -0.05266364741416484, 0.21559241449412003, -5.397832600407777, -0.07308098468746582], [0.03903727960460976, 0.03474031437749123, -0.23206894549737536, 0.15579081637448605, 0.351069940190196, -0.4599622366530431, 0.1219241266348359, -0.14944229567885822, -0.2651048752405441, -0.21524841743166478, -0.1915509248569429, -0.44155073643856485, 0.07130614900383299, 0.1249724003341295, 0.4429957008977837, 0.7473945413552191, -0.2985471028759278, 0.12125370450134507, 0.3116846596895527, -0.4807074642641902, -0.3458680065946796, -1.161044849334731, -0.2324121380641105, -0.8895750028644024, 0.08446612620869258, -0.4504521406867892, 0.515837058826727, 0.646511079404516, 0.21841905165842046, -0.2662410492138313, -0.004750472943251888, 0.9330956100420423, -0.4349920903468923, -0.17040514241734872, 0.40368427066683576, -0.17311152281670664, 0.869569123835612, -0.8204593419993799, 0.2504246675410102, 0.27651919679274384, 0.18489368401181686, -0.09338582217410277, 0.38237238479672303, -0.2410824408732791, -0.13756752611436174, 1.0119866957901968, -0.9619778281040204, -0.04854459319887642, -2.1244885713574613, -0.0824662520385742], [0.06940328619662144, -0.08980035501808234, -0.007175623789718611, -0.002275954968680391, -0.0736588126612223, -0.13696485051899096, 0.24852894085711233, 0.056938560913819325, 0.1889675042740723, 0.19191358353530405, -0.14078323423048048, 0.03802486225041682, -0.0024329529245776045, -0.26104086714507085, -0.015847196178323, 0.3243254678465246, -0.05182831484274908, -0.1554526029457622, -0.11811675729926413, -0.07691562166941303, 2.466100978192051, 0.08857068743334641, -0.3504604775559051, -0.03625937852761177, 0.16121736175695242, -0.23066648886001143, 0.4423354017718492, 0.24358162318305854, -0.4625914453776203, 0.4106471863855555, 0.134411179682848, 0.2868810547502763, -0.29638349465914987, 0.1206617989767345, -0.9745573327910892, 0.05527776869422974, -0.00880942340018836, 0.11472700804632993, -0.3614756485210238, -0.888036375064339, -0.5953415254876085, -0.2434139589444871, 0.0653142045880824, -0.4222160330368318, -0.19497967581125372, -0.1533763729987682, 0.3304974638204535, 0.06664699251246661, 4.769339772461913, 1.2777228470432924], [-0.5829652394752024, -0.15498987456995017, -0.3286270875152721, 0.07013991040618911, -0.6430762258891376, 0.6765600905675069, 1.071658507537514, 0.08117062791407602, 0.46494363077239825, 0.14871809365507205, 0.8473043743158436, 0.44462629696837047, -0.667090473953231, -0.8547521856700561, -0.40846158506550934, -0.6323680145665006, -0.31785499891894886, 0.05714617534450988, 0.3782486533727026, 0.7181520105966012, -0.39921699848136577, -0.24100062025233757, -0.6313963547092877, -1.1161815725556616, 0.33015301765777266, 0.6803583259064934, 0.4886299783694702, -0.41485551236733154, 0.11303219204227505, 0.5000338553230671, 0.13198989075216014, 0.8522363331378848, 1.3002309489208692, -0.7096327548484742, -0.16719827917355443, -0.379216552350136, 0.40880218087247616, -0.8290920690800234, -0.2961959615278366, -0.9963293071758068, -0.5691266581225788, -0.6318407775330155, -0.37783637683231375, -0.14426439364686566, 0.48083345996632804, 0.26691605266354684, -0.06241320897139397, -0.7464890086986621, -2.4225865790294168, -0.24662559279455182], [-0.04371685213322942, 0.3943546998484739, -0.6325830418275096, 0.4098780311847487, -0.5877489813394203, -0.5063990963057526, -0.4262585481854005, 0.3191074653046606, 0.0039272313336059265, 1.015199404322735, 0.5497981371404251, -0.32914367040355, -0.03462304104758115, 0.27453394604832043, 0.6244696048261634, -0.1785014236157013, -0.7191998399403304, -0.6143124291136336, 0.27895099953223235, 0.48321478208047763, -0.20687887662687313, 0.29246947985178157, 0.1855274545252425, -0.3388882391014192, 0.5313752380350247, 0.41675695206481583, -0.3513541416283513, 0.35630599356465775, -0.6015563370623543, -0.34663086315580155, -0.11540237241368174, 0.32056489862957405, -0.661821206703965, -0.051162641169273874, -0.06356805493045643, -0.3862918676556688, 0.17336863309074738, 0.9155740783016458, -0.019328223220893243, 1.4873104387754605, 0.06957464814673263, 0.22640553331534194, -0.6265738728061448, 0.05183195210038475, -0.6631653046659174, -0.13727852161263707, -0.02465731105959001, 0.892826335080731, 0.07043127206821158, -0.2638744534031594], [-0.1755075632686832, 0.23031108221992314, -0.23233121505218593, -0.1754047597912571, 0.28157766495440484, 0.21666467584141583, -0.14202079946764898, 0.1416107973319951, -0.4176464239912425, -0.9531449814545901, 0.19479539856812644, -0.3555739821091708, 0.17035978849417951, 0.628117480466812, 0.3405091669376645, 0.15193600679252184, -0.21787683889790388, 0.04908935348292682, 0.26533609918545403, -0.23526187215052752, 3.0075184236873738, -0.4962013192842184, 0.24282986610472185, 0.15526647329310878, 0.39363106515621255, 0.30153495230784483, -0.06565189893872482, -0.8202621074075888, -0.645817861836271, 0.34903753363470963, -0.2179883083525171, -0.22295914047086898, 0.708455383887167, 0.9176429302301171, 0.15854589974692918, -0.29526458995189303, -0.2119640420574622, -0.20255279512207577, -0.4246994211430932, 1.3079916199053079, 0.24534354484724494, -0.193916998377539, 0.08928810343263496, 0.48067414812881737, -0.08510109594731749, -0.013732499528002276, 0.17666190170151283, -0.058583989711049236, 1.213153000222306, -0.6155527282697618], [-0.4939803757409228, -0.4114897809090972, 0.018169705378238376, -0.034612914840048664, 0.02806716278893488, 0.8385081070267523, 0.14702889687878617, 0.2018071877815538, 0.6490402064710314, -0.26592236975948536, -0.0750543514112886, 0.035090849767598284, -0.14723258051799484, 0.15411733165803745, -0.238405510930238, -0.6909411602273985, 0.059028169397271214, 0.12006523319177094, -0.09508544770564085, 0.16421948454031482, -0.06149071640203416, -0.09455070782555519, 0.6762559342558145, 0.5090421440682362, -0.19352685786412743, 0.03915611687586257, -0.469184672666461, -0.057777616697115224, -0.09846937511324366, -0.13738762005030467, -0.44870380050431663, -0.9937995432405902, -0.11954408299256598, 0.3742043690497093, -0.27412263785478025, 1.1409175317283515, -0.2078754142152583, 0.6955991535660321, 0.045617198444177415, -0.8451671318076333, 0.2744739516962491, 0.1530045728141926, -0.35177413634422616, -0.24340919588815782, 0.2538506376244916, -0.6134935588428958, 0.5585659024667906, -0.13424938546529355, -1.7137405473285279, -0.24989583624322312], [0.2522384018511977, 0.2137102279702673, 0.4816980063473601, 0.4952321347230431, 0.9119037468819005, 0.3199808930425282, -0.07285508618417355, -0.2685671009933869, -0.43236453993254254, 0.4512298319107284, -0.20329125487849492, -0.5484823975229629, -0.29104330891099095, -0.5284001568175576, -0.30679551988792, -0.33282401632277864, -0.32317958419260473, 0.09952365793741001, 0.3166510385400599, -0.21949833911706984, 1.084046980257971, -0.3745922206633191, -0.3313516365713932, 0.024381915643959442, 0.18622276511209968, 0.00994169752849336, 0.12432923941041875, 0.18082839332886413, 0.4365980495637015, 0.27578729741056207, 0.09238469806693785, -0.626516291543232, 0.17496135755403375, -0.13484332775008845, 0.4300302577352053, 0.14286588746790313, 0.12059973486635797, -0.5209286127358049, -0.3814483747512941, -0.5748355866865058, 1.338041436366407, 0.31468211534976526, 0.5323300023588405, 0.4303213721261176, -0.2110439833910341, -0.5253412967377006, -0.06814134150943765, 0.8610006909523537, 0.8539322135916956, 1.7050675696465925], [0.09400077103004598, 0.6982229845103775, 0.4194530672144944, 0.4390128233542202, 0.16180556482077618, -0.03421179727331861, -0.3748143068593968, 0.20297558514650504, -0.5402859394701747, -0.7228423018940885, 0.015072085515291978, -0.7841518015564336, 0.7211460716958652, -0.4930464429670217, 0.394801468661729, -0.0038724395899225198, -0.10549521894371963, -0.20731438614591507, 0.2799553369297682, -0.1886169350349287, 0.09128448847676293, 0.5449902414222142, 1.0084573853336105, 0.10533910806672696, -0.2718680281219331, 0.35666470910874265, -0.9814728307676237, 0.785048362621073, -0.35037646858036403, -0.02181078486133706, -0.21312984627456888, -0.026720287915834973, 0.34617323379653564, -0.011763346932841867, 0.6674568047520937, -0.29397661548028603, -0.37155529263814996, -0.17791634131135947, -0.1720022235996019, -3.5742708335167626, 0.6057722630154667, 0.1764591575494587, -0.25885918440941375, 0.5064211918945627, -0.01869889798560064, 0.2302413582788461, 0.04858713629477426, -0.28616659168973696, -2.255901415943064, -0.21820734947591872], [0.36935685874495866, 0.2389515327131024, 0.33996490413535846, 0.34945484337437455, 0.12118965081526857, -0.4149982704934319, -0.561141967848382, 0.2093729676158921, -0.4062884763204076, 0.5677179615837671, -0.39432282288141235, -0.009755317814974936, 0.1244157777834523, 0.22234988222805654, -0.09441813617206352, 0.08535933939568911, -0.31773454040730587, -0.1574512472653565, 0.242605617857677, -0.5009873181585551, 0.17084442182972812, -0.7287534928987855, -0.3208958955598203, -0.21770783340145985, 0.39583685116811135, -0.11172393352868844, 0.0664784473569759, -0.5680539851656928, 0.2114877483101121, 0.4088513787607014, 0.4111420854658233, 0.1102836803766117, -0.7215701444278471, 0.46350960072252273, -0.13647479818865502, -0.33008883866562183, 0.26877360650975535, 0.22774443692424662, -0.21543898648209578, 0.8171456242956393, -0.44601645786677246, -0.21989583442055846, -0.06496276725262284, -0.24572788401497306, 0.6012147274155639, -0.8007136165026121, -0.7066089316999812, 0.8550451618405268, 1.0158948919877933, -0.16569077188806625]], [[0.6733094586369804, 0.5412312895477305, -0.9743955121025022, 0.44768429612851174, -0.6989189916178421, -1.0104267621596927, 0.7713416197804001, -0.6274817563158889, 0.284386057234048, 0.6556480895050546], [0.45898517040935266, 0.3766116019280249, -0.7467932857071468, 0.38045300742868726, -0.8053162213505238, -0.8597027287194936, 0.7928629644290599, -0.4951638525071149, 0.23180830639441363, 0.5053099513666262], [1.7190391955129367, 1.0859061135851593, -0.9218892424427826, 1.164731014621841, -0.9180111072456248, -1.4336927459090023, 0.7962732401777021, -0.8431205141162261, 1.5800982485423234, 0.1831396034109497], [1.006483075970803, 0.7168802492973699, -1.3514566361608984, 0.5568079536021818, -0.4644238281409919, -1.2348691609968538, 0.6652624616641102, -0.8281216609684732, 0.2512446739523998, 0.8524312068140032], [1.3490102703261828, 0.9776235529278645, -1.591144899565281, 0.750060369747367, -0.24641211085473688, -1.3974697510838987, 0.45307218495010115, -1.0305265448201537, 0.4750921871349071, 1.0251662441201075], [0.7456215303334727, 0.56802239899378, -1.067539584844225, 0.45866224972696473, -0.6512113392779565, -1.0699650308308302, 0.7487471286421206, -0.66109005383765, 0.2545597272826947, 0.7009445453609958], [1.6003190187261058, 1.170624920955379, -1.1544560178590013, 1.0203964587389347, -0.6772767588290174, -1.4318389312336501, 0.5365159610113162, -0.9448438924940804, 1.2626387800490397, 0.5177318579527018], [1.094713387766339, 0.8273957242190371, -1.4099344147112423, 0.6181653749606564, -0.40473033538726805, -1.2740875626016697, 0.5800354246503387, -0.8905876634764547, 0.37211444849851943, 0.8993324251284665], [0.6443888003087355, 0.5276886250208889, -0.9412491868273236, 0.44633079009815557, -0.7154053839941592, -0.9893395982207279, 0.7834404682051812, -0.6025802286696973, 0.2855463676789173, 0.6322210336006462], [0.9089788929528054, 0.6848339671634005, -1.2557369525994302, 0.5319404846334296, -0.5252840654545372, -1.181452251575064, 0.6924909843189608, -0.7874555014495929, 0.2742511948271973, 0.7938632448517479]], [[-0.579272279394217, -0.5088016122853332, -0.8692402354830974, -0.6965749751501096, -0.8000166446439034, -0.5972651863984322, -0.8247427345091577, -0.7227673134179484, -0.5711115322563767, -0.6585751916409345], [-0.5291593863359807, -0.4683074102362204, -0.7268697967041486, -0.6075488471480526, -0.6928237242150395, -0.5471337891820887, -0.6875639177184844, -0.6224820828250929, -0.5361367823871104, -0.5853882296574562], [-0.5521494978568335, -0.49389457997212105, -0.811292783230209, -0.6582518816485375, -0.7584934711360547, -0.5856180455022012, -0.7667739672444407, -0.6797313486696981, -0.5452835483557286, -0.6356291979736489], [-0.5362782317473278, -0.4918270798587958, -0.7481195942602203, -0.6210826220556122, -0.7223714714923734, -0.5515094233042919, -0.7136838318896058, -0.6411242642829776, -0.5266170560350005, -0.600700707722722], [-0.4794017301437337, -0.4374606161967842, -0.6140497363950106, -0.5419839540918767, -0.6077008938444455, -0.49260503771750336, -0.5890302151368821, -0.5623949086021995, -0.4698109040824828, -0.5207106930169472], [-0.5827247055675414, -0.518729037391756, -0.8876639721956537, -0.7043393698497074, -0.8175052655270272, -0.6088963362398323, -0.8477166469018779, -0.7172274793471799, -0.5808794775570775, -0.6668955015353878], [-0.5179695781346911, -0.46914220863444117, -0.719863343056135, -0.6102108314676309, -0.6910066996995408, -0.5366676275768706, -0.6772962697377669, -0.6261541662676657, -0.5113832921987156, -0.5850122559477975], [-0.5823774310008084, -0.512268892710383, -0.8720268034295989, -0.6918856490647398, -0.7956907039070779, -0.5999395918044959, -0.8205205582563125, -0.7195983905730169, -0.5657149130314553, -0.6536889073807456], [-0.5234343856236675, -0.4655566421619048, -0.7270132045540314, -0.6076960302278218, -0.6883990916592628, -0.5364881119256486, -0.6889957132385055, -0.6247076697883222, -0.5159470807957413, -0.590812271849351], [-0.4081172181405584, -0.37832468697639027, -0.4659033967780894, -0.4300870078944993, -0.48089514636105335, -0.398089389015383, -0.4554706553507226, -0.44770742205412595, -0.38549200218788454, -0.4327593103011218]], [[2.066023711490156, 1.7637258382382732, 1.9414692471899866, 1.821721432042355, 1.4985278214435265, 2.1035350604499197, 1.744456877224039, 2.0620337892816347, 1.7544263022527187, 1.0646740328761972]]], "biases": [[[-6.459931825794402], [-0.6203734571179003], [4.767326233707644], [1.1094381217174936], [1.9746813951605395], [3.6303622275514953], [-0.8021655732462956], [3.904136625234318], [-1.0520228770166273], [1.7241459939864903]], [[-0.12487429144615066], [-0.017005968038794728], [-0.07567677655839145], [-0.36862189860869604], [-0.5699861747399373], [-0.1915711690470385], [-0.291075564524409], [-0.43488416672302405], [-0.11079733637567811], [-0.3114768422028155]], [[1.1286571514542383], [0.7670763613905163], [0.980337472179487], [0.8327905231948839], [0.4812378432038659], [1.1716360318789272], [0.74735178784796], [1.1197381547731362], [0.7558868883592507], [0.07960849288857866]], [[-5.2807700095251775]]], "sizes": [50, 10, 10, 10, 1]}