{"weights": [[[0.03601730788226274, 0.06726647911471204, 0.14059406271767044, 0.1751100565698538, 0.10614416831227359, 0.016925666556369828, -0.08799008047981295, 0.1858516763002032, 0.24161312379602737, -0.2819178239454037, -0.1483916867436354, 0.0032250355266621243, -0.09941210445618984, -0.28084843400443477, -0.1919287249454292, 0.15060471718689677, -0.018031911538826082, -0.31298474695823336, 0.14370149878511876, 0.05336828232108285, -2.465516121064795, -0.8100301143495957, -4.385867243638957, -0.12030454996262765, -0.2456966548517683, 0.08971030605896707, -0.6934641278659622, 0.13987120772845954, 0.004201273468014796, 0.17081990756946, 0.28525709580341774, -0.05815457330744233, 0.5452551580429452, -0.827092697765263, 0.3756232069693569, 0.05048624985867248, -0.3489212754556939, 0.24324898687125263, 0.16142799475103053, -1.8276107588469357, -0.058266552903395365, 0.1872431651804612, 0.03363449305351421, 0.12287464052716403, -0.01746262299264774, -0.08131869670139902, 0.04683076144296869, 0.06638466655127366, -4.571698881245511, -0.18846051216917206], [0.24983544327069931, 0.4312332460863253, -0.26607788154127304, -0.286369208466855, 0.35147144457887597, -0.8683721871403351, -0.33572275652537154, 0.070646234840155, -0.48382191443007866, -0.8442047126185469, -0.12537352846334585, -0.010683579795174097, 0.2159639227668308, 0.5606930506256206, 0.48739872836847, 0.22652907397023922, -0.38706429635026873, 0.0894152269092943, 0.4390927168826802, 0.283472341911612, 0.04720765360596116, -0.397523587407962, 0.23117091582274474, -0.4759662563794169, 0.7451984798483864, -0.47083601703316597, -0.21865961713495927, 0.8446520464571085, -0.20871030020357445, -0.9243631790070767, -0.38535525494964246, 0.10961355550330276, -0.1743858256089276, -0.11729299914671228, 0.8327635264313552, -0.36289428194007656, 0.5202193071623106, 0.5508229010609518, -0.11383547203732819, -0.7371565190717647, 0.7683030406340869, 0.4097116199254174, 0.07840654043733696, 0.5353817595931512, -0.34837636692158175, 0.32509854312827696, 0.2804941271340933, -0.23577695046316677, -1.570919618532729, -0.45150026234489465], [0.2440397647361342, -0.07657984180958723, 0.09086269668156212, 0.06894386169525513, 0.13560150942453286, -0.12858647704897763, -0.1861152038266241, 0.054918858780897424, 0.3839667604285624, 0.45807422382262836, -0.055428238772904294, 0.036233871442933746, -0.018850481652934768, -0.6277116884090199, -0.0873936818450104, 0.08056552749789316, 0.011623038404866282, 0.060011997787699216, -0.14558960408853527, -0.2020317928214957, 2.619011480098769, 0.43572052521101573, -0.9727047598421075, -0.323055146841398, 0.03898608995015715, 0.05661662342829392, 0.17450194206368802, 0.5291642944892752, -0.17786996768057395, 0.3704636817941237, -0.04072296639413768, -0.011096755637314097, -0.24133214609682938, 0.30351733396325975, -0.6363358161379756, -0.3499923639029001, 0.12849402351522546, 0.23277655324754634, -0.4193573264255342, -1.2133258428916942, -0.6964079585330887, -0.08060368853343469, -0.17341420261427817, -0.003523295620266483, -0.25888459298199384, -0.17318397748081668, 0.1776360171141166, 0.301499031985826, 3.8140327590054977, 1.9328305798350427], [-0.5649590985885435, -0.6574633230715765, -0.07501779016320714, 0.06430864534930446, -0.5095479867411884, 0.2515848792063243, 0.2764012207963733, 0.12809916198545834, 0.9195049306239111, 0.3378243019048968, -0.07794871747729643, 0.6030815358777415, 0.1405447018381277, -0.7968371114988487, -0.2546962723427838, -0.13218077827568883, -0.39394907093788883, -0.24163354839422047, 0.23221727418297086, 0.9818252081057741, -1.1439954855343555, -1.2553974839751547, 0.02539674005642276, -1.4897786316341546, 0.04496094441098829, -0.03134623590717614, -0.04028123607570119, 0.8175089485957049, 0.03582985937235252, 0.90735620032273, 0.1201026043557557, 0.8209557827703562, 0.23888766966075445, -0.5347149078952478, -0.18696623758839723, 0.5627930961731659, 0.28155090307749453, -0.24050532747855094, -0.9245531850643159, 0.0416790650161133, -0.48684763839374345, -0.20366091237195452, -0.6284042704924999, -0.1993822819498545, 0.41914371210937085, 0.2284672517635539, -0.4877563110799629, -0.24126105243610768, -2.975808307140074, 0.6992536513777508], [-0.6628426616449287, 0.3198350758842551, -0.2759630470827035, -0.26973940757392945, -0.060647503344491385, 1.2377141603071578, -0.06277424369458433, -0.01905756965384084, -0.6694168613377305, 0.4434690993391008, 0.772197422298917, -0.3110274787025936, -0.691611483126684, -0.49871657217182774, -0.12141307643560303, 0.22598619428503638, 0.12017242490532377, 0.32607108099885285, -0.37135301808024523, 1.0543743296928412, 0.5659894791609384, 0.10719315778332758, 0.7862930054515789, -0.5666865904003726, 0.48864212716593725, -0.9207427156593049, -0.09805205954918393, 0.03598588493097789, -0.611524315165273, 0.2418782233146647, 0.37705782492730683, 0.5004236690897425, 0.26832669310186685, 0.27110032484003566, 0.49505983797196507, 1.2157426735746253, -0.32001076622728986, -0.7753229994972419, -0.1939826225128107, 0.699304055969108, -0.11950909463407516, -0.15457538113299735, 0.7331036229008392, -0.12238908813650874, -0.13962589228659672, -0.08270242424915648, 0.2211567494580932, 0.03132349122047064, 1.33868794408588, -0.7566010486617222], [-0.1422249300236189, 0.02196911482005743, -0.01566586583837896, 0.2067628411190621, 0.35805132515611554, -0.25451219468339115, -0.26168475832688487, -0.01498575966218788, -0.15552129853559676, -0.7188498582826948, 0.08861561299148532, 0.026833227839499808, 0.08480881739221563, 0.4077175987325132, -0.0935140529955635, 0.42093890697648906, -0.26039201166886766, 0.0004037737355622151, 0.1658215415542558, -0.10542013030754853, 2.835381002545259, -0.731033275500114, 0.30178607407414004, 0.055717589027181685, 0.2924280132031068, -0.09565829914591505, -0.514295430721434, -0.49813562536855294, 0.1968190529227002, 0.534105192204071, -0.01729129848525917, -0.31033232817915324, 0.5043536630068778, -0.10156780027182763, -0.02879774862931505, -0.1715933997583295, -0.33485100265539697, 0.6867017341584718, -0.5463253639138046, 0.6623824180019062, -0.11701639608397807, 0.08041690735267755, 0.1440392441889301, -0.04540645357349687, -0.24270704412556274, -0.15012574748061916, 0.40574546241376036, 0.04806624328967829, 2.1105791623871077, -0.49102468648011055], [-0.31105302488179004, -0.024245729947706244, -0.2231901098043767, 0.06996574337210452, 0.4617027478124864, 0.494874856186807, -0.28881308292980234, -0.2602517362085017, 0.29242871209314986, 0.4817069221157737, 0.6604891168897876, -0.09594219157926591, -0.29179734026508336, 0.45691684694593776, -0.9971132268864611, 0.29399778978764746, -0.17023737878346965, 0.34932567465573766, -0.6295949594627386, -0.3385473498696341, 0.17692171918299912, -0.2921900983232012, 0.8254906069241759, -0.8189268862591458, 0.445076714357078, 0.32133433821325363, 0.26420196640643484, -0.3154859607654407, 0.2344304574214531, -0.5612704641105805, 0.12524458233479147, -0.41486892009050397, -0.09086463651142944, 0.8151778142996774, 0.28144839520291093, 0.5409721361657021, 0.9434481549185768, -0.08437192876291234, -0.15354493660491533, 0.008440366321601967, -0.30486541765531666, -0.3818489189179104, -0.11231378057938846, -1.2628325018138886, 1.0691536683634986, -0.9916626751273071, -0.4687054258697313, 0.34074557931465604, -0.9083935665926685, -0.059289258085852115], [-0.01742246914908323, 0.09066354386647678, -0.28347817206234605, 0.1304030814091306, -0.15665135269324182, -0.260380821617528, -0.38970739752848865, 0.2701685176761989, -0.618706521320579, 0.35406431600586025, 0.19508167880564922, -0.4798287579768839, 0.10273321922012807, 0.07985071731908937, 0.09014118340567023, -0.020151700512311885, -0.2933211711345654, -0.003701825688551473, 1.2152047615041535, 0.275509607966322, 0.9098628680016635, -0.5881879932650265, 0.4921006887745035, 0.05377865033242055, -0.6616633730765684, -0.5656630241754916, 0.004751736183171963, 0.6108808646834302, -0.05088921018676405, -0.2965229600204429, 0.04588805657445331, 0.1853192726172865, -0.4389707940692539, -0.8210312781759578, 0.5929356662993767, 0.16645765920065567, 0.2244809856760064, 0.24849168567385446, 0.41736518900944075, 1.3288033430053066, 1.0571593304342717, 0.24468949024818462, -0.44893469775398187, 0.5949520180919973, -0.16922688640083372, -0.8323308821119817, -0.06763557127315044, 1.1483564268669109, 0.6556149944554248, 1.1424921138721895], [-0.2554472666452513, 0.17825769925160734, 0.09286135225904012, 0.17386804940340905, -0.14740294149083202, 0.4531747730819772, -0.20209245597072178, -0.04473775152145932, -0.594577285258048, -0.29534109007436654, 0.9880309434561895, -0.372325716660765, -0.3398223287749768, -0.6035373064048447, -0.05195051698401108, 0.05809191561509801, 0.13956536867136882, 0.4666890449034158, 0.8360711155991633, -0.18228020764126027, 0.4280651370609204, 0.2621904258873369, -0.15440975769050902, 0.20364226609584404, -0.3453402753735842, -0.5085839187140413, -0.38900922406285665, -0.06943125306692581, 0.3688350277845528, 0.05599407643507982, -0.22944055344406056, 0.36578775150301956, 0.8069668044646292, 0.482549437041971, -0.06418851507759651, -0.4411026617886934, -0.5533733506050201, -0.12059061949271369, -0.3169481152649207, -3.0759319354421915, 0.4056627220248206, -0.08153436789181003, 0.13747839834693307, 0.43614010209593457, 0.029661365590399558, 0.5518058511084674, -0.04152367894124456, -0.60321819174977, -1.618235188427717, -0.6983268896940713], [0.02196424224319728, 0.010865993944391172, 0.4951117598316077, 0.24885336245043096, 0.1330121656622119, -0.3551616627617436, -0.12768647791824841, -0.15512763957643158, -0.2777079335682798, 0.2738460860114169, -0.12057843685030559, -0.3950869228724687, 0.21203338471119715, -0.2831574187527561, -0.1481647276872364, 0.026366565325233102, 0.1889429185242946, 0.19751679156633123, 0.4206464009125839, -0.23843694044838204, -0.124928793951535, -0.3785964396095361, 0.06579115124917846, -0.40677712595635035, -0.014327963297571062, -0.36416696083659167, 0.0893262947847251, -0.014036784706487823, 0.18143344988218646, 0.30903856203438057, 0.023584182732503286, 0.22920295653775802, -0.20703266650176166, 0.1481421390062993, -0.4296404433846642, -0.42844833317089703, 0.44917109423843565, 0.10491399666735318, 0.15994663433326636, 0.761624105564681, -0.5610765952232336, -0.4096762984300406, -0.3546313307285898, -0.4829598674018712, 0.672286911766317, -1.6724451913707523, -0.2805440482749795, 1.322823154289738, -0.2404263684218914, -0.013710784675953661]], [[0.8696858410991234, 0.39801128433943056, -1.2039672356424869, 0.6101477568338464, -0.5877617663451499, -1.0862004303289237, 0.4015114972341241, -0.7037799999965858, 0.4950033793233568, 0.5986861948566431], [0.644313805875392, 0.34101018928593396, -1.0502571765389817, 0.4882614543215459, -0.4971891568757095, -0.9350919041305611, 0.3250006090477375, -0.6616294057113357, 0.5585350042501764, 0.4525508699527676], [1.5307403170340348, 1.102234020799078, -1.1555350443179764, 0.9542301929263125, -0.22964345411397352, -1.1419320572120106, 0.6214635115539343, -0.7302499955399424, 2.017993080685728, 0.21561686167116453], [1.2196756749705453, 0.35552446669685916, -1.4071976480769375, 0.8370210197339222, -0.6599458930795922, -1.3120105823737054, 0.48434140536008724, -0.7303988927157731, 0.2329826257207929, 0.8009171251187289], [1.5223119572325683, 0.5062855757057567, -1.5411148789488682, 1.0109545417356907, -0.7275297906881715, -1.5214698373127769, 0.5626609257834141, -0.7396670010816012, 0.21067992866974314, 0.9119941150779094], [0.9249045211581162, 0.38436862679276684, -1.2409169156002466, 0.6472068753257938, -0.598521437111183, -1.1212497173557774, 0.39847941138709386, -0.690156500401078, 0.4447399115101621, 0.628115825235235], [1.5075689836584776, 1.0005988085126107, -1.3229975743392774, 0.8301533280127651, -0.8139236534368908, -1.3949109258466903, 0.6190247465785985, -0.7400398844004028, 1.010144811236342, 0.6202246077883032], [1.2593847110517817, 0.4954151063194073, -1.4259088955401733, 0.8425902265229561, -0.6927410420030369, -1.3500497263543143, 0.5044954780118842, -0.7268590622907172, 0.35821576537532535, 0.7967507161273694], [0.820784811114654, 0.41512523921189615, -1.1644681025017811, 0.5855082211624082, -0.5717032429072453, -1.0530503712122252, 0.39476667746729627, -0.6883400736677605, 0.5465852287461016, 0.5548528316441652], [1.148200622534552, 0.4025074072593608, -1.3739648309554757, 0.7941870917928997, -0.6622333313734864, -1.2774039960305714, 0.4822133309516515, -0.7304535366859276, 0.32548401022983264, 0.756278016127371]], [[-0.5712807002446117, -0.4750181069010473, -0.866119635712283, -0.7036486946355577, -0.8089526041900812, -0.5829992916237755, -0.7895224339920426, -0.7262435900576278, -0.5535708847324265, -0.6771401884589685], [-0.5178572721677864, -0.43489656885004824, -0.7437598727385967, -0.609569841975607, -0.6976981256104852, -0.5309339432866166, -0.6667863963440429, -0.6215296697902136, -0.516823987740148, -0.5957565663356985], [-0.5427417859864985, -0.4600579060516571, -0.8183654433078318, -0.6633149980747185, -0.7663864164534745, -0.5704021841797454, -0.7385168392351754, -0.6817363860799059, -0.5268981441480076, -0.6511096565326345], [-0.5271231802630896, -0.4593034039753309, -0.7657282669447594, -0.6263510731633395, -0.7312741481992421, -0.5372549793904167, -0.6938362121402804, -0.643655371416069, -0.5090160217534713, -0.6149071317039186], [-0.47192150383249115, -0.4110939931971953, -0.6458767803885106, -0.5463124894966193, -0.6157399261294145, -0.48091714893982496, -0.5831144703181594, -0.5642871449610325, -0.45542357910805353, -0.5314064859802907], [-0.5735727439088271, -0.4838948011636122, -0.8780720292475237, -0.7097917851980107, -0.8240429949941387, -0.5932624878599164, -0.8072786862138582, -0.7187732095200359, -0.5620742178439331, -0.6843355674823615], [-0.5089680712299244, -0.4378119354609817, -0.7419492873193307, -0.6149027429381045, -0.6996117531685708, -0.5225752295578184, -0.6611225092044624, -0.6283785334490237, -0.49432960719759256, -0.5982394598319075], [-0.5727592981413411, -0.47726264504909677, -0.8669109263904349, -0.6968676681815301, -0.8020759697092187, -0.584114631131719, -0.7831542341309953, -0.7208430612321255, -0.5466544791294422, -0.6700799266494357], [-0.5134298780275078, -0.43327031601079896, -0.7470104466415701, -0.6111320988487599, -0.6954931591301452, -0.521376282389628, -0.6709074421307583, -0.6256496997909157, -0.49785367840531775, -0.602913787366126], [-0.4154154391044113, -0.3711570308374978, -0.5185663102670334, -0.44810510290087097, -0.5035965095301604, -0.40261421265677044, -0.4754042194697143, -0.4634851911822696, -0.38743918615100786, -0.4539505338180001]], [[1.9796509354971712, 1.6894098941301254, 1.8616309057141254, 1.7537773846198081, 1.451190993960188, 2.0082123067324216, 1.6814781080734487, 1.9699580967081287, 1.686923540853755, 1.0918691875399673]]], "biases": [[[-6.110985524737244], [-0.757792387579999], [5.0926486856239865], [-0.48732940850202766], [0.4796389539506623], [4.029524340285539], [-0.5163484702520723], [2.5111077007315474], [-0.7430981425380291], [2.0409802245315616]], [[-0.3521668151987346], [-0.313996409122208], [0.07514082435418795], [-0.4506985872551976], [-0.4944370257488483], [-0.3808366219834731], [-0.2274798579352162], [-0.43280419595162717], [-0.3376601430426249], [-0.42644640853448695]], [[1.1793968371858605], [0.7935560453882663], [1.0230314951416286], [0.8751995812203663], [0.507011632556286], [1.215569781869445], [0.7844799093209468], [1.161902852086928], [0.7879848879290794], [0.13522162740295213]], [[-5.528776041471211]]], "sizes": [50, 10, 10, 10, 1]}