{"weights": [[[-0.2191360339348651, 0.07169790279078869, 0.23027521005190352, 0.38421107583316344, 0.15730427750838064, -0.04875359667041839, 0.11373643913465876, 0.1790649018991979, 0.021874494652423873, -0.009238452213882021, 0.00047215897980099877, -0.12970925029897928, -0.2745717507208784, -0.2583204610642881, 0.014840018981511343, 0.03069621883669794, -0.20307344039556785, -0.2655327825185716, 0.16383275337157832, 0.017384179813029754, -2.2009161850132126, -1.1610822764151054, -4.355684273588551, 0.030440592824591862, 0.15784460559113833, 0.17699947283335066, -0.1849714772979927, 0.023646446804142823, -0.31599990078501755, 0.4908011147250467, -0.39815507025573843, -0.08138919725946779, 0.6162573688434537, -0.003172436726817495, -0.397179864935595, -0.24431385674880363, 0.05667278082053617, 0.21519659974464303, -0.6342976367244968, -1.8623926189850715, -0.04202496620098879, -0.011284236155398837, 0.026702485701222023, 0.15467275005014122, -0.1528882871573708, -0.05213419862457916, 0.024394675066667003, 0.20441778411172876, -4.074893108735236, -0.07327924207996565], [0.14914308533233303, 0.3576180181751128, 0.5802838677554973, 0.4380989189755576, 0.502759233560357, -0.5889381562795772, -0.5704050158968466, -0.19925486834733155, -0.13241091955189807, -0.6765137835240586, -0.11427506088771455, -1.1720228952089806, 0.1660268120481171, 0.3845948331572144, 0.4856387082680108, -0.12415171141809389, -0.4271034577157971, 0.08294178829579416, 0.44118773790799953, 0.07160400240508756, 0.3755254463681558, -0.008243356876257909, 0.6395446393170066, -0.5266072929018494, 0.24690763567781038, 0.03712640027790523, -0.681645547791925, 0.4657691758528653, -0.32606742916200493, -0.7979115135356578, -0.27169990881493183, 0.2625259099498261, 0.6617783784760759, 0.5247862318769927, 0.5809793128898401, -0.13311065696502708, 0.1453194088779638, -0.5920387355914332, 0.6301723322616455, -1.6084584651983571, 1.8525282597527863, 0.07369003638122484, -0.2858231510847277, 0.12926069551317304, -0.0740795624394428, 0.3498593432298286, 0.035726174016089254, -0.33389366921655683, -1.7375026687312063, 0.10942578184112614], [0.06216882463954857, -0.11961983019220193, 0.08354423872136507, 0.03846271808528471, 0.29327036495132847, -0.222280360994478, -0.12167011548143401, 0.09412431299280132, 0.11509971556068747, 0.6730008219798909, 0.09554753050442903, -0.093591453213486, -0.08159389247155482, -0.5296668053351219, -0.0015771432769093492, -0.02204648125606976, -0.027049022829597317, 0.07499201882309597, -0.10505209171681054, -0.022580212552233556, 1.3870431438947621, 0.39049175896333765, -0.4349033581263826, 0.09301794053472703, 0.06316282697056373, -0.029504881933578815, 0.606167333016731, 0.5091930590685863, -0.3645966053930693, 0.5692585934762857, -0.1875630215041325, -0.11727647700425202, -0.407020580876745, 0.4382800353506637, -0.9536138083826857, -0.08033377771812004, -0.02610313282973612, 0.12453060091626285, -0.7708816691854763, -1.3122790986159132, -0.2196286255222491, -0.06424296108977254, 0.013129163843089871, -0.025181299408783005, -0.04524781362288658, -0.03864038504937737, 0.021364243428921455, 0.06704035048372861, 5.112385487844055, 1.2724657427980874], [-0.31295385197780745, -0.40199971096955356, -0.29419485273224194, -0.417347985157853, -0.2916079720457381, 0.5412236183551073, 0.9109545493408125, 0.4868537955000076, 0.12382198383119361, -0.4118864941960549, 0.6820779646905413, 0.7440269130614671, -0.539264272267963, -0.6319241369375823, -0.18795742388288622, -0.33159628040610173, -0.26661174541831356, 0.009805533080529965, 0.7257143759614881, 0.03581357391026566, 0.10803599804058173, -0.7940769647587728, -0.1853018587263548, -0.4571605618007863, 0.3389585362433539, 0.024869166992546026, 0.617190963989846, -0.4893928679101687, -0.046767382710367164, -0.18890533194467327, -0.44044974660879405, 0.8889338805992005, 0.713221525181525, -0.6034870923555572, -0.02738742864343985, 0.20115471444443309, 0.6909061721106288, -0.4707441644112859, -0.0390247743946237, -1.5695747395148736, 0.7391804931246242, -0.6809080908556018, -0.3975648553425298, -0.2207498066927527, 0.04595076865329211, 0.9726687172994243, -0.16788043378155793, -0.9356473281144241, -2.4836701382135336, -0.5209938696504369], [-0.3598129313483817, 0.4243853821127114, -0.796548894886789, 0.5673247251438233, -0.18891753842058714, 0.9499280570335665, 0.2962660409363982, 0.3906077084265914, -0.5032575702685796, 0.7615695223575418, 0.5712559680218476, -0.9507734054335486, -0.47749214818136354, 0.2881145170155898, -0.0289251553641462, 0.7080892227613572, -1.2112069791815725, -0.11279220532528628, 0.002525944161078061, -0.20359092676909618, 0.16731211227355083, 0.33929858772152793, -0.013308322178370932, 0.8151276913462859, 0.9417350361969259, 0.1980399528282802, -0.2637369931152381, -0.18870152264895013, -0.13388827800304196, -0.722207856593101, -0.12421778061001369, -0.0787287654560765, 0.5323841010043342, -0.12086369766499562, -0.016875642368778383, 0.501749395504348, -0.41199916791901897, -0.7213040037487204, 0.19812968044416623, 0.637163162211849, 0.7887436026494539, -0.14857700061661092, 0.2662629234870694, -0.6790766400715299, -1.065685771982693, -0.5134310404877571, 0.8045544567133653, 0.9673217322586458, 1.7452102252567556, -0.7048041592720893], [0.02537719255917481, 0.07583110448494204, -0.09763912335990278, 0.0011371440961162774, 0.1543850056713069, -0.09044895288735288, -0.24733015142121786, 0.10365076836119524, -0.18714616767812642, -0.8182842039401577, 0.08926853078402974, -0.05332435812183159, 0.26302599384757425, 0.529101208089352, 0.10540798767057771, 0.25686968178994835, -0.1871842548698783, -0.06336901004610966, 0.16059871028549413, -0.28284179058128817, 4.007640037688167, -0.501810645535812, 0.13125776249485727, -0.013481727648042695, 0.24810909142298931, 0.3502695946109551, -0.41852503877774594, -0.7493017920987644, -0.26450466106053616, 0.15978608397483035, -0.194184480138329, 0.16900521373164779, 0.5812465825639462, 0.5628461018726799, 0.053217168479677154, -0.526214024844786, -0.0675709115735701, 0.1499371502449327, -0.2350100303446733, 0.37245671291248694, 0.3439897877193217, -0.1307425637186245, -0.047763836364520855, 0.22563856311010835, -0.018372842717640312, -0.005257322539390875, 0.19759606716945713, -0.15917523613605505, 2.849750110976995, -0.6511778192135642], [-0.5691713509338976, -0.5650160824944738, -0.4392853934019743, 1.2549820061295507, -0.3502508865641838, -0.032820837244031925, -0.05040770155416094, 0.8196689109791022, -0.06591036263553873, 1.4725442044158805, -0.15647373758198987, 0.3227711772761686, 0.6589912259050068, -0.3571209941194497, -0.5223629729580939, -0.17692676909808958, -0.38819736081894934, -0.24335099358371162, -0.390564603404186, 0.3723200139486924, -0.8095232067265774, -1.1523085097485928, -0.09916583983394488, -0.6862460360830995, 0.10097936752457014, 0.16625126312416083, 0.15738868655823632, -0.228942108950341, 0.42262143579533035, -0.602070934020523, 0.1686199971222497, 0.26415168106433656, 0.46329388908301194, 0.09436002183751167, -0.10823284354030434, 0.6320348100209642, 0.5460768920079984, -0.1894935648734214, -0.04574154358041364, -1.0606656144925284, 0.33531455276655286, -0.2227790699709949, -0.7149333399857931, 0.09907511216732699, 0.23484372652648536, -1.2349623579141038, 0.37574253444346417, 0.7310444193438878, -0.5578582269620258, 0.42953637267945527], [0.29607743260628, 0.16365282395928366, 0.530762454801134, 0.5673933899191925, 0.5519818261378796, -0.2488729733708703, -0.06814862022746446, 0.36794688067335674, -0.8736047111318248, -0.06147830711922608, -0.4581073507299454, -0.45115355292290765, 0.44647369293983213, -0.6750684128717956, -0.4410171078154009, -0.0536037549764115, -0.06930420818343565, -0.209988126816265, 1.0546828178134862, -0.2569425736329161, 1.6465008796679315, -0.20404221802105624, -0.30747765254516835, 0.005659739665383606, -0.0348891187803703, -0.45737842950362134, 0.016051091793254767, 0.654930034631462, -0.4124058784869537, -0.34030372810482784, -0.13242870300929246, -0.8007049982709209, 0.3534118655655764, -0.5321043479121706, 0.6337978615978899, 0.1587835703831514, 0.15350850662620763, 0.10842123873323727, 0.4965722133585361, 0.19764127849011687, 1.0158171243977376, -0.18498905478138586, 0.4174717910645259, 0.5259087648482764, -0.6302446008541023, -0.3750137301098875, 0.030383677904687243, 1.0652745294104649, 1.5194252488987325, 1.9880965652298828], [-0.04636880467164094, -0.12484763516393246, -0.33535062175366176, -0.22692272300688435, -0.006169046056185317, 0.8073170332138135, 0.15241652869628586, -0.2541001824443329, -0.012340142515517656, -0.8175025324973905, 0.3672917684889953, -0.6644301253735575, 0.6175469262213809, -0.32072585915256574, -0.4935230660115145, 1.1928680349733012, 0.0613925704964017, 0.3725008813610924, 0.1325887734775394, -0.5649771059332641, -0.036559856681613594, 0.9366094458856628, -0.2955955221870015, 0.4358771764646018, -0.3786730083969972, 0.03840274527104533, -0.3979703165232543, 0.7565364800999715, 0.02136470554567961, 0.3574057976396872, 0.3376407948945975, -0.5725324410418705, -0.1897175438563116, 0.2373682137723337, 0.5396480110989793, 0.21569233708740984, -1.1601072268907526, -0.5386766566518617, -0.148617464384042, -2.8486938341301404, 0.05941280794714377, 0.12668643788898806, 0.9642967190448866, 0.09935959578635788, -0.0201134745604967, 0.42861868232079814, 0.09668801470940123, -0.5434202243315286, -2.2842322473966967, -0.6917226259520456], [0.6535875591537497, 0.6828472168104073, 0.7015755441203082, 0.5152809948957886, 0.18892557572440655, -0.44429770027444665, -0.6092785066969465, 0.21257621975958735, -0.6623495769350141, -0.23140095528554222, -0.3273671438325456, -0.2073359522811525, 0.2645446655357877, 0.07108783875377328, -0.1924590881497909, 0.38289296810839996, -0.2309727996185413, -0.46797520215822835, 0.3218173767800617, -0.854564682792923, -0.10253859803946815, -0.8725017022273105, -0.08127495169453386, 0.4564384051209093, 0.3430546656496765, -0.17730744217919908, -0.1478567177973748, -0.2343405268769377, 0.1472724627399614, 0.4947819087232491, -0.02165318161172248, -0.046705677159375104, -0.8282901390822558, 0.08263119426256058, -0.6695486909422494, -0.2647161199593733, -0.1316270576032455, 0.6077427680443146, -0.16957920284546582, 0.48439783320899854, -0.4917313210782005, -0.279892033241119, -0.19290443550984201, -1.1053124644045818, 0.8211867310990769, -0.7855460094323958, -0.9341198870192492, 0.8087649046456601, 1.191076838202237, 0.1070806843315103]], [[0.8703219639574925, 0.4552336494617574, -1.2222452737104799, 0.5409396417759724, -0.5173877644839537, -1.201948800978714, 0.40597678012450117, -0.5802239157639189, 0.46266858043748177, 0.5160784016133219], [0.6575896620240803, 0.38360945979559186, -1.0398578391604134, 0.5607184247445374, -0.4610985025880794, -1.0301315756571086, 0.3087762842978099, -0.5424731728759162, 0.4214973468834018, 0.4213921778917974], [1.5822482653026717, 1.1824414412742448, -1.1515465768733681, 1.037775725325698, -0.35983954097083765, -1.568749652327081, 0.516356823185562, -1.0558249860988165, 1.3066068193867735, 0.6723967474678367], [0.9780985318772549, 0.3321586455268387, -1.5697781401086248, 0.5007609797862667, -0.6256862649979701, -1.3910763906153891, 0.6364340371244314, -0.5556558502109612, 0.15889366532586027, 0.6188205145102065], [1.1878280149922056, 0.3882051747646244, -1.7739179963810585, 0.4977709160251799, -0.6465903334008863, -1.5893604939825363, 0.8084303293958662, -0.5481247050988519, 0.12617540260738355, 0.7143849845377431], [0.8835252447533269, 0.4306398175622295, -1.2631394297631653, 0.5191058605446758, -0.5423495052942002, -1.2280275048479856, 0.4237712467046109, -0.5613511769889301, 0.42359324890200917, 0.5128612247005861], [1.572393181595876, 0.8159239330749305, -1.4150644535965584, 0.6517711887107858, -0.6062668594020844, -1.5452318191273398, 0.6296039074568529, -0.684574998459368, 0.8554382704446781, 0.6394352673752541], [1.1274327388024195, 0.4962288760572025, -1.5169486921131103, 0.5045415294696546, -0.5968888826393801, -1.455216447443537, 0.59937232482265, -0.585785114123517, 0.4019473204632258, 0.6197752021741291], [0.8463905770583809, 0.5118423922858794, -1.0896285297265376, 0.6254115700600312, -0.45780822089573764, -1.1229963965290275, 0.36693379385735175, -0.5794108671449787, 0.5698746657465149, 0.49736285794214236], [0.9459141015385899, 0.37009315736938864, -1.4806338671726407, 0.5108070190436883, -0.5974195772691866, -1.3598600944434396, 0.5781250212572722, -0.5675994290545662, 0.25675718800427005, 0.5795889076924099]], [[-0.6300884282294019, -0.5294037244797988, -0.9091559035784833, -0.7549492806114375, -0.8528294497496823, -0.6366998536370253, -0.8453641597735319, -0.7730383073118477, -0.5989151312547197, -0.7183515714461519], [-0.5623416698878976, -0.47849166792566583, -0.7596984739843231, -0.6566173053615695, -0.740159241268572, -0.572388582578994, -0.7065508654582888, -0.6574192818804628, -0.54927771323969, -0.632250847240701], [-0.5945416536381859, -0.5091393640775552, -0.8471038787195322, -0.711679531524468, -0.8081166216276731, -0.6178069100333126, -0.7855473916440142, -0.7224419380660188, -0.5657507132599224, -0.6889182137464556], [-0.572661873283915, -0.5035861601827943, -0.7831421116878355, -0.6722568374350706, -0.7713508556083328, -0.579346859517694, -0.7335513749253791, -0.6791735094237078, -0.5423163309691049, -0.6501985854208318], [-0.5074301519881631, -0.44695008613911485, -0.6498731575682205, -0.5905136190805982, -0.6575890918088434, -0.514779583559567, -0.613959891175992, -0.5940181014729051, -0.4797219066556926, -0.5649185831404168], [-0.6324672052851131, -0.5383111119677472, -0.9213115375607815, -0.7598566875964048, -0.8659401390009049, -0.6468006896941273, -0.862370230604261, -0.7649965827222922, -0.607439467423247, -0.7244465810396912], [-0.5516094916726102, -0.4797051657631839, -0.7543547433168082, -0.6598819838847185, -0.7395758892633293, -0.5621605519257215, -0.6977101669822868, -0.6617714210198657, -0.5247193725884884, -0.6324183104039502], [-0.633331229691751, -0.5328438921855498, -0.9131146400073007, -0.7510630853780172, -0.8497365899148522, -0.6397652872207837, -0.842573202925051, -0.770651948068082, -0.593835766901695, -0.7140946794474238], [-0.5575318396578948, -0.47633045587149325, -0.761894072406966, -0.6577348532217921, -0.737390984769994, -0.5624726379635092, -0.7097625673671953, -0.660996464706193, -0.5297947787886558, -0.6386415517275931], [-0.4368493867919059, -0.3946817716511611, -0.5088648324713909, -0.4830061171077686, -0.5379374937136965, -0.4239050244195422, -0.4918812844923965, -0.48189899444643325, -0.39937480738075276, -0.4792256751746165]], [[2.063225683462507, 1.764342512755854, 1.937023756378313, 1.8233103770001131, 1.5263900816879157, 2.087825318482349, 1.749952570377034, 2.062614283431199, 1.7601964510134729, 1.1541887083183182]]], "biases": [[[-6.4214661368165675], [-0.5465126884546342], [5.52538419892519], [-0.1190658767942079], [1.3091721527178377], [4.4182059453825815], [-1.1714368111216167], [3.324226305376583], [-0.05126358159889102], [0.9662616065603544]], [[-0.045472735867175866], [-0.07859719707319719], [0.19277377287589537], [-0.099153833356371], [-0.06139367046665805], [-0.0719601568484246], [0.13941075044905119], [-0.04042972240067331], [0.0020116612626311335], [-0.09725697955535534]], [[1.0892915715887217], [0.7300263342245495], [0.9366393249015217], [0.7966782937228428], [0.4746449638511532], [1.1179324453920585], [0.7148061107556991], [1.0853259747739266], [0.7236283454908525], [0.12561085988024576]], [[-5.634150376346817]]], "sizes": [50, 10, 10, 10, 1]}