{"weights": [[[-0.025646838085161754, 0.1207584899799171, 0.016342553156033356, 0.273994290580074, 0.3043319359692376, -0.03837000067062404, 0.010875651907634464, 0.14533367275350872, -0.025328482740817043, -0.12897635118465064, 0.09817929017272388, -0.11274224812671411, -0.15137042968902195, -0.10670772620509981, -0.07238675935954722, 0.03687167373774409, -0.31038800398699495, -0.23113424938274468, 0.15418873719470408, -0.02963000779770753, -2.15973920313788, -0.19132592463619574, -4.554462757398524, -0.1758231083862352, 0.1744479162942076, 0.07259301008032354, 0.07985828483376901, -0.07318718908449354, -0.26105517030284636, 0.5248653217516069, -0.22848995030193445, -0.041491262148811235, 0.3871375001958363, 0.44218080459651576, -0.4881476121552886, -0.07921504085901894, -0.06810129664950576, 0.14834129026762352, -0.6939521068682644, -1.5026953019955764, 0.0735939670270129, -0.04670628484395817, -0.12232512289312295, 0.1463808215247652, -0.03810233568557232, 0.0005959250374996519, 0.009522061629006352, 0.03603296511789879, -3.7185788354463796, -0.08921902036428275], [0.5049284200402497, 0.27506087067833224, -0.2507690016514162, 0.35403854878676144, -0.39186120212839853, 0.06472105873431076, -0.4173387111150022, 0.7315572827341873, -0.8894470476306302, -1.0691802949247453, -0.20330894057193405, -0.23193440815389837, -0.0777487882518454, 0.9155010082456432, 0.6346549990347455, 0.4881242675816396, 0.020558906076696748, -0.1598673112862394, -0.4136493242789637, -0.16758847987757253, 0.028007844212138422, -0.30171606839760245, -0.05211965462960371, -0.8237511869387089, -0.5280001995339638, -0.07818288371126539, 0.08550707433857403, 0.28926506914833083, -0.4693704889698373, -1.1646584594937803, -0.3155686792197964, 1.1287838422006355, -0.07764367151713242, 0.2436389439315357, 0.33110007287311416, 0.1159683061897809, 1.1729849708105222, 0.18363270847197974, 0.2825644143024055, -0.26494556161967686, 0.2316088701619705, -0.010809925897929822, 0.05142566385354467, 0.7555695102552485, -0.22531583399358698, 0.21238277077354312, -0.11502141106368509, 0.12052617558833725, -1.4003225697422557, -0.14693719818377035], [-0.026924531128830722, -0.12781502219280122, 0.17315187250072225, 0.2629589659719432, 0.1528639115923444, 0.018473012037516515, -0.007163495556426793, -0.022730543004950164, 0.08249003981977174, 0.2685731170342803, 0.00026617700571744923, -0.10357238536265818, -0.030731779324857045, -0.2856947681652309, -0.08947276579632238, 0.06478623860120958, -0.052180278260732585, 0.0015028795075729064, -0.05361570120341126, -0.18625433647753395, 2.2721689632819606, 0.2474257447809087, -0.39351456083904957, 0.001767426624259302, 0.07872723860129816, -0.028993178033996668, 0.23363940186272494, 0.18475222136267436, -0.12511617719624984, 0.450589894417681, -0.054235543125917315, -0.09338437017282555, -0.09501828441279171, 0.21749100158304846, -0.6882542387728504, -0.053803452313045584, 0.017744030627541523, 0.07034974805925369, -0.42027506235022155, -1.036538023333101, -0.2580256208906065, -0.22101219941742375, 0.054197659380583026, -0.013799522068870952, -0.2087803152575874, -0.16044192337131763, 0.33587220363055204, 0.08592543823906369, 6.340028716308242, 0.9839133781203004], [-0.28523156924904874, -0.10276823847157483, 0.3390908167428277, 0.30574230504488836, -0.7034318417579618, 0.01972197037176436, 0.4734223497872677, 0.04079875352573428, 0.5245307028651001, 0.2438595500730803, 0.07390174192418372, 0.452065891589225, -0.01709387906212204, -0.4886572786855811, -0.39481509295065476, -0.0515647618021057, -0.5977982819750421, 0.08147420392262938, 0.1101090284510923, 0.08462181840329913, 0.1922342978277706, -0.850786823630917, 0.2686516611044049, -0.46262669933823586, 0.1932331048478563, -0.07453971699586608, -0.4124829215930814, 0.7678319645084305, 0.3469440353397201, -0.3335644318722269, 0.21275886824941462, 0.8201671337633392, 0.42101683312085414, -0.7546622885638542, 0.30436127678677843, 0.01604037028302261, -0.4401290380560533, -0.43494941747037014, 0.018765600712048244, -0.7053628664882959, 0.6378685579004402, -0.0810158180150571, -0.6736903245722562, 0.001994242821389594, -0.32937052310175297, 1.2421005721980103, -0.4933855692193046, -0.5137345302309128, -2.2605684779502173, -0.21493017031643155], [0.23756592328784057, 0.35318736375846027, -0.3120757837016837, 0.06555120838276396, -0.20913602422694316, 0.2596170124430505, -0.29369167459126044, 0.25757734571932195, 0.04498927890958443, -0.15535223617594945, -0.38725332989605465, 0.31853858421861664, -0.34223152273869484, 0.7140713758511412, 0.5937693600305174, 0.3257386485513439, -0.5062911839327153, 0.1052880940019972, -0.8633345111641418, -0.4079971481905152, 0.9000183164192633, 0.23527487525974466, -0.2727134382155212, -0.3906507675088842, -0.029380532682628593, 0.025975876252067723, 0.48402756499702465, 0.28062566447488957, -0.0555508047064032, -0.28248827825035266, 0.6255934553231463, 0.34414947456745837, -0.22280581397607488, -0.2704574900712896, -0.023147105411531182, 0.5774278339692681, -0.18475383866000036, -0.6329070060030993, 0.436102951321497, -0.057117529808385824, -0.046546972192327535, -0.05720437371443142, 0.11269169929846218, -0.5812746553620148, -0.6395169134743716, 0.15535875186630907, -0.13633237266474368, 0.6563469440342796, 2.316799387162851, 0.707562119689798], [-0.2987635150359289, 0.06156428768308651, 0.07285882865679764, 0.12144462219492887, 0.33879462822365125, -0.30487128062441876, -0.08545135180220526, 0.013442316809850873, -0.053492095255601044, -0.8991129586438404, 0.07627480503374505, 0.13639620948133296, 0.10803645955925119, 0.4316762042444356, -0.1573940671287605, 0.2084397411210564, 0.06799354037895909, 0.01162125921433376, 0.16908538922600197, -0.2682536076247589, 2.87801730579913, -0.7172846961019798, 0.4359964576008124, 0.008854754555176106, 0.005245912256609792, 0.25691840492024487, -0.4937413109918038, -0.6515415788864553, -0.09302273794511998, 0.35186347121490635, -0.05574799635765828, -0.269360175022641, 0.6753993779739417, 0.18910065883890126, 0.16925672172272951, -0.44633776015508275, 0.020543507685564597, 0.1493919773226751, -0.020976328407844004, 0.7565038110053737, 0.152540582132547, -0.23232403923160105, 0.14243310069766354, 0.11137863486758041, 0.0582057922397773, 0.2166288773416126, 0.027272731691494696, -0.32502153632852304, 1.7613050977984546, -1.0151465185873734], [-0.7142259606071762, 0.015692564448341946, 0.5447014705327397, -0.15464697148221154, 0.5638311063365548, 0.38749415266361464, 0.032021445954243874, -0.46316009633485855, 0.6442638055813305, 0.07418474940565176, 0.7183861493295036, 0.13346674986628435, -0.2847547963719659, -0.39250777326535385, -0.23438015481745866, -0.8262808313098235, -0.23531472899801623, 0.45365129753071753, -0.43668130823574713, 0.2336426179764266, -0.008563726289170508, 0.03241828759118723, 0.23900167314348048, -0.7202635374996187, -0.37936647009367874, 0.3175660823766036, 0.46044752895790414, 0.009759797222604387, 0.7648307449853486, -0.5706624869196656, 0.27550271329520515, -0.2836938648266663, 0.40502830568292986, 0.2013057770648565, -0.7663670042557902, 0.5862181468678549, 0.944416868527539, -0.33420392715441455, 0.33819707889493655, -0.9834081661917963, -0.33943857215452566, -0.516345671802351, 0.1646462036907072, -0.3042916597732814, 0.5477498303811182, -0.3079229485989015, -0.14093829588490459, -0.13333363467678366, -0.5370934436049062, -0.2214059616635563], [0.26254458309160417, 0.30114506721449996, 0.6056194895260892, 0.11412766213717895, 0.38225753282812786, 0.20885056183079204, 0.07302747694344482, 0.5630710713520019, -1.3431721023092105, 0.47760660037051605, 0.7021450635818943, -0.8920606604521691, 0.2351083451239849, -0.8968659018951707, -0.5417169851865894, 0.08023048860839392, -0.8548255647235043, -0.029532047904166497, 0.25274053555411224, 0.6383612579501222, 1.265174598949824, 0.22485306273669745, 0.48633645650128043, 0.13104121714563377, -0.5294434300383821, -0.49920382404295177, -0.029410454290070234, -0.2538066306576612, 0.28670213887689877, -0.08091929403869402, -0.40248008074137587, 0.007934095453058284, 0.4076306342625569, -0.1621600125042654, 0.05905457747440105, 0.2829968483889987, 0.24786072619496696, 0.5002943271227854, -0.24115510166730544, 1.3234237945333664, 1.694625167706982, -0.06847687051563088, 0.3861687762734655, 0.3154493303673674, -0.6036782014233348, -0.4218622290506692, 0.2427443835308818, 0.891557454264924, 1.5781424346266797, -0.5729263504836646], [-0.19961966365563752, -0.3890663291949455, 0.16772788669882974, 0.06459892366252025, 0.042644920487727916, 0.543938765914568, 0.06401656574260739, 0.4223526120417456, -0.006233738286780926, -0.6608724495659345, -0.1171030344671959, -0.08389717100443345, 0.1624379343924785, -0.22485340579240212, -0.24276117922545126, 0.39870240440866755, 0.1272356132178122, 0.31809226572634514, -0.22406670509693014, -0.21105374056820064, 0.35489394570134114, 0.2255212610420489, -0.3860777947958128, 0.268081787245642, -0.33939441010164206, 0.1513000210721133, -0.019752629767564023, -0.15428362195400624, -0.05318945499069075, 0.5789911177663554, 0.5570955479524354, -0.6049762984010921, 0.49827906189098153, -0.7105399910609737, 0.5236432862104125, 0.045498141858501116, -0.5397520370265277, -0.23933890658507645, -0.039842655295410215, -3.7216452936689897, 0.4426804072913688, -0.4576946409746305, 1.1753345860088533, -0.0443049172762544, -0.09672913405667201, 0.2627515207297541, 0.19694588693705037, -0.37466726777373105, -1.3162737618734934, -0.4271329569290494], [0.21937728230084044, 0.16568539993263434, 0.42310378702065593, 0.5207607261362911, 0.2856861675598851, -0.5785708443486913, -0.38821558100915354, 0.2671954439587286, 0.00479464183125943, -0.020763282682397112, -0.41078381178720835, 0.09429852805307846, 0.33161247208480027, -0.3144099446786635, -0.2168228724774071, 0.4533346163780342, 0.0016566150146584955, -0.40251567140498723, -0.13930916755937367, -0.4017552186735201, -0.21610099088914603, -0.7656928006061966, 0.06019850787327544, -0.28217301181038845, -0.09751057819180732, 0.25647758125091025, -0.33843688059623916, -0.1618417575078883, 0.3450834279135868, 0.5716758026113827, 0.12082361888113101, 0.06962822632955501, -0.09096280462345432, 0.058546880277893766, -0.27013543824424496, -0.5796045694560983, 0.18300237714583717, 0.018247753573036964, 0.04673438581582997, 0.23788594474434, -0.3334916465111575, -0.47043909967938496, -0.1955562244524888, -1.472368113045494, 1.1420433738502487, -1.0181012388957489, -0.7068580987834816, 0.49886445634286924, -0.13824617336333922, -0.22921290496122834]], [[0.8307986679503438, 0.2994250449308902, -1.3309893029374633, 0.5338555930432012, -0.7633575078300388, -0.9896329888705019, 0.3438959436836672, -0.5070851106864774, 0.4098031953437344, 0.5513574887882599], [0.6999293149717594, 0.3165363269478183, -1.1118053192988304, 0.477233239509722, -0.7933333310730044, -0.8445611201414097, 0.22921002128882917, -0.37521584933077196, 0.4332800703570352, 0.4442871301651217], [1.720212011434876, 1.2933151663473823, -1.4987556374155426, 0.9019272715009397, -0.9819556918644912, -1.1061501996128003, 0.7957486631506758, -0.06349634113740078, 1.3263341458423796, 0.27813298279425985], [0.9781480894307771, 0.2200691281473663, -1.6334150989996745, 0.6059264172772487, -0.7122985807682533, -1.1892685207491793, 0.5785075961305979, -0.7090864285647781, 0.2973964478002771, 0.7026636043406671], [1.2746545452624976, 0.531388464890178, -1.7847866512308372, 0.8073180081833853, -0.5470041331052666, -1.3680944225290443, 0.5326043344496291, -0.6672148036233452, 0.5468511809624383, 0.7980084658213938], [0.8774148801653086, 0.2923179238614931, -1.38727411843857, 0.5488300920997432, -0.752644529550687, -1.031745319323458, 0.37156053665485317, -0.52339373542677, 0.4014691818335054, 0.5854296623674365], [1.6787992554118885, 1.060859467130545, -1.631035361821623, 0.910482845128632, -0.6590445504905044, -1.318615973295916, 0.30125109582674625, -0.5118597511663046, 1.1766598328744742, 0.5320656600831123], [1.0604338355276395, 0.360034269718142, -1.6782848439611375, 0.6703249309766874, -0.6534635259250156, -1.2409860467364415, 0.534870828350394, -0.6538433232218985, 0.40155004513707543, 0.7354587489663141], [0.8083035084628983, 0.31815208172555576, -1.2869821747169101, 0.5339851289331207, -0.7650202121414963, -0.9631220906527926, 0.3212718546672544, -0.4697209014755506, 0.42614266795556816, 0.5308892536520102], [0.9333407822850069, 0.24259119641719162, -1.584173679249241, 0.6036991328463785, -0.7166450659986772, -1.1542109983950695, 0.5419975356162542, -0.6813868058304913, 0.321882015184978, 0.6730105342896385]], [[-0.6089189169284465, -0.517628144305935, -0.88501596379304, -0.7405240772720205, -0.8121790592658534, -0.6304277599858094, -0.8461470909992033, -0.7592183572001461, -0.5927108104044652, -0.7086373828486702], [-0.5521106662931898, -0.4743944128790209, -0.7432261294588283, -0.6411867857262006, -0.6946917411596149, -0.5724007465200727, -0.7028786277214064, -0.6482919462419673, -0.5526415511108318, -0.6241422818804245], [-0.5798767711464803, -0.5021910977223234, -0.8298772571606958, -0.6993127889281882, -0.7681985243036588, -0.616525315107811, -0.7876485039219393, -0.7133687288116426, -0.5655139710252223, -0.6823685906025696], [-0.563229922737931, -0.5003501907500111, -0.7706425125347112, -0.660576853187204, -0.7310920997349062, -0.5812007873997476, -0.7358992283465845, -0.6732045251966425, -0.5465947563291556, -0.645282322847937], [-0.5037136685953628, -0.44781073912646735, -0.6397275479436291, -0.5747420833075705, -0.611518842654066, -0.5183442757379148, -0.6098639529716656, -0.587978256971389, -0.4886941568738793, -0.5577257419727996], [-0.6122569323526214, -0.5272535382075539, -0.9011914470510923, -0.7483495730457035, -0.8297063433375899, -0.6421534668834269, -0.8681009263208109, -0.7537003784853022, -0.6022426174326797, -0.7172159862760508], [-0.5434987218414796, -0.47763228852777373, -0.7421472389706291, -0.646957158782385, -0.6971229658259149, -0.5645644464724725, -0.6976988703251192, -0.6555395770300458, -0.5303219753848344, -0.6267619231152536], [-0.6114472771146293, -0.5204754615979929, -0.8871901822231905, -0.7352582435774834, -0.8072818632120637, -0.6325691016084711, -0.8412644839346123, -0.7554565038289288, -0.586764038651079, -0.703107161742754], [-0.5473274756420138, -0.47258990533631096, -0.7458121240038166, -0.6423752709741885, -0.6920627327600737, -0.5626903609733557, -0.7063369609768181, -0.6519692665693894, -0.5332820196803185, -0.630654267216553], [-0.43568986842382607, -0.39657698056305385, -0.5000069404228976, -0.462477948172754, -0.4895615954612593, -0.42577313744527956, -0.48254139703917875, -0.4737362665401999, -0.40929971229251094, -0.46835281174827187]], [[2.076981633388201, 1.7612707133511527, 1.9520465805170382, 1.8354817707783, 1.5081558889981173, 2.112305758070882, 1.7536333249616034, 2.071888972110052, 1.7561165266696368, 1.0932034931951784]]], "biases": [[[-5.960612030595795], [-1.1591779123665709], [5.891143540883506], [0.39926277237216024], [0.8983667923392954], [3.865158344991726], [-0.8646840127342632], [2.2660478145704714], [-0.45836623032459767], [1.0003696950691308]], [[-0.2467676529939563], [-0.22174021903081764], [0.06479286251727723], [-0.26962093623992556], [-0.24488161234855962], [-0.252698402465259], [-0.14512150905975613], [-0.2718493017792143], [-0.24569500039233072], [-0.27603994894257017]], [[1.1868154892021965], [0.7884989873414027], [1.0288010214507104], [0.8774438740738633], [0.500495149742971], [1.2305748589693557], [0.779872746626774], [1.1766476066342664], [0.7800783283832662], [0.09797728982289736]], [[-6.031343232482091]]], "sizes": [50, 10, 10, 10, 1]}