{"weights": [[[-0.05681750124616842, -0.0032277423114232895, 0.06145384325994589, 0.2371361241958243, 0.3541688787448303, -0.06708537504227276, -0.1413085325027023, -0.05969780168326722, 0.08655994560297457, -0.19555474510679716, 0.06502911136769007, 0.09754829315716355, 0.014958846659311282, -0.09437387407929398, -0.2767911367122407, 0.21149895536833377, -0.20271942489489367, -0.21767546387965483, 0.09352596705362451, -0.021585110960114264, -2.356017530046378, -0.12821197790629002, -4.411929870154378, -0.16253753592853867, 0.21562204539484464, 0.20408353683089778, 0.15232916842428343, 0.08985982452667494, -0.31694094515660454, 0.359672197884304, -0.05506423808801154, -0.009835193684797319, 0.2002629364853745, 0.4434482436769906, -0.6745610814783295, -0.08788206034352321, -0.23875668984514697, 0.21697420718021726, -0.6046796075770334, -1.3013262150883074, 0.24157921061520032, -0.2402608453582041, -0.14811568671746095, 0.06088961528168078, 0.13850128157180572, -0.01746682569047542, -0.02078168800021406, -0.10946623643412065, -4.212872462058389, 0.007535159285207403], [-0.14010349802118477, 0.3650856933889938, -0.20203426028243945, 0.9379487003083672, 0.10523271227818756, -0.14477967746590478, -1.02661193682198, 0.28247907504359504, -1.503893037111204, -0.23782499926157968, 0.35798455447188343, -0.8975555761299375, -0.2908354020391032, 0.6296853479380412, 0.4759376618628759, 0.1099613842177847, 0.21689514171806618, -0.22279902772006213, 0.8857275465376796, 0.4573274579305642, 0.21822259727911564, 0.008572160316124153, 1.2055732081049042, 0.4794166484349621, -0.04451598101122509, 0.12688063901981492, -0.4708464365103079, -0.14027731517269582, 0.005424426462290301, -0.25303036111100535, -0.3950742186772212, 0.7121200367555887, 0.2384788052209574, 0.2230885055941289, 0.9878793927243691, -0.2769206475457118, 0.8172287408577448, -0.9158398746180758, -0.8409187556142965, -1.7897883522744256, -0.15119351439587203, 0.5667318374509946, -0.06984365907442466, -0.1348950158735854, 0.0005159419676158309, 0.5947490040727214, -0.3659824517059963, -0.30753396752842405, -1.5392369103839176, 0.5110715397093181], [0.02414928511183879, -0.04473628439539481, 0.10858774771095223, 0.012789167258816372, 0.1519389028001686, 0.006000197722486841, -0.07211227529795747, 0.02455172909097191, 0.13626582517434005, 0.34715054387123573, 0.017472817905312066, 0.020282451903811866, -0.05421247922056238, -0.2809599194357798, -0.22822268016800648, 0.014872453981934517, 0.07751810696054771, -0.0009886098784824319, -0.14810004439753, -0.03778645491438768, 1.8496701406134404, 0.1042258211933384, -0.27990983653097734, -0.11337395610100635, -0.08957008990906896, 0.011988105807048875, 0.5186920233176097, 0.37318997337012544, -0.21028144564200577, 0.6453917464847401, -0.18325026846319006, -0.0745916936978323, -0.5188413914134296, 0.3245835190315777, -0.8158969777710747, 0.0194102993646472, 0.21510805991524803, -0.0024070494765003215, -0.40939110776048726, -0.757231286412145, -0.21960109025027713, -0.15251426658820133, 0.04257151287068719, 0.08146702021554389, -0.09703004525679318, -0.17083750833391534, 0.21298158634405784, 0.0894030484983943, 6.900660506258395, 1.0378037483369846], [-0.7047019232801048, -0.5260173838717508, -0.9574764802263893, -0.019148927792562408, -0.07720300881165411, 0.42950830085740466, 1.2432217089134754, -0.28406502422391267, -0.14540213807261898, 0.1490353374122974, 0.44575081563339597, 0.12345620601566686, -0.19670203500578176, -0.27182512801278724, -0.5667179218594404, 0.47664069609259563, -0.00863887856971194, 0.3488207548668932, 0.2471285227517252, 0.5715657625795004, -0.2961368398923856, -0.025239912466552245, -0.26530874292422896, 0.1119767465320568, -0.4432997744859163, -0.057471449221535506, 0.05600640334814399, 0.5213839117544302, 0.6428922707631936, 0.05764394264247898, 0.25881863217581746, 0.7590705425889396, 0.36097488258863764, -0.6916141264683962, 0.2605252187934037, 0.4311467353742539, -0.36589110224566995, -0.7182691692302513, -0.9566235164091442, 0.34228371140846753, 0.9063778012156797, -0.25083520283735283, 0.36912594695407264, -0.4213049977618339, 0.5010823687666708, 0.8143748521876316, -0.4131520053597259, -1.034185146474409, -2.6220146962943143, -0.12142661529179663], [-0.003023021491846748, 0.7237870799425404, -0.3547997794439294, -0.4377136306446359, 0.9124851143934258, -0.5880768532716685, 0.4065825229033188, 0.010963949997527369, -0.14699246397845878, 1.0374222395366826, 0.09538475345376819, -0.12532003256560856, -0.8247758290912218, 0.16134339943528464, -0.8847302998197032, 0.4452870100697591, -0.637615912109285, 0.08990419777188392, 0.004179847318400757, 0.15879760033698048, 0.6152632461700326, 1.2531212321857355, -0.23775645865792422, -0.14024377622204037, -0.1761253783357365, -1.0531762364109556, -0.49188976629445325, 0.4460243044793332, 0.35654894630356077, -0.03258402870119031, -0.32868172874166984, 0.3343889213448489, 0.3860772862692484, -1.4444926543309886, 0.5905662354211932, 0.14703884848528848, 0.6590141691857513, 0.20999637490129763, 0.2244280665854599, 0.41390121532801416, 0.3604858883207615, -0.954164340148095, -0.2103131180667037, 0.15305432416658735, -0.30649649030247766, -1.1044736543345637, -0.3006734443903869, 1.8037211589124014, 1.1253559016442822, 0.6645943923877264], [-0.1972816128964947, 0.28742992273961476, -0.09210117844961425, -0.08093623692295406, 0.25339741486371853, 0.042115590445489244, -0.1272200856870001, -0.09146983687484112, -0.33313900989695344, -0.9187197385176491, 0.12656701452901398, 0.003945133674379319, 0.09848482208236684, 0.4022038076233872, 0.11994178846436988, 0.17333222038973567, 0.03366085544635179, 0.1031830597970292, 0.28404742660340204, -0.27721508652622057, 4.372452033254345, -0.7957214929225415, 0.2901643732203582, 0.1914111929155393, 0.48799632926794073, -0.08310353736264045, -0.1216120399834053, -0.6214690684410387, -0.49597096944095276, 0.053601107308795554, 0.00820866951769374, -0.18125735251096012, 1.0155826007900364, 0.6495890201236908, -0.18804036733091284, -0.27067956593121956, -0.4564671257464615, -0.07264863651666237, -0.19836887952288706, 1.2293903345787653, 0.3819418326382802, -0.20279910361738795, 0.015418866577513485, 0.06483048843448098, 0.1513011357698653, -0.06333409887573396, 0.2506318648822932, -0.3305732241690112, 1.9705924857757764, -0.7083154073488022], [-0.6955533067623395, 0.07756138940540541, 0.2826974860635977, -0.40476113590890894, 0.008501407940003293, 1.2840397317068706, 0.22237732922166586, 0.05118976932226895, -0.03923694989654447, -0.1252118980821641, -0.2152785221564941, 0.3793337489232288, -0.36062405899816924, -0.5829418940807404, 0.2675058728165057, -0.5300669913361892, 0.0481102631509791, 0.5908138359250833, -0.36793053310105883, 0.3698695341749445, 0.22412861087983776, -1.327272704062618, 0.048631778508225885, 0.3709807665345544, 0.7713924214633202, -0.2782720343118561, -0.08251903959590236, -0.1623611447252438, -0.3122082760807754, -0.49423368764717934, -0.9109566766625803, 0.0024869942801969388, 0.39906718794460416, 0.47050908043448336, -0.7191591570702952, 0.8087912356009777, 0.32155423445912784, -0.3224724271912931, 0.28234862461970267, -0.6368891229029637, -0.03742105947760624, -0.5286664748395287, -0.10831642422091246, -0.30254360195016455, 0.5472112216177278, -1.0080241421288987, 0.9411631541730835, -0.3783279161924182, -0.8496817322078073, -0.13085193256236352], [0.02561898022784427, -0.20181875873000477, -0.6554182381230944, 0.2090577951520679, -0.2423553342353497, 0.18739342548488902, -0.023939323939492777, 0.32716590993182476, -1.4644028919688588, 0.07364869339055882, 0.7887848208663721, -0.36195039006032864, 0.6196714820842826, -0.14378447000132158, 0.2841977134407486, -0.07300624884859906, 0.1511464062384193, 0.14554556766835455, 0.04205909675017223, 0.8570709390414908, 1.1423026247447325, 0.4725303610658546, -0.23972372203692183, 0.8967093450889909, -0.8319943198880075, 0.36220803032881027, -0.14149389068083676, -0.5506885992681401, 0.3428472845677887, -0.2009411125260583, -0.4269196574073175, 0.01983681832032379, -0.2979232379474457, -0.3164471635102165, 0.7083919362388782, 0.04144445380766358, 0.1268720461439612, 0.10297649972895001, 0.04368602222310375, 1.7009262072444107, 1.173200990351067, 0.33912628843907244, 0.6477537179592311, 0.37539727317164334, -0.7721803621320059, -0.45847427175553424, 0.9604291522655487, 0.44621737877632706, 1.9375554702325812, 0.029276786012117386], [0.12159062706738927, -0.04135467157379126, 0.12095887669216433, -0.6319331657455126, 0.3141893892168567, -0.09718983066746212, 0.10203390089592632, 0.4246844371647553, -0.31426786959665093, -0.37603315745489163, 0.7369207308124678, 0.029223789763898167, -0.27744405191663524, -0.37667621865731504, 0.08677539914615175, -0.03157698221876142, -0.0638133589213494, 0.11217461817037255, 0.07467352658268613, 0.1422657707612502, 1.1179866084236585, -0.24083739129915735, -0.9573548593839947, -0.3538316847035974, -0.3247311902340873, 0.21061808515336533, 0.5621554923042473, 0.275591293916793, -0.6717637027543947, -1.0298220128272235, -0.5274716412141971, 0.3293126758415666, 0.8719162765568998, 0.26546032226095073, -0.20565608960635595, -0.9016979417307109, 0.5432463629545988, 0.2309694281155759, 0.4003741733501528, -2.2772218290575896, 0.7884438922393842, -0.4047547858324012, 0.2407074040600783, 0.8031509912780953, -0.6469703344314947, 0.30066106045998076, 0.25712540914669213, 0.1300937591195104, -2.9173286853592453, -0.8595686204128861], [0.41170466349040835, 0.8839144683621323, 0.13317297172767253, 0.0308757934724582, -0.3508115958928032, -0.8754526445548856, -0.1668216847335444, 0.20449188718578337, 0.29885639894885385, -0.5080864632915091, -0.010016193711352235, -0.24911663011404364, 1.1119671101435356, -0.26724326068572574, -0.47726680566958934, -0.003966004690512172, 0.2892835159601403, 0.30047886881923097, -0.015029087519004227, -0.7000967250231117, 0.23712835487309994, -0.68747096846499, -0.5906221452834536, -0.6577545390920171, -0.3170026851438434, -0.3802177848604619, 0.17927242674931534, -0.3255276965399262, 0.3965156116429523, 1.0499807896286135, -0.13615793136022458, -0.5169767253483316, -0.09835151617599867, 0.42036273365276533, 0.05579527162823396, -0.5305149091593454, 0.10027333609891882, 0.5230666583490258, -0.12118819211107726, 0.41133329432243865, 0.08224109061197384, -0.45737456134565185, -0.22424076100775375, 0.41113753288387556, 0.7475555378520792, -1.7020229509731604, 0.14180442519608144, 0.8815516976192601, 0.35775471872599685, -0.4539174208713293]], [[0.8555383708381666, 0.042734267062260814, -1.3539549701453313, 0.2449878686812378, -0.6685191274669026, -1.1869997539379722, 0.4159728891674577, -0.35845784797064284, 0.15343176857856008, 0.35622032622323124], [0.6596862831421708, -0.005711748008186611, -1.1252079907749106, 0.21153124059354655, -0.7471275100507291, -0.9743436156564566, 0.4614060340204716, -0.20677936840403519, 0.06992950491661533, 0.3878186999127059], [1.7555799663967908, 1.2245460241933763, -1.4185564667056503, 0.999024946436396, -0.6198731383453748, -1.3980764452509762, 0.7161561709906898, -0.8461686124060174, 1.2370884134933202, 0.954427943747168], [1.036330407786161, 0.07464495581211256, -1.5464068495085928, 0.2915517892002997, -0.6112210972515695, -1.3700500433485832, 0.41576357647058665, -0.4272919576124234, 0.19169804161886975, 0.37093176562900715], [1.3619024513526237, 0.7236174805497727, -1.6256267681321792, 0.8158365426253218, -0.2826419454563839, -1.5265452016447616, 0.16045022878059947, -0.9214535784856892, 0.4531923789787284, 0.6772706452119781], [0.8881910022427689, 0.04451578085367831, -1.391389411815986, 0.24692219850664654, -0.663317437540441, -1.2165467250415027, 0.417038484596128, -0.3346699822933667, 0.1468495383819045, 0.37585661417937144], [1.679072215552081, 1.1132533591015898, -1.446306706762121, 0.94368024592385, -0.5151859846185608, -1.44628352204027, 0.564538106378568, -0.9219426649325021, 1.025702660809573, 0.9330493989959925], [1.0984178783688703, 0.22089066333026683, -1.6325700332344586, 0.4112710719138957, -0.4995316907842976, -1.4363544120118994, 0.33207138265098374, -0.524173301646958, 0.23079783363521814, 0.44249333512428185], [0.8230179345737937, 0.040963741487096486, -1.320321069477465, 0.2416303670124886, -0.6741403445172365, -1.1559520119622901, 0.42597512504863383, -0.3337271811987671, 0.13672458920622338, 0.3617058581612346], [0.9967212129561384, 0.08152921465815435, -1.5177199369482268, 0.2999792067304681, -0.6078813708166683, -1.3406817949006689, 0.40767751785306505, -0.4418468739750199, 0.1946827111329008, 0.3672582039740806]], [[-0.6568422690543569, -0.5669576746856517, -0.8637539920291112, -0.7555935108905832, -0.8113429120337243, -0.6704590090775394, -0.8384404624052406, -0.7755866688444697, -0.6424252553936547, -0.730973540325057], [-0.6054793936715698, -0.5309454906481832, -0.7274115975904096, -0.668571198498582, -0.6974138814745656, -0.6202727327726599, -0.7017864954559588, -0.6749547288055384, -0.6076599600689011, -0.6567009097676808], [-0.629813067320809, -0.5545290982131185, -0.8090524924195753, -0.7184967747968407, -0.7672252328789685, -0.6592265045824718, -0.781297410327557, -0.7328632694501612, -0.6172742841243635, -0.708047687133288], [-0.614775136007502, -0.5549962763017302, -0.7514768315824876, -0.6840749146705174, -0.7310599391841371, -0.6267151653822064, -0.731504591990803, -0.6962263186892782, -0.6001260720308353, -0.6745333429135307], [-0.55189823151404, -0.5009661774110494, -0.6166267658512596, -0.5998758643897383, -0.6066168735333071, -0.5621765564648478, -0.600934822983908, -0.6106855400947419, -0.538893533877437, -0.5873311425222648], [-0.6603239512770138, -0.5759307528000872, -0.882030843553856, -0.7633383085881963, -0.8306724205497928, -0.6820106246208497, -0.8619723126552705, -0.770654036448789, -0.6519315532754294, -0.7395411759735082], [-0.5939363591381367, -0.5319948710415995, -0.7196533564254397, -0.6699649328902614, -0.6941369411090508, -0.6092404460457782, -0.6904057868788674, -0.6774175513734781, -0.5827463224081717, -0.6553812637015785], [-0.6597175899517864, -0.5702261820531718, -0.8667546078866265, -0.7511400041641885, -0.8071366681790512, -0.6730468703015237, -0.8344905354393334, -0.772550770867867, -0.6369026910251906, -0.7261229272561739], [-0.5988999316903858, -0.5278522597661527, -0.7259549103305031, -0.6670421117316904, -0.6913751635097194, -0.6085891068836832, -0.7015330133149317, -0.6756012379898388, -0.5867607167856239, -0.6607176391806173], [-0.47379665448656516, -0.4401748201240229, -0.4782492274667298, -0.48357045124745, -0.48107433029324187, -0.46137901440514856, -0.47108815162441825, -0.49193414030444466, -0.44949435163382595, -0.49228075117444287]], [[2.2493841100866807, 1.9466980909979477, 2.1247288766032284, 2.0119487739927826, 1.668972747978707, 2.2891852090828726, 1.921305427666001, 2.2460321864949337, 1.9295902725299514, 1.2258604186176905]]], "biases": [[[-6.564296451158886], [-1.1778341216127088], [5.845535411946298], [0.9989046624011133], [-1.4759263837366383], [4.242886244396664], [-0.8120867886902204], [2.644885527872695], [-1.328167758374715], [0.8475631263376552]], [[0.012813338428705988], [0.04089050626759614], [0.14367134962427794], [0.03619099675193351], [0.1291868970899717], [0.01664747098101684], [0.13981364148937], [0.02612467850189866], [0.006524122540518028], [0.024441603893036474]], [[1.1439844610068712], [0.8281758937966371], [1.014226113389576], [0.892878388525075], [0.5572434663326615], [1.184977949611609], [0.8030689797083124], [1.1375584055168713], [0.8093063542773999], [0.16149491552258202]], [[-6.554135593955286]]], "sizes": [50, 10, 10, 10, 1]}