{"weights": [[[-0.04457370004567604, 0.09389880279923157, 0.2395857488062735, 0.08021363077939664, -0.5616509359485279, 0.19060739983945857, 0.12532668842206016, 0.006889389698400213, 0.41581316116008354, -0.4230317226783733, 0.24182897702956666, -0.2853976350853224, 0.1902943866484893, -0.38318476973546056, -0.4673965867544761, -0.13609105839776575, 0.33783978904356154, -0.37804086651627383, 0.33474774043846517, 0.4188030592209177, 0.19109669223175188, 0.3432220536817398, -0.0557470769742431, 0.2145122583926022, -0.7731084295002568, -0.32466091742400266, -1.01153956475885, -0.2199166789249781, 0.4110260777075254, 1.4039262663585448, -0.11268001865682195, 0.25978594521628406, -0.0008622403129599077, -0.48936244386747585, 0.7933237465327677, 0.3105697869163808, 0.033327907337666475, -0.9283511004107556, 0.09345713154863959, -4.838047069605558, 0.2962547349289625, 0.13059945205407195, 0.340213449218657, 0.4572223580027829, 0.15499204964167665, 0.46064857005859466, -0.22324803267774024, -0.45264217461171685, -0.7664990135745501, -0.6258089619001715], [-0.5579733036244306, 0.1282535816076224, -0.40260202028564185, 0.3512845978023402, 0.38713566178371894, -0.03748009687344231, 0.18477732383279968, 0.5039029332546414, -0.47916582581694916, -0.8754788433230141, 0.2288611366774457, -0.8461944367254499, 0.0005226839458804467, -0.04793420185290809, 0.781542685280141, 0.00244515537818093, 0.07023445008900189, 0.48273609801536205, 0.5170869011959414, -0.3487738202698676, -0.20048082321859154, -0.7226579269865879, 0.2609366241530319, -0.37908680568529957, -0.4553388950625643, -0.9885971957214592, 0.7390067638939809, 0.731321816528368, -0.14291779185932166, -1.7394610554723857, -0.7547716819071998, 1.3479033193066108, 0.567870286989547, -0.7802969019016117, 0.7339656364456704, -0.4826920092024106, 1.1256537558532567, -0.19686366982461928, 0.6729138004775809, -1.0010907602483359, 1.3808368428582438, -0.25881522666373974, 0.12136511739643553, 0.158901274984333, -0.885575936371148, 0.4753821729010191, 0.2256314122263459, 0.24753277534381793, 0.1184350306945435, -0.3953931776374886], [0.1661646647656628, 0.051987194169899734, -0.29944739306422563, -0.2844902611946959, -0.4213134250683621, 0.10289202396956915, 0.004524330859773879, -0.13382534645661986, -0.10512284652569291, 0.5778808537244722, 0.06093524362140351, -0.10582129890714914, 0.12280902224071681, 0.3321588634969854, -0.018213564567123846, -0.11482223953374676, 0.118889263321838, 0.18512075305715475, -0.33302686754279714, 0.2808722236280612, 3.5369376550770197, 0.5545131488903102, 4.637644017635435, 0.21002107578856272, 0.008745078216239944, -0.16931434614982216, 0.43349430849056264, -0.1071513987158819, 0.11973114987318877, -0.47261378675694304, 0.15861949232462083, 0.16651022378878677, -0.5521750267161576, 0.21957365673143744, 0.26150540326811444, 0.00982453668964828, 0.169402979819123, -0.25025039456801584, 0.1451178379782315, 1.6366188455649482, -0.12604380939166226, 0.2557730172541811, 0.2956896952339138, -0.2209830024815042, -0.21127379921897355, 0.2100078581176431, 0.0046383359864027906, -0.001522307613664734, 3.5994153638989657, 0.4792994938542112], [-0.38634987382968855, -0.10159324352728412, 0.00984095293887066, -0.06268424268285344, -0.472410006818529, 0.47775840227107813, 0.4979211883747891, 0.27576993999220833, 0.2277919522355797, 0.04868012074337483, -0.013878985352822918, 0.49570629984315295, -0.3818043206062257, -0.07760761066804288, -0.030460907576061718, -0.6730846026714851, -0.08480534578305901, -0.21333996098649813, 0.014070929627906572, 0.5845900332489605, -0.054972100116025435, -0.26206699621250856, -1.4134301669326013, -1.2273773774646903, 0.10834697316871246, -0.03245325267508954, 0.3317429390617843, 0.1744302611627507, 0.02058748827542016, 0.737607242542048, 0.06206710530791025, 0.7599669443877188, 0.6631235606158102, -1.1447584922873453, 0.024058764872015144, 0.8401330101692464, -0.20546353041621482, -0.49581380258654684, -0.013671109580655098, -0.6168694193676078, 0.6269814542697879, 0.11381440414409053, -0.19136775846695292, -0.01794338543766722, 0.22939476604224443, 0.42346959220557895, -0.3046968119258377, -0.4106874130950158, -2.4460264335294255, -0.505260593838066], [0.10440880467174088, 0.3533878503833436, -0.23637105296290753, -0.2599943250837102, -0.3215409629452857, 0.3879272038265093, 0.1882378673985453, -0.0256472228181231, -0.10792772086054851, -0.24831582588830542, 0.6495094189976173, -0.19300935384861403, -0.22713560843151426, -0.20938788135101563, -0.3501720343149342, -0.03900089153785489, -0.11994220410067236, 0.5693964452585162, 0.1487145597812964, 0.15316027474541122, 4.667224222905755, 1.3513006411156205, -0.6712853773112595, 0.3479984694026395, 0.10844180286072562, -0.2550602525260028, -0.09706388416504705, -0.11023967094925403, -0.15193657263570357, -0.10486976105796722, 0.03871830880377271, 0.38247748799086867, 0.051846529537959915, 0.4116678014847442, 0.07288528687398446, 0.07768178067578256, -0.22350618766914088, -0.3237140468352235, -0.38825291926507316, -0.33269159530834674, 0.4117947946578184, -0.7155499098692368, 0.3010291709436276, -0.3386658497230116, -0.32517289690538237, 0.08866520980606388, 0.297785144192766, -0.02396872015894628, -1.6832675800870653, -0.12652483526029948], [-0.06584920571831224, 0.06644276770592321, -0.051092238160340885, 0.06289247901060382, 0.16287536841198932, -0.06368440966774763, -0.2336642475643232, 0.31822618222112814, -0.29423735137745105, -0.5098565001243777, 0.19828447897597215, 0.014818441939779395, 0.05294493624945994, 0.4413799956654552, -0.04073414745753981, 0.007597345534808335, -0.12201759996733022, 0.017839383881871094, 0.23297243466822173, -0.3095949094560279, 3.5860371612080266, -0.8501633684425468, 0.48864495605800495, -0.17309663894093172, 0.35579588276009444, 0.3128910534753326, -0.213493296191263, -0.7201237957931439, -0.339871841256144, 0.7671229068708496, -0.08467729800052767, 0.054468281920452645, 0.5892968681748622, 0.23553234356933758, -0.08387048473193605, -0.46053999025123843, -0.3427022335000758, 0.34962952582585816, -0.5469867166795449, 0.5970820093529796, -0.07152427416836778, -0.20527868074020136, -0.025314181602185473, 0.37269983216167896, -0.10064753329189668, -0.013767973339280157, 0.22349099379700924, -0.08804872869145784, 2.250254726749313, -0.37350188751058444], [0.16343747831908365, 0.05017974717780286, 0.1447065203097047, -0.06486271394020802, -0.34365514888208926, -0.29358643785232136, 0.3298979318364441, 0.33512863155139005, 0.5069177411270128, 1.3525249999208908, -0.29684176346363667, -0.15613998521586503, -0.37262295963701114, 0.21359431167575207, -0.6955069887500069, -0.6555514601275535, -0.3152501082840578, 0.6927287269579652, -0.27573445526677026, -0.026232888141177652, 0.3517510655680953, 0.5185791909526387, 1.0292663863202798, -0.40075131669862074, 0.3551507583749098, 0.302676710444035, -0.10859478783783302, 0.5650868401719942, -0.25575288119832296, 0.181246808298185, -0.46637045522510123, 0.002679956152217748, -0.4731807632589851, -0.12223070906411589, 0.5616708276862077, -0.27291473058187166, 0.9098268791340107, 0.30572435445601154, -0.8860470758036526, -0.5957798933534453, -1.296727061462217, 0.45262148873474795, -0.7206136449487202, -1.1507960306596934, 0.8571837484551441, -0.37098523560877, -1.3230323314524854, 0.7171359081306415, -0.7255520685297295, -0.037172750086781205], [0.012444709062588273, -0.275367076594786, 0.08332868138855137, 0.26540840007690175, -0.317366500900444, -0.038440163498878514, 0.25836237540054907, 0.053831789398764415, 0.05758970435855203, 0.8237235812834257, -0.2213031089793089, -0.020343232355017626, -0.22792830842010628, -0.2639812885549014, -0.0038149944891151103, -0.08955086378182418, 0.07532306244269701, -0.3074373998261645, 0.06400142374613293, 0.22334580521061423, -0.9341676830774249, 0.25592285226712497, -0.7685184298899966, 0.08285063959079139, -0.5703506225177597, -0.013421637532580402, -0.2033568336599901, 0.32684605276315315, 0.4010797725606038, 0.7348240438756193, -0.5526412980948242, 0.5434835283118862, -0.5740394305229068, -0.7878313574991365, 0.08603458790638628, 0.009330916758017367, 0.6812851150707577, -0.11537316558685069, -0.3367838278403549, -1.519311413733834, -0.8823773705422382, 0.2714636561402969, -0.14729351392122675, 0.2847174207680575, -0.45177008568419713, -0.08419799128016767, -0.10932296970312878, 0.695587666711592, -1.499487130274689, 3.6000374108104385], [0.07038017607669712, -0.039282232410895034, -0.3877510411851876, -0.18164899785798821, -0.4774011112128215, 0.5766302653193803, 0.0995666862348543, -0.6662696328315699, 0.8097144172196789, -0.30135187292317983, 0.32774191204617764, 0.47826065194184986, -0.5836445009882414, 0.567760454955268, -0.23057802234583383, 0.38386017830503555, -0.3732723550825129, 0.2638000760222665, -0.31222368128713907, -0.3226545403262517, -0.9211427771024132, 0.20965496712113205, -0.16076587136261605, 0.21964062781163513, 0.3036687784312295, 0.4627688289084315, -0.19617839587842023, -0.9641780246798448, 0.5433341024383304, -0.7213879053469295, 0.7940152198772574, 0.9484384738657817, -0.02673270005351246, 0.30674797834675266, 0.43799386054233375, -0.2509922641562061, -0.7900663302681484, -0.1439333591711092, -0.26999272492061743, -1.4611097110831015, -1.6874807588773753, -1.015696878575335, -0.12278236246176255, -0.7383197448225284, 0.08431363188854354, 1.274773405044172, -0.4794137881223697, -1.0265469655806696, -0.29881166182026686, 0.06626760056476065], [0.17811670256022452, -0.031393614090178705, 0.31364834614334197, 0.13728839980537857, -0.4250334022275272, 0.0539109550241328, 0.03323132304394342, -0.04512267666445434, -0.6754506333216181, -0.027145194842284743, 0.3724681684665606, -0.21474395904287594, 0.6150467203352077, -0.625748042669291, -0.2817063071927042, 0.0893586506559779, 0.22925658158046122, 0.03769869134448642, 0.4075277346237222, 0.14765644071035028, -0.9115976552467459, 0.494037076604912, 0.1353434365890176, -0.22207124644845846, -0.4221903696272399, -0.22549961008322164, 0.0654316783236882, 0.3070246520329646, 0.6459190402133507, 0.5997290697824759, -0.5234394654804303, 0.7239835436790144, -0.23960818237582124, 0.008394662588812357, -0.5676220123261009, -0.45195926033641143, 0.2561691484222478, -0.07164916153343207, -0.39232046785951435, 0.7678995134883272, -0.375029358234593, -0.4388101048034634, -0.005762165860611543, -0.2601130193258826, 0.39967586585199943, -1.612803573092794, -0.1500951075660998, 1.4331581814442784, 1.0552362422950163, -0.30978856861569043]], [[1.4429423221580293, 0.41778215199190055, -1.021666763825904, 0.6411299711232278, -0.15725114020253037, -1.0098653596302456, 0.17907060939135822, -0.5797738430387228, 0.8003198619552955, 0.8856148486475813], [1.1370217713130968, 0.2558717844414832, -0.6819841177664433, 0.36527556848511844, -0.2059599606527286, -0.8844663286040343, 0.18028906745146822, -0.6239542110160299, 0.6655007733781169, 0.7755386775975041], [0.5223486967044433, 0.5388240723493509, -1.0444071235116386, 1.2132881621866685, -1.4916917130600846, -1.6742888182638482, 0.7955110973935189, -1.1974213611738171, 0.622501765302784, 0.47215458782842107], [0.31476537685852773, 0.37982676009273814, -0.9996216841582061, 0.8544048566444231, -0.9903864250801439, -1.3184996944686784, 0.7223907107453021, -1.2906293297937075, 0.6369063916874871, 0.5897302426933051], [0.10327072328579695, 0.31532547021099444, -1.2606947910967465, 1.220827712615393, -1.1671043506876781, -1.434317755063724, 0.8512996511428388, -1.4424527297782235, 0.5560656234933578, 0.632871057443907], [1.3466419810834616, 0.43276028496167646, -1.0459108253514324, 0.6917113651343131, -0.3942928918738637, -1.0916145258027714, 0.08731252666357264, -0.7023345006466835, 0.8713624570972063, 0.7839377825714018], [0.282590832626092, 0.42323390511599435, -1.1659109224513073, 1.232728842035037, -1.363074317366645, -1.571316648688851, 0.8606650033641374, -1.3378234728543208, 0.5675403714022126, 0.5496159270691939], [0.42267968866483896, 0.475758988563702, -0.9148673481629078, 0.823315353700657, -1.0489922718362636, -1.3764664867859544, 0.6769902705929672, -1.2870215368290212, 0.6876278444714611, 0.6014348778205026], [1.4542174577810967, 0.4141030907843424, -1.0080494425134419, 0.6325741588141495, -0.11660965900037619, -0.9952469530720094, 0.21208695575411632, -0.5459014090421003, 0.7877856134195507, 0.8927404658361556], [0.330824567113838, 0.36829693097394034, -0.946214302792819, 0.7386073365001068, -0.8721399260919094, -1.2453000741002667, 0.6874937141155332, -1.2837311096705772, 0.6655281415029886, 0.5963604570662281]], [[-0.5858417627979684, -0.45257081986480785, -0.8265668239710093, -0.6863953247996257, -0.808773918040831, -0.5867714341917696, -0.833131128657086, -0.6972658009114716, -0.5831438818543393, -0.6386820554393781], [-0.48499588410817973, -0.37945361291461904, -0.6884049299133539, -0.5858742797259994, -0.6979837080252888, -0.4867971802713248, -0.6989977210542512, -0.5861657684175366, -0.4963814376415243, -0.5570438601353535], [-0.5325857465625456, -0.41894285258235425, -0.7697373269784753, -0.642275089614473, -0.7661490812078707, -0.5491847388938397, -0.7766861417462432, -0.6484308434293246, -0.5307497583161431, -0.6111322908141626], [-0.49656328723747967, -0.40431582363897633, -0.7069303750288083, -0.5998079149867176, -0.7271665004800456, -0.49537362307478394, -0.7234044121067134, -0.6047450449452444, -0.4915881612744132, -0.5722459335220167], [-0.40934552287703363, -0.33809299880912, -0.5742555758319231, -0.510139193135429, -0.6020741520973759, -0.4078784444771483, -0.5940808921328942, -0.5169762729745491, -0.40355052798075985, -0.48543025109962407], [-0.5999586526918065, -0.4705173284762861, -0.8462196621142061, -0.6972276160372107, -0.8277639174230518, -0.6090185490624412, -0.8567434224658622, -0.6952129536069175, -0.6036384250352728, -0.6495864732979394], [-0.467735156205477, -0.3754166173111406, -0.6804481085067058, -0.5869521046889564, -0.6953942682396985, -0.4703429992866915, -0.688067463346446, -0.5879763295745202, -0.46555258827052837, -0.5554028976643165], [-0.5899711688086502, -0.4569228514285257, -0.8313204118839973, -0.6828779936622205, -0.80601312765675, -0.5905628795771583, -0.8307953901527022, -0.6954659894089044, -0.5788046809893832, -0.6348295640582423], [-0.4750702368212458, -0.3728121467473067, -0.6886505651453881, -0.5857068561877651, -0.6943105960948482, -0.47215558855315853, -0.7008690321027603, -0.5878613721069073, -0.4720428326027947, -0.562126248661616], [-0.31406029712077005, -0.2769539475396422, -0.4012185811881873, -0.3677145940168661, -0.4317610968874998, -0.29309171886376795, -0.4215203646453196, -0.3749328347055823, -0.2944141168969266, -0.37226348655568436]], [[2.151282450145513, 1.8187100866308166, 2.01371800711923, 1.8780483679405198, 1.5085187918225094, 2.1967756441922717, 1.794546058770031, 2.151142748427882, 1.8097985088649877, 0.9182969712430177]]], "biases": [[[0.5056100298871118], [0.635107083693849], [5.927752127791952], [1.0377285911304062], [-0.20435659096770964], [4.535075432845705], [0.4911263493284482], [2.970272804059188], [-2.66646285496977], [2.6146136236000617]], [[0.18895283167822893], [0.01434326054473111], [-0.22942197621438742], [-0.42522723959594577], [-0.4217384365673797], [0.13319501744670376], [-0.3501320947485862], [-0.3939098892346104], [0.19339507974458942], [-0.43439625944258564]], [[1.1540449087454294], [0.8273734089992155], [1.0266032744478935], [0.887463013530056], [0.5150545305221119], [1.1935161950885271], [0.8071615957273945], [1.1504751839424385], [0.8200901547879798], [-0.0154447307013847]], [[-4.726101899413191]]], "sizes": [50, 10, 10, 10, 1]}