{"weights": [[[0.1281411284039476, 0.0394896359490574, 0.12152512182211744, 0.18945563604436816, 0.4043402316048582, -0.3921174725331482, -0.10159886324999594, -0.14391030796812704, 0.2237225125539745, -0.12459403894774282, -0.11963647004707009, -0.00012816134811243914, 0.06068056045290524, -0.08868615194833612, -0.17866919426178327, 0.265468741862344, -0.2510476016318047, -0.0737824309497365, 0.1306735615204047, -0.261617167009731, -2.4591266222869472, -0.8213679151431148, -2.8454997992142914, -0.2882854324841432, 0.41469416239789664, 0.4346192581571877, 0.04016627388048644, 0.23946125795719211, -0.36388294148121825, 0.3059621645257465, -0.3381737372732076, -0.40792334835095123, 0.1991835423027504, 1.0265621222965786, -0.5577197341439188, -0.579037082272786, 0.21275891768022695, 0.5087680638266345, -1.1289063856701889, -1.0756618627960826, -0.1222919797384639, -0.10863865565204132, -0.1893866894102324, -0.0767206493238632, -0.03767994183964106, -0.09263266384472166, 0.03729350940135599, 0.11036641339589819, -4.9469225843702365, 0.03792137533310514], [-0.14718738939094825, 0.37144691705803695, 0.0230076253240009, 0.6671324504098435, -0.2155321953825167, 0.3948398689536314, -1.488432786028617, 0.1562701743664761, -0.5386580203531591, -1.108954622112389, -0.8061698157079572, -0.1662109025468556, 0.5624092596637682, 0.6596934990183196, -0.05154992986877113, 0.28900266774763594, 0.5891473812747091, 0.290082648060389, 0.5522673838638851, -0.08761810179867582, 0.41739123101670245, 0.04527274003451264, 0.44473714902328104, 0.17699367186537354, -0.30960205547797565, -0.2530405066616943, 0.19270409238238273, 0.16017979358281548, -0.07698702430045821, 0.18389678347156574, -0.7470644045993395, -0.25402440286262634, 0.6627739688983286, -0.19206938155002978, 0.0717383638629571, 0.37063262010502934, 0.455582151812009, 0.14836675347100414, -0.8656446379847836, -1.949716622265404, 0.2497182459868964, 0.006753443539571999, -0.043532112548389575, 0.1207922735762543, 0.38640935016488853, -0.44899643739405504, -0.11876014882557201, 0.1699669803817001, -2.1152730127618926, 0.10957337162397582], [0.298167469899038, -0.2498479719869233, 0.16608955245208734, -0.12841473103311743, 0.15388024515756732, -0.5655499202675557, -0.5842828717396957, -0.01125576773879534, 0.27591506586157705, 0.605848528324162, -0.245801980006362, 0.11996597317332808, 0.14150327231523652, 0.08380529307101206, -0.010674107658735532, 0.308645357495754, 0.09564590643999686, 0.08628308786242439, -0.3727811162398446, -0.17927900030947075, 2.640193040251232, 0.912993986670451, -0.9641138910857332, -0.020633354858441297, 0.04524643313652835, 0.18005371695561373, 0.1859470941354034, 0.24662352360086923, -0.5992048459570313, -0.009431676660399485, 0.11422141872284727, -0.06787354892986108, -0.4754670889476798, 0.6215655258162761, -0.998150129029257, 0.275666687132193, -0.07581532323847752, 0.5494514886650791, -0.3044623550999307, -0.06826195546165248, -0.5933558147988288, 0.05129308048915756, -0.19069394585842175, -0.397992766674577, 0.03547805109450252, 0.010602175273876285, 0.3056293365689504, -0.3381211428353123, 6.059248208065659, -0.46380402178231944], [-0.056310610137333315, -0.19533395714179894, 0.015940050841528136, -0.13073101822627545, -0.19237949530087775, -0.12357695543343716, -0.09125002989188427, -0.031938703692449374, -0.1699814707382864, -0.29068050206939855, -0.04839981133603953, 0.20142376175712037, 0.0827211263711007, 0.5863605304995196, -0.03525944546509213, 0.05488944129409717, -0.029167626484508106, 0.15366218625304148, 0.03943841645209403, 0.19055579724811925, -0.7605923350548397, 0.21945711081716776, 0.037399440060756316, 0.013838215266386804, -0.10677655720818194, 0.10841763419404597, -0.5533227272143363, -0.3791990517164146, -0.15581808525075547, -0.6453076755503057, 0.5103335842753218, 0.19067076303944983, 0.4994668347868317, -0.2252531344352605, 0.43779713890926336, 0.5049553681072119, -0.42616192441744916, 0.23485327404378992, 0.26320801459312243, 0.9431032147572297, 0.30234615151124544, 0.032179225336532453, -0.05591379533639033, 0.2119113255221558, 0.5948802487922938, 0.4674924465823835, -0.3225973648752876, -0.8456076141650619, -2.6949275279447624, -2.755317575305888], [0.21233823161810592, 0.13222036213933744, -0.497078572682511, -0.020551645744433637, 0.17795872905282864, -0.279991710227587, -0.7121264340846961, 0.28435786011433023, 0.011251344357271825, 0.7683198058796212, -0.9017843291473341, -0.32494149909586517, 0.06777846093074827, 1.2354122124739968, -0.4331305348019782, 0.6978104836254451, 0.3387242578607081, 0.25341331636833864, -0.9289210527967343, -0.15366454496969686, 0.1316642954589676, 1.1979704776504156, -0.35482059192499904, 0.04688757460037108, -0.5310814045544967, 0.457228424061769, -0.18478868628215386, 0.6542011696379375, -0.2727083349424725, 0.05090613225248437, 0.31234405394879333, -0.3263549904512296, -0.39764172844108175, 0.06961527142365828, 0.24868856230041364, -0.2888428382323293, 0.11317415125778094, -0.05233984495307494, -0.12817206746007648, 1.5056791139453123, -0.5293207416641798, 0.0477315289150168, 0.4614756958481167, 0.6944919127243545, 0.3887396106430734, -1.082801501322171, -0.2513448851766622, 0.9746720904866565, 1.950192607732915, -0.3168421002169355], [-0.0913749016935365, 0.21933909927149026, -0.20584395256760615, 0.15915365493753453, 0.22122932304092907, -0.48848273670937864, -0.11975805119509796, -0.06882034773307814, -0.39580416494881104, -0.571536941629105, -0.009555685913973091, 0.12265380139462002, -0.06838310150085053, 0.5257059867781656, 0.059732536799892495, 0.2360925582490772, 0.20840778234239365, 0.05023946450670384, 0.35828829056033384, -0.26406755369348767, 3.6168888524995135, -0.5291456107964089, 0.34891000447954185, 0.19527457275581794, 0.10927185072884973, -0.3071624650723414, -0.04561977250784617, -0.8363204987857468, -0.2722850549488414, 0.3813206377517757, -0.012960114034448807, -0.3518496461145507, 0.8285291751548884, 0.13473180239213395, -0.2909666192276209, -0.438398814812677, -0.0914500906865092, 0.6411851923997497, -0.22077996894599397, 1.0732499183013862, 0.1917261852588258, -0.165331289133975, -0.0056558175020538885, 0.05162915874144635, -0.03864489255758226, 0.09909433608604563, 0.12347174165068409, -0.18105558069079608, 2.40964275518853, -0.556728283708419], [-0.16052808322674286, -0.41022435336810303, -0.47715752305454606, 1.0955575213213617, -0.38538808909107264, -0.7870513681024859, 0.0033943812500293355, -0.013370705159710566, 0.6817942263509978, 1.0011514123292407, 0.01372442255803377, 0.5720172260295403, -0.5347354991863854, 0.663381629030587, -0.13793062188259503, -0.17386133384157282, 0.5210206581838798, 0.15114100323915092, -0.8008247403084139, -0.724853615638811, -0.7202912972180375, 0.4750972896739976, -0.04947136719493606, -0.22430731500237855, -0.12230630319565002, 0.5749429374512927, -0.15524892160049264, -0.2452624239443917, 0.06794942416057198, 0.12738257476180437, 0.02692324637764712, -0.487414915456465, 0.14563888829656693, 0.3112879921449457, -0.7669418269588725, 0.2257721921511543, 0.21248822078349774, 0.6739952481956252, -0.23388700661790987, -0.3642322912784973, -0.9025782528186768, -0.009359330360279028, -0.19308150548957942, -0.4766633567984278, 1.0783412135494848, 0.37603095475669335, -0.5500301563266452, -1.0712577098501594, -0.7149577086563655, -0.004403163448471857], [-0.1786232185836539, -0.11408458784545905, 0.1309714766600036, 0.5920700962003594, 0.6248167669791954, -0.32676030307307286, -0.26760057171028756, -0.014502648796344669, -0.7607384792900501, -0.2325744995898535, 0.6215036528549895, -0.3133221632931665, 0.07251850478524054, 0.24083663773901373, 0.3255698758783337, -0.2195085464549102, -0.4920003507821203, -0.2651946278163234, 0.7865207343361316, -0.2585232831343981, 0.881529835906385, 0.1625030784223999, -0.014630487025470625, 0.08760934637147498, -0.01341973244105521, 0.7876599153210591, -0.5689933235727054, 0.08909564166534925, 0.6628721423677323, 0.06498472931024701, -0.6516076170878526, -1.0278331538187777, -0.2496332423722223, -0.2588010512722269, 0.6449744832584101, 0.6249845004215601, -0.18327054585757205, 0.722330964966261, -0.3571239390292688, 0.310194349805282, 1.2024834714118113, -0.12245188141235581, 0.13350021698953746, 0.4332085581198592, 0.025793755981536225, -0.2026454475808286, -0.14948751712807654, 0.3285190026079934, 0.9156253642727813, 0.713635025745826], [-0.45686333715021604, -0.09862961209589821, 0.25586931388907425, -0.9213213658669049, 0.514201253168905, -0.21643905328824903, -0.21349193711531986, 0.7836836304139094, -0.9668200296074468, 0.10584938438561453, 1.017207567251364, 0.22142252508800553, 0.06906378187313118, -0.4414229409999247, 0.1895227940118481, 0.022464211510920783, -0.13902416399727924, -0.17952651393837699, 0.027089355062813954, 0.7630748928516239, 0.2574222464116999, -0.5881021224312628, -0.3057158397815048, -0.11545210324058891, -0.46005929632646897, 0.6547007681489468, 0.7510481212240854, 0.9610210481287087, -0.8724085591397818, -0.9489740960234707, -0.44336622274857634, 0.564676532690137, 0.5844820994949038, 0.03891013748259704, -0.4310730895310737, -0.21381579276667106, 0.15203078775561124, -0.21275349391747733, -0.2546457687858774, -2.748126636386221, 0.22192819509726133, -0.9039117256683902, 0.43021289329795814, 0.29909529465427553, -0.18304038079967005, 0.26836598095378467, -0.015754958983526312, -0.08771908580545618, -1.5928092522102693, -0.23564824223251454], [0.8607693111726509, -0.12927263824668064, 0.39045886036797495, 0.012209703981313172, 0.5291098033858483, -1.1898907351134365, -0.418310117131219, 0.1683724714218782, 0.6622844922891316, -0.15580998364463686, -0.9392985811776893, -0.48461980405977856, 0.361388510350613, 0.10842432012042078, 0.6084501808006872, 0.9067953469938422, -0.4070852257353651, -0.3632490565625533, -0.1783890348905807, -0.9163653881642199, -0.3737091448040564, -0.820956211695209, -1.6364429110493914, -0.08504373586797588, 0.3125585174924876, -0.03651534744353923, -0.04508186527336941, -0.14262538996551236, 0.548025634227015, 0.1053444644061609, 0.261082695632665, -0.5312060342871637, -0.9610446093205001, 0.07895061517097185, -0.5447953444251267, -0.45452390796839104, 0.12021926183926958, 0.9093728179188179, 0.44079221134528623, -0.0678903065890995, -0.16501383434347502, 0.28204597302976886, -0.4193225011295196, 0.05039401592513955, 0.5929363603294194, -1.184431464937838, -0.004329797791243175, 0.6253717734987065, -0.06343247077649669, -0.19751945054130732]], [[0.8329088952245431, 0.3994353022848387, -1.1212605891636034, 1.0093735448283467, -0.5916842985630582, -1.137220381797669, 0.4068484232881893, -0.6209410365649536, 0.11050552299935178, 0.3519057348464998], [0.6254513729108266, 0.5189581095846131, -0.9165944111388811, 0.8769198371868587, -0.5896160707722008, -0.9810331533148071, 0.32047541142734604, -0.5278563509718588, 0.038114305082296684, 0.14185791880967105], [1.8920362128687211, 1.5236071686473334, -0.5606368681014573, 1.223465306262041, -0.9639333743159002, -1.0247752328905628, 0.8180025784309481, -0.5247863089884952, 1.0395333037528685, 0.06066169641198299], [1.113280081971776, 0.20140729962475373, -1.3638282559752597, 1.1823770341495727, -0.6100538470757405, -1.3020385811795243, 0.5265157266538233, -0.6804209290593106, 0.21201221487444186, 0.6245446872270061], [1.4742585091797156, 0.14656433870797209, -1.4385788087515021, 1.2318937084831574, -0.5694707844532947, -1.4807810156637815, 0.7624374308766602, -0.7468952589476444, 0.5846714332199576, 1.0123889216183544], [0.8862823369960778, 0.3653344163085939, -1.1715807311198083, 1.0376117283360542, -0.5945437761609834, -1.1690355877451462, 0.41240415300110805, -0.6178128524278225, 0.11582476584696245, 0.39703544975540267], [1.8339455086867884, 0.6191638060145273, -1.168771387559265, 1.0900395046362825, -0.6177794159304678, -1.5674109567512098, 0.9904536124379891, -0.9526725399293602, 1.0583589645206175, 1.1602013630360248], [1.2142295727050085, 0.21479695334701662, -1.3928063054745152, 1.1879838102971747, -0.5907812078848748, -1.3568364136406268, 0.585955262099455, -0.7037059316122367, 0.31946842424015925, 0.7370253787237562], [0.8021610640973944, 0.41684800241726516, -1.0978250774314526, 1.0005182263293833, -0.5879292618915491, -1.116515500606787, 0.39766548486523434, -0.6056131609326568, 0.08787220590950594, 0.31641874688954247], [1.03589873131459, 0.23900484328492674, -1.3172176116078875, 1.157784033166492, -0.6049719598924331, -1.2669271475237802, 0.5039445223847125, -0.6811159005622179, 0.18384311585889043, 0.5609849334998117]], [[-0.6329981679451907, -0.5404286283870295, -0.9057108443571956, -0.7614581574305558, -0.8635013421145494, -0.6486889641765712, -0.9022958048226348, -0.791861686865863, -0.6229275081864222, -0.7287335279593248], [-0.5777201436857948, -0.5020204926830898, -0.7803982506747204, -0.6632823304099957, -0.7404701687180973, -0.593566415968065, -0.7517960825543978, -0.6791929660381114, -0.5839248873643412, -0.6464064946682396], [-0.6029336205257159, -0.5261535339872236, -0.85419598173333, -0.7178737264341076, -0.8132965653672458, -0.6338923213075365, -0.8365448605350909, -0.7421428378022346, -0.5947903947160054, -0.7007076331248497], [-0.5867452554350259, -0.5258079743123616, -0.8011779359707188, -0.6797210014279629, -0.7743385927357089, -0.599871455304457, -0.7822878944952226, -0.7014761528541155, -0.5762666149180631, -0.6645535584234222], [-0.5266495538801421, -0.47442561387954124, -0.6778077567250461, -0.5935316293148979, -0.6483056269779461, -0.5376798644439514, -0.6479529587414586, -0.6131293124478363, -0.5172349185002685, -0.5774020348434126], [-0.6361422313836773, -0.5492759851987177, -0.9196956321784973, -0.7692302269586285, -0.8816653891355568, -0.6599814251587823, -0.9250951323357773, -0.7867781956843715, -0.6321768855185869, -0.7370641923070059], [-0.5669344713608742, -0.5037370355027776, -0.7748747077052746, -0.6656439775863862, -0.738255491786441, -0.5832793878772805, -0.7415568563595092, -0.6826591263691748, -0.5598552530329174, -0.6458937040864642], [-0.6355453224341877, -0.543466528177813, -0.9083956722361476, -0.7562696546945951, -0.8584856961480936, -0.6508807170094987, -0.8972419402126656, -0.7880542115096008, -0.6170572666798722, -0.7233158533959873], [-0.5712038870763664, -0.49913830835518636, -0.7794445079115291, -0.6618036524052513, -0.7341489466471707, -0.5819357581149712, -0.7511748669930052, -0.6798626438865533, -0.5632296124321512, -0.6504062290856664], [-0.4567303736175966, -0.4210536312318461, -0.5381934031489427, -0.4810284271507934, -0.5199779163378628, -0.4451285330704323, -0.5127153613379861, -0.49614744652938014, -0.4349667458683928, -0.4877783879366596]], [[2.1804975864832974, 1.8628854417997913, 2.044791429447293, 1.9275993469418948, 1.5958266886501997, 2.2165612786829683, 1.8432774092017883, 2.175512128496298, 1.8486231293975557, 1.179413261628925]]], "biases": [[[-6.487623539342481], [-1.669685433126321], [5.035733515087537], [-4.493734198075183], [-1.2444995190923906], [4.209119055835596], [-2.0876497127133153], [3.324685831971785], [-1.6776499708984813], [1.9026742964820884]], [[-0.13309000910848573], [-0.09496119908069792], [0.4973874152918051], [-0.1456151173281197], [-0.07779201407953316], [-0.1496320759067287], [-0.10308523522210844], [-0.12394897297512202], [-0.1361307917333374], [-0.1483313548129975]], [[1.2834173715593544], [0.8726544821678448], [1.1063214761529163], [0.9513603981644764], [0.5655981678106382], [1.3299533869818638], [0.8498957949719202], [1.2731925989249588], [0.8539068566538515], [0.15351078516863337]], [[-6.580956877289653]]], "sizes": [50, 10, 10, 10, 1]}