{"weights": [[[0.2418694528384352, 0.23677611848433064, 0.21003841166347764, 0.4169281596883568, -0.6547318002999276, 0.28684402868395636, -0.021239444060368907, -0.19475488842385588, 0.43721444304395, -0.8960137893037702, -0.06987294528676355, -0.21063747410405934, 0.36147113914580875, -0.6197130292877511, -0.589135355133153, 0.2726606195688282, 0.3637459802260052, -0.20511696246166566, 0.48248044399409645, 0.04993561816143585, 0.14860890952240047, 0.25948132200806306, -0.28508311303947154, 0.015866012149016687, -0.28562469550359215, -0.04133047675859668, -0.507028742908895, -0.6254127415971886, 0.1586760027532192, 1.0113079148953807, 0.08024151217378557, -0.3848302596987822, 0.6221352427863285, 0.18350460249956904, 0.5510198469541167, 0.38397504210782624, -0.42775311215572065, -0.6817714579839211, 0.012275419786335054, -4.771106211864973, 0.12305966035313226, -0.10996109704969587, 0.49318270361625394, 0.12417491588520466, -0.013819843225591093, 0.627490848354603, -0.11552029430408377, -0.549564758500116, -0.9549639165500541, -0.4043213992127187], [-0.21255314534305197, 0.3204329418408035, -0.3831497118498012, 0.21486051295733785, 0.4332813276196182, 0.08883710140864988, 0.11531600846640915, 0.26792315018046053, -0.45435786857875404, -1.1132422367171677, 0.14975626529208927, -0.3256756240342842, 0.1847876573027391, 0.24594654007420466, 0.36194901747586283, 0.012615324963600894, -0.14175971995918446, 0.329261418196849, 0.2305725764136163, -0.47565836091179586, 0.11393783014972265, -0.4455172943698341, -0.06367228797228099, -0.17252890907671786, 0.05294805665867766, -0.5479862900315561, 0.183259038395294, 0.2204866958378585, -0.2560383206072288, -1.4360668586680643, -0.33725534067837115, 1.4611364628763621, 0.321747207576315, -0.5774292297176249, 0.9617137988297677, -0.37812555162194134, 1.1271423190008258, -0.8201443729277397, 0.6624522627023993, -0.9380578310846417, 1.2816430052784142, 0.1293336424714333, 0.054495367848779876, 0.6743745788074007, -0.6102407232360081, 0.7596903486750727, -0.24173274457211877, 0.08075530885683545, -2.4834758352838917, -0.5151633992410756], [-0.044119078003276906, 0.014062557445843787, -0.13119594164531867, -0.025305776307505124, -0.23997061731877825, 0.029563398960722118, 0.10330509491031921, 0.04257343709158189, -0.01402652397887602, 0.6017616799037188, -0.05993727558083445, -0.030556304935028037, 0.011940233572546154, 0.10561231080387516, 0.08995533802784443, -0.24955760723333006, 0.07749323783767267, 0.10565605748547047, -0.22623684324438417, 0.026965903032289434, 3.4290403598697647, 0.34707608295355513, 4.920865363333851, 0.03258296687649952, -0.07143250415969991, 0.1442498339356919, 0.3865050870692519, -0.1497325194862548, 0.10389770515702725, -0.26479139288782844, -0.31086268617177176, 0.017570778146785156, -0.13422625528767698, 0.29139542143467523, -0.021470204733444548, -0.25270798137842665, 0.5177866489042373, -0.019529296409440428, -0.07880058255586128, 1.7378981159548894, -0.236158500465853, -0.11453111025481391, -0.02410424509950567, -0.1868721197728471, 0.03791931969395311, 0.13616957838798002, -0.1300358043094123, -0.06871099651562239, 4.3820033028708485, 0.6695201751834301], [-0.5757718847672677, -0.05699327398423601, 0.0404994807846288, 0.06938065800030868, -0.46298041704254683, 0.34026975244821345, 0.6584510655573735, 0.15209961676098058, 0.483335293930115, 0.07945568435615029, 0.16004153384624148, 0.3116213507203965, -0.6017891478349614, -0.6257406102472941, -0.13451354371667645, -0.5737684518488896, 0.08544373248955772, -0.13488881532696528, 0.20588521886815253, 0.8202716040828943, -1.919129159815702, 0.2189889733316663, -1.2311995987276514, -1.3840869808265124, -0.15220147664512074, 0.29197510975641316, 0.05798200599189311, 0.5242641095377722, 0.21665587157369623, 0.38445578004156356, -0.2083097887889228, 0.9930042387281707, 1.007889212396593, -1.2562742456483516, 0.30981274127604125, 0.1226479578504937, 0.19083397815382316, -0.44856791871937207, -0.1719881264625417, -0.9716282306960482, 1.458363222861025, -0.03190796440861644, -0.3752606801915665, -0.629984668241001, 0.19025170308570102, 0.3712916896854889, -0.2382657016353921, -0.3747180212719416, -2.4444433293851313, -0.5388279877184144], [0.2524282306223047, 0.562922130860312, -0.10465423322352381, -0.22458078438761903, -0.6245464099051551, 0.4013239808590268, 0.07469649794188692, 0.09800538648399446, -0.3712119933009361, -0.1812690613996068, 0.9019940467984191, -0.2648789740959542, -0.11425057192278217, -0.3296392368503796, -0.5017754881733629, 0.10778169767426565, -0.14914164718996342, 0.5260133393900689, 0.13386737617321287, 0.09602424319084756, 4.166700123956522, 0.7185668442092331, -0.18242730481676045, 0.4978595150159833, 0.03877626282660668, -0.6611498474570695, -0.12634618925067273, -0.3755901123895975, -0.14318011376506457, 0.17690193185215392, 0.10195072089900487, 0.4345376149919089, -0.03212303653006184, 0.3997939148702438, 0.19923015655749596, 0.2076374238286662, -0.13745021207604158, -0.4548973234621633, -0.36794477133773434, -0.0964301666174144, 1.0885391101648927, -0.8104430935178039, -0.23144440989026227, -0.799910840513665, -0.21914796214524243, -0.40370569856311567, 0.2858135493919217, 0.4025341354689345, -1.12712054956946, -0.1572902226225535], [-0.19966179747854138, 0.28584325003553096, 0.08481382957627458, -0.07897735631305833, 0.45062869474636424, -0.2947315611589351, -0.27640258580014665, 0.028015868994722356, -0.2223406569415501, -0.9650352854910423, 0.317011765877598, -0.17358481550403124, 0.02997151323750329, 0.2087656891667977, 0.12264261815127056, 0.2956941389697137, -0.07491194459714338, 0.0036461272784977096, 0.3638554085889097, -0.13365871639383944, 2.1799122518852805, -0.6887075766816598, -0.11482908874751406, -0.37013892162717305, 0.3627359238532358, 0.18847126049047025, -0.35641808821000215, -0.3100979151277014, -0.07563718257094741, 0.6770760718524106, -0.04183963821719671, -0.18884094068479623, 0.6253409057810048, 0.33589127311401495, -0.04760235952261979, -0.6046476094048453, -0.3869049508734301, 0.40251434251859425, -0.5328815108020757, 0.4796174112322891, -0.3188590798513675, 0.2767925477885865, 0.24770493969861077, 0.43220501527709293, -0.46604540523176613, -0.08470581712406322, 0.43015054626524035, 0.19598142501385724, 1.5252423635242525, -0.17987013318096137], [-0.16910485485108093, -0.15975456801792057, -0.20272998232537756, -0.23094141992974943, -0.1020011815955693, 0.07351163219871235, 0.28461583820725334, 0.5063380945279152, 0.3191966692636171, 1.2385236472681809, 0.15266183732079258, -0.6339196223412829, -0.7840259432364367, 0.1336315808397867, -0.1724825204622163, -0.34559738964516484, -0.26950304828993554, 0.7766512600031223, -0.18074848092652376, 0.11105861040306768, 0.48447887208754353, 0.5221810460609818, 0.644918213383846, 0.2564306963636115, 0.005181352345982459, -0.08596262574943957, 0.018792441950286714, 0.6284752719825241, -0.25124963367126874, -0.12433913018856119, 0.10655728314699983, -0.238338978782792, -0.14836421855870693, -0.49758049019760736, 0.22634291654061958, 0.5898768555317236, -0.00013791778445593496, 0.10923395932540993, -0.5567868952372408, 0.18734319234008587, -0.6937643306561342, 0.4077831817914839, -0.5336946014713655, -0.7706231238529135, 1.0704692326583682, -0.7307756334828336, -1.1144359035493763, 0.6696171472560104, -0.7391421747750473, -0.7812228756417112], [-0.022643198747307223, -0.2961844007392351, 0.020485006805077574, 0.251047037845347, -0.23288925055123444, -0.0892258750383342, 0.30145153175072104, 0.10673451032450174, 0.10794510184045426, 0.9143359701462875, -0.36194970550774963, 0.028304505520662725, -0.2441024597650012, -0.2934939532418519, -0.06531228675696649, -0.04854579047601851, 0.04635321960262421, -0.28953004998928533, 0.1534725893786963, 0.17971205934839554, -1.2929183211943398, 0.5636964252066452, -0.9228972244137131, 0.18270236462055717, -0.33482206207326265, -0.004096459400947646, -0.1537163201219722, 0.350151666470986, 0.17079186099036678, 0.18107740565882713, -0.2945690758592332, 0.5679913718972724, -0.32223906222767956, -0.8890177507389414, 0.09115470002728694, -0.11251560180598122, 0.6766272426159748, 0.02523788644568267, -0.3338861826220096, -1.3178853491662392, -1.005059503901681, 0.2728557001019518, 0.027626590818730083, -0.06239903395768463, -0.37837762354593996, -0.10538723958414281, -0.1917690485020722, 0.714937052127874, -1.69599228254202, 3.6085106207006237], [-0.8781546583045853, 0.42015002952963626, -0.4315626975781423, -0.5219329498213592, -0.8729854606347017, 0.9226704729322919, 0.3228416144417497, -0.5630065053970682, 0.3977640283728852, -0.03355861324837044, 0.48061488253807094, 0.7746816928330088, -0.4942203739149033, 0.49325353489438817, -0.22322334041438507, 0.24967861442255349, -0.19134180897573033, 0.13474391251417478, 0.3016860682561006, -0.2690472462975057, -0.5500947376289663, -0.02817779044546992, -0.22771653699491765, 0.3589662541810499, -0.1398737725704604, -0.40013090708638727, 0.040934690987994356, -1.2928741229890126, 0.2805437619633617, 0.14670863178973859, 0.9347736120585847, 1.1349427082111718, 0.6072755266093018, 0.011473493557421676, -0.09874886998098911, -0.9472864489076417, -0.738788834739537, 0.053568264001667615, -0.3239976403756795, -1.6384899415809164, -2.2361374396473743, -0.8269963670378395, -0.0595020959647247, -0.47382770778285405, -0.017718205037021095, 0.692834582730782, -0.004264379472859631, -0.7382667593380431, -0.02555850299241769, 0.07987762660891014], [0.3825298231212362, -0.15264371635745036, 0.8622315184207233, 0.28459392075521994, -0.06710617992029062, -0.5031762047584354, -0.031359395963935055, -0.05962870807460497, 0.031494873817353386, 0.28058237818201126, -0.03590238387622853, 0.1800882294422864, 0.39151140402526513, -0.7216739224045845, -0.23136262116221326, -0.21037978660730045, -0.15125746684196625, -0.293458318855548, -0.006504526065806774, 0.11048618339317061, -0.5758517658887184, -0.19836188259975313, -0.020520371505656478, -0.5283231285891984, 0.05799382252440483, -0.24462177999189813, -0.30433536479408674, 0.48864991632948757, 0.5887019146196224, 0.28014881008281023, -0.6333743560404566, 0.5055335070313809, -0.2550129252237087, 0.04331816870463286, -0.20840947711558505, -0.14318433844378958, 0.6830115022352051, -0.023510523947916633, -0.363760420433689, -0.19884351546286727, -0.8918288710003502, -0.4870914757574661, -0.5850685357798939, -0.9748714830959258, 0.3533141452793196, -1.0633141498474292, -0.34575973480768096, 1.0769729777660388, 1.8990175091137373, 0.5593308934252241]], [[1.5525620505598121, 0.8079966037277345, -1.0520767011477097, 0.6096309557961431, -0.4021072423133261, -0.7374879576782083, 0.5383904051965096, -0.7506998665882297, 1.0420178856874713, -0.18267567185790373], [1.1215625087707009, 0.5418012826128417, -0.7510624423506409, 0.36443381347439985, -0.4990358916072228, -0.7350957035571998, 0.45806442058282776, -0.7762161795199848, 0.7481364281931367, 0.2197363401104186], [0.3125155455330104, 0.6240251357654938, -1.094445619969823, 1.201020443659845, -1.1244078143180989, -1.4651505427266878, 0.5894799158333172, -1.3343642709371781, 0.5447404410583986, 1.3032104396903914], [0.2068397383713604, 0.40893207987883984, -1.0455984805558391, 0.8912237788919439, -0.8267147542422155, -1.1860496856654195, 0.5834873226456518, -1.2728519622406063, 0.4477601305187405, 1.0437985879936307], [-0.06393713480903927, 0.3028528983097607, -1.536331833514051, 1.4290969807542113, -0.8940402194698246, -1.4494156076526947, 0.748983331098561, -1.395875959998736, 0.30140056143309535, 1.2683547210100636], [1.4562138663859194, 0.7920289193515768, -1.059987885778465, 0.5939412911274085, -0.5051509997547758, -0.7757846802779499, 0.5299453011293849, -0.7751710897987151, 1.0180599020993664, -0.06987488244401646], [0.13410257696318945, 0.48464945307847607, -1.2951194887031308, 1.3085472555620787, -1.014212006803781, -1.4480322122651514, 0.6544999727620893, -1.3679659459578215, 0.41180070431802074, 1.300617754558341], [0.21845209322838538, 0.4939769003637298, -1.0844507039162403, 0.9824155565476181, -0.8783181842910983, -1.259280685750485, 0.5877475668364691, -1.3407194340556587, 0.47636328620400087, 1.1626436654080332], [1.6684964563507065, 0.8258413287161162, -1.0593605332097507, 0.6398438179477361, -0.30273532712791434, -0.7171149599600678, 0.5647132290423145, -0.7069642371035043, 1.077536859854919, -0.31397665365321414], [0.09519374491145272, 0.3433724865904108, -1.1694329246426394, 0.9847091097553011, -0.7939887423834304, -1.206191511439624, 0.6321068291828681, -1.3145762159970222, 0.4237122748272741, 1.0464387750006443]], [[-0.52496760744002, -0.3781752574800625, -0.7844355050050039, -0.6442928925944533, -0.8446421031328266, -0.5071230601136507, -0.8139913316409945, -0.6996746890233505, -0.5539953617297136, -0.6684276404291318], [-0.46298776831441135, -0.3409319072790518, -0.6716797024008524, -0.5583133555661557, -0.7353568938075303, -0.4511771820251295, -0.695874627681332, -0.5985733089486429, -0.5003974449596809, -0.5880357270560882], [-0.4893261005401755, -0.3610630744669894, -0.7394140289002684, -0.6064276467181385, -0.8035916534015298, -0.4890367777237175, -0.7651006084413096, -0.6562043475935941, -0.5171102978212723, -0.6425985957870838], [-0.47506000369706786, -0.364065563978115, -0.6965173344598471, -0.5769179152041728, -0.7747128954547579, -0.45904840143995174, -0.7278419049838787, -0.6242012707821538, -0.49768139338614586, -0.6109966313077037], [-0.40532008227003385, -0.3158815195035206, -0.5760064622044379, -0.49462027320017665, -0.643500660905477, -0.3933214521535658, -0.604561404766406, -0.5367251542151474, -0.42079527318153265, -0.5178386484268026], [-0.5317398579623633, -0.38992066601802206, -0.7971467590023646, -0.650978600850507, -0.8602089209044508, -0.521503207105996, -0.8322538028046343, -0.6933124797235434, -0.5677005652813951, -0.6765708690362363], [-0.4480748778420999, -0.3383598413858806, -0.6692187692763327, -0.5623639401606209, -0.7377236319411004, -0.43660157961341073, -0.6899934137630145, -0.6046151141918671, -0.4721082732650275, -0.5901628964625407], [-0.5272102250548877, -0.38165490278090275, -0.7853076123178874, -0.6381925158159306, -0.8377431036539407, -0.5093294310012192, -0.8078047477028093, -0.6945211649819327, -0.547422398478339, -0.6614195954002039], [-0.45383245958064666, -0.33433014799896865, -0.6758969041153422, -0.5601867482684683, -0.7358173541700178, -0.4367384541709661, -0.7016167156562593, -0.6035715002127265, -0.4771506226214675, -0.5962584048254135], [-0.3408602858736114, -0.28064047362865474, -0.4537054257308097, -0.3950295157084393, -0.510604110397921, -0.3131415401871562, -0.4804198381577184, -0.4279455343036219, -0.33522856803691947, -0.42942790043719803]], [[2.013026981259007, 1.7109866346473839, 1.8876153565554021, 1.7918755226933951, 1.435083304919823, 2.0480797558087978, 1.697883721099443, 2.002608187340728, 1.7102850940062793, 1.0172696607370544]]], "biases": [[[0.5210474326670145], [0.010077517544542622], [5.922984554536876], [1.3725502437410935], [0.27631830596538437], [4.025770989976066], [0.7816154373194206], [2.940899263326258], [-3.077601188780265], [1.158136182310681]], [[0.38379710430309993], [0.11652581258576977], [-0.5108756329551036], [-0.5207404655017804], [-0.6058366384341697], [0.33163863382568093], [-0.5879457320012705], [-0.5334525519884606], [0.4266244000402806], [-0.5435602595756672]], [[1.22101396816516], [0.8263231317521286], [1.0600243299217706], [0.9292603066349955], [0.4987571144591961], [1.263721563715444], [0.8140384433194069], [1.2029712371163188], [0.8267162944992357], [0.07803196254615886]], [[-4.816755580021277]]], "sizes": [50, 10, 10, 10, 1]}