{"weights": [[[0.1670429057327713, 0.7667710097776756, -0.3544031302229993, -0.20380983799425295, -0.21242524701382567, 0.36469351439085546, -0.8143465198858487, -0.1728735740912359, 0.09628355250700586, -1.2711366842240581, 0.10629387020853795, -0.6573084856588816, 0.3979921265851892, -0.29139469651749605, 0.25187872741726536, 0.30651232601136713, 0.35606549578520474, 0.44224584050771226, 0.7157627847528152, -0.0030827888138063087, 0.3438108771013434, 0.33259461341694935, 0.5414913938862493, 0.07630395249551661, -0.046204775546634484, -0.03181683282214906, -0.9523445311958374, 0.07408648956445849, -0.5961902944286575, 0.08812177745754887, -0.1417393532567524, -0.19195018408442016, 1.251234253678903, 0.12458952997914491, 1.3493529511127345, -0.06499059762159135, -0.5221101850524273, -0.7650752954795054, 0.07384435599613075, -3.466000167126074, 0.7074628872155008, -0.15734690641438293, 0.23861101034325088, 0.13420928669659213, 0.3350448522218368, 0.16100701569793346, -0.3251666152872532, -0.2311674115705637, -2.3754345238219523, -0.6235765178841477], [-0.09395608834672788, -0.39242238569209154, 0.23952636020196139, 0.6875772215616958, 0.22425299535598447, -0.6470338345673302, -0.8107931753984293, -0.23934364580429207, -0.5685011853799301, -0.6212360285734196, -0.5189309681529151, 0.10508548387247936, 0.088288660585341, 0.5899045368404217, 0.14712789837313883, 1.0771980828967505, 0.7451186755332851, -0.08996861594502636, -0.27016793386175314, 0.05883922504606397, -0.4080516473537323, -1.1955710232488574, 0.483182290670223, -0.8322198160036912, -0.9522599759710236, -0.4301417010282483, 0.045421037021316925, 1.566364542150768, 0.4796955584763125, -1.8433527658636906, -0.36484800711821974, 0.25252888016787767, -0.025574661203699688, -0.15660871038846555, -0.11331107381221905, -0.04035720452375033, 0.9237072090709172, 0.721444097005621, 0.7734622685304323, -0.07739695745828314, 0.11323219643734073, -0.024625985478302307, -0.8296218740144996, 1.5974280212492546, -0.30046116482024404, 0.8532548898186105, -0.6370747727659468, 0.013359494126739459, -0.38496692428931295, -0.8186729988560021], [0.051642688355892356, 0.024012248237081896, -0.25424678011816787, -0.0967133713311828, -0.1467726662541154, 0.31019844006776864, 0.13511573994769915, -0.09130039317825775, -0.18404938180753594, 0.21262039333368649, 0.05151647678389013, -0.07155070993236726, 0.0031554881026194573, 0.27996816071630126, -0.08270901418927105, -0.2986121358681838, 0.06420305901508495, 0.1730989249443521, 0.015341138181881944, 0.020968461131310578, 3.4511836077636118, 0.9036606895652689, 5.085059069027877, 0.16448690388762024, 0.2793011148049293, -0.46066464457618284, 0.7884660315217652, -0.47749412326067514, 0.21670107882779815, 0.02660574483518651, 0.19607283377781906, -0.1606848013865048, -0.23950129121874572, 0.28892147688522346, 0.09212884429938378, 0.21807711153876447, 0.028746414776037964, -0.4486008093548957, 0.009992374811888822, 1.0727179986681512, 0.005151185142806882, -0.07148805518835255, 0.06438359223010665, -0.21129520055475212, -0.16379074177161254, -0.05327273391913701, 0.103530506415719, 0.13621728203515054, 3.8169921305805734, 0.824492896458101], [-0.2677595757189464, 0.03015442642121428, -0.17469693928075497, -0.09350061120925884, -0.5745599418055621, 0.28888418241662267, 0.5779106356807658, 0.4790511872849759, 0.48186819645581747, 0.1904797797266367, 0.2098208731898696, 0.5182261788955312, -0.6794369930561464, -0.35992981893966497, -0.0010486461520205262, -0.45844516468214797, -0.20191304797394533, -0.12918825506713622, -0.10175809962281149, 0.45171931753104266, -1.0345125951090246, 0.07285111196983228, -1.3351893591544086, -1.1076683546234638, -0.01857572669446339, 0.20890204362986733, 0.0919911084442596, 0.5285792596039175, -0.16241035228619333, 0.2768520304124734, 0.20140873756741637, 0.7857939974873543, 0.7240947019927215, -1.5627442276314212, 0.5515369468929955, 0.3805223270072357, -0.23043781522198944, -0.2049331552769365, -0.04878559399874269, -0.8252339490049654, 1.7237330055510502, -0.16906653213462122, -0.17808823002166627, -0.37752320192338323, 0.07759496220672335, 0.33981660871284197, 0.0598192393503555, -0.5001853906586153, -2.6091694981788165, -0.766224391613303], [0.30392755597083815, -0.20981777003723956, -0.08984290994998548, -0.4098769493274565, -0.18784074843686113, -0.40223395864749995, -0.4981340414996373, 0.12561189768571746, -0.02656522893100091, 0.2580993696611796, -0.11657498876863084, 0.09801507993723074, 0.09449835449773952, 0.052661949467987704, 0.29453330465532424, 0.7831269224189945, 0.19625244488919646, 0.21158173910483005, -0.5206642022073046, 0.10360556385292582, 2.253038151299835, 0.8584191462793527, -0.6739381649013625, -0.14063013752960254, 0.03798724144560861, 0.178532804361008, -0.0034708798508193196, 0.6518892257769185, -1.4807180341667254, -0.8470728290731491, 0.4451312642922746, -0.28624061470265794, 0.37307004237445446, -0.39162120289898594, -0.4435911769911915, 0.48360468605410817, -0.47222166256846043, 1.0476498957326557, 0.3270415971818848, 0.8530662565245384, -0.25590562627332425, 0.005015405983551486, -0.30343856408802194, 0.30989921088774547, 0.2271915730149527, 0.5506043217785337, -0.2967781047992471, -0.5679940081186562, 1.7851817428940981, -1.0673370744203878], [-0.21598835541414904, 0.17136628591809278, -0.09163349863156703, 0.05007925724837771, 0.21622122117742856, -0.12475931967699891, -0.18455817684229722, 0.26088767718818145, -0.24988372394046524, -0.723189486709484, 0.30245972729435294, -0.21662627320018846, 0.03783422161392557, 0.4891145954839968, 0.08167630047676724, 0.07814492875266524, -0.1190671901088241, 0.10109740908626343, 0.22777492388383594, -0.23877576941506948, 2.684960159970215, -0.9896564155132664, 0.374052850148131, -0.15081367140767604, 0.340912888901497, 0.5267871118207155, -0.3633534940632697, -0.5787282291059447, -0.08155750950403683, 0.8306399270566598, -0.5138250483759488, -0.047317683391781974, 0.5454402780916436, 0.1258580698973618, 0.2507354941531896, -0.7002159629155577, -0.12039289039491063, 0.3504841086946816, -0.7213690741339119, 0.7178420879174024, 0.34849176107346974, 0.13737478244071313, 0.2890700182312173, 0.2095789153336726, -0.30528805273757037, -0.25449590474522926, 0.45780565186096717, 0.17540516353495095, 1.1797743781786367, -0.3095202550860607], [-0.14622751767171918, 0.19340740487886668, 0.005401334679168484, -0.12736074646460915, -0.38585449941587335, 0.11421847723937428, 0.33863422450394215, 0.17551269862591046, 0.2923490090737736, 0.908091387412148, 0.0630097044133706, -0.07810935710217466, -0.5471264667666655, 0.12667346773707538, -0.4246344570989319, -0.3213394096710526, -0.1613049143625718, 0.2904647940497606, -0.24503870143289203, 0.1446984210683378, -0.734879895924874, 0.8081221940394573, 0.5133770513095356, -0.3483907391925994, 0.2829646305068321, -0.12400663972402533, 0.18075115398649869, 0.2536304421968228, 0.02370014676833916, 0.3996445726839448, -0.07629498626189506, 0.32788679335418464, -0.14270025918854704, -0.3922265730273637, 0.15219019652643836, 0.14007786021447052, 0.3281907416220235, -0.08856938855503893, -0.6501114982657705, -0.5963518625778244, -1.270552568103636, 0.12256557600169926, -0.17152533825684446, -1.4280082437266814, 0.721632455814183, -0.7490054085159051, -0.9046248188982713, 0.875685320624986, 0.4979522910747836, -0.09417206195952757], [0.03756656528913145, -0.20656553141214345, 0.05158785425288945, 0.3281448483440504, -0.22696288634468617, 0.02738971499013017, 0.10304242314384111, 0.09313452281932842, 0.0536711276276536, 0.9266080197876034, -0.1757641759322879, 0.09651659943197421, -0.3364209732158818, -0.3756109092061803, -0.07645251869268585, -0.11177770259535971, -0.08072490965354512, -0.17095954114109974, 0.11163813057588623, 0.14164011445396765, -0.6527323070780097, 0.3618381902680996, -0.7137110032432212, 0.10314942555736364, -0.4913097836681696, 0.18269928227406182, -0.1783719059377911, 0.329214932457796, 0.40374925050686744, 0.5042118007186566, -0.5650496309768167, 0.37039181415464606, -0.198159108383557, -0.6583828578851328, 0.2455128335500815, -0.4183253696838598, 0.8476177249613281, -0.16979104387838337, -0.5150071275802194, -1.5799533779174975, -0.5256230552511783, 0.023353397550554884, -0.0986668189478631, 0.43223027000501735, -0.5886708796519107, -0.21657685115656367, -0.14696673962838339, 1.0245212835142061, -0.5669656857984946, 3.138948315123607], [-0.4057284006841421, -0.6632601577439339, 0.2425356950290727, 0.042845256915326126, -0.8248600519028864, 0.8923247157414173, 0.8065182048850661, -0.3205318970411773, -0.030313396517084857, -0.31514491946282175, 0.6349300937474008, 0.1310538360127273, 0.4352230839827536, -0.05037470650710107, -0.9158095410859214, -0.24827146180043813, -0.42874015899168266, 0.3383371383166668, 0.44668896159058763, 0.3600038753984212, -0.4831131284490836, -0.14937423413819567, -0.5663084083742712, 0.27349591944678636, 0.22986208233348263, 0.26891165045302085, 0.2519507891906099, -1.1683224406124075, 0.3348748740580749, 0.7536416659133485, -0.2507399574488269, 0.20084975905186583, 0.44796769824085486, -0.03105226786877438, -0.15608512965614724, -0.2628378813552811, -0.27664734927219, -0.13074834921934447, -0.4362341304547764, -2.4553817248871406, -0.365278818141143, -0.22897728337487439, -0.02398458853134707, 0.10550875526875819, -0.6136564527248849, 0.8203078416584695, 0.2569883563744665, -0.4658782592257381, 1.2006449748603683, -0.0431018943776051], [0.47127253453073764, -0.6609350951615904, 0.35022827445877636, 0.1475738478838247, 0.7309259076554641, -0.9684013012409265, -0.38139328337999673, 0.29131200684481934, 0.6955150292996727, 0.6195000893340467, -1.080009452625348, 0.5256373266407467, 0.02172592358530702, -0.14213283629660922, 0.7796490562657642, -0.03558338543685616, 0.21613488226679287, -0.9331544091276911, -0.3466569971587987, -0.6109109936745483, 0.4087451382020871, -0.6707309130876435, -0.528336607508354, -0.20652388143325176, -0.31454559837535434, 0.33058004091534, -0.2996536345199015, -0.061018637763332065, 0.29272483597176996, 0.35852696281301083, 0.0445965918366361, -0.2706371720886371, -0.19128933112222893, -0.3020961939472675, 0.1317930832428873, -0.3683594127389217, 0.7707042666004403, 0.11930712002432932, 0.07555322377403982, -0.21234027930037305, -1.4575113813026017, 0.003586665886683655, -0.359648310999542, 0.20542177981817078, 0.7038212830342319, -0.39782907515933363, -0.7253215763398658, 0.33165521564167694, 2.6140418864643835, 0.03317682407758921]], [[1.007792474531814, 0.35991697161715086, -0.7139030488653249, 0.701278359200624, -0.6132129728597913, -0.8207521973203745, 0.4340653734854579, -0.8421357214801362, 1.043190000146732, 0.33200021981527134], [0.7731528458643633, 0.353553557321262, -0.6532172050241963, 0.5229536425998886, -0.5778798648550767, -0.7299776030152855, 0.4085836872095814, -0.812370303294166, 0.7532175196172306, 0.3315228717642943], [1.0050883073886376, 0.5460381342415369, -1.398770628394254, 1.3231922546056145, -1.1516046575231151, -1.4419538441409554, 0.39085645645523426, -0.9836303408314436, 1.0168101657797057, 0.9486176090041935], [0.37779589322756774, 0.6190996729327172, -1.223010339936637, 0.851379820010111, -0.9571806569513102, -1.2330428418522026, 0.7690094070315812, -1.2183530952290074, 0.37226664047287544, 0.7784357709706209], [0.19828026929774215, 0.7399417781823615, -1.5143338812982057, 1.0042888401591918, -0.9371009376483874, -1.5105273109097141, 1.1949822623929889, -1.4571788896223918, 0.16156380057504813, 0.9458758965782169], [1.0560428926523604, 0.3508686523692231, -0.7624114106576235, 0.7532497373186555, -0.6543334963814981, -0.8720218508879213, 0.43354013903747524, -0.8302148322810634, 1.0941528776148473, 0.36352535890878335], [0.38568857476352125, 0.753270577458583, -1.4210882663533517, 1.1095647002304942, -1.0855662732521625, -1.498554703237548, 0.9402270705051488, -1.341831056413188, 0.3650835203793915, 0.9981438240841735], [0.3113212946162363, 0.6591237074878015, -1.2979580306392628, 0.8731506459406808, -0.9404435727365952, -1.2897207878667927, 0.8789902180380715, -1.2967869998988062, 0.3025976201983412, 0.8107790493655117], [0.9754344894964398, 0.37402659626683554, -0.72810635769097, 0.7075537167791273, -0.6187017236835164, -0.8352070442550156, 0.43215683831204, -0.8401120253266506, 1.0168272170829853, 0.34158945689582987], [0.28386401895021657, 0.5988484886960208, -1.246428205906704, 0.8102557039913467, -0.8894195946604113, -1.2176301637934157, 0.8310452045249149, -1.2580581421614456, 0.3117263082671898, 0.7325469470807062]], [[-0.5454638270884734, -0.4533688879566966, -0.806514057090274, -0.698643802327781, -0.8576065785065963, -0.5678204556780319, -0.84023121047666, -0.7374657635397044, -0.5419589044251598, -0.686707680721369], [-0.4664723552025352, -0.38962454916141975, -0.6525134944555131, -0.5865793800671919, -0.7379984858151352, -0.48569917866532875, -0.699743661146152, -0.619573385798832, -0.4767017319774524, -0.589947651976488], [-0.5050826535560506, -0.42722925358412406, -0.7453606319721274, -0.6519584212541751, -0.8148534416972594, -0.5415866467292842, -0.7842622014897194, -0.6891145079828342, -0.5024483720675667, -0.6555700072231135], [-0.4814570513706692, -0.41858679229140816, -0.6838859307761004, -0.6101763376572663, -0.7786688370193988, -0.49897841369654017, -0.7353026384201268, -0.6480457661592328, -0.4754245176230823, -0.6153919359574749], [-0.4050339508005961, -0.3524663638200764, -0.5395354845386426, -0.5097918626054188, -0.6421774353465198, -0.4174029286570739, -0.599056369955517, -0.5496213291293545, -0.3983363932173132, -0.5126249887986498], [-0.5545708010359928, -0.46809514740215974, -0.8272253213844911, -0.7098041877972526, -0.8757443174314153, -0.5855302933590947, -0.8629554003308644, -0.734339836347889, -0.5574412713666842, -0.6982040938967029], [-0.45701794711516264, -0.3916777012501899, -0.6538827771235197, -0.5948071400955427, -0.7450977679720197, -0.47711896161852524, -0.6986958067217978, -0.6296822923281279, -0.4539519383490909, -0.5953340528419427], [-0.5457689923761283, -0.4545250821189114, -0.8045631750807082, -0.6903921907589334, -0.8494598821035606, -0.5675418498189887, -0.832011726598028, -0.7307673473073751, -0.5336835338036799, -0.6783173984992388], [-0.4622056055111766, -0.3877409606168027, -0.6594382591708225, -0.5916753749835004, -0.7414513770807646, -0.4767952526364513, -0.708806424976535, -0.6274532277244159, -0.458241578683897, -0.6004276738462445], [-0.3285220731486266, -0.29628382531088926, -0.3921776107701013, -0.38176381664444436, -0.4840747227143161, -0.3154800474882997, -0.4483067220807517, -0.4157090165735652, -0.30818403013247164, -0.40354206281056565]], [[2.035557412747507, 1.7000444621071737, 1.9043795229151173, 1.7868918339782356, 1.4199706377616284, 2.0774050241169224, 1.7044743850935988, 2.020736566401075, 1.7112248373855221, 0.9362216270484007]]], "biases": [[[0.27617225516366606], [-0.1834394695685801], [6.213954125543141], [1.452272171257341], [2.6812266912795866], [3.901048648727263], [0.6817822375403665], [3.324944190936092], [-0.3442271011589205], [1.307617865817867]], [[0.2333857010453319], [0.07288270710279925], [0.12548873405835131], [-0.242217474509652], [-0.30600990369430403], [0.2527880569042083], [-0.2568377002724803], [-0.2780052274423244], [0.20457486860834398], [-0.2604406676012518]], [[1.0691475480699641], [0.7126214308080342], [0.9346613833352949], [0.805311805286954], [0.4251439288841758], [1.1093936499845114], [0.7209852646655235], [1.0495903563122302], [0.7253589334407674], [-0.00985317534176965]], [[-4.628109115553549]]], "sizes": [50, 10, 10, 10, 1]}