{"weights": [[[-0.4350640730978494, 0.10469595407103602, 0.06093061795399549, 0.005723363563669576, -0.6649371211292551, 0.36649040792907656, 0.6089225965782338, 0.2683721568220449, 0.6705884902353673, 0.06026254079568608, 0.10487621638968322, 0.4091095731494669, -0.48450166396737, -0.5469521278791334, -0.19583489886224673, -0.409736617149595, -0.2751981596484249, -0.08299862546610583, 0.04196119525144869, 0.5837238271291991, -0.4765489453859368, 0.3220155569797814, -1.5521447964779669, -1.271876854567996, -0.1669017056815261, 0.2869921321653062, -0.4085217744194956, 0.8276940762805849, 0.3334776316090768, 0.0202813498138081, 0.10818916775783328, 1.028719342902477, 1.0310960431290261, -1.6794467237926571, 0.7580033981160036, 0.21191136248064646, -0.05960501227162133, -0.5003309636080615, 0.026844162919590107, -1.2225529414188, 1.4792436201399213, -0.017701268375435394, 0.1991673383273256, -0.5216976312671904, 0.055177267915010056, 0.4790185823247463, -0.11813506475357062, -0.46278841996852427, -2.537108111307706, -0.672017249103712], [0.00935082293170135, 0.043793285304602546, -0.22467523397902273, -0.038306915323471157, 0.8356181715054025, -0.321298963993684, -0.016531322381186462, 0.028549731796686257, -0.3918773761239693, -1.0201862530520258, 0.1945564667670716, -0.18557478285175152, 0.30112131873901005, 0.04437946811421302, 0.5928642265795951, -0.0022297572286591387, -0.1430993714029729, 0.38798967788383454, 0.17070385280433645, -0.45607476621032145, -0.3840352037581568, -0.42759964191147964, 0.08367163667938811, -0.42218498736452265, 0.01171161481676948, -0.6154605732030589, 0.20905451861620417, 0.4547356913537014, -0.5077313130270552, -0.8400653786366125, -0.30180358172566607, 0.6597778351036243, 0.2989270024522776, -0.2159705227046755, 0.8046195156087442, -0.23132875443766393, 0.41228214909695465, -0.20281184724686585, 0.49649625654601137, -1.4884739221602885, 0.5601775280024739, -0.12127246839768341, -0.020023548957713445, 0.5304081494058618, -0.7595349133356993, 0.7840039538948484, -0.2920621038523777, 0.26515465618352835, -2.2392538282527643, -0.38576827644181616], [0.06275465477002592, -0.012236014735958825, -0.17920526252841226, -0.2455395240964835, -0.2575942012606952, 0.0012071844847829471, 0.022252905612766858, -0.09968819309495643, -0.15012047280586335, 0.39821951728623123, 0.0281115169328861, 0.04903126685927902, 0.11298601801682821, 0.28637436113508635, 0.1449235691046629, -0.1720124224251352, 0.06848563799739536, 0.2325807731418594, -0.16152044886632608, 0.020286928784687398, 3.8570138364486644, 1.0487383814223432, 4.901111432618836, 0.09621721745230823, 0.14064129726678784, -0.14004853935334063, 0.3034585138946905, -0.2780704639902447, 0.08473007204500466, -0.6094998853284399, 0.2907331057577848, -0.022990161919874647, -0.08673831835910996, 0.14185476217922138, 0.16997815992844983, 0.11843489568445245, -0.0030412754603439352, -0.10694924499179227, 0.3481644566404995, 2.4324021682685184, -0.098498722723355, 0.008798559947111416, -0.06526541749337596, -0.10960125987700425, -0.13226759699609938, 0.14860399566287305, 0.009101804138525415, -0.027691971426878705, 4.04920819331149, 0.46853576877372344], [0.493065853509997, -0.38152256421613717, -0.13066125542361687, 0.2945528296331767, 0.3538361757236257, -0.6384294336784129, 0.15035203026601662, -0.47206113352643586, 0.4074725435038066, 0.3078036255950847, 0.1460770112346602, 0.6790243386847128, 0.01050479204789032, -0.15967044312960463, -0.02826035260375435, 0.13302657645553748, 0.21295192509648794, -0.4189732159073187, -0.1491992798783301, -1.0502873146329885, -2.4294392954268345, 0.012849629091971914, -0.9034802543583563, 0.07906404148803019, -0.22751400464331847, 0.7839170519806009, -0.3426928847742961, -0.5947828582446327, 0.713433945799353, 0.2586054199428434, 1.0498908369095896, -0.07114798143146707, -0.32269416834975495, -0.6757918342882391, 0.28493971385993244, -0.6325733531907785, -0.18676983032167102, -0.40962294852736775, 0.8585820556872382, -1.6512966325567966, -0.8545750444352058, 0.9621971612038253, -0.09969485122104854, -0.14135734874476308, 0.5514439590966856, 0.7650520457118715, -0.6199354042261711, -0.8373869969800656, 1.1189370213230085, -0.3303235961941944], [-0.0050011081774674615, 0.03275715230829936, 0.03620127064863202, -0.2321343201964904, 0.32349628492050375, -0.17331830144743884, -0.08515756409126066, -0.08248221116150839, 0.38797546298008295, 0.8117287565016663, -0.31510091911332255, 0.14977367188154786, 0.14568456335626112, -0.31437013532609054, -0.3602901212458189, 0.6192551435302271, -0.43592702105103565, 0.5725728265024744, -0.5383950236631025, -0.4436673827234401, 1.3689983536003008, 0.18161337049779527, -1.1488360462827245, 0.10669033139829068, -0.391517779303397, 0.2801096925106082, -0.5887955520941373, 0.3574917023020281, -0.17688715302085758, -0.7076959791293226, 0.9987789488145695, 0.27639754874613154, 0.465508525734004, -0.36242035929186395, -0.9992377927408417, -0.5301426408790546, -0.5266074814192367, 0.6075492853163056, 0.5411722204635502, -0.2375839626735642, -0.36447874598300767, -0.2091563834200116, -0.30357353985647895, -0.8017286460255619, 0.0836173886917878, 0.38112574660752085, -0.0644460809815558, -0.4477105280851069, 1.9448951995161095, -0.014401162741126988], [-0.05191946151029157, 0.2671912043534606, -0.17892954882814047, -0.00784104786213915, 0.4905782945299671, -0.4694928909867055, -0.34324275371081925, 0.31749442112697496, -0.22615342081361536, -0.7967013621588852, 0.20939782141316626, -0.10155474064651582, 0.3219729598988186, 0.31521606647764033, -0.08602282275003227, 0.23395754505045188, -0.03233728672168633, 0.22137938889106576, 0.13637028819543784, -0.3505999186544518, 2.398510012927954, -0.592925623733736, -0.03156445396925818, -0.35251044789335834, 0.16067713637754744, 0.41620408940539216, -0.23289408615434012, -0.21995100197491535, -0.27707735592395527, 0.6154798017766525, -0.3253611688331273, -0.24993537879326616, 0.21580420283237575, 0.4318826728263503, 0.28911347022680856, -0.791970079477566, 0.0042245777577640765, 0.5884733998978986, -0.6398518506919253, 0.8606415033016299, 0.3344995281486655, 0.08058048308558677, 0.40950128819442205, 0.30415187190095055, -0.43029245658807974, -0.08522637460107153, 0.3331435790808302, 0.24939492741957217, 1.980531866155074, -0.6105608903688634], [-0.23479357106255067, -0.2941112137239614, 0.1727304172398369, -0.5049364333078821, -0.15306635453257994, -0.22490861965361558, 0.3448981481967373, 0.03170436898196784, 0.6168489504259577, 1.0908529634387087, 0.20131794559307742, -0.21017555884909744, -0.8446819010189621, 0.7008561767202645, -0.8701723366387006, -0.30890142834012513, 0.08960655614858468, 0.7901026463250888, -0.5311139782625631, 0.2712131867224087, 0.3644738437300382, 0.7044170891217826, 0.8292046620037401, -0.8588471444286463, 0.19950686435588022, 0.10011659319532004, 0.11825004450150163, 0.23092755516774457, 0.1968459534861182, 0.07448058500915576, 0.3654763602856324, 0.17975183886220017, 0.2006428949468255, -0.17295772465049714, 0.13549939767940833, 0.3521385636033989, 0.056869933366391796, 0.28025160521274206, -0.8217891003582354, -0.3488505542216336, -1.229775569324624, 0.20658356210596018, -0.0018296224812623498, -0.961198229923804, 1.3436780179991856, -0.7757783330979069, -1.453044949785925, 0.7372627537576376, -0.4520942865126879, -0.790023949234068], [-0.013062305589650838, -0.2400180761148696, 0.19815766822515518, 0.2645583276158159, -0.2023610155856808, 0.03320377071162252, 0.1328431306378142, 0.17786406861379533, -0.16167086690212348, 0.4867060840502261, -0.09861195376101804, 0.02182703154710208, -0.1835590744157601, -0.3089151267645449, -0.12093896290852262, -0.10697575125868457, 0.084194161393231, -0.2455297689932631, 0.19411323033681618, 0.24455219974443781, -0.4893909767280066, 0.6833427690599119, -0.4443400840924458, 0.1996063936341584, -0.4191253802483216, -0.018954340444445147, -0.049848672511969984, 0.3156666749549648, 0.152105115122653, 0.3855664685343492, -0.3340367867511034, 0.3090641135842519, -0.22172674786170748, -0.7121126829980348, 0.15349550640558848, 0.039791404321608645, 0.3727185756370332, -0.22076107358918579, -0.16637719418517952, -1.2720031286415716, -0.7649305404711725, 0.056051402049401934, 0.020478044208264743, 0.4439436657463103, -0.5083737290032658, -0.20759344989417264, 0.0564528912045736, 0.7317616876546671, -0.7465408500439463, 3.5690150342873106], [-0.7333378942016886, 0.5060072439269501, -0.155480395118163, -0.07805688802640519, -0.5057703404559568, 0.9328090773051139, -0.2991850976882413, 0.12423219736566503, 0.3050121255212155, -0.7077004871937312, -0.0067684422634642655, -0.220030358160444, 0.7666080547447209, -0.49622759408232986, -0.8822887810657645, 0.046392115838602616, 0.21357724000745382, 0.7450185507371884, 0.25082303092779684, 0.520115278609069, -0.027819518092957504, -0.6681668153268022, -0.13003815491940693, 0.40451533112259724, -0.3336261467424938, -0.3077103130063189, -0.5234445565919004, -0.6176589619604934, -0.20961120454980353, 0.2687491083490973, 0.6342045420296648, -0.34704261879163995, 0.9030328316210702, -0.11867997463072875, 0.3036330211150378, 0.2202998288318379, -0.7701832477351165, -0.1010939263729651, 0.23533430768080532, -2.2977569611654243, -0.09776702155765306, -0.4270632321503559, 0.12809832652672143, -0.1987475918722144, -0.3503872233241576, 0.5873727935336833, 0.6270625697454256, -0.856403189179278, -0.9772844326449102, -0.8236609798669421], [0.1852253723333041, -0.11474237762257845, 0.9420897722402115, 0.4089504896130931, -0.06244169320519866, -0.48432430019243766, -0.21767138115727733, 0.2870575835554525, -0.2057111642227846, -0.2614173151223502, -0.46777067053286314, 0.2773707937840254, 0.34839801507700785, -0.49981899790426804, -0.10111781005199695, 0.27476259075433496, -0.26616703753435483, -0.5003633219770929, 0.3652953442907102, 0.0025380604687880513, -0.5851997072740941, -0.22652868433375786, -0.31414692719436155, -0.4293179784327593, -0.47234501109321114, -0.5296420321454618, -0.19807834326302687, 0.6179063158206244, 0.5857491591191792, 0.4622399401370342, -0.7220311369858947, 0.48616173900032583, -0.5522077621344377, -0.17730853279377903, -0.5346436351851812, 0.048397564923663955, 0.2350225165549768, 0.3746861625458027, 0.15954304243559694, -0.46301774108123317, -1.2196088590786198, -1.1085626639277795, -1.1241630321846985, -0.5418326264676503, 0.47682718752919, -0.8533657562896467, -0.5960295753593225, 0.9506832220700628, 1.6891635844709476, 0.5118804273408263]], [[0.6271716352299775, 0.4101493236886516, -1.0152539929716822, 0.18474433911038127, -0.7638192479168464, -0.9177403112385218, 0.31850155194420177, -1.2449330503109308, 0.19802215521127975, 0.8891858837998273], [0.4223218227078019, 0.2895642278752839, -0.7961491651746947, 0.31179540901998215, -0.6063675083786896, -0.8240330717548505, 0.388009056165917, -1.1179588000929386, 0.3266712026223564, 0.6351440482877903], [1.0134422052727299, 0.9204116645755381, -1.2521223323350223, 1.2422030301581612, -0.8153300165656664, -1.3396952980394086, 0.8239430024123133, -0.9423919566133778, 1.6796522745632951, -0.2774127487966256], [0.8743917210456434, 0.542846096174011, -1.1802636112579838, 0.16990692704302607, -0.9014906359565138, -1.0929016576558679, 0.3375940340289085, -1.2784809547185123, 0.04897657865631195, 1.122664201845414], [1.07782006640504, 0.6887291764240885, -1.0936042907585566, 0.7464313287613739, -0.906332794102831, -1.5263146343710048, 0.6238338896116621, -1.1149706176861887, 0.25452828262953764, 0.8911005004695693], [0.6957847952588242, 0.4429712314710575, -1.07031659386335, 0.16090606314392952, -0.8062873454064693, -0.955680572687563, 0.3085947499335843, -1.2422918910955574, 0.1558409220201322, 0.9598982913403677], [1.0544001541471497, 0.8412799430716817, -1.1862913199035068, 1.2623520113564062, -0.8627939410372566, -1.4010784410732702, 0.7971543068817964, -0.9381334958114034, 1.4344287506102897, -0.07019646949324208], [0.9282898734836352, 0.6042446302939223, -1.2092250349501812, 0.16972828124004966, -0.9351888864546837, -1.1393858459440285, 0.31994653841116316, -1.2863677940469909, 0.04495014238754584, 1.1722760505227459], [0.5889368036400912, 0.3879725250621259, -0.9631393614646925, 0.2508250676555079, -0.7301935922829321, -0.935337222276609, 0.3632274857001324, -1.220290887502383, 0.23514536525627028, 0.81733873843127], [0.7842416943217757, 0.48306647549646053, -1.1223750863252, 0.21087055860965365, -0.8375737683144924, -1.056872972852366, 0.35858053339154006, -1.2870535469101994, 0.10486375827993417, 1.0258156945268158]], [[-0.581251596540711, -0.4754287667472315, -0.8745577457455921, -0.701888138121027, -0.739449692034669, -0.6044782003699767, -0.832048620398729, -0.7266128365829495, -0.5658237538452916, -0.6616670602610994], [-0.5101575961310193, -0.4206971044323809, -0.6946413716450045, -0.5857839007890816, -0.5996353863429792, -0.530512748613653, -0.6532920051526966, -0.5980014070890145, -0.5104595305815548, -0.5647083877707295], [-0.5438871597741639, -0.45294374238221197, -0.7988805242677339, -0.6503403730700176, -0.6818345821056687, -0.5811597864558702, -0.7545278553585681, -0.6698870096249654, -0.5299638093182245, -0.6270321113538283], [-0.5209156965153595, -0.4461571320713578, -0.7232478599791492, -0.6041146864296563, -0.6347319387120289, -0.5390910637566082, -0.6872898884085091, -0.6217879584200885, -0.5045310102977159, -0.5842351372598402], [-0.45196348710141077, -0.3884251481595345, -0.5644086355235144, -0.5063006975819916, -0.5027737867851659, -0.4652240991549848, -0.5349902737829502, -0.5234910694762737, -0.4369931295980729, -0.4885974393175811], [-0.5887843428862156, -0.4882980714183342, -0.899977618457869, -0.7151248318200742, -0.7638493751720414, -0.6206849964958514, -0.8625711143249932, -0.7269827715747607, -0.5795395941568956, -0.6748072723441738], [-0.4984250978842187, -0.42144432030460477, -0.6862429198135107, -0.5867567175855021, -0.5964952222526526, -0.5191287058976085, -0.6413653013409581, -0.6001467426099804, -0.4853206197296546, -0.5630906458384736], [-0.5840794259146701, -0.4784933120499253, -0.8774929603980242, -0.6973929747554469, -0.7353619507069843, -0.6069989492585143, -0.8279815893160828, -0.7236287085938424, -0.5601889129048537, -0.6568910012373023], [-0.5047087759910631, -0.4182734410808468, -0.69548453712591, -0.5858456389883783, -0.5959474216525026, -0.5200246831674771, -0.6552537063328273, -0.6003816228083806, -0.4906963298020594, -0.5701737611556549], [-0.37241033398517914, -0.33332903394864055, -0.40295773339537755, -0.37977074704609465, -0.37466674570098907, -0.3598982006208929, -0.3874464849617696, -0.3939001551844886, -0.34683878639601406, -0.38806724555146715]], [[2.0227833466685374, 1.7146475426280054, 1.8928360511488915, 1.7742631539364973, 1.4417675705562967, 2.065154847142111, 1.6924165813513257, 2.0208884044651425, 1.7053224118197159, 0.9679321359308181]]], "biases": [[[1.648954584569506], [-0.3540982162078184], [6.511594257836559], [-0.42171772915815425], [4.149198011962335], [3.875852169775949], [0.7891128106568869], [3.8808165171162945], [1.093007896066805], [0.9937235738325697]], [[-0.27637056213890987], [-0.28639746814482003], [0.2825567345213804], [-0.19217592799006425], [0.01668227835658731], [-0.26538561749010614], [0.27856642856631], [-0.16663387206647404], [-0.28440927069942745], [-0.2258265738606747]], [[0.9406965729418924], [0.6882245551185139], [0.8401889423870925], [0.738247144678337], [0.43898180796775305], [0.9714792407853766], [0.6680040545883587], [0.9366830399085803], [0.6760696385065461], [0.01816661481586025]], [[-4.960454190066224]]], "sizes": [50, 10, 10, 10, 1]}