{"weights": [[[-0.012132771636795324, 0.1919798787823369, 0.28710583949487195, 0.4058803460344221, 0.11390751549734442, -0.16293201066736462, -0.1834125151872682, 0.1792207764512329, -0.9341439588024677, -1.3021273427606144, 0.5399352620670355, -0.7840261356166176, 0.2377030591532487, 0.15538421557279528, 0.6099648368060778, -0.11323297524723762, 0.5628175677281599, 0.3417210322640947, 0.03878757135950756, -0.20853001983394368, -0.6731574630526787, -0.08025976630127254, 1.2936058233278451, 0.3682476374418324, -0.35317044567853745, -0.22344691489379517, -0.5187178229602372, 0.27093052437751214, -0.5840221853584584, -0.3578913367903555, -0.828653010550507, 0.43658242227055616, 1.158429299695393, -0.17610701496167985, 0.6167686378344026, 0.6207186254272381, -0.12446265123691608, -0.862543911437423, 0.18196948801455332, -2.968778484591148, 0.79234103334854, -0.17277020789959482, 0.1171683665003443, -0.42338597786143695, 0.09702720616386837, 0.36493317509587375, -0.1630591969286633, -0.3424594241238471, -2.9380576213349965, -0.8154010836502674], [-0.3795545284990222, -0.07241122819642844, 0.09350683694549415, -0.24636822896441404, 0.39033987289944033, -0.054580677052713175, 0.26703770417049877, -0.9041171892260086, 0.46225293907927634, -0.8171174821638192, 0.10489860987677305, -0.12444740752933156, 0.42747983342590995, 0.5147556331364616, 0.17233672844577128, -0.006263430848324548, -0.055311384714130045, -0.07999120126854396, -0.03633910213904297, -0.13847886342539442, 0.03054029004585754, -0.9751812036178477, 0.7575151766846923, -0.5566095355634488, -0.07292459932846236, 0.048441127431034924, -0.4100086772527343, 1.0469511949762134, -0.14696057879961757, 0.08433602117117654, 0.21753416510655935, -0.2030522340523355, 0.7012244224564683, -0.2168485483073127, 0.2948230366160471, 0.9532758443675813, 0.25105405501431677, -0.9796510562753706, -0.4515409169107414, 1.0578298558640058, 1.6684566023276222, -0.688713662005587, 0.4840391605341852, 0.5223240879819473, -0.6730616456052364, 0.40645552925083733, 0.2991443085707207, 0.015606093949671915, -0.17645891834004598, -0.07099886304044231], [-0.030786051736651533, -0.11020148427113104, -0.0843597928488895, 0.000812217731016247, -0.18339039148106565, -0.1717525737256266, 0.06870415291337754, -0.09926559781738299, -0.14548390597461788, 0.5345350301904035, -0.07721485619254394, 0.03540586544068572, 0.05779679765036895, 0.1863873657929145, 0.1273410155927174, -0.12929497315198601, 0.0764799726058937, 0.2569740042718001, -0.20998405799701553, 0.08053617304974217, 3.4086731578657057, 0.9003868542533158, 4.806526764291943, 0.1761780074038329, 0.09158803959315243, -0.04551368624017548, 0.3179582343260433, -0.051162716292151925, -0.06891222475810915, -0.472173106609035, 0.020593055532023934, -0.09996930922305959, -0.14582850518860285, 0.3398905304761901, -0.10988107093238107, -0.06317267592243092, 0.16341971961621335, 0.08667835592847463, -0.01556336705713949, 1.6275034376504696, -0.07835421316295613, 0.14619990038603262, 0.15069256204368903, -0.19763641622308903, 0.035593112940876, 0.11705728640930592, 0.015645183855109428, -0.18445078600734233, 4.616212851419543, 0.334778102309466], [-0.5643471930472631, -0.6026609826296093, 0.240894539345692, 0.12250152481677318, -0.4931242140880045, 0.504002708935609, 0.46485590121853726, -0.08091891403617399, 0.8901421466821339, -0.03275764318398875, 0.12244287650508888, 0.4304681991960153, -0.2405109697807334, -0.6189594865039303, -0.07838315136906776, -0.11662271943616101, -0.29210203497068704, -0.13223089963733076, 0.17271343147938256, 0.31147541801510226, -2.1758838380955927, -0.3354062806215175, -0.27724013510734785, -1.4459408603375956, 0.21393276434344977, 0.12135506230319684, -0.16398161266225197, 0.6501748944494959, 0.4243592743683157, 0.3465015347701445, -0.06419585498519143, 0.656659834378276, 0.8908333901414262, -0.7517192443764432, 0.022401125778617276, 0.3855190126614125, -0.3191968550970051, -0.662111145939469, 0.27768990656224507, -0.31630022619968506, -0.07154751782426805, -0.21645782485882661, -0.6087438053983403, -0.16647719441142134, 0.1452422705167742, 0.24038590017188308, -0.36189776334665474, -0.06616108522521486, -1.4139622104545546, -0.08573378546677315], [-0.08607713696422657, -0.5529524353153041, -0.23056757035686126, -0.3391865470482581, 0.15842579395910106, 0.3182319471887653, 0.2641227283418073, -0.24703493430146908, 0.18506747885977115, -1.1425895141186593, 0.21821016091638576, -0.2588377191477791, 0.04300214324006426, 0.31679256526583965, 0.05926450748472125, 0.37468951279816887, 0.3570690515933026, 0.20028526440247912, -0.1358042443471033, 0.23644481003521217, 2.5243661885035635, -0.920350364834071, 0.9870419541640151, -0.1315319296537276, -0.3005997693029599, -0.44942356194817557, -0.1916556416831893, 0.567120854449761, -0.09113864133042361, 0.6179748352157863, -0.5405481922897157, -0.21572501750633785, 0.40814464757550256, -0.5285169381671726, 0.16404389952921083, 1.3023342033362328, -0.0627677937054242, -0.6484879514878035, 0.01438220754998925, -0.007383532643581801, -0.07553903442545616, -0.55372911204643, 0.0061886235007390855, -0.8583209790215385, -0.5264030294482164, 0.04468120454883592, 0.07635076455714056, 0.4554716967602739, 1.4712930969266955, 0.0463938848597457], [-0.14145045268680256, -0.08643996793518294, 0.16235705523088306, 0.1594498444932014, 0.2820337002225078, -0.07815008037023172, -0.18881677664099475, -0.007293457551173028, -0.06786569644694272, -0.7029366477518117, 0.3199603442593439, -0.16760183901438297, 0.13701794584746693, 0.07563768149296539, -0.03607739772448753, 0.22757578821409866, -0.21844586644503822, 0.029820804069819712, 0.4073107386653798, -0.30555419303689835, 2.474742828062263, -0.6773023885119656, 0.6091158318250682, -0.271804714797293, 0.4214944719304848, 0.0962242722186493, -0.3002381254551006, -0.3850123891821783, -0.23681530196173725, 1.2597957006816145, -0.20036458665271523, -0.3180972549072954, 0.8485842786026352, 0.5972303869265178, -0.3409491154886649, -0.43410593189127983, -0.5419490039715111, 0.16845962713880935, -0.9126602292825474, 0.0912687668502949, -0.3032120790177323, -0.1492417866373019, -0.08466749447975404, 0.4396633685097818, -0.34057020336706406, -0.0955993365697523, 0.1963534305172619, 0.29048971445170374, 1.321517761605719, 0.2759759993334927], [0.07896248552489804, -0.12534917654255692, 0.31477518456219666, -0.1590592910394666, -0.04337282182873286, 0.2649149151070592, 0.31721608735478113, -0.03974821846241322, 0.8452372779051767, 0.6886094010154347, -0.39639657151285673, 0.08315161164886307, -0.8168598402298496, 0.2211881755422654, -0.68105437237405, -0.6283209418141557, -0.2972215238014927, 0.6546048488421162, -0.37935255740084, 0.10810026674889806, -0.40391380172339775, 0.33696160972132116, 0.7995145494627746, -0.7754652063105714, 0.600623311979303, 0.04206405150047946, 0.8040037089941001, 0.35576747125590746, -0.1318109873401289, 0.14319313531198533, -0.34363385167351673, -0.5607144093354495, -0.2512231243354241, 0.4284120617947622, -0.15116024204124956, 0.422163608384195, 0.7222186705933618, 0.2897701546968095, -0.8332363047902043, -1.794925102113127, -1.2686732567270642, -0.08879922317507481, -0.26501337974707523, -1.0562593245151075, 0.9022183347257018, -0.36367530282901533, -0.9717005388656779, 0.32206743193200194, -0.5842600138567303, -0.057090544182027456], [-0.09249791660719121, -0.3007963707027959, 0.14667628405868677, 0.3001831536566847, -0.08849230447928556, 0.006050443673983774, 0.15271220272102579, 0.13535972552463924, -0.16772718800954864, 0.9558037469273456, -0.18031962378964375, -0.002989449901179786, -0.18855770074147768, -0.3740890318687219, -0.028617060238132017, -0.05858930453266696, 0.008431973203457609, -0.1584013381888803, 0.06368803208877419, 0.1054404461647517, -1.10937466036048, 0.4566025524667172, -0.6654351456985119, 0.30739460520107176, -0.32372495930363765, 0.010587130825168597, 0.1991861373981074, 0.4786274606850146, -0.0676220788133856, 0.3492588941910265, -0.3442374957963644, 0.2892458409231959, -0.31151303699717187, -0.25154614914214707, -0.4759161458317688, -0.21177976256390807, 0.6137288543044639, -0.11292339694631669, -0.5609575362061544, -1.146339117213873, -0.3965080839180082, -0.14795050160558265, -0.1269227280999198, 0.16669259918810284, -0.3291972535938313, -0.35237531878331124, -0.061185236004185246, 0.8006498671014634, -0.4968492231297137, 3.256627026654756], [-0.39742949927469906, -0.14393569881452623, -0.04147451406391379, 0.014558820376165793, -0.6360618985410178, 0.3014704378009952, 0.6141019089771126, -0.13415373242079126, 0.07629478980301031, 0.3283954164236413, 0.5455406048611158, 0.027699821506444865, 0.14230567699349786, -0.6004735083923743, -0.637319171240349, -0.11046208562348338, 0.39666169604822094, 0.001873876872207367, 0.13725382324694813, 0.45720653934431915, -0.1825049721451474, 0.0005957805372453426, 0.06622890223781318, 0.2948794599120878, -0.4761624255986236, -0.06881639519724386, -0.24126077404914753, -0.49215461453140896, 0.09981512135991677, 0.613987494969589, 0.655264547231293, 0.3325314648392562, 0.9557965947232877, -0.9256121895383673, 0.3258132755129646, -0.20129106921956036, -0.7107365296916845, -0.37993746868064504, -0.11568322927439484, -4.4792632085603845, -0.02967360822456547, 0.09294724884097724, 0.5061251647577226, 0.049420103223519765, 0.2306307007408423, 0.5150081562107856, -0.12794147655186916, -0.7012949498287924, 0.7817559556535022, -0.4642001342553312], [0.2515630472201124, -0.39808172461138097, 0.2826228416797176, 0.4677459054950098, 0.7796164442251999, -0.8855833570022168, -0.48290958576406934, 0.351397964745599, -0.49974686905647636, -0.14747426659695978, -0.9318935171805093, 0.09568904549130124, 0.43922458838473577, -0.03440554789624794, 0.18292437878539827, 0.7397551608224182, 0.17711057045293702, -0.4051086060117794, 0.1777431874239164, -0.32417480678474114, -0.2314106004988207, -0.17153981093588724, -1.0532829334647076, 0.5824279896451694, -0.7973500699794306, -0.5179526018809558, -0.3001522676296329, 0.13888582722344864, 0.8134362450350039, 0.6126481526486656, -0.7128948476910854, -0.3015197449169004, -1.3319277762550719, 0.18066033634964426, -0.6156804140107611, -0.026943617958438762, 0.949742975678741, 0.5405419894621567, 0.03535162036752841, 0.7232984747275322, -1.4368378141043685, -0.30970110122515215, -0.7517643732129261, -1.0038571971061263, 0.31746844023638576, -0.8215861033751157, -0.5474724672660183, 1.045116257943488, 2.304368494897821, 0.809859872089545]], [[0.9502724062277833, 0.7624014986259154, -0.8394916396769456, 0.7561387479013556, -0.2935929959537692, -0.8270706023663464, 0.5852606472646703, -1.2751440969429713, 1.7852997320889477, -0.4843244403400719], [0.2791820137084653, 0.4179702786947566, -0.5255248110437986, 0.7000310001003823, -0.5984101454745353, -0.8059839925252289, 0.33740570229276146, -1.0873862776575822, 0.9367362554899634, 0.3334531210250165], [0.7866405010557274, 0.7017761582620091, -1.7087117090559438, 1.0907517618171847, -0.8328196322711849, -1.60176302536713, 0.6548516442173932, -0.975290794658332, 0.2385750047792331, 1.2629732013142747], [0.4245579612716164, 0.3529861347126739, -1.128006047524169, 0.7748061334728356, -0.9189369529831278, -1.3093675430138763, 0.7644470738656146, -0.9564736240681245, 0.4512173170878445, 0.996132376292234], [0.6595632919710482, 0.5363897165371123, -1.6079086183096067, 0.9920494125779415, -0.9059938609974971, -1.5563477810434156, 0.7516328433661386, -0.9760395160803194, 0.20472934488182154, 1.1621693955582728], [0.225675230548117, 0.3725818093344079, -0.6388197646011938, 0.695950835238418, -0.8244656121399886, -1.0184046115918028, 0.506875573174582, -1.1041244231750955, 0.9011794329479665, 0.7987069657907369], [0.7475074640639605, 0.6388642203573647, -1.6912664340651888, 1.0553590816121525, -0.867246000473027, -1.590676293332863, 0.7032278119338999, -0.9754508016422218, 0.20890116855280288, 1.236616170501475], [0.507406416766231, 0.46343195436462375, -1.210576974085509, 0.8067877266873291, -0.8369409388375586, -1.3430058078792972, 0.6801962406726755, -0.996822014778773, 0.4690858576242001, 1.0800837516835353], [1.0385824119333844, 0.7529378730465137, -0.8453473674146548, 0.7091117939781121, -0.24707418164223466, -0.7955208055788607, 0.6655523281790494, -1.25318855253467, 1.9087530457256088, -0.6411362641011381], [0.3457016294586957, 0.3160089914814563, -0.9795145407819144, 0.7339971343771593, -0.9123749378954893, -1.2320712904004585, 0.7684617946349801, -0.9622444470923871, 0.5774219191689086, 0.9949923210385966]], [[-0.597574726127364, -0.4177073556125809, -0.8608673242206816, -0.6965122313898776, -0.8238467407150367, -0.5414490398571017, -0.857977001322607, -0.7142365570021637, -0.626403733524388, -0.6625472385942731], [-0.5129741760393141, -0.37730465322645684, -0.7405490398358296, -0.6064297488830541, -0.7166203683579313, -0.492085720072671, -0.7339640752053761, -0.61488488176995, -0.546974923701376, -0.5876460051733966], [-0.5565859973812587, -0.4024300318064371, -0.8182811537194951, -0.6614021886117076, -0.787429392811892, -0.5314897808276371, -0.8114328508984514, -0.6754297225714624, -0.5828165027098169, -0.642387419058549], [-0.5267531214997031, -0.40049504549598663, -0.7619249809166042, -0.6225980386347606, -0.7494403931754451, -0.49736925237047147, -0.7616783248552363, -0.6358921228853988, -0.5461963873272027, -0.6056207616251785], [-0.44062871870201314, -0.3453272873575914, -0.6440754823073938, -0.5405120290996569, -0.6326155252606971, -0.43636056957491215, -0.6438923747054576, -0.5560615141105285, -0.4517675758127865, -0.521635948926695], [-0.604123706260146, -0.42752233013082647, -0.8716541449160974, -0.7017166862710763, -0.8375243294892573, -0.5517161924065278, -0.8745699755103777, -0.7058046013479113, -0.6402246643858822, -0.668575227661112], [-0.5026811504248101, -0.37745410837126403, -0.7453187059196004, -0.6155061794655384, -0.7240440097089609, -0.4838351302246604, -0.7344609633765865, -0.6254490219174824, -0.5233814020910039, -0.5932062103311874], [-0.5987892191941764, -0.42097776756075683, -0.8616772151106823, -0.6904712127846248, -0.8176692958375956, -0.543588684245031, -0.8518995107429951, -0.7096160846507681, -0.6188904321359997, -0.6563802703655994], [-0.5083712955161674, -0.3732156589036702, -0.7512302959046134, -0.6125883190224886, -0.7211986240581306, -0.48304324664748355, -0.7452267424162352, -0.6235660641230127, -0.5284341820538389, -0.5984941639419337], [-0.3420054299861213, -0.28632090774499125, -0.4899469070295471, -0.4129983533599971, -0.4863285992799943, -0.3337310942703316, -0.49370639874836836, -0.4275608990831996, -0.33167041380002477, -0.41665057472455125]], [[2.060692840944904, 1.724588149015363, 1.9343724560402797, 1.7962788807790038, 1.4451015426091547, 2.09274016860524, 1.7295985282102626, 2.0502530311631255, 1.7401782062333775, 0.9526307786895455]]], "biases": [[[-0.7867948231336666], [0.8931949497255015], [6.17115848881265], [-0.23136390488962402], [0.6507580311531408], [4.781143247714545], [-0.19353456938012317], [3.097496897049037], [0.010724620704410374], [0.8558419949151453]], [[0.8228229875802856], [0.3064997716359042], [-0.5383134614696666], [-0.3134245129985962], [-0.538444025518911], [0.18221370042692897], [-0.5609943248327839], [-0.35395720989049173], [0.8560945006792576], [-0.21883696139209982]], [[1.1942443027884553], [0.7586088821003817], [1.0293662907279397], [0.8461224465399161], [0.44279816702814845], [1.2341635204140502], [0.7679282199883247], [1.1759281060999696], [0.7785202932718458], [-0.010721870357538597]], [[-4.578854922332599]]], "sizes": [50, 10, 10, 10, 1]}