{"weights": [[[-0.3458642797399067, 0.05892602001112395, -0.11823778847821055, -0.12833627691114796, -0.11638772347721724, 0.3402468059392019, 0.18930496046861164, 0.2766650079576439, 0.22228591242748466, -0.30068858422662514, 0.2165217799311945, 0.25723717678539887, -0.24666124966970013, 0.16920647751996198, 0.02805649593581374, -0.29030322110631995, -0.18527158850858702, 0.00715783042661311, -0.00330230734616965, -0.04083660497841765, -0.2288210998570442, -0.37734031989495714, -0.6155040401022221, -1.0851518773331041, 0.05823549404641483, 0.17231940820005728, -0.18035698818126586, 0.2617863352880254, 0.03549645404613491, -0.32541776319059224, 0.29697468906450597, 0.6452255620231536, 0.7813518158166304, -1.1040989276631399, 0.8502679462925804, 0.4495605153206812, -0.44688994275439503, -0.3730465729193872, 0.6936303245881774, -0.9919724795613103, 0.7885845019966403, -0.005159927636958958, -0.05595714672721222, 0.1083250881279764, -0.17317267237443149, 0.9255557978521912, -0.35324514609511465, -0.46879879886658626, -4.432911831574338, -0.45853220611313755], [0.42859964811600737, 0.000533616021366677, -0.6490228388273644, 0.022263284124616572, 0.017197604512288606, -0.28477355098048274, -0.023534203832272386, 0.25615222450436037, 0.2526320021865349, 0.014549872978317335, -0.3999983242807609, 0.032268089266651354, 0.15607632641757613, 0.07850932505812061, -0.1352045532456688, 0.9083723387709989, 0.21216373445247694, -0.2329747134498852, -0.38777845566949987, -0.471670262244863, 0.13946792927996482, -0.19449593043638747, 0.7302016877582278, 0.23565722059814206, -0.659517520555844, 0.2383239325067952, -0.40897223481862643, 0.3340289455986884, -0.6420989370637393, -0.44600104245274735, 0.4300971002040614, 0.24870824958746163, 0.07492895216434066, -0.18520162881114177, 0.045540719749978066, -0.7549384546527991, 0.2927359008854962, 0.3989247060741626, 0.12721020301592892, -0.48488889743907215, -1.4310238533375548, -0.07342065687516869, -0.6385627331057232, -0.7120273637786734, -0.020086617722274443, 0.3779270211581562, -0.18242661284452935, -0.21639079926886273, -0.41008860680434095, 0.9521214864204424], [-0.02251900634606355, 0.08500243566251278, -0.19054287041605425, -0.32958798130385275, -0.3351788722589913, 0.009361095987904189, -0.09001252015153104, 0.04313821578124492, -0.30399381721245383, 0.20594751560054572, 0.10077249575719248, -0.019125550643130092, 0.10754562703588454, 0.3884228106762886, 0.004093377800472897, 0.00634736575160221, 0.03606494827743918, 0.24344055813349436, -0.03772346722184846, 0.2638411615412639, 3.479422904906353, 0.8581212445012939, 4.646070312277307, 0.4087932840353078, 0.06287577072458518, -0.5026452497596892, 0.43047441900151706, -0.31205689483763044, 0.09653030716438085, -0.36375658887676426, 0.3195792411639096, -0.051382100726236855, -0.4774948734528957, 0.16045341033557015, 0.10441966337568608, 0.4588007848595408, -0.024957332335449018, -0.19485172916546067, 0.22077158655920134, 1.6664376862935293, 0.04800092469450265, -0.12547118209278768, 0.10569974053472588, -0.13993750413169403, -0.1153696245883457, 0.21078697845062747, 0.008478111482498501, -0.11264915034354306, 4.186191694825278, 0.2949544502135833], [-0.22625283957618753, 0.03909783718126594, -0.2020462973075502, 0.38733694051853024, -0.8446186297602835, 0.43578038852937145, 0.2543858533711346, -0.14791076750347035, 0.22444537227672615, 0.3982649479445354, 0.5135279554405088, 0.2687967814809799, 0.07568740891082092, -1.0297831809359794, -0.20291731615318223, -0.2338778342609798, 0.03571861814801088, 0.07097340369847575, 0.13756971162236944, 0.4970700285664824, -4.050479890844911, -0.5850225595676287, -0.0734514657844639, -0.09668854607848856, -0.1959310941052925, 0.19863476797465016, 0.6108419301050749, 0.6367319209347644, 0.0038950501303080956, 0.39912475216647786, 0.12591009363137984, 0.12315143362096462, -0.04865578252002659, -0.04249558524690786, -0.4027540100803046, -0.328887841606191, -0.27390853558471734, -0.4650538674190176, -0.4062107020012765, -0.006569009468016911, -0.8408979312442708, -0.4444895960868738, -0.1545354178048948, -0.020689951283284887, -0.21902902654054895, 0.22499738248123666, 0.46354348414529617, -0.430795721790825, -0.09203503328191356, -0.142115627061219], [-0.3518554084532825, 0.3665587837798269, 0.2239544672731663, -0.4539029735237984, -1.1821537757298406, 1.1223693687592189, 0.45904129222801254, -0.08862214113564428, -0.08142305509729159, -0.01578822095105464, 0.8241793348546815, -0.6166668505070714, -0.586436797972069, -0.16067606028602763, -0.521930773940972, -0.7518247137513602, -0.1550676629358597, 0.4261676732472736, 0.40867428917226245, 1.5624557582976886, 1.7140052415569837, 0.08254867775849761, 1.7360823590273156, -0.23485054321031576, 0.16255665350744697, -0.8582633479085907, 0.2588207620471022, -0.05660665888713509, -0.229624829966359, 0.21325660059519905, -0.5282911296281964, 0.7762916136198528, 0.5325939488466154, -0.3229223537286852, -0.0470207600178011, 1.1565841260229632, -0.16405028960853565, -3.3007631500946807e-06, -0.7520132699625699, 1.498010294209525, 0.7140009562447902, -0.5576642513354453, 0.021394295539955466, -0.4303207257672661, -0.3954919731409553, -0.025022404732178764, 0.1024631140388255, 0.36081730402701906, 0.292214540298539, 0.02662115865127438], [-0.038963755543887604, 0.24306351357090136, 0.027732761262593414, 0.08550606076305198, 0.547016036819704, -0.1284946175258013, -0.5243783287925241, 0.1970105576029606, -0.12561348359064187, -0.8931501020926581, 0.41788148984646734, -0.24135247353318554, 0.26569620657617177, 0.28269608539088337, -0.0890190420310884, 0.1210151912922982, -0.12553154213699877, 0.44153500503431814, -0.0785900245120342, -0.5668611817356423, 2.8747544052467315, -0.3860743336801622, -0.1371782483742607, -0.48383960731156833, 0.4249112359905776, 0.6295661573516879, 0.14126782332107404, -0.2299967123723322, -0.19900293377104777, 0.9243343426104106, -0.5258788623795331, -0.5711953231928683, 0.023590885801710693, 0.8059144329375285, -0.15775334936496258, -0.42591371062746297, -0.17756850809912622, 0.25664144972086456, -0.5124521502219195, 0.8448476058940348, 0.10867089049073612, -0.013714503532087228, 0.45272939275561164, 0.4460530972699139, -0.3002741769461504, -0.057065912463814, 0.3895449372172257, 0.02168021792820023, 1.6843818867650562, -0.402162628688202], [-0.006043979744289061, -0.5940917016321298, 0.6287004922975855, -0.8828821065553085, -0.09064078658749597, 0.03956444319049909, 0.5189158443160029, 0.01604419911804256, 0.6977178587230475, 0.6251191587063358, 0.16807899165535162, -0.2602604102700179, -1.2303925991842806, 0.7155838023021369, -0.20038203477061683, -0.44097932799426204, 0.006877780065374129, 0.8089373252073428, -0.7318962514477843, 0.08258324382602264, -0.32373515377283574, 0.5913745017564672, 1.0436777308010732, -0.23702875175154794, 0.2954019732550801, 0.015140051540759756, 0.13014730687621276, 0.7399196686582812, 0.1328710172559873, -0.36871646981410255, -0.1977560372449444, -0.3785882446423402, -0.17640237102519968, 0.01602590464028582, 0.13923727557121032, 0.9009160145259427, 0.26163860437194275, -0.21716528450784092, -0.36013378241593424, -0.7544073119289039, -0.9412234995423872, 0.5616355692240436, -0.29872708440838647, -0.3862066249859479, 0.8777626556146088, -0.5657135170798426, -0.8854567725983976, 0.48500371005504794, -0.7459459839005949, -0.1292500078571381], [0.06379413777944638, -0.038969597529559044, 0.3002553328369983, 0.048410557130353415, 0.09727438748398692, 0.0033381922352083457, 0.08757257246750551, -0.12936335604732074, 0.06592036801828544, 0.7701565932067601, -0.16953001276695515, 0.013896084817324024, -0.17825596488877862, -0.47589255018458326, -0.10846888379102881, -0.15241441268879505, -0.14991471155328925, -0.11747679279288482, 0.2295047451602099, -0.04842086939261456, -0.673503689450496, 0.5439256031613352, -0.8357727502643477, -0.1534273241362269, 0.008247877715480963, 0.0970662646689189, -0.19187660986863364, 0.026501802112213552, 0.4028876220877234, 0.778464416965799, -0.1205193791890831, 0.18709618591297067, -0.31801621352199205, -0.5681914390093139, 0.26607516582171337, 0.15066273738999242, 0.07781023171111988, -0.42592207357428247, -0.014288442168935996, -1.5662986729278106, -0.13749680244838797, 0.2625316487029666, 0.19387892948936025, 0.20933640791214406, -0.47480431217067065, -0.14410221705592635, -0.06006496615883908, 0.7338902323381179, 0.46248114121648404, 3.287313358321661], [0.06017609400262829, 0.21038514787342275, -0.02968933226980475, -0.14017322361436152, -0.11641066220206765, 0.5468787755761094, 0.004640086048031232, -0.3996099943316911, 0.1998478266429377, -1.1047592270828714, -0.06270820365042867, -0.5218580526555571, 0.4166257643508203, -0.030958815924814174, -0.3923432572496948, 0.34780287938525073, 0.21028820552173114, -0.02372277047190073, 0.462670929745236, 0.10661928148349135, 0.2270493322668827, 0.09742255682954248, 0.41624079550289683, 0.19030224390312667, 0.14944968799893601, -0.5212738476304873, -0.07972596158470474, -0.7621964911386134, -0.3156372391894796, 0.8164377065784346, 0.5331526042356114, -0.28883962867148083, 0.4831540101376215, -0.1492093268909125, 0.24975295739075812, 0.776823347549581, -0.3984566279531432, -0.6395839125253955, 0.12484687505902098, -3.7348677131224894, 0.499911712895118, 0.022264728869302527, 0.27608341749364507, -0.20886437606371347, 0.32613800659792147, 0.5214307670666743, -0.21185189352238215, -0.732763187575409, -1.9233161938380485, -0.7430958536273394], [0.14883221567100893, 0.2864491206499703, 0.5612847780049666, 0.31542732148165925, 0.31384691386968283, -0.58851466291512, -0.46287214082031036, 0.26137800425817453, -0.1769149412298445, -0.032160968356564304, -0.20546426966019454, 0.08855628433356923, 0.17570132446506703, -0.2605086154073471, -0.3289961931795796, 0.17717901043064982, -0.3749984039984995, -0.19261447822060915, 0.2316487787129127, 0.05535250236571669, -0.6404615399590424, 0.29829622425498803, -0.5319788647837, -0.05000040401940236, -0.08045650482804641, -0.4517660977728573, -0.4666892310317811, 0.08890918867931692, 0.6765356030722106, -0.10578250525788295, -0.4646069041270975, 0.6919663850263367, -0.5789845190703046, 0.013822565470782642, -0.04454096619464689, -0.3226626189915868, 0.6023199676053416, 0.34879880859054013, -0.12289301551554735, 0.024342282645099005, -0.9722657123606873, -0.7387485883110589, -0.43993879441725753, -0.7371033157203907, 0.21862526156785897, -0.585339273618371, -0.8811239709237032, 1.2133658238168434, 2.002552263613964, 0.3551729614077799]], [[0.7089989724381329, -0.6145832036038195, -0.4875425855321793, 0.5755508259895498, 0.1303997802623207, -0.703063130095737, 0.5652032715639611, -0.8632220826610405, 1.5266390805992538, 0.2799593461966801], [0.5603224529944151, -0.6378203810654426, -0.4300444210215515, 0.43090554607895815, 0.0006884458532143089, -0.695065508511247, 0.3406491382399306, -0.8304729446355892, 1.234271043056802, 0.2640221651273368], [1.30902667199514, -0.707293280107291, -1.3388001515940298, 1.0119367697693877, -1.0365049278033736, -1.4805995408040813, 0.5604315377415962, -1.3004919308975111, 0.5723288932273481, 0.9415136073717809], [0.9595263662715361, -0.7937873199827579, -1.1364813020808273, 0.6617889836604115, -0.6605751448263417, -1.2855627763505462, 0.45596026331805894, -1.2167370882549147, 0.44710660081441694, 0.8169435200014689], [1.1324323521735347, -0.7368009075668621, -1.3368278618276037, 0.9288442513367203, -0.8527331279568027, -1.4981968305054871, 0.6135592778814783, -1.3052359896183527, 0.3763177656939346, 0.9700650876973814], [0.809399607078479, -0.844327468151562, -0.7935067516033104, 0.4219110985114996, -0.4469929469340084, -1.0003030711232894, 0.26756200243549094, -1.0670694573065505, 0.8383468153568863, 0.4731688467669892], [1.2707295469248663, -0.7174219296926723, -1.3338576210903712, 0.9879897470767426, -1.003457511701913, -1.4788040701210032, 0.5777818749886291, -1.3089106927604526, 0.5222151615906254, 0.9637999232766254], [1.048825211415667, -0.7864728825788408, -1.1498418071937901, 0.6757105726459287, -0.7331177206705909, -1.2716885406323062, 0.4105396575426501, -1.2517710189976363, 0.5353809796246828, 0.8421833017089053], [0.7149150713746215, -0.6645055541620111, -0.5147785444228916, 0.5543143133737659, 0.026799526482034933, -0.7401360496448546, 0.4986204844001342, -0.8730052604278137, 1.430147465834155, 0.22393211536204635], [0.9144819362523904, -0.8092986369799752, -1.0855806709679794, 0.6100545065003599, -0.6101826940820393, -1.2341305304359904, 0.4172345077350107, -1.1999553018521598, 0.484670984501576, 0.7634957640674971]], [[-0.5667069797550601, -0.47475014055971876, -0.8754000803229112, -0.7488358205854604, -0.8573696624948374, -0.5895394466093691, -0.8766166619337802, -0.7654353543534915, -0.5498124213728464, -0.7147571487601817], [-0.5188847489447416, -0.4391813701984441, -0.7332447885104418, -0.63453603268504, -0.7261656848520576, -0.5284497704668298, -0.7294951730197453, -0.6423032183842703, -0.5165354349464769, -0.6162199957777819], [-0.5428704284719953, -0.46319937529895716, -0.8239981878073618, -0.7041872467742532, -0.8114740018957517, -0.5756317432674309, -0.8208183188961573, -0.7174077004758133, -0.526885479897899, -0.6851406552925402], [-0.527628204237753, -0.46300217369611363, -0.7586354862365503, -0.6553656163370933, -0.763546094847619, -0.5365422153633089, -0.7615205695525532, -0.6679998737726692, -0.5087128147616207, -0.638695489552827], [-0.4683370635392571, -0.40992704601959107, -0.633921347891013, -0.5625479524035473, -0.6373679784443937, -0.4723478013168182, -0.6358364549897704, -0.5776043866270173, -0.4503839872639809, -0.5441184308165364], [-0.5670577052868889, -0.4822658317734949, -0.885307825775054, -0.7539621042095425, -0.8705833578545841, -0.5987540389392727, -0.8925366271116401, -0.7567399047677452, -0.5565722397267393, -0.7208574811410073], [-0.5118282384947134, -0.44249819827920345, -0.7419857838115037, -0.647503645477718, -0.7377134348984257, -0.524223549970267, -0.7340540063787662, -0.6569604347189127, -0.49597095414083914, -0.6254120469238829], [-0.5684513257460511, -0.4774943979780031, -0.8721893051189198, -0.7392692731916639, -0.8472301207488132, -0.5893210590951593, -0.8664600802388988, -0.7572038987131828, -0.5430977375720312, -0.7053222878750507], [-0.5156739119443294, -0.4376172461367982, -0.7456195758951428, -0.6430913612367859, -0.7327479632165905, -0.5224365743165663, -0.742573283678235, -0.653481391197424, -0.49896005251237563, -0.6293511822923478], [-0.3892463901233718, -0.34998254089437686, -0.4865723540902809, -0.43506395775039014, -0.49417264008216094, -0.37288290304381444, -0.49147978712907336, -0.44885543896838404, -0.3607275503764011, -0.4395159420667417]], [[2.0803707110769527, 1.747675845428417, 1.9566111168392926, 1.8202884652435352, 1.4981134628711197, 2.104237661881745, 1.763636716101551, 2.0630086436267203, 1.7668615859133798, 1.064904606571651]]], "biases": [[[-0.018909856307913513], [2.655145173269704], [6.249661086179653], [0.10412733904832921], [0.023203544442038516], [4.423479800728293], [-0.07092882136090141], [4.573905838392515], [0.3398548999458859], [0.8999301519180322]], [[0.599388401469252], [0.37358048386457837], [0.08748714678506606], [0.018894315999589757], [0.08134319546267671], [0.08153014231970512], [0.06961024330541503], [0.022178193600589598], [0.5188209031688773], [0.023003267536124757]], [[1.0608370701953493], [0.677444681657845], [0.9177149207730823], [0.756134561295307], [0.42535634384725113], [1.0866008111695402], [0.6982377928613865], [1.0360108587684467], [0.6992111240625489], [0.045069795554661805]], [[-4.692490427988005]]], "sizes": [50, 10, 10, 10, 1]}