{"weights": [[[-0.4384816628473935, 0.032558635790131595, -0.14571307307141904, -0.004662261023473202, -0.3843635047847062, 0.3454107338546558, 0.5202835653477106, 0.29999012901617605, 0.5113703467728189, 0.2021914055570093, 0.05412576893083589, 0.37515488126438706, -0.5113221776017517, -0.3639435664025162, -0.011670948179837135, -0.3897040479953055, -0.15934060833126276, -0.08685195576765387, -0.05228217940228607, 0.39053911351408976, -0.7807021941092097, 0.27400676959078063, -0.9183217863333432, -0.8848294314615722, 0.021279853656035363, 0.20499504573043756, -0.16394911350070024, 0.427520182467377, 0.1405814170578896, 0.08906307892180336, 0.04387177789199393, 0.6580155124935626, 0.9045280105167087, -1.5922791423032336, 0.4990379711050386, 0.4715679564031148, -0.19826746361936012, -0.2454158017698271, 0.1042447641767268, -0.6323105296033197, 1.5322290135438745, -0.0009703005165723515, 0.07456871856645851, -0.2864790485083244, -0.07038980268817834, 0.5394006642333804, -0.16489446608906147, -0.3454972791903519, -3.6549425539698674, -0.16750335416967926], [0.22963986715354517, -0.308162065505892, 0.1612488860015183, 0.0641885649609028, 0.5761964018925111, -0.23790038948955447, 0.14536659772848745, -0.05694760650128642, -0.46794737966227223, -0.7354098364484085, -0.6202834700680514, -0.012066335329450032, 0.31362661386569485, 0.9318808105383075, 0.41149694082483773, -0.03996171387472359, -0.2704928914010332, -0.20725782293561346, 0.11714522188021663, -0.4988248667922923, -0.27719306865031423, -1.1320450179779729, -0.07330079651693244, -1.068816443035259, -0.27130849775927196, -0.4224974080744205, 0.22850006014247046, 0.25278489036872237, -0.05863306650301941, -1.281591018375687, 0.4111316312053009, 0.7604358253618757, 0.27815555019129024, -0.25802486773332667, 0.7685567318176123, -0.08001332068041232, 1.2998298179688945, 0.24616136886729686, 0.06384865876248196, -0.38769957867255267, 0.3658993458943587, -0.2463394321377515, 0.06159911917413364, 1.0101483809093048, 0.1913504030017402, 0.26667631270645215, -0.01608606170344528, -0.487271273318824, -1.1213446733884036, -0.7676586620263387], [0.05267338395673728, -0.015776858107068716, -0.15019364476729768, -0.05348400421819673, -0.0964976446989102, -0.07763396724121709, -0.13044180150086396, 0.04970605712089769, -0.12362790004355374, 0.44759011954794703, 0.002241248198263571, -0.0521078189237128, 0.035842929840205165, 0.1793188021159463, 0.14651767940231883, -0.08003827242078261, -0.02624869202568374, 0.3392750499450956, -0.1650189160731477, -0.1178581418013168, 3.0276376927445354, 1.033228117764826, 4.3421263980422875, 0.12525157495126205, 0.0554217532371401, 0.022828891288008534, 0.32935349890366394, -0.0496511187584394, -0.011658821788195557, -0.4958502067940058, -0.05153548912737628, 0.02838434831279324, -0.15370107915389705, 0.40374123947766505, -0.20898604125891773, -0.23398907658191617, 0.3945408599773087, 0.0018815777571209488, -0.003961364104267256, 1.8899001443211436, -0.05871451411829237, -0.15859767839501926, 0.0028012831846114103, -0.12465708904551953, 0.06334344990035676, -0.0593597447521533, 0.0767070507748411, -0.08188911178236508, 4.348510712600586, 0.5673098547451157], [-0.32710922002910614, -0.21603568584495852, -0.1367127025493534, -0.02374065483408427, -0.7686382561691006, 0.8801103242235285, 0.19045821690322867, -0.1634740190277735, 0.574264153476108, -0.11494594078521848, 0.45618011639330414, 0.4466912287306065, 0.6338290994681497, -1.2318657225928455, -0.6964180104882454, -0.31359564016953084, -0.15559870234361783, 0.03580778451003425, 0.5808528541957557, 0.7247869467152674, -0.6846406627149362, -0.8632137871384076, -0.4216638725709445, -0.05134287373498042, 0.12390665831809311, -0.5920721484670418, 0.07093093335505526, -0.03177886945601873, 0.221000494026105, 0.5985386990680396, 0.13531498662038327, 0.21637450644314332, 0.24389807648495143, 0.18102502173725946, 0.28916399452271346, 0.26214286302085105, -0.7352436883954301, -0.3802807794057973, -0.6527309846933893, -2.073003392572556, -0.664461014953162, -0.0385705356441512, 0.08526449514505946, 0.0059904851348668246, -0.7514321565557582, 0.542017988537366, 0.5538923164940972, -0.27164201944804284, -0.0015088439311051012, -0.11522523612840949], [0.030690724687099734, -0.2952662533295661, 0.14709639142721614, 0.2015959576830992, -0.1388146118763308, -0.050129404281875456, 0.1064169367000652, 0.19188246989860383, 0.05926619492338664, 0.7379002515877751, -0.09144134148750152, 0.09171469830184244, -0.15263817369964394, -0.5352674448651875, -0.08251858923691738, -0.04210874275659138, 0.046908704550830196, -0.0729074349920886, 0.02261016135762775, 0.0751748461530555, -0.5485421072773139, 0.40314578679277774, -0.8862776279704931, -0.13300760670147743, -0.4459715117545585, 0.07296397486573204, -0.09124026533613651, 0.42789955845605, 0.1827279250386056, 0.6104719335350546, -0.305810137248545, 0.2891223599567023, -0.4892175927601107, -0.37524061944373044, -0.06880786193687906, 0.018643693815322573, 0.5218459666259306, -0.04129562549551413, -0.416825137128695, -1.4096241903069453, -0.6734173858691269, 0.14736560576534527, 0.04926954754240658, 0.24988428460318063, -0.4340647461017698, -0.2070757979524657, 0.044489896741412696, 0.6551287248479069, 1.306303102469168, 2.793278859213177], [-0.056643398068921005, 0.253827785023382, -0.08215070087594727, -0.013310367118580784, 0.35843678027246595, -0.2621267101303185, -0.10753329040168662, 0.057686869308040525, -0.30184190730063637, -0.6752918103858815, 0.1199956212856795, -0.17439682396837783, 0.2261970725182623, 0.3434818287854505, 0.24454193356458342, 0.1686906844597269, -0.35666751398506336, 0.028490927834506057, 0.2522417352914639, -0.21855186278553604, 2.740521107101705, -0.6955072760851637, 0.16456397275621437, 0.19848969608491882, 0.5954196934370446, 0.24418133668506303, -0.3259612020571587, -0.7130411073997128, -0.4142644181677724, 0.6040240455114114, 0.04906453787867987, -0.020566320668929456, 0.7063807600262216, 0.013013129328546178, -0.1900924921672962, -0.37153803963109877, -0.49074473028392185, 0.3705362804417298, -0.6384366766901961, 0.5291703085901025, -0.044358491748697916, 0.002801560594960231, 0.23021094733174824, 0.2933629159235788, -0.19308238073104037, 0.05301570918546597, 0.23703050829825037, -0.06989006513433792, 1.1645728477493464, -0.42456578439604986], [-0.16293120908207265, 0.06414940542657785, -0.10750528179681497, -0.10646989640090965, -0.1252076777649711, -0.03886491474584692, 0.40343249084823507, 0.18832181791868674, 0.012278290483774403, 0.7446031332137163, 0.4884322606229316, -0.3012755640451458, -0.7612713735671677, 0.353346602615473, -0.6693839629854826, -0.06393008019168145, 0.04658759987413317, 0.4515123070303061, -0.1520778732290034, -0.08666522288525629, -0.6291411561000896, 0.9843520162546898, 0.4893029065119394, -0.486280107621781, 0.08494578831109723, -0.05042224100530962, 0.11587508412777182, 0.19294280724315277, 0.626336085437137, 0.0162458930820813, -0.04352474649786209, 0.46694535202924525, -0.4133175612776852, -0.14711711195754398, 0.05330169396879384, 0.33354905450018074, 0.34539076221625087, 0.06363287537332682, -0.5664883942573389, -0.06039489347040187, -0.780749906644821, 0.2719879960491305, -0.1345440654433447, -0.9130462046888245, 0.892499133579743, -1.0594740524995299, -0.8677134401396638, 0.9841469651720401, -0.42109794766330855, -0.47035495081807865], [0.03745308470666719, 0.07938438685194388, 0.13080406954162418, 0.010085473941326709, 0.5973534002271903, -0.050610657362900185, -0.43228501860473306, 0.019513648711723883, -0.03838251814464657, -0.2715098089285171, 0.24780239895448553, -0.42820414929788164, -0.2221589617876448, -0.01081239319427632, 0.14617368251630464, -0.0693253591154511, 0.10830422615745387, 0.04234680452915186, -0.1170533533811191, 0.12332435211837439, 1.9650227565255496, 0.2439663437774964, -0.4540927642565078, -0.44860510586098007, 0.21399313205038625, -0.0997978441573708, 0.5426479927936714, -0.11735746521591199, 0.36785873722086915, 0.13211243522092933, -0.006695746247980664, -1.2404173165016534, 0.41040579843719377, 0.3769673644019224, 0.14356193268618753, 1.000144009225168, -0.3483720625892557, 0.2724606978315725, -0.4249270671086112, 1.1866703086998154, 2.2372422885945564, 0.4640097274880709, 0.4784830279175386, 0.7625695564735239, -0.430962211383874, -0.4990441959071626, 0.3406011576144607, 0.6910218385845138, 0.03929114430073632, -0.16370371761255118], [0.048732232693426615, 1.0162823618999228, 0.5120188728154391, 0.04869032187027714, 0.05021953189960472, 0.04729707367182294, -0.5297040714161815, -0.14867174121007745, -0.4098569940689732, -1.2642516406413626, 0.15259040770553067, -0.8583947900366155, 0.12596983275368154, 0.30505238764034814, 0.6721784653706762, -0.0009100262487999322, -0.3080310979453628, 0.30675060663534415, 0.19843950245344738, -0.23999903409879284, 0.03472051900375863, 0.3850606885505282, 1.1498304409949736, 0.14129666525832657, 0.23630240988448586, 0.15239794420129024, -0.8278326923038567, 0.14354343547539256, -0.3650903912329131, -0.22987190865534288, -0.49812202393149707, 0.20368476274212416, 0.948633640989182, 0.11955833906854255, 0.2686901142306868, -0.05474833349159947, -0.3501014588036531, -0.4332465658070124, 0.1771292914409996, -2.9630593845925, 0.8818642366542695, -0.40163455335565196, 0.2862761997251208, 0.6245400401340216, 0.6871234173676904, -0.22511378398709528, -0.016835793808605837, -0.5101532183661037, -2.2654188915991864, -0.8419174579471387], [0.1874774541524079, -0.4498489914411897, 0.6462866264542289, 0.4929881398137701, 0.9686703117377321, -1.2305447787018446, -0.35703652068909275, 0.205644508248094, 0.12773083467521165, -0.21863928929456228, -0.5270093548213491, -0.25944261135913466, 0.010690155142819766, 0.010122947671747116, 0.4353583543683893, 0.4516043366704013, 0.134255647101298, -0.08856366283000679, -0.23915801788847674, -0.6258737553323629, 0.49558796862147214, -0.29071017969430774, -0.5494719192232349, 0.16629241778584, -0.15347798669419568, 0.2717593442997142, 0.14181431280555484, -0.926427581776337, 0.5339307919065169, 0.8162452364449047, 0.02720228655075094, -0.9848312295293505, -0.21745740291755594, 0.2790603425983488, -0.8224687917788638, -0.17195585696593943, 0.7059542222171498, 0.40719822439147363, 0.05439008776693864, 0.015968446873471542, -0.0871291166969011, -0.08853180853843597, -0.36955799471994033, 0.017694841198047113, 0.4770289726015407, -0.27513294586983733, -0.5885132445002119, 0.3166434242403769, 1.6485735226357707, 0.25445078314299246]], [[0.5341895985222349, 0.24617393087606576, -0.7606035373015517, 0.362177901411067, -1.0487024074056746, -1.0456254651963532, 0.6457190085132505, -0.7285084177478107, 0.14391056858913956, 0.808617939430563], [0.3219917875931603, 0.11004801211593035, -0.604996035788996, 0.4563647625916533, -0.8488107003735618, -0.8708959623413621, 0.5535450763147132, -0.6332653226561152, 0.1656351229425928, 0.7510799501412211], [1.3498311891601622, 0.6584120007405709, -1.7434555645681196, 1.639744437254648, -1.0827959029025676, -1.1322614980654568, 0.4906478917841053, -0.7261679524473162, 1.5051776690933492, 0.48391057478064975], [0.8078529474753711, 0.35786231844952854, -0.953805294155381, 0.298979162723132, -1.2854723270851276, -1.254771917028747, 0.8483627252498817, -0.7668823497565244, -0.002898888884827599, 0.8721243133596179], [1.143041836256375, 0.7022312714805905, -1.1454266579411814, 0.24902777864806505, -1.389919112993835, -1.4580487290332182, 0.6613097339397019, -0.7834982441534538, 0.3421713656462584, 0.9372995427833439], [0.5966159790953515, 0.26810964701363876, -0.8082913094451488, 0.34650262472195276, -1.097299714771846, -1.0922877791143928, 0.6756318029503269, -0.7241263908682416, 0.11312112332929665, 0.8220637274539347], [1.4150264724770658, 0.7370855034203009, -1.74547881276748, 1.3829971592546169, -1.0991740385213578, -1.2051096032605366, 0.3678344407311276, -0.7684581292114959, 1.386446631358002, 0.5418225581505178], [0.9417891995648717, 0.5650187688860373, -1.0209214579655495, 0.2641341125774766, -1.3091690897455643, -1.3345026475633277, 0.669397970069836, -0.7744119954794835, 0.2761326669349436, 0.9058276956166689], [0.49250742618836724, 0.22353849682242735, -0.732222016742469, 0.385843665194033, -1.0063889548983997, -1.0159869024689039, 0.6281851142024603, -0.7083412976579193, 0.14912894836566876, 0.7934659426447116], [0.747831103985554, 0.3442337337624164, -0.9118300294100805, 0.3194296672184249, -1.2315927003216736, -1.215919881973316, 0.7975113097043944, -0.7726426939413061, 0.04337789377814311, 0.8584934970282836]], [[-0.5720835433836358, -0.47855978272304645, -0.8662496224534075, -0.7095903548260538, -0.7669338353395927, -0.5927481414154823, -0.8375659962032469, -0.7170967780137618, -0.5546076036929842, -0.6752484263571737], [-0.5054841203562471, -0.4274034797982965, -0.6820386110073838, -0.5991719286751622, -0.6352460954236052, -0.5251175267962601, -0.6528854693326629, -0.5901849594208913, -0.505337630989426, -0.5798667177888126], [-0.5409307798748778, -0.46081007541559255, -0.7982194755880427, -0.6670458925193745, -0.7208812741996, -0.5769906860065176, -0.7666570999832902, -0.6679939426796826, -0.5253083016972679, -0.6474606513097151], [-0.5167862290612931, -0.4535341040845625, -0.7137028414838974, -0.6186431571384816, -0.6716029827583296, -0.5339795062095007, -0.6902375627814334, -0.6157505928337027, -0.49934529062318767, -0.6011519563802171], [-0.46064076641443363, -0.40336628454693035, -0.5766164028479571, -0.5378550937283777, -0.5592787755178112, -0.47506310742982777, -0.556625251503887, -0.5350514777637224, -0.44484741485034124, -0.5181943592852656], [-0.5710754206908198, -0.4854396927982353, -0.8733466237351205, -0.7108770755011742, -0.7758825510274397, -0.5996699771220606, -0.8507124474633676, -0.7045335498915768, -0.5600409306566202, -0.6778623372435229], [-0.5035103546898473, -0.43488030610620887, -0.6965505511619063, -0.6148527984298096, -0.6498223692853851, -0.5243366127246474, -0.6627494491234418, -0.6083805198270614, -0.48913412988213756, -0.5916330275888092], [-0.571839375672388, -0.4796951766375175, -0.8606322281758603, -0.7003315995475379, -0.7567706739770268, -0.5919308194200841, -0.8251219847515561, -0.7085895265742952, -0.5460631090601097, -0.6660173703709847], [-0.507681449132342, -0.43023294600800277, -0.7011165940588578, -0.6105135704698507, -0.6450261967932869, -0.5228093012038126, -0.6722434371824547, -0.6050420394090464, -0.4924366070447871, -0.5958527120803297], [-0.3951276294930563, -0.3561403506257559, -0.43432599852994574, -0.42532413154139287, -0.4404773009833318, -0.3849680831328593, -0.4236969300623837, -0.42291197813622805, -0.368408021079235, -0.42925422984066786]], [[1.9967706211104286, 1.6598305443477064, 1.872711662788351, 1.7305880735840757, 1.4359882955936756, 2.0097397779452995, 1.6848724199034177, 1.9792381050276944, 1.6881705663653632, 1.0359183493634536]]], "biases": [[[0.9073917606252001], [-0.26749606177995394], [5.942489160039583], [0.08025522627141557], [3.9928190145981026], [3.462069067843106], [0.9777867342982285], [3.3623210672809325], [-0.011056621054768557], [0.7808545187302641]], [[-0.23871543189371747], [-0.19797764282989314], [0.150553076137175], [-0.22680690220673994], [-0.2152348619647425], [-0.2459906135857132], [0.06727617039895954], [-0.24338147280213343], [-0.23766036206730723], [-0.23211309931108873]], [[1.0501386512521065], [0.6921495966097284], [0.9210023492302266], [0.765351686757167], [0.4617021766563544], [1.0615782869034602], [0.719070819079092], [1.028403252626289], [0.7197878242271819], [0.08638889223281579]], [[-4.995620157148742]]], "sizes": [50, 10, 10, 10, 1]}