{"weights": [[[-0.016039005368959348, -0.05729633852122935, -0.417641335447621, -0.1569417872658939, -0.4482563183879525, 0.34534190151367644, 0.41913397330745583, 0.3349898631623527, 0.21047810996023694, 0.002619570223991237, 0.311148706181129, 0.30274426764032564, -0.21755931439844992, 0.010484443262971025, 0.03337091840062915, -0.45794413510310394, -0.07724495878455079, -0.15980256457030637, 0.05784115659864082, 0.09363357500460835, -0.1511471781523276, -0.6895610316998556, -0.2223796289007277, -0.5940862312716932, 0.034801117286845436, -0.0843701044226263, 0.11134397218228684, 0.23173058966465973, -0.09194431364100364, 0.21706955411585194, 0.12286771151212146, 1.0470582556987025, 0.3525282665969839, -1.2495324539655839, 0.3138904639681311, 0.3958122103383223, -0.6414834739325251, -0.0811450145406954, -0.0035619384074737637, -1.2380284721313222, 0.947906008715125, 0.16082382990545113, -0.3970688611215101, -0.2330510274100771, 0.10604902559525088, 0.9032231578684314, -0.37468730398583966, -0.7324862177345166, -4.34961191909212, -0.6702452699686108], [-0.22706079484416997, 0.6134025954647389, 0.29599737745055216, 0.31725723447153026, 0.24284689674252732, -0.21795560514038315, -0.5948887424708728, 0.14406143248753023, -1.240778212117416, -1.2415180165575952, 0.39472852100572864, -0.4425162561185728, 0.13610494591831857, -0.03912671119244777, 0.38610563521540425, 0.30225028895196243, 0.26130367578197666, 0.13427681552537488, 0.8498057022146579, -0.08747218912215696, -0.7358115650269278, 0.12430404784458005, 0.8936242577401905, -0.20331075632294365, -0.32470770116390296, -0.7675513528167635, -0.04995465025164165, 1.1968957647415723, 0.1035363768659407, -0.616061754647658, -0.6860349111659102, 0.26112983799427525, 0.041277214810008914, 0.3188757857141382, 0.33834841589675413, 0.06946941681789755, 0.5623557856280702, -0.4667164006685942, 0.007705744192362179, -1.8771057704544964, 0.08950958492812379, 0.13914502819734434, 0.08091694298098429, -0.08693161250135867, -0.06663203604004587, -0.03200962116227767, 0.1484112567727989, -0.03631148942985656, -1.226275059689161, -0.07710797965912097], [-0.009802096182640501, 0.03467802351584292, -0.18935945886421626, -0.22931448316134767, -0.40987243272715645, 0.06880126570574033, -0.08592799117204497, 0.01633837633868737, -0.02976360062952541, 0.20133715749510156, 0.12398833811682121, 0.008658202203205024, 0.07702427406446737, 0.33877293722745333, -0.0022201660370606735, -0.1495619197562246, 0.16291945199651872, 0.18273163794547895, -0.08383744429654112, 0.10944209222179088, 2.359210111477118, 1.206171631063788, 3.802708935022818, 0.2425340388037712, -0.033144227356592997, -0.3727000222289857, 0.22069483233968548, -0.2299647433742815, 0.04689869890290722, -0.37421296129681436, 0.31637882460937333, 0.03240815293464484, -0.19731442463100793, -0.159294003759002, 0.24454430073217961, 0.30457225735466004, -0.046002015149628206, -0.22105941560051023, 0.4956986451660041, 1.2011688556496507, -0.048359964425656564, -0.0013497096780268904, -0.011327003961479018, -0.18305544079231667, -0.16492671673594406, 0.2066599293108632, 0.19654777829862582, -0.2314784642105363, 4.4564931862113175, 0.44786391421680266], [-0.18063820550080759, -0.13195546087388857, 0.40440216426755166, 0.1833100515324781, -0.13407886874630157, 0.4086352338649701, 0.19766192331613, -0.2655680503097269, 0.5038395449409354, 0.3982942273893563, 0.06395570015891042, -0.11052407455502765, -0.08415487626127104, -1.1787863301612636, -0.0591719283691663, -0.23601709483203104, -0.08242624881085556, -0.05668231981497964, 0.22600573707554616, 0.3035195339598312, -2.6459424452620453, -0.8650629671836502, -0.13261975614214233, -0.3718529108856069, 0.15585694249960702, 0.10500974984910547, 0.14104135937635634, 0.13313543336545344, 0.21709754327361203, 0.25728224983958553, -0.020385208651442152, -0.011235411893448281, 0.32331027760342196, -0.003735417096328395, -0.3018720658560895, 0.013619681367569312, -0.14875391154482018, -0.19634269599826046, -0.11749937876185369, 0.4233526238600007, -0.711348752148106, -0.44558355111705894, -0.11440811307841296, -0.09802514851825436, -0.41269046381145585, 0.4909337215137488, -0.05596837072997593, -0.012813638259056175, 0.013620223002280335, 0.2809672146894124], [0.07996746784508396, -0.20134209069381426, 0.05945314280957698, 0.026635351505961746, -0.24832933296965548, 0.012752496470728781, 0.007544038216041509, 0.06260165536422593, 0.15726916273226157, 1.0462399962492077, -0.2967254527234957, 0.14204022497892796, -0.08641442135133097, -0.3410191852939132, 0.11130466983989498, -0.02149475393694306, 0.09030058140222166, -0.04014604568381255, -0.22957276564218476, -0.09785175064174285, -2.069260169248672, 0.39481522108873235, -0.40599982817859137, -0.08563794693027402, -0.1891157417264297, 0.06956396218961779, 0.09437828450793737, 0.6096064432817828, -0.23989034943516455, 0.1867126877400047, -0.20682477244403819, 0.35593404160099706, -0.3484733685127911, -0.37956875032524817, -0.41022441477753047, 0.053796271730500375, 0.2054035665126836, 0.08509938242771592, -0.16894938902839507, -1.476249591568106, -0.8441759234824949, 0.3402455244888611, -0.29112616945850334, -0.14923918599541566, -0.1825852978198129, -0.10491036893507215, 0.07909462516111487, 0.23485856620299442, 1.47571687063824, 2.18896447278786], [0.06399224575374997, 0.01857274509747756, -0.20658255279225182, 0.020437487365626613, 0.2413049346583334, -0.4052357355526521, -0.09530526652344394, 0.3689524847508157, -0.19340784416249301, -0.6073288862397752, 0.2800678616953324, -0.12636954857556443, 0.1791208629191332, 0.4310885990838973, 0.03259258106523088, 0.15651352636244276, -0.2519575112002931, 0.11888594953022687, 0.07814191133428525, -0.24925507276964107, 3.0125401159197738, -0.6033808264470802, 0.01090239667597648, 0.0009929404010133487, 0.21277453033291158, 0.4128510299146819, -0.23538723589347005, -0.739976068790719, -0.26351949110618367, 0.8885043689027665, -0.32819008971032715, 0.038133229091451906, 0.16279490532597796, 0.18882583727119512, -0.08042908261949429, -0.390350907491763, -0.16210889624890673, 0.6031087581039787, -0.7351807054400559, 0.41689732128202284, 0.05350927523923928, -0.07273075426682596, -0.0064250174954019815, 0.1981539492894694, -0.016986583659750358, 0.14679046006793386, 0.03458566946207702, -0.17352016567036, 2.079555853953069, -0.30167906680247775], [-0.28547884938477164, -0.6238741822140275, 0.1753842128278489, -0.1856681138826498, -0.1340519329783802, -0.0008442981543245757, 0.29539889785401285, 0.28230966081799985, 0.7466302512610313, 0.481151846914901, -0.03202835288890235, 0.33294163697607443, -0.3908065145124193, 0.4971213051470807, -0.6791659153104079, -0.27135742800682255, -0.1616039060590232, 0.46112268480234925, -0.7648424182117581, 0.2627222350218016, -0.3142261120361987, 0.08698927941917052, 0.48980955933231407, -0.9091499482570121, -0.055889871502483784, 0.4478130151528377, 0.11486854838464375, -0.14002101619626767, 0.44919883771895386, -0.09728416720320146, 0.12730256295334902, 0.009478408366475306, -0.1790340859844171, -0.12386594169434835, 0.3700835968894701, 0.9060771836276551, 0.6232904874692516, 0.07266703451114899, -0.3248680420192101, -0.7076211004772026, -0.49566404734835284, -0.06422656924081184, -0.4536372576824132, -0.48314191767904036, 0.8153265863346196, -0.5963527825790133, -0.7523781456200891, 0.46005004227176627, -0.22620518951853563, -0.051936589827552435], [0.16507908572250626, 0.004543926864868865, 0.33444425739636585, 0.02792091874041952, 0.17593309300910911, 0.4752383148817881, -0.14902412355479122, -0.3090058398639121, -0.03428995164110356, -0.015222413768729454, -0.11389951071855914, -0.5282778729323018, -0.05100687571364795, -0.3815757217015051, 0.07272489894683436, 0.2545520511794206, -0.10905829069977695, -0.22738171044303487, 0.28248045299602365, -0.01704997573487959, 2.4923941228462207, -0.5822788076605806, -0.17759813506046523, -0.26072039948757025, 0.33415925889457826, 0.3422632215658503, 0.3527816222447328, 0.10683429527850531, 0.3216722731568732, -0.05193222238023235, 0.10258295562930306, -0.8624674651698686, 0.25075021336593406, 0.12383566649112872, 0.33526305157152664, 0.6367353286562369, -0.26098554204922114, -0.551489624298586, 0.04722652494801571, 0.5023788375992513, 1.0695664453215934, 0.19019221817850554, 0.5069840547207971, 1.063630344622996, -0.9192927997275175, -0.2611238962930718, 0.15427797054547504, 1.1454393811659045, -0.35522325512511194, 0.7649924012309249], [-0.13373059524991826, 0.3681166998700048, -0.1734872655783053, -0.17885131624113831, -0.5338245329906143, 0.3325165059848337, -0.04387771529636215, -0.06168023069033097, 0.23494608252278035, -0.5614540909227254, -0.1479147697789896, -0.14269660337255807, 0.5037000876115603, 0.24958647723609503, -0.47087169458151273, 0.4133574190379949, -0.02854076835703692, 0.09418155213149156, 0.2560060174855993, -0.07263994730523554, 0.03369305389891702, 0.5619581982614488, -0.4733176042539125, 0.35696438773615946, -0.05177552792471407, -0.07402755004112813, -0.28671509877797513, -0.9994666320176042, -0.2024291450709908, 0.6681594826635087, 0.3189466116580967, -0.150019098719635, 0.5882853258772947, -0.2424767811305402, 0.5066582033086506, 0.237003864582618, 0.0024495152208873537, -0.552209404443842, 0.018483054925398444, -3.6090417393943377, 0.312606608208871, -0.011945195305648778, 0.46661713967181245, 0.4646369125610558, 0.03869550229443364, 0.2237068821703228, 0.07310815270701183, -0.3657350473527348, -1.6730045434448775, -0.5291621530972042], [0.608360226201554, -0.48066056098848225, 0.09256127179180969, 0.2904433361219047, 0.348609264194572, -0.8286391489807752, -0.4042187636270753, -0.05614691132276034, 0.008141443370947528, 0.283783288736602, -0.7049788508010459, 0.04337728199857863, 0.3874469044463321, 0.3431655612416381, 0.7023848222769854, 0.10553378511545826, 0.2613858011176092, -0.6246820266370284, 0.05226280733161786, -0.6807890970222915, -0.15015028439924874, -0.7685080250387171, -1.5453532701801413, 0.16396063911396278, -0.052675465323223175, 0.6117049893479422, -0.003351944110642063, 0.17376265158495957, 0.2726406287047098, -0.18986881874220232, 0.18765474170358498, -0.46447952593471087, -0.4638439794683934, -0.03959464062485374, 0.05754228822406475, -0.8604539845974161, -0.13509353872992028, 0.3440847764841469, 0.29668910471464566, -0.2403459440569207, -0.8118554478152781, 0.5416681326671688, -0.37284659049554075, 0.19824736432503004, 0.28447421347361906, -0.3409451971997692, -0.4077442824778802, 0.4286454225259096, 1.261697477748067, 0.35207072888917057]], [[0.7091552658289513, 0.7040541485062486, -0.7161730298575385, 0.6843046517853892, -0.8687185372299017, -0.987696486114964, 0.5624677420512113, -0.7791762688479451, 0.8971528643090687, 0.3531537044836809], [0.5450716224001221, 0.6668258656194171, -0.5770294255618367, 0.5919337667803858, -0.7322605066872586, -0.8559523333257466, 0.5098897363740815, -0.6886573185297643, 0.8073417437658553, 0.24739111839518274], [1.2130460804280152, 0.4580572671264635, -1.3188120974942943, 0.9096718929927229, -1.30052083686882, -1.504760858521137, 0.6418680875491334, -0.9858747804808143, 0.6989007455184538, 0.7998633192058768], [0.9136770699617096, 0.3532160610738762, -1.0872518171245569, 0.7575506989068467, -1.1541521243239334, -1.282544030033146, 0.618116793862648, -0.9251026948212281, 0.5688993733863328, 0.627020474090318], [1.125908737696946, 0.2922846120603898, -1.3070149746554458, 0.8534710845522924, -1.2983672980837793, -1.4477261095763765, 0.6911242305988841, -0.9917632646256109, 0.5329034613915704, 0.780949249773285], [0.749720466913964, 0.6417777808525285, -0.7867578608183723, 0.697429698092456, -0.9278620935067062, -1.0602749975404684, 0.553379202629371, -0.7973665995953904, 0.8301118099964154, 0.41489389076585453], [1.1854557211104075, 0.3711869383940221, -1.3256821984076275, 0.8829657133335888, -1.314264927846731, -1.4845867289933625, 0.6752620045055759, -0.9910297386446799, 0.6067112562540341, 0.8048158389056311], [0.9617443748206587, 0.4743431136032868, -1.0846508038885325, 0.7914883606243496, -1.1472166973973728, -1.310799102110276, 0.59626489680832, -0.9410340146183096, 0.703157883892773, 0.6566936695048384], [0.7039038813013756, 0.7051017910633192, -0.7100699219097885, 0.6877594200901378, -0.855592304537714, -0.9818266129072133, 0.5647853923019719, -0.7631770504696352, 0.8885958489063479, 0.33463335146434453], [0.8480071041504971, 0.3891098848716237, -1.015448366503202, 0.7446036601213051, -1.0905891200923117, -1.2309263815397662, 0.5880195906262966, -0.9142919937843296, 0.6130140765833553, 0.5832140206319181]], [[-0.5879989295129127, -0.4979140596311699, -0.8292498379939419, -0.7047074547821292, -0.8036041223238074, -0.5988818770612196, -0.8274502558224802, -0.7269918311029544, -0.5834474044695275, -0.6682680176038573], [-0.5118997447976777, -0.43482963020447757, -0.6944982589666392, -0.5954793107482187, -0.6818201912662538, -0.5243304414322529, -0.6895885246545219, -0.6056696623309076, -0.5218427652873748, -0.574157596592545], [-0.5456279142205929, -0.4698963097226252, -0.7694969992050104, -0.6531033554645361, -0.7508392192103276, -0.5725971056505577, -0.7642324843192393, -0.6700759318741633, -0.5421922587834632, -0.6321368737290306], [-0.5212777576147364, -0.46045090388010573, -0.7118308879044526, -0.6100141296115372, -0.7113278313439587, -0.530597176965633, -0.713423384679009, -0.6253779897489482, -0.5146663786376053, -0.590853866484022], [-0.44400346007588926, -0.3908663505091606, -0.5800421781583098, -0.5129298147135124, -0.580673402057262, -0.4524491279407817, -0.5823685426609917, -0.5276944570974852, -0.4369852090739564, -0.49278673462222033], [-0.595698410157644, -0.511590164818303, -0.847376161823092, -0.7161518160226873, -0.8242296408268878, -0.6147344500544447, -0.851210945999667, -0.7252157547784773, -0.5975620434741021, -0.6803290941305401], [-0.4954960455370238, -0.43177882631170517, -0.6821304359731395, -0.592241381472998, -0.6734952281393939, -0.5084425647462955, -0.6732680817841545, -0.6031304538997605, -0.4919519188001001, -0.5683392717518314], [-0.5906753836071729, -0.5008568029446256, -0.832626750130236, -0.6999709475708813, -0.7995508503101615, -0.601252608313217, -0.8237550894455329, -0.7238102222815176, -0.5774771256501743, -0.6632468967565964], [-0.500779154978858, -0.4278328019833243, -0.6879891878474031, -0.5894694423765516, -0.6705359953831853, -0.5080792642042613, -0.6841033072599387, -0.6014450552792843, -0.4962827200246758, -0.5739533633207093], [-0.36186942768064234, -0.327705286572741, -0.43431361301922017, -0.3890431317840794, -0.441054319886022, -0.3481609565654909, -0.4406081313478422, -0.4004870253798173, -0.34114574082229626, -0.39343433199517985]], [[1.944140869491015, 1.6509665824997153, 1.8110102057080908, 1.7007967341427201, 1.375816757342607, 1.9836786999524565, 1.6176702374953045, 1.9416743227074966, 1.6260769862292215, 0.9350185304721771]]], "biases": [[[0.6473268106083061], [-0.9412985231994604], [5.721581229478614], [0.5739063295704389], [3.4395248558263853], [4.112715793537412], [0.025970025762536913], [3.710803498230331], [0.4417190117909085], [1.3337457341457863]], [[-0.04842279692811736], [-0.08061582927597098], [-0.15261495791036472], [-0.23984098545085858], [-0.2271660593526379], [-0.10369033966893008], [-0.1994127364009327], [-0.18212757445358813], [-0.05457688095966652], [-0.2269176813337783]], [[1.0814791197494806], [0.7300098734986898], [0.92361450047495], [0.7869820566645117], [0.4266002782731399], [1.1272174684010043], [0.6930220606900797], [1.0749749232324146], [0.699911436054843], [0.017563399720623776]], [[-4.782125439788057]]], "sizes": [50, 10, 10, 10, 1]}