{"weights": [[[-0.2225888061930251, 0.10483515083416832, -0.019487131195056982, 0.42895528170454184, 0.6327156341547799, -0.45296384877729523, -0.237977502951777, -0.21491443111857847, -0.26399565125640206, 0.27474163174527844, -0.03842318881889135, -0.39836546956771685, -0.23904548988341753, 0.492953085525773, 0.4118285904305878, 0.13330349691576537, -0.21212775493871994, 0.1014997322854573, -0.03336878542155179, -0.33598444332579996, -2.123873284160076, -1.535540245999948, -0.7498359636204424, 0.7370767998804657, 0.36387367342125077, 0.11541942823914501, -0.27756240481718214, -0.6417256642419297, 0.0041018963734595825, 0.25236047222884284, -0.057003244935808765, -0.20283428388126928, 0.5132515959090752, -0.09327683108845582, 0.233075844884474, -0.7252723745314998, -0.25231800141149513, -0.09615179245760948, -0.13987514665546255, -1.228615017526328, -1.1764842238755848, 0.134057521513569, 0.12426192972762377, 0.9838447636791552, 0.3106092208184221, -0.18466134939832582, -0.17708995271919284, 0.034334429251152584, -1.5561163145047658, 0.5479667971780283], [0.5410434353638384, -0.2951195347271549, -0.2709733124086453, 0.05960544573713748, 0.028249502084089686, -0.18091560701870046, 0.05668356760631055, 0.17706769218042223, -0.8434726739753884, 0.2217817667150455, -0.4703447551850583, -0.6584056240410299, 0.7161943615527189, -0.0008127890890010963, -0.23236010912622093, 0.023760456580232316, -0.2608913172445363, 0.6863455786526708, 1.0103791984014605, -0.03860847500483463, 0.4828718455641337, 1.358246623697523, -0.9908997601575203, 0.0043325518538031215, -0.03615045882147239, -0.03476955364967741, -0.16325116726384983, 0.22746742175144022, -0.5964233018407874, -0.13959166111598229, -0.18676923982442858, -0.055337470884082786, 0.5258764780198552, -0.8188283327199292, 0.52706310982969, 0.18104757377326108, 0.26386726128992744, 0.311642692568561, -0.1844873297405079, -2.7430748145170525, -0.5398497646171786, 0.32736134904828745, 0.9994895383460105, -0.44922393523382537, -0.35479850907408883, 0.8831901183625022, 0.058211163439032806, -0.566789148936503, -0.5512862853577418, 0.3492057496275072], [-0.1965341665386341, -0.23520145579641596, 0.2750134015671456, 0.23354588150612704, -0.22008221922438867, -0.19597201405515333, 0.28975020206553037, 0.16072178516668656, 0.08780363140492656, 0.4461678928582319, -0.08941633764012481, -0.2162634093039845, -0.06192365342276544, -0.3380340295288904, -0.10960364493249947, 0.1636705126689391, -0.054225255564783685, 0.06955794552681913, 0.042661230320630274, 0.1109466394539837, -0.0957318196909837, 0.6350448588241189, -0.33968351057906276, 0.18338084844002608, 0.26205137784779664, -0.012612234042199324, -0.17165090013649578, 0.23069616791577657, -0.4537248526566458, -0.18328385656715274, 0.175475152523688, 0.3915962213846621, 0.4738557339936351, -0.23963164809750673, -0.06507731085113276, -0.10967412781125199, -0.16788593226256848, 0.09085261547949085, -0.6318189337620129, -1.668845825011349, 0.008971097258613293, -0.004950471579917542, -0.19423756914303772, 0.6237553888511042, -0.28515727280671416, 0.04601329165925243, -0.082924218771286, 0.30379010774636395, 3.6195996190799744, 2.1782250745599954], [-0.001442078134718297, 0.18907413189079847, -0.28880996914742635, -0.4559957555648144, 0.8518428125922279, 0.22021428801220636, -0.6009966023383843, -0.4783275804859275, -0.29796439709430617, 1.4979805926599368, 0.3333461389105037, -0.22371918338735455, -1.402072376591584, 0.44334428978037055, -0.20258397766558017, 0.452150243949318, 0.48481447082051105, 0.20502508075108852, -0.5796042923746921, -0.08585804266500596, 0.4872437328515107, 0.3906382235253926, -1.1477994213949525, -0.6728475649690956, 0.48226894775752494, 0.12738968711170823, 0.6064080466924464, -0.36160359240669854, 0.5323948643990937, 0.702878090789285, 0.969588806197809, -1.1211187750264708, -0.3804216223962613, -0.26357340351489916, 0.6947860090612, 0.29367266654873936, -0.4652502388196352, 0.08240899563374061, -0.38453972709090106, 0.929503649076391, 0.17765663507765883, -0.7427689814451498, 0.9060237683695656, 0.384570516849775, -0.04431873158352141, -0.7365407151888483, 0.3311178718367053, 0.48425606441991303, -0.14676214487188285, -0.06220979369242685], [0.4118987712465702, -0.19500176438852507, -0.8524680767346485, -0.3258846211308082, 0.8235469445342533, 0.46692640365300586, 0.19305844033377906, 0.08336913384786264, -0.065992918116808, 0.4058015601343992, -0.43656628635673767, -0.19104137815953873, -0.7187397031103985, 0.27990715845575387, 0.29598629827770645, 0.27438448908530405, 0.006352114040637916, -0.25716107750209677, -0.6832877406039956, 0.3487990449173648, 0.7739424427549506, 0.9398792528118906, 0.8741803564270413, 0.06132574459233192, -0.19248162897974347, 0.4967813146896133, -0.5511679253086813, 0.3022175449131573, -0.16635242814724657, 0.14523826700056697, 0.6944539667276255, 0.4403796763141106, -0.017013872997441584, 0.5762127657398054, 0.055149339100109815, 0.38308859014322644, -0.0865010297108914, -0.9058639390075932, -0.9092935596737634, 0.7275227927868733, -0.1061203855393878, 0.0460120765694699, -1.104911972231461, -0.7541156035429804, -0.4242471524160035, 0.6960313819813916, 0.12173627705309761, -0.37301235358843343, 1.5358993167234711, -0.15909357591165277], [-0.016303460213339217, 0.4895129988411037, -0.16128651670897676, 0.026879282760951268, 1.1711044665176917, 0.23219634695129404, -0.4950226037447605, -0.2559282767063936, -0.5776562058626851, -0.6972552301745355, 0.07964203797417573, -0.19982098839664292, 0.08282770224955247, 0.12042879621416804, -0.35806948612033046, 0.44449980421460694, 0.1753872794752693, 0.34007824955331495, -0.11812910678217817, -0.48677018118804444, -0.3619533740565494, -0.14629894684784608, -1.0362346631093304, 1.179945687384784, 0.13303927533193982, -0.025210979912138914, -0.6443606410065825, -0.24319952530430433, -0.20333229539740652, 1.0380600075538065, 0.9524982916437502, -1.4271525206912756, 0.4880264333369128, -0.8237976219558052, -0.3388978247603401, -0.24554194261760076, -0.8078285950239809, 0.06933884130681339, 0.1459762124297284, 1.5802868359377986, -1.0301531267013966, 0.1297540265636747, 0.8513219426462801, -1.1490954736481716, -0.4757643337628875, 0.14585305714106353, 0.05920316581134197, 0.27257038809586603, 0.37137980192693354, 0.9438271457513836], [-0.46675880822985466, 0.5016111926030064, -0.06278719120703385, -0.9035690799510921, -0.26501839063197546, 0.9312874581853954, -0.12348073082667357, -0.540403878763424, 0.11873211839967017, 0.6360095357622, 0.5409260027654733, -0.44848522963760357, -0.6635294867042763, -0.05267122352352678, 0.17456788002384027, 0.19339627925082112, 0.15812946001001227, -0.2944668513579056, 0.2496260557227611, 0.3112447629070932, -1.8264742158025127, -0.7879260241751662, 0.04430491137721571, -0.5537851889577975, 0.3135298199840253, -0.41895024776456186, 0.3076131935009619, -0.005997771256042043, 0.17505649444874247, -0.4410867028774216, 0.10968033506681615, 0.7515868787422236, -0.08452790583295285, 0.40061283204122355, 0.5512865492528634, 0.27881804831693985, 0.030321864743275067, -0.34978406441476945, -0.4105197920996142, -0.7670504752286665, 0.8895800946396634, -0.8149337468448062, -0.2434709667231045, -0.477457360119938, 0.8005991393280258, 0.25829651964945866, -0.7383942736745273, -0.39427518563647357, -1.8781866290738574, -0.06750197265978938], [-0.13675894065099567, 0.5830903149705167, 0.07440126367247493, -0.535411771668626, -0.5923366726372365, -0.3937157737685308, -0.5247030810747592, 0.3901751460802698, -0.2373841875414197, 0.08133373749418067, 0.6059314976980724, -0.29737766793699566, 0.19552912008852513, 0.3507866680848316, 0.40873858426221216, -0.4174523443357842, 0.11330799723634798, 0.09802895347556931, 0.21088084466787368, 0.1582853935282528, -0.32117151937280514, 0.6334284204596228, -0.1869688237848133, -0.40558243503819963, -0.052770457877793754, -0.45845363580312465, -0.05280083637347718, -0.4158768887730458, -0.10364304729508883, -0.7096861208010471, -0.9398425602962401, 0.5039039615106712, 0.07328897368898153, 0.7893452404322463, 0.5699440987919454, -0.46097839434795096, -0.41184518907032114, 1.2609897189834263, 0.2637916779449753, 0.7935894967323114, 0.17773671747332018, -0.16172745464585492, 0.14488716520769251, 0.19545335878586434, 0.6349505628067053, -0.035691095409230746, -0.32835521375596655, -0.30459546814028227, 3.764530711514987, 0.6524357442677663], [0.04531050743608651, -0.5763845396216941, 0.38714194512784794, -0.24466691911993443, 0.25219240107021507, -0.38929603476959157, -0.1279492086429001, 0.8259383165593474, 0.4920668142181456, 0.13075304010770158, 0.08824232495807238, 0.408783131951195, -0.2872912545035792, -0.22252271477482705, -0.7339087172420886, 0.07565376068933463, 0.44722681186335483, 0.02555124792669805, -0.9591732973290913, 0.41497377265014557, -1.8567959577657183, 0.9591399246805925, -1.0633687147599595, -0.7545684597624798, -0.21613638404093036, 0.34544631264990516, -0.38106451153421544, 0.6199679663532899, -0.028970343969997904, 0.536106777396134, 0.264383033338014, -0.5485991520687484, 0.19753082870174535, 0.09567634493603647, 0.06050138763719672, 0.010503170248228414, -0.2601458601207486, 0.8385015679641843, -1.0665811983550162, -2.0399562909544926, 0.00868468234258841, 0.16579366615834873, -0.510313856181479, -0.19335529254801853, -0.2653787340381341, -0.4250438070388169, 0.6799033464848001, 0.07353020399001185, -1.8397044757774097, 0.13204571158971445], [-0.6113760655473346, 0.8484125265315716, 0.3230072723141993, 0.2946974375227953, -0.2135006653463003, 0.09738076262174444, -0.14540973525515768, -0.17126887578077088, 0.15250595984130505, -0.7234045850934117, 0.6151435930481561, 0.2580335619304324, -0.6077381780433248, -0.3423479390355546, 0.31000322814381015, -0.3115001183864418, 0.19418679189348925, 0.03587963596502624, -0.03086205975139657, 0.021206097463677638, -1.3212110347481332, -0.8863149360025204, -0.7375292108942729, -0.8562893100508323, 0.14547641256644678, 0.14192829922985992, -0.07502726820928814, 0.26334014827613206, 0.13660317799901303, 0.1763478925126096, -0.4134379498896127, 0.7601824016470777, 0.41741880301473444, 0.6400643265987492, 0.008164367971636095, -0.5578697313074213, -0.7866624884507765, -0.3567869743590537, 0.18938795094765787, -0.5470061602990367, 0.10401917515778113, -1.1623898543441844, 0.28542388042836897, -0.13610204980134483, 0.7383177798818695, -0.6487570734297772, -0.9155406527881786, 0.6951386106986464, 0.060132134607958174, 0.472884884654263]], [[0.5957244188676933, 0.771935561826366, -1.0318842336743599, -0.7994325757415383, -0.48771771028785427, -0.7021954626901441, 0.6010073366528765, -1.0528744010837638, 0.7206165674357774, 0.5550302343100482], [0.0863381498048133, 1.2101433872200185, -0.5273800192401358, -0.9709316742412455, 0.1012433371302597, -0.10670574633773831, 0.2011145002785141, -0.67770114020903, 0.4212211649303479, 0.13397574595489778], [1.2986825839468967, 0.6982805455775056, -1.3869295357912736, -0.5911017501900073, -1.0391061587370127, -1.2077386278222528, 1.310662575224742, -1.3360755991230366, 1.1923160999066431, 1.1345517229503197], [0.4877128479524101, 0.7400273119414381, -0.9785542818171984, -0.7922809902160458, -0.44013435830376474, -0.6684391892505602, 0.5363681181811769, -0.9825289511253076, 0.6393704460892379, 0.4553195674366945], [1.0093337360927814, 0.6044917071662237, -1.2706906076137112, -0.6509584191264721, -0.8161997085527503, -1.033223797215167, 1.0258855206781612, -1.2182382037365493, 0.9463789810530373, 0.8645476422055932], [0.4824898013714656, 0.8166016607150778, -0.958218289076329, -0.8270892287836937, -0.4027344001502196, -0.6208989318087059, 0.5047966276377764, -0.9744017023096656, 0.6488960950568816, 0.46913855019869877], [1.299759294234052, 0.6790061717770033, -1.3875182410950169, -0.5909566648380541, -1.0384577265257664, -1.2050298219152953, 1.3220449167461041, -1.3357571129696972, 1.1828512611003712, 1.1285841502900265], [1.1346669939742666, 0.6543050869801195, -1.3293754762466292, -0.6321837083781668, -0.8905613191292607, -1.0832309696182914, 1.1194920605840382, -1.2778825894140478, 1.0591077187987683, 0.980268537497469], [0.45697440832496244, 0.8549503711963037, -0.9253867558905469, -0.84257679390965, -0.3639552402560569, -0.5747742602458901, 0.48364690716572833, -0.9669731360292059, 0.6413103473330737, 0.4473381591769976], [0.28040897919642915, 0.952711573556988, -0.7551709870422955, -0.8684893904658113, -0.17731288765859932, -0.3834051274565568, 0.3329127502483746, -0.8448512568648427, 0.5416631306200762, 0.2961786682740972]], [[-0.68700553032138, -0.5939708021690608, -0.9933725148235805, -0.6468708377773258, -0.8428507682980415, -0.6457714554192945, -0.995637775478936, -0.9116083274176682, -0.6467463962633763, -0.5907921379541354], [-0.5624208560973855, -0.5104873738915163, -0.7610562729753655, -0.5252727191911356, -0.6619331402563597, -0.5406726738346699, -0.7576660185202898, -0.6967553619277019, -0.5510543246469571, -0.5006042904886686], [-0.6068471650605893, -0.5463073355400067, -0.8596613876762489, -0.5712472616359194, -0.7395697897401655, -0.5896856362238091, -0.8584093610383792, -0.7886780799899777, -0.5768115076386108, -0.5417619262033506], [-0.5564110346442162, -0.5247677613270771, -0.7512788462396096, -0.5211395648627823, -0.6669016351239702, -0.5309951547860251, -0.754999197263894, -0.6937740848217245, -0.5290153625399137, -0.5005340225752469], [-0.5216120361220707, -0.4890028386630477, -0.6844715656178305, -0.4887303587211358, -0.6056558526043844, -0.49999905177506165, -0.6857921711659346, -0.6465261992657872, -0.4967487331679816, -0.46433717427769106], [-0.662359201858141, -0.5865382838882363, -0.9548591996255876, -0.6247261343536368, -0.8161385732348545, -0.6306158344337143, -0.9627864535508577, -0.8601457847155682, -0.6321549722857479, -0.5756734520362814], [-0.5483668968953719, -0.5077529614319217, -0.7503318692886254, -0.5222364594027809, -0.6555192294883058, -0.5249673350550427, -0.7417103492637948, -0.6959076308121629, -0.5232541669644754, -0.49388600693792906], [-0.6912439315057989, -0.5993862229740279, -0.9967707784424295, -0.6449730628962569, -0.8403155901693735, -0.6499906878580426, -0.9927451287799554, -0.9085670859269169, -0.6422978646280072, -0.5891075641134649], [-0.5722855430905683, -0.5188042656937509, -0.7882688943603164, -0.5367606837589859, -0.6779091188526165, -0.542753056696674, -0.7854933763985924, -0.7227703282353282, -0.5446371739535737, -0.5141136151647986], [-0.4184910682961692, -0.40263679238660066, -0.4969485647875101, -0.3813992998673042, -0.4556031689400268, -0.3879473206102035, -0.49925368660643826, -0.47247559369391295, -0.38907982159404864, -0.3856568276460983]], [[2.2580836777257773, 1.7843054400911988, 1.9835475433072074, 1.7643244935841156, 1.6109912917295917, 2.179747990636299, 1.7477937665357923, 2.25944712323058, 1.8262481421715813, 1.085217813949676]]], "biases": [[[-3.0818645701848], [-0.3147865141593295], [4.129969821083866], [1.1598545288999846], [-0.927317650327744], [2.0430477107499234], [-2.1279312789167557], [3.4132290868594697], [-2.0958166187179357], [0.7047105895828711]], [[-0.04046562286375888], [0.2846602482762886], [-0.07010638859775066], [-0.03494917986422064], [-0.08958698966241882], [-0.005027510294804302], [-0.07627781168341552], [-0.0835960714077987], [0.03060267518475758], [0.10117773086220073]], [[1.3037074201498118], [0.8243565757397784], [1.0308618988786955], [0.8123042160002616], [0.654093827402889], [1.2254890805644763], [0.79216157653841], [1.302449432896421], [0.8751704170971354], [0.14186468881515335]], [[-6.1999495004681515]]], "sizes": [50, 10, 10, 10, 1]}