{"weights": [[[0.502338399487125, 0.4531383460710078, 0.20567425200009987, 0.45231826057776126, -0.6137261400339387, -0.27844470323795967, -0.38776293019459857, 0.05807380969110645, -0.4549401026182353, -0.41276847897153734, -0.016957338126573383, 0.047847080072765204, -0.11893158262709964, 0.8717945402297531, -0.4878065602229612, -0.31865114750285123, 0.21464122325541526, 0.19709828747082425, -0.025515363138791124, 0.03556007416885591, -2.3627967445343305, -1.0310468249477165, -1.2625037582529643, 0.25501608533168324, -0.2742685726548514, -0.03307752919527172, -0.12028248604157082, -0.36139476407764026, -0.2830871117017967, -0.0640643281893518, 0.048956729295646394, 0.17549072800049717, 0.19586230433677235, -0.23692359909387586, -0.028298678279774024, -0.7458513799903022, 0.03906579023405262, 0.311402216758457, 0.6349644533850116, -1.455769435685542, 0.08427101188370721, -0.012981964892250803, -0.15868513334892623, 0.4228211366924572, 0.47052441409160983, 0.02467228834961872, -0.07772953101115204, -0.4196267941644548, -1.521434380705594, 0.037374196535255776], [-0.6842384816273226, -0.3647235821743486, 0.1377051828665217, 0.20607378597399845, -0.1373429919379942, -0.06297615071221001, 0.8869567640483704, 0.4098940539818063, 0.09622630565645232, -0.06042076745489946, -0.09982047398893257, -0.04351124455388391, -0.313682625168662, -0.022631874413110993, 0.3877220566062433, -0.13093369354146367, -0.46405940898858716, -0.17438189123483355, 0.2868338185861683, 0.1314613892823543, 0.41397177804967455, -0.19754254952636588, -0.4870856650080971, -0.3680873012496726, -0.2587428914943937, 0.0025762995847180693, 0.10746633237865272, -0.005794045556052656, 0.019906814670295783, 0.39697513336213885, 0.2117880022183484, 0.23546184437978013, 1.2254325608473104, -1.1234268159690606, -0.17374939616079235, 0.04853966643233305, 0.16466334583226508, 0.2730087800753049, -0.8675341221821719, -1.3895119861691272, -0.1405313046253698, 0.0914247510589084, 0.6278215976354705, -0.016151257432044517, -0.5063499864590167, -0.6371282045566306, 0.5933030897560266, 0.6189072468648152, -3.2612997809429984, 0.4671982541623721], [0.8077435959783558, -0.029703189192049638, 0.19698292824793284, 0.2471759148026028, 0.9665286622113982, -0.787155202825939, 0.08231388210619157, 0.07772402682700633, -0.32492862277166606, 0.3007433466646143, 0.738189273140412, -0.7722216470348593, 0.2219399528651991, 0.28635658622188503, -0.4652960511583206, -0.3968780285261775, -0.3462462165417363, 0.29087438391160575, -0.19419098685059327, -1.0382025494817666, -0.09683757371311286, 0.5319414949523853, 0.11461153296225975, -0.028609146145319477, 0.1332738102583532, 0.29917753965946253, -0.5324411954838879, -0.07121971912926062, 0.18441998519297137, -0.3089914571569966, 0.16467820485513243, 0.4273515779680936, -1.254162985673034, 0.16039622984120405, -0.27033331883889616, -0.9322153353971495, -0.13413222081735804, 1.1498029998522041, 0.6121401024666703, -0.5471641239314767, -0.5531967023784649, 0.5841774915831368, -0.18074045556259866, -0.594180341752575, -0.11274880626613155, -0.023517069310977436, -0.24267475127674104, 0.3423861647588873, 3.497082284289631, -0.0992635241954155], [0.4888783806873652, -1.330369231384614, 1.376135579229557, 0.3354976936637159, -1.0865661793068324, 0.12353257352450595, 0.38810217049211637, -0.31439726376749905, -0.6311592839890738, 0.9631374565093521, 0.46111304162188405, 0.20930131966436177, -0.3673779263841403, 0.2787939011851142, 0.37476470372829107, -0.22999427343626302, -1.0971034633803953, 0.3079396904111721, -0.07066563330099115, -0.11603571713940415, 0.8774802178686171, -0.5333188583474279, -0.9411663834104095, 0.5863758666505344, 0.4730046647076102, -0.25375436911939664, 0.3808199084497926, -0.34581202072279277, 0.959889994395969, -0.30313004076911976, -0.02978096480868517, -0.19529966747587585, -0.24407633403448747, -0.47299582883983043, -0.18810395759970586, 0.16764672933201294, -0.5632696751777369, 0.19060371449924665, 0.13054722938797747, 1.191475037857399, -0.5191154235496368, -0.13383043508997944, -0.057756163398753335, -0.3168319268678679, -0.29498674951040904, 0.4311383071344481, 0.03209134518348752, -0.15478428356305676, 1.67382866229117, 0.12681552984923783], [-0.15016946934579273, 0.7573974382393023, -0.8726652997531029, -0.9502228900353035, 0.02638112879664327, -0.3556521843389593, 0.1999412138587517, 0.028509081728181347, 0.33626290303550177, 0.8740507282972605, -0.004933127302261057, -0.4913545822264419, -1.7408050885297504, 0.6852070199676201, 0.030045003106193895, 0.578526857966399, 0.17711277386247448, 0.6952089419259965, 0.158098795180233, 0.1060366162715267, 0.3388377238009817, 0.10935441984724385, 0.0884160443781676, 0.21514407457335993, -0.4426552311920066, -0.16661133734755929, 0.49247871234697466, -0.7427557157575803, 0.47381519292662916, 0.33389287047560495, 0.49036584954482937, -0.5711271834211459, 1.0305746093520416, 0.20371405091579806, 0.23787144645166114, 0.44142214967496607, -0.24797417034343827, -0.8597890143014364, -0.4584265271646667, 0.8185754473825879, -0.11062659164481162, -0.6849305858185558, 0.17834090777910858, 0.5548948178525605, -0.14798421983039, -0.29656849804495794, 0.3309076176575489, 0.1503846129494815, 0.3289714566826118, -0.26399381033600783], [-0.06873096751078306, 0.5469927959904527, 0.02990493324645259, 0.20916533102291834, 1.4222754345838193, -0.3527187261786812, -0.36423208263578394, -0.1682182621877985, 0.24196778819974712, 0.06677698789460332, -0.2611225157896338, -0.8081293206632316, 0.11125842284276619, -0.12302444325461402, -0.4503633253842867, 0.7592466065522265, -0.1583972226549556, -0.1250773629004164, -0.2272658885228466, -0.643405673030762, -0.6793491828357072, -0.21383326801379887, -1.2942532989659739, 0.12581229290116727, 1.1658794164423592, -0.17112808820731334, -0.36821693162765984, -0.16637371847164265, -0.4891805478198609, 0.6402692871285423, 0.7442300619333023, -1.095263569389272, 0.04263190239024435, -0.8366524472773167, -0.05334948623351216, -0.07315610689875607, -0.1820384031395238, 0.825034507141579, -0.2868631234371047, 1.1977260821529674, -0.322788291170018, 0.03417166622455944, 0.7744571902453473, -0.4503512109333692, -0.4965854755292533, 0.2610091429048065, -0.20026990947249668, 0.4059391583143262, 1.264619745257657, 0.5105465297063574], [0.10657828860049956, 0.2538105418975964, 0.02169446675760545, -0.4564934001120485, 0.22704197730022566, 0.4624332755502878, -0.10382366625921115, -0.5231363629562609, -0.32032191015933265, 1.1536443139895511, 0.5594043467229095, -0.36883105830922425, -0.8058615785033441, 0.12549103440228113, -0.1641811793650246, 0.16325267003482313, -0.10400685748746968, 0.1409186596146937, -0.2181014592739688, -0.10836658401552716, -0.6606215578469158, -1.296850301293069, 0.7522925635111356, 0.5906070096084456, 0.7917362987368941, 0.3236464009505648, 1.187931790017332, -0.15946103604504255, 0.18748292696733748, -0.1288209583392352, -0.016570454257276372, -0.43778244422798707, -0.41524670479987336, 0.3187523765835009, -0.3509278755439633, 0.0012626105856509634, 0.07413496576071489, -0.5789824006615927, -0.6611352894752869, -0.4450791913204898, 0.09602197046732724, -0.5713956374505762, 0.17940267657782652, -0.15629018528224087, -0.15365061596719734, 0.3244808529050437, -0.32423781989206024, 0.11314113779175435, -1.7177488569821457, 0.5372317727199523], [-0.02472561231245701, 0.22747893289862578, -0.1572029965159381, 0.04867568011450439, -0.43539851316103934, 0.07592557467796786, 0.008845696651938954, 0.09986186408034824, -0.02181160825671502, -0.09492699068752815, 0.1451475802190526, 0.047302689760210306, -0.058762783015380494, -0.10374337441133452, -0.02083512099387842, -0.2063923958873835, -0.006035462154529905, -0.021886401664607504, 0.2598294391585989, 0.35004697680812474, 0.05219609072997066, 0.4596238600823587, 0.044705668711433305, 0.010763945334177015, 0.18154550401909164, -0.07809155043450028, 0.38087908385293917, 0.1280853689299508, -0.3651393892919099, 0.029216713849297297, 0.23760955985102689, 0.5362854923614855, 0.17582216271905676, -0.008310530069354066, -0.20767924639242327, -0.14522541929680013, -0.3914500210162828, -0.13044434145259295, -0.47263365526852014, -1.0017020276538249, 0.06748883660893137, -0.253797904910106, -0.004539493107561569, 0.20185162378326774, -0.155504299877671, -0.45785701721904143, 0.23156209114644916, 0.40691075073342575, 4.657375637268538, 1.921030102368869], [0.6986887177609223, 0.11029454943218547, -0.4134627024031294, 0.11084683847096626, 0.21422731866277034, -0.81370286869211, 0.07191110246527799, 0.28200321329374783, 0.5584593160132597, 0.055364344564088314, 0.34493114306027306, -0.47960397186225906, 0.18437981344280335, -0.6097257054264827, -0.0032044688543153713, -0.20212092064721446, -0.2861091470055158, 0.5641568612440865, 0.3151775756280972, -0.5815063113756007, -1.2709679478317557, 0.4988430030199874, -1.2571495121584761, -0.10872234185578604, 0.15875651302195096, -0.23286212590589447, -1.318745455659491, 0.5817456038668632, 0.4284678299027598, 0.37819775286555146, 0.30246523887775284, 0.8912843567720478, -0.8572722614151448, 0.581473084988154, 0.14072230467930893, -0.6231032255277272, -0.7747919902747233, 0.10177872902626146, -0.23106017164392886, -1.8424387113446417, -0.91524013897093, 0.2927193178840437, -0.09499061175204108, -0.06879579772985665, -0.24942205677514057, 0.31401717332178986, 0.06936028897036473, -0.1362688070549085, 0.36459161969345444, -0.031520711186353224], [-0.13460719348974207, -0.3428617892202987, 0.675258955823302, 0.30866579420542534, -0.06744175420100709, 0.17182313390240636, -0.36988598823803515, 0.07524134204851009, -0.2219352414277033, -0.722062523153748, 0.16440944541349944, -0.08883841034903119, -0.11696406306336449, -0.35442605708608693, -0.3337418106671506, 0.518623640569403, 0.11771877711394184, 0.04509863757730057, 0.33109799809781837, 0.31049110098929755, -1.4041053495943687, -0.5540643531085033, -0.7835599085517173, -0.3448309027642576, 0.1594071897222507, 0.09962495659597397, 0.17117923063454774, 0.6781016900149447, 0.3967095816780858, -0.8191665259377772, -0.34263003505700407, 0.2944451035388678, -0.7495186084755678, -0.2541335102046502, 0.13883706441019913, 0.17161071678207318, 0.05968938855293332, 0.33082279061438763, 0.37698293956410883, -0.403907185196979, -0.8971491225696516, -0.14234037509697461, -0.16980221856421573, -0.09535457304404636, 0.9256119190647945, -1.0690063170130875, -0.5308863365535262, 0.596876135179346, -0.28764592651332105, 0.22194734650670345]], [[0.5219776573986844, 0.8342176067119108, -0.798671017052709, -0.6393132700778651, -0.8158066900199086, -0.7779480994192257, 1.03305013380328, -1.487748469397993, 0.6263492351617714, 0.46637148435729897], [0.35441663937022455, 0.5859251986242068, -0.5879444291234037, -0.5691710837037458, -0.7422618023373745, -0.6263139026727036, 0.6126754543770193, -1.1134964103156266, 0.4776416121775377, 0.21376781840845202], [1.3086761431195366, 1.628147772952408, -0.9094285230120089, -0.9278116146657905, -0.6743766509639035, -0.8559034222589857, 1.275034448958849, -1.776103474781182, 1.4998437582564081, 0.7404118241201948], [0.4603030732852346, 0.7423338595019132, -0.7404470862860024, -0.6257901708637882, -0.8239600774852552, -0.7434498241775783, 0.9166638084075878, -1.3841157256216383, 0.5808342625723534, 0.3930572450354327], [0.7229355837263505, 1.0546014593753539, -0.92977964538334, -0.6697206471140258, -0.7542745139478809, -0.8708510878461605, 1.2773636981098047, -1.6931228169612722, 0.8220105220822487, 0.6255263600410318], [0.4830501371738613, 0.7774132797526612, -0.7579328077207376, -0.6383699849035704, -0.8195272662768135, -0.7574440883073535, 0.9362460353338729, -1.4014448622259053, 0.5852916859593743, 0.4164615249199727], [1.3432309582139785, 1.6722439059224021, -0.9261145532662953, -0.9621366575711336, -0.6818279917168126, -0.8678777737700916, 1.2875138887910371, -1.7976004639722676, 1.5494724575786443, 0.7603840267649291], [0.9790605384249504, 1.2904523523664784, -0.9225402914753197, -0.747103354015547, -0.6746021292013227, -0.8287726282413774, 1.2905503041323114, -1.7186195995191524, 1.0877261302463213, 0.6656226093502571], [0.4840201312939109, 0.7911730745770542, -0.7699194583647705, -0.6294536972337281, -0.8180772455199914, -0.7580711990363275, 0.968176453718278, -1.4278945807954304, 0.594781209294078, 0.4213505725024063], [0.3933713365697362, 0.643559518804757, -0.6511222239251644, -0.5793146252111046, -0.7805129144627189, -0.6631352880188764, 0.7482677816503763, -1.2368292715272085, 0.545200834868157, 0.285381295685402]], [[-0.7949568824135677, -0.5035016787140111, -1.1581279667437197, -0.7235406929362179, -0.9667007364887414, -0.7321775245844183, -1.1866198645645814, -1.0430455506339027, -0.7494774685633322, -0.5964049961276879], [-0.5957740790379455, -0.3881804838791891, -0.780324761522528, -0.5394861243918732, -0.6923592910595099, -0.5594614024457103, -0.7930921124798793, -0.7121444484850107, -0.5807074418349902, -0.45972720563745706], [-0.6631750123503828, -0.430227682551071, -0.9240260524923776, -0.603857704862862, -0.7981881230801808, -0.6290418685603859, -0.943204057420068, -0.8390770054895818, -0.6293026527416643, -0.5134250034602972], [-0.5735483382391888, -0.395086759460602, -0.7417419458538121, -0.5214877395620993, -0.6761014837494503, -0.5355321926085886, -0.7607815180667409, -0.6847389661176402, -0.5438702777467224, -0.44951658148195334], [-0.5190597932153054, -0.35773714081927654, -0.6405099915949788, -0.4728543023695067, -0.590494135007336, -0.4873271403986416, -0.6542273869247763, -0.6096742309267031, -0.49271630802251404, -0.4040279890598561], [-0.7630806196884896, -0.49221417299017906, -1.1049857165622614, -0.6953657167099853, -0.9315767620936248, -0.7102455218597831, -1.137775665757691, -0.9803493981376235, -0.7273043303493668, -0.5764754494317048], [-0.5591503979999515, -0.3755656709036708, -0.7293013574973171, -0.5167720449182287, -0.6563111637159501, -0.5237404961811012, -0.7358601074467529, -0.6771541587674073, -0.5322903167386933, -0.43876016461559786], [-0.7986439219824583, -0.5082633244069545, -1.1608059850293726, -0.7213484091128227, -0.963636084975467, -0.7359380274839208, -1.182888228267174, -1.0395102602426982, -0.7444176250560373, -0.5943848623184937], [-0.5997707540451914, -0.392190122963726, -0.797671209416631, -0.5454103536380935, -0.6999293038612713, -0.5564053537069409, -0.811704084860351, -0.7289280099417635, -0.5694135434357127, -0.4687557733141931], [-0.35773280781450906, -0.2861935239185519, -0.37895682347122295, -0.31919279143761, -0.37279488492158674, -0.32611302475828957, -0.38561529011161183, -0.3705707272089093, -0.33078917200236635, -0.3068031797775834]], [[2.3508490248183853, 1.7192437737029396, 1.957133532144398, 1.6460179617641093, 1.438715470924169, 2.260763137962947, 1.6088250742328833, 2.350670147878751, 1.7324915764297666, 0.6373354546161685]]], "biases": [[[-2.09834754747084], [-2.85328085685659], [2.5957212374433722], [-0.22834997297805582], [-0.10356682278720192], [2.304832275378786], [-3.440336560236542], [4.76382114730842], [-2.084677724219457], [0.5499546076375855]], [[-0.030467794982174442], [-0.3109640728961142], [0.5310253671192988], [-0.10136900144454053], [0.20351499331386355], [-0.0950920450919587], [0.5499791399142697], [0.3668840328229175], [-0.07423519026973815], [-0.23523910257708278]], [[1.6084140847697694], [1.0004360998468114], [1.2422464984258998], [0.9327829273922011], [0.6978450002253342], [1.5267009724851597], [0.885950273226216], [1.6069925888179017], [1.0209878695528587], [-0.1042491306267505]], [[-6.728379647888369]]], "sizes": [50, 10, 10, 10, 1]}