{"weights": [[[0.6302065088122908, 0.16184283656970397, -0.36435253537868034, -0.08367440773611633, -0.10935456920218849, 0.3304334987566571, -0.01676786981700118, 0.09045075087702004, 0.20549086289689097, -0.5199811734012921, 0.1513867902874993, -0.2052044579285736, 0.0498787997011002, -0.4019560019003117, -0.9074527399130425, -0.3143507293712121, -0.0656935150756052, 1.0149327452214918, 0.867051315637398, -0.28363028240145194, -0.06455869418128105, -0.04205865941012239, 0.4156985030026696, 0.023024824719813868, -0.041458644389533963, 0.4780223244498802, -0.4120324415955583, -0.5645395852303852, 0.10492893275794334, 0.09280620139216424, 0.25767258036945273, -0.33938394680965084, 0.32258060992880044, 0.4060235476308582, 0.9835484931696532, -0.29097363573992396, 0.2980565257578672, -0.6688549094405566, -0.11073201082152058, -2.829522512262978, -0.05202339589095681, 0.15077760511155128, 0.3905529389354665, -0.2276533168927233, -0.24001675147439633, 0.5303217962159779, 0.5815551677588018, -0.7676316968707022, -0.260697205488418, -0.6012614194730719], [0.14390631818150523, -0.5163611453289217, 0.26775835966216494, 0.33372211747904545, 0.3792710906059059, -0.03867400106534199, 0.03963440639607994, -0.019837211869706665, -0.5266449531068974, -0.013377863365764143, -0.07385563523438356, -0.38722423704597564, 0.7634429252180819, 0.4084294980918096, 0.4156329362509432, -0.6063368012856477, 0.19950531516943468, -0.3083495330214021, -0.13305191049673082, -0.4999465916490512, 0.21644485145959347, 0.4930299178725623, -0.30034381134583366, -0.05108796972372681, -0.41968548720759236, 0.49348112535348915, -0.6452901316496084, 1.3192189231654399, -1.0543970943804706, -0.4793501101793567, -0.17809023655310774, 0.8781567274739672, 0.5570199454041518, -0.49669396259452675, -0.19103322464521902, 0.5387582271810711, -0.29265218630966644, -0.39905615529817945, 0.05511689846562139, -2.492854239578736, -0.35878050114158094, 0.7515872477973898, 0.48741498238637915, -0.10788786075454886, 0.09747716113943433, 0.6260291295402812, -0.28150566390435233, -0.4322956876970763, -0.5002131712194817, -0.12311800464628155], [0.06088681043364504, 0.04106741392754558, -0.25996783552864167, -0.012371504971767698, 0.10604442122833062, -0.22536326840861365, -0.6779380090394259, 0.06408501325396199, -0.2264125720406317, 0.8028261005647492, -0.04833886775622787, -0.8448501291306906, 0.35597884049568884, 0.9238237876624938, 0.23343685152721613, -0.018428222197561118, 0.0916228821396185, -0.0583682229440004, 0.011258747210308609, -0.30360487372826905, -0.2795567725621354, 0.41396773968772393, 0.4462282248714594, 0.0832017441764536, -0.2653230639678365, 0.03383722968397929, 0.6246475614327924, -0.367941014084559, -0.09661833244523903, -0.7600428593845306, -0.3742744500030708, -0.18805185513315725, -0.9915866400728821, 0.37084653835446313, 0.07567674280211305, 0.8770994473402526, 0.6386021181848097, 0.5342388902987584, 0.22306636582402242, 1.7195242051577733, 0.7760997922857008, -0.3645826202770792, 0.4113545424330976, -0.55068239442097, -0.17503721721640136, -0.4222954680709847, -0.029675495688738274, 0.583347341482388, -0.004264346093452881, 1.7078290692604354], [0.13601060399067497, -0.3718213432264086, -0.3775166995478857, 0.1574673924062624, 0.22399557921072044, -0.10607007667071895, 0.09505876834362327, -0.013108433862424253, -0.18985470706580893, 0.7136124447864438, -0.5473482876754504, 0.05917904601154545, -0.04173507772694407, 0.15447455293762383, 0.4774204600552515, 0.10910212630805663, -0.12579530403610725, -0.18027831252813417, 0.11029844510534877, -0.21988921247251333, 1.0880945847783179, 1.3597180258299053, 0.8854521885909712, 0.3073855604173464, 0.4719216638207758, 0.38675844757408706, -0.1725686495586569, 0.07349646305316192, -0.159921163167859, -0.9200077690907662, 0.009005512963021297, -0.014857546416760271, 0.1711600785649467, -0.27758405151487364, 0.3655108400733332, -0.2276086118183245, 0.3119605695924638, 0.13513999465260215, -0.11484902870484949, 0.7421277391029333, -0.2692646653904097, -0.07220699697314967, -0.5812870353898981, 0.10276709158786139, -1.1282358553381728, 0.8235787579103978, 1.1407379068553332, -0.6730719024619274, 0.15776221226739987, -0.18454444083579932], [-0.034191875271050685, 1.6395231836865667, -0.624096067564365, -0.5140772282256134, -0.5243035331781362, 0.9134677610263496, 0.42375336799771857, -0.24863423256697004, 0.053864713303326164, -0.12270662175337295, 0.5764507976630708, 0.18610385842137117, -0.48423094945589973, -0.5615379822368252, -0.6614245721632122, -0.36278352587120816, -0.46978856061137386, 0.3507369417637914, 0.6139357039780815, 0.11195723913367854, 1.1026043965445465, 0.15607235490586646, 0.7636232421760403, -0.3144585857078458, 0.5944227973219205, -0.5850303482193226, -0.20887237162831906, 0.8248629092253366, -0.17279546276051982, 0.3438789607844767, -0.11955942691918775, 0.5405384401947324, 0.043285771612928126, 0.15609716776307003, 0.2922182734332002, 0.4822280940023197, -0.5239244309840215, -0.7685537599203301, -0.570734692955985, 0.31046616407058175, -0.2753327552165955, -0.45743703598431223, 0.12610080822821482, -0.5997977603228394, -0.5165744267558495, -0.2728849049797386, 0.23879782463114801, 0.5358465702691091, -0.32320420459197663, -0.3285037020944727], [-0.06983056235152575, -0.14284362859624236, 0.27803793186399567, 0.16961580141753735, 0.08995355594086013, 0.033416899044121706, -0.32758277659048723, -0.13272816563070902, 0.0022684412506713885, 0.35410652821857386, -0.0728844468931108, -0.22174297559735337, -0.024195436904625466, -0.33998266386723497, -0.060257286422241464, 0.24194688598481223, 0.4427835522318704, 0.19099551283460955, 0.0029660622363445544, -0.3318223539686675, -0.4183815636418188, 0.18129885097547038, -0.783862994385656, 0.3282002815535491, -0.1558570430252877, 0.24857693012567947, -0.21284860614201906, 0.07341311711894744, -0.2358561009925625, 0.5499388156827851, -0.020616139741436883, 0.08160323797746402, 0.16112753249435152, -0.26143872244455224, -0.4813122858512876, -0.02481335632820381, -0.45247995500784943, -0.13578789850434816, 0.09000654176223294, -0.6560453860607461, -1.2954658580760607, 0.275089363261277, 0.6280754927007639, 0.1340573436624348, -0.2227407160622723, 0.382301731497991, -0.09989296537796642, -0.057391631888623514, 2.1990334071977156, 1.7904816437800255], [-0.8016905192274644, 0.10333811435447741, 0.16900059807275294, -0.7161942496525158, -0.6343890172417977, 0.4582482795724626, -0.07708658776018884, 0.33267019748691296, 0.4437608255006502, 0.5940065706780291, -0.26556620085130556, 0.2206270416835966, -0.4076726171340307, -0.1470464050044299, 0.6940524887983539, 0.24240677240527048, 0.11262722540980322, -0.19668257493610256, -0.028854406271093886, 0.0135230687456533, -1.2098754825688427, -0.5591650102575267, 0.08522199562556462, -0.3756290660576235, 0.07456382132600106, -0.5392964678658656, 0.5357882213881036, -0.5504512569061435, -0.4263765566520973, 0.007107548121051227, -0.36163802319717603, 0.9241484867989271, 0.024511493502575837, 0.2872830687368574, -0.25312562295483615, 0.04281858148877302, 0.18606526467663337, -0.22058884275682508, 0.6272026928398294, -0.4854711702233863, 0.321460981034853, -0.4052224994345669, -0.2719030444414261, -0.011654166672806221, 0.3590890730949098, 0.2642603109919205, -0.4954671111864142, -0.15452651410495244, -1.4733596251373282, 0.07384940525744617], [-0.42899968507112524, 0.5110825295024729, -0.6151528617481358, -1.0783977335971526, -0.32513557418537, 0.3027323987791582, 0.2987443521880358, -0.197551251935833, -0.2438966754210644, 0.1570740234944793, 0.04403869743674491, 0.2423485166495262, -0.16917065283698596, 0.45092172069937, 0.7048691088929537, -0.5124121263146176, 0.14077608246699921, 0.36453081014895306, 0.1559628836496372, 0.4204870055833793, 0.0021826908975004747, 0.15972206532868205, 0.6906894402832319, 0.2631877420338364, -0.5758748794318399, -0.7480985785471198, 1.2431926261847386, -0.8943175755302056, -0.10987511279116383, 0.5999063236910698, -0.6512878767138388, 0.13738795739888648, -0.09242740692147801, 0.40547859015600296, 0.4486229130130655, -0.2884825780717194, 0.16664466826145055, -0.41794843796032316, 0.1981146806952586, 1.1811884121074547, -0.012746274012675385, -0.2596788715625644, 0.1380807068020694, 0.15786444485710677, 0.7748578863407336, -0.05247063374188537, -0.782992257042711, -0.010556629920194141, 1.8755801920142623, 1.4612749878014684], [-0.40975652317224703, 0.5705625326876662, -0.32112290246644404, -0.13342112875600165, -0.01684337488519264, 0.7128173656040014, 0.10843199098174551, -0.5705489626730815, 0.16094389441989104, 0.33375452058631566, 0.29316659812096185, -0.25295581455928645, -0.1846915533370617, -0.4593578835512151, 0.12010122630768053, 0.15173773691415726, 0.1769730626779025, -0.3748494408221609, 0.038181627823560146, 0.08672504084594891, -1.5537779047468228, -1.2564184886009577, -1.2483878436762759, -0.3698352041197563, -0.257264745905283, 0.045154456514643386, -0.02159448801511532, 0.4633922572604543, 0.683810647114558, 0.5181391096580878, -0.1690104222867993, 0.10195765496296592, -0.186920834624278, -0.17511637364134924, 0.3972987077047402, 0.4320222920447414, -0.36764652735685377, -0.2783048725804227, -0.6382603780650162, -0.6926062212665247, -0.3071473031990734, 0.19874823473836004, -0.41491919361242663, -0.7283370623704113, 0.1339088202561555, -0.27215884082909986, -0.31025306452272533, 0.3851942846485551, -1.4733475642649991, -0.08776878875581673], [-0.3067542325692986, -0.12975529556095905, 0.22375272367779542, 0.25785160697431764, -0.47421400494986826, -0.31126106408779164, 0.33766086376233984, -0.16439977860705854, 0.06333420560547512, 0.3139509636117112, -0.28238216861873916, 0.5675157314098095, -0.05874042830514044, 0.41830531768273943, 0.06992470126840136, -0.3126265470902585, -0.1336397428790453, -0.1021145153095286, -0.19569059582157725, 0.3128883185857897, -1.2980323501382438, 0.2456353017689474, -1.3254818789820093, 0.03376738333144008, -0.09783504080815854, -0.09927648887165819, 0.4988414212327695, 0.2549860721959957, 0.001843952598369331, 0.06062476808215817, -0.7737451826015895, 0.20404294073345097, 0.41093120039444, -0.7138005922584533, 0.22468867554407354, -0.23459709716380767, 0.7290135392214482, -0.4940442696439531, 0.0033175790884595216, -0.29748387197505805, -1.1956620115549765, -1.3990669343318503, -0.8768423691217834, 0.2494886236734835, 0.51642388574067, -0.35220089914083363, -0.8143615233829146, 0.5350544023991153, 1.3941623333691013, 0.16060258509280498]], [[0.7070233130435961, 0.5610108195521368, -0.8299562175695322, -0.7406386927656067, -0.7080414965965026, -1.047893836181823, 0.5624322827550089, -0.9336930697904356, 0.7453046092946366, 0.7415159578881034], [1.3765760949771824, 1.4512114780977785, -0.5454542394937494, -0.13636498304309655, 0.3066686801689215, -0.7896923719709258, 1.0065199158120752, -0.09106443785601286, 0.6327870492908891, -0.23898790296421066], [0.7445811161426623, 0.47549872373215885, -1.0033380462911743, -0.9658526179599509, -1.0300480147210809, -1.1733035470667657, 0.9837793238419732, -1.1861932710863465, 1.17319790678473, 1.245845546375806], [0.8496312755235084, 0.7895959577870166, -0.6670295988706662, -0.5485235589401946, -0.5328353134802878, -0.9052312161128565, 0.44598273516743525, -0.5713633106189636, 0.5509288534431627, 0.4467279277450116], [0.6502634401694758, 0.4308907807914097, -0.9306955226938803, -0.8619275853222379, -0.8279923253601176, -1.1570207580391207, 0.7906378641020504, -1.0786446044285276, 0.9452579287992116, 1.0042966884326971], [0.8040478289617471, 0.697429021517093, -0.7537470315830385, -0.6349452370701405, -0.645629501066851, -0.9714902372972146, 0.4711199033775853, -0.7518602236722444, 0.6311436894248283, 0.5963195778761166], [0.7452324329660133, 0.4728787378429304, -1.0126040793807727, -0.9929799971806028, -1.053142561123434, -1.174164766578709, 1.029839182830562, -1.2064233791121686, 1.206050226598821, 1.2836797807546205], [0.6632494217213815, 0.41159059361390954, -0.9923261270788256, -0.9326485479963595, -0.9155652985871072, -1.1788403166589851, 0.9047142458397878, -1.150732184079516, 1.0829885720246057, 1.1480955901482848], [0.8076396927613504, 0.7254934082828003, -0.7351706602359375, -0.6275841641192421, -0.6231871034137557, -0.9567299340590948, 0.4744210443183683, -0.7188237152667304, 0.6184554113976168, 0.5629654651382815], [1.0750682232909705, 1.1286517913046823, -0.5128783092881657, -0.3588088493907401, -0.13835129791433828, -0.7647605531794481, 0.6343911377395013, -0.17914701709461595, 0.5533498935668432, 0.11627704356618077]], [[-0.6159798189727503, -0.6673475286080012, -0.855866682148023, -0.5144891959010771, -0.7328295146280953, -0.5521047739969984, -0.8781362142285516, -0.8127338169335987, -0.5478489746673422, -0.5118161070632613], [-0.5120041695707734, -0.5577188323376675, -0.6810418909023759, -0.4222163803973664, -0.5961048589407927, -0.46699467795738625, -0.6906596690408469, -0.6428373917123914, -0.47119402795400966, -0.43445323970887584], [-0.5527060912330696, -0.6093511336148428, -0.7689566647067326, -0.4589887510445894, -0.6646953785760366, -0.5118358056829375, -0.7837289776321292, -0.7268748556997786, -0.4918473738494529, -0.4712404618525294], [-0.5180959862049461, -0.5828682490316862, -0.6944435141726116, -0.4251361659046532, -0.6198086382740637, -0.46768755344810614, -0.7124190852749103, -0.6616987540265824, -0.46074752367859345, -0.43902956310639535], [-0.4996595902518725, -0.5510254452098411, -0.6583010677780663, -0.4113281591577715, -0.5821732606227628, -0.45237781475231625, -0.6723191870565818, -0.6397136131953033, -0.44343444527309717, -0.41698521759381635], [-0.5964016920036749, -0.6570403973294113, -0.831430217078537, -0.49912806898251233, -0.717789397919932, -0.5421061332884076, -0.8593537668605654, -0.7741984964220873, -0.5376597174049121, -0.49842101820040996], [-0.5102628908767757, -0.5639551733158514, -0.6934913036551841, -0.4276374370512805, -0.6072918701804, -0.4629560200975071, -0.6993312509905706, -0.6623559686060319, -0.4553563958325891, -0.4329107991751912], [-0.6311158854853953, -0.6839332411702268, -0.8787000472661632, -0.523719429037548, -0.7462977613027115, -0.5684634650027068, -0.8940423642482885, -0.8270542317231696, -0.5546512957538916, -0.5198829864268674], [-0.5146442401849595, -0.5606935237920294, -0.6957272633484471, -0.42531364928102894, -0.6021051284506459, -0.4619778885639351, -0.7074849228457544, -0.6583709695576421, -0.4584873800758923, -0.4381735442942064], [-0.442014234814591, -0.4865426135392559, -0.5457041537057251, -0.3569874391600943, -0.49351454180221505, -0.38744729522291177, -0.5583907167889107, -0.5291976678531919, -0.3836328180013607, -0.38159912686646424]], [[2.198708791576519, 1.7932363351895826, 1.9951621429569397, 1.8406766769342875, 1.7439677788124552, 2.145332981786647, 1.8143612996899317, 2.2414348453779107, 1.816182148882567, 1.4081808176029436]]], "biases": [[[0.848691841802118], [0.23817846454171862], [3.736955691405994], [-1.1265463143263932], [-1.8084042222324594], [3.0790496604844333], [-1.9754317081615937], [2.725754808907137], [-4.014903264713308], [-0.36255602948804283]], [[-0.4037910679123209], [0.2756956732903398], [-0.2970633598521579], [-0.2773788454735061], [-0.3787524917119263], [-0.3548734890054307], [-0.2906223756382845], [-0.3343503583516567], [-0.3335392684094439], [0.08195748413748229]], [[1.2501030033688232], [0.8595525035104823], [1.0607132882439994], [0.9007495573801463], [0.8057269298784021], [1.2001227907184064], [0.8797896363847959], [1.2869715541642217], [0.8827922252669878], [0.46187102303575756]], [[-5.908340615090842]]], "sizes": [50, 10, 10, 10, 1]}