{"weights": [[[0.5656211540613779, 0.5601815085027075, 0.36527566910728015, 0.2621240130600459, 0.5837773560563229, -0.026314971209166035, 0.4407781227652234, -0.7092801017835114, -0.41481016896223444, 0.5897486430574481, -0.1452634377800231, -0.5932932241291857, -0.5638113347088238, -0.11130880621171331, -1.1952085077044665, 0.5157037465418556, -0.2740970514925874, 0.5313322729318085, 0.11390507325499091, -0.5789355643908849, -1.3353725567585568, -1.4476871532661266, -0.3072206309160098, 0.8740650051659141, 0.012218691261977816, -0.4895690013428122, 0.32418702307655795, -0.1102113523636809, 0.6674614122774079, -0.03925957411393404, 0.03127995886359295, 0.05441550633360509, 0.0037806164277849057, 0.20075624902905567, -0.20464083777797246, -0.9621063981711028, -0.4561621473828373, -0.4425779331722777, 0.20414121847928318, -0.8645772806045416, -0.4805963592897453, 0.24269451235993242, -0.3836459256500459, 0.31660236846601425, 0.2617420687109685, 0.5646257346073232, -0.39837716939069645, -0.4580265061092857, -1.271480868130954, 0.8761223100575344], [-0.07054927775387322, 0.07440482678912008, -0.07700175697456156, 0.20680901217973843, 0.13459799533976882, 0.012872650996804612, 0.3304455363685244, -0.03812152774152024, -0.003953213530340883, 0.1638206447170849, 0.226034415622983, 0.020961625944847812, -0.191732644833595, -0.2908041119817139, -0.2162904488195903, -0.1594686175220153, -0.16485136525333338, 0.05697850752884149, -0.046281365536758615, 0.08197186184853107, -2.466173126770011, -0.4702069635123786, -1.2533822541256145, 0.13678146642086966, 0.3904496716270642, 0.14616574353907805, 0.4210631386451564, -0.05292082203752003, -0.4179827709945283, 0.23661373658921672, 0.6192893985066144, -0.2018415923948486, 0.6939436105377099, -0.5949624895047936, -0.2268786371797046, -0.06404963995113329, -0.41355082864847426, -0.40203362081579563, -0.16037337147757433, -1.1183150403412245, -0.2805565819674287, 0.18927816936880246, 0.09754324501529722, -0.16831103464917824, -0.040191017939520006, 0.3230379899097627, -0.29750546360121327, -0.01990584617101568, -4.361057709414397, -0.9335331526715129], [0.12844893926844397, 0.23797884745256748, -0.21120902791467344, -0.00012889618213708732, 0.13272077087506512, -0.051782313990126255, -0.23573645864402012, -0.26523484406067255, 0.0299326680214487, 0.6589149149192804, 0.08318379919917972, -0.5252826964105777, 0.024479806816222367, -0.24989147757336533, 0.2371833000182791, 0.17272071760001145, -0.13886244120174798, 0.13381633603186038, 0.12839002876378905, -0.1793398486808024, -0.32959797691286713, 0.27395542186052096, -0.9612455451638797, 0.38669465732347236, 0.33781938243779186, -0.007776925902936925, 0.03832722060158821, -0.15728150281799969, -0.3253623241157433, -0.04565216243000193, 0.24576477488555118, -0.10892519227534989, 0.6193882092012425, -0.38590861032441504, -0.11903099951671015, 0.015824008149726787, -0.6600634273286863, 0.09866010292671272, -0.15912208981241882, -1.4852690766259014, -0.02816607297409617, 0.009901151711554333, 0.15524654538442148, 0.014739063154819394, -0.06315662245120532, 0.1339184976665978, -0.38684428998717285, 0.2641688511856415, 2.970638534717637, 2.0692889427574808], [0.0980365733620955, 0.700720617190793, 0.39225273932310667, -0.2669689896915277, -0.8617812566109087, 0.39210631125274287, 0.6001909385127762, 0.4203934819072977, -0.7634524030487014, 0.7608476777161007, 1.3609580733831537, -0.11410958902795831, -1.0257942033677863, -0.3397911059284645, -0.8530394124685459, -0.9078097464371303, 0.13913529924450524, -0.33034353615514245, 0.69254432598171, 0.24438849079040492, -0.7295738450219666, -0.03747796035538021, 0.5875889386290609, -0.06640339778518667, -0.04343630678612955, -0.3386147135773506, 0.8159001634983837, -0.4800379427468521, 0.34959266603190686, 0.0034500067410392766, -0.7029263323750936, 0.05137543721373419, 0.2908639689751352, 0.4209395677296128, -0.03140241160592867, 0.41198916185410656, -0.8349093960681689, -0.23303721746378864, 0.4245477009942642, 1.8990928503450952, -0.4102939350834091, -0.8583951682512344, -0.18783336049146976, -1.0220547882676954, -0.5873497307627173, 0.1852333396428013, -0.06251505531196508, 0.45881039185621564, -0.05500074736602556, 0.5831489837225312], [0.33320948759352226, -0.1266265615255882, -0.8606148251275316, -0.30618999550108844, 0.9533432180152286, -0.051939130855071555, 0.22369340636932677, -0.28306498729697055, 0.11674819831794526, 0.2467649179709363, -0.365366827275461, -0.3786197324110937, -0.13279225277652765, -0.028656872268819508, 0.740400019717027, 0.4112161968670498, 0.10598180100068798, 0.1450736334204557, -0.1802691688854679, -0.6540445366543459, 0.9385358687952019, 1.4558292368252146, 0.5688103992692097, 0.4005013531655827, -0.04330084794278193, -0.03489141943157218, 0.3604629135126664, -0.10782866588264307, 0.1806414210080444, -0.46068300535667644, 0.16594602192907537, -1.1870117068419173, 0.05961002378536683, -0.022061747404721485, 0.48595095304318486, 0.643117443446068, 0.07345815258326499, -0.2512929520861943, 0.27431903193463625, 1.0250194598152238, -0.4547322064297363, -0.5721468649412063, -0.4062389721363243, -0.09835209842974953, -0.6851353790935016, 0.9347875562637357, 0.4249068967629931, -0.6139960766292791, 0.19170820368225416, 0.7152983708374119], [0.004020861512174793, 0.041479889095744175, 0.2646641882672925, 0.5140762102121955, 0.5640256120421527, -0.07595799455888426, -0.06708714919152947, -0.1283613680929244, -0.6813233434350512, -0.5266179242840399, -0.3535303630290228, -0.030065517111387025, -0.29904910095022197, 0.3002620942816288, -0.634151587126877, 0.9044287117272417, 0.1362021212853761, 0.10309427903043754, -0.005175937189411361, -0.26565947406850604, 0.19470723062085116, 0.6063671789484831, -1.810351528414766, 0.8334433737413559, -0.008310497554117814, 0.4548082375894646, 0.023004755101176028, -0.21120603912505218, -0.4428519207550328, 0.7984303376043013, 1.3551105255487084, -0.9445296121606087, -0.1715159931056118, -0.9755233650249915, -0.18737941669102567, 0.1374783166802199, -0.17927796594449705, 0.2820958862575509, -0.9084123636033326, 0.9615832380939043, -0.26205127286086455, 0.751223195596463, 0.40315763870352445, 0.06193074709071096, -0.5797194783812379, 0.07200814418794395, 0.14961537327334445, 0.3681510113381736, -0.05025486102431874, 0.19811357489413337], [-0.6014086681148911, -0.026998563648802633, 0.39542702074832536, -0.7502612944952938, -0.34372502875406724, 0.48426258664597144, -0.19745978057630073, 0.09718772182323512, 0.07288925496212646, 0.851391899855518, 0.3630293154919184, -0.2787679316590606, -0.7470914749963329, -0.09912878017250323, 0.29773211591120957, 0.014433625161251885, 0.1550826219263736, -0.26893699725412945, 0.3283369817303593, 0.3907968894369918, -0.7426340227175886, -0.5679261339307361, -0.22686738950694432, -0.6156729692408458, -0.14573151517357788, -0.1895342040849948, 1.0138225365058802, -0.11857500330936381, 0.3187292177911987, -0.14183134885584564, 0.1301287297487274, -0.48621699116409645, -0.08279524126255289, 0.5036287489614915, 0.3651746174122481, 0.7930327217739702, -0.0499702721481948, -0.13340585394503876, -0.36850701378677586, 0.30197864029761956, 0.47530006758486126, -0.670802911363105, -0.04055840268567727, 0.07950120223553268, -0.4592239649900923, -0.15892312059296165, -0.03787483522199897, 0.6415140024539981, -1.7515660897280771, 0.7862198565879448], [-0.1254034420243698, 1.1167097948891718, 0.08217860240866584, -0.4339886123407971, -0.5947676204764911, -0.1755540957156814, 0.02927749994737092, -0.041595480101444836, -0.03553400788329652, 0.579073785981658, -0.2888504488889111, -0.3651954921958206, -0.3328281178549637, 0.07072350389781366, -0.1945949258471974, 0.30492956391145354, -0.07344298594557855, 0.4980953504245143, 0.1179465600851325, -0.001978207582418103, 0.9855186693414969, -1.0214829599728754, 0.4940280209589625, 0.12805586618402673, 0.6980600973856902, -0.10557465446782645, 0.6066645690870495, -0.8274406545326184, 0.0537174125790114, -0.5487232617665337, -0.01693855382774534, 0.38496899725629075, 0.1642328855029083, 0.15248000043900994, 0.09524879755084398, -1.413590719062967, 0.17348605539501635, 0.0112085778696175, 0.6204253830097005, 1.6278168273155835, 0.07366612679912664, 0.2754288565468622, -0.25374886925458556, 0.3015977527685989, 0.4709878642946596, 0.009546268221042037, -0.6228516526326651, 0.06680307206250898, 1.5905180451402492, -0.19661640100332606], [-0.029317005440183615, 0.8805020441571136, -0.031023454969398595, -0.1212211533589028, -1.1139477067386863, 0.15474296328927994, 0.05784376773649581, -0.020072407299492154, -0.24415505776569438, -0.7086568880945961, -0.20930107140902918, -0.5438866663027757, 0.4380508649967239, -0.10713684665983852, 0.012013807209692157, 0.3185615125927032, 0.4762616651144863, 0.380313346221918, 0.8782627932947082, -0.3721053306276755, -0.13596616568651615, 0.5734452432850164, 0.12511567979570676, -0.02953314284012074, 0.5053291696024687, 0.4583070517547317, -0.3487972575105528, -0.42558141760882934, -0.4995788122409986, 0.03261975380161549, -0.44486237449690275, 0.7116765500778794, 0.3929496927249536, -0.11728921065531586, -0.3105969882237757, 0.12272389129909815, 0.4150617848618526, -0.3588404907293213, 0.06853581553649155, -3.1179219429282243, 0.016000651780606102, 0.06359368069575382, -0.055682540625965365, -0.03378482560239497, 0.17908356402870737, 0.32397378154631423, 0.1295149698006657, -0.6154163373194637, -0.9538009335436254, -0.31007937221889875], [-0.0692776516279174, -0.22625875453454722, 0.36426864866943126, 0.10690217202249905, -0.07811985884811623, -0.2001286495813431, -0.08817265401637449, 0.5548950314019927, 0.3825009465811684, -0.09628037293644011, -0.4907170368861142, 0.10663200664473617, -0.4895159980373847, -0.1748662527278347, 0.5698855054332818, 0.41688354315192544, 0.1605657719678963, -0.11142297186175265, -0.39755446432056574, -0.36222845613241705, -0.9493442697620985, -0.4613834488751582, -1.5872169346941478, -0.0685547216058135, 0.08862258357478883, 0.12830759551700532, 0.6562544355269614, -0.1842788936813726, 0.5247141938239598, -0.49579366286513266, -0.690443813617771, -0.19546690997093197, 0.03782671931593331, -0.30752544546398314, 0.037021222522187994, 0.10455001739817656, 0.37810118249913033, 0.09123995671135118, 0.3327428119810747, -0.7589335206631035, -0.03700008054486944, -0.3866897249830703, -0.3297535675714246, -0.5528300272589867, 0.531665269851088, -0.5976873332662019, -0.8093014972054817, 0.7563979136607878, 0.07711289978031281, 1.1276144680752944]], [[0.7132422236925856, 1.0589411044205006, -1.03872167818346, -0.7031663710143371, -0.5307064553422147, -0.6823143757528618, 0.6827638991544259, -0.8624009796895162, 0.8555541010622684, 0.399051663615122], [0.5225581025787289, 0.6277865718482714, -0.7756013319363121, -0.6767727382252239, -0.3135700185307883, -0.4315956427907869, 0.45758942864723634, -0.701595208936501, 0.8705594945812801, 0.003232754945558692], [0.7150657396116024, 1.7477884251272244, -1.4825804616849765, -0.6506007758599884, -0.7977134625253833, -1.304815404362352, 0.9987944056746518, -0.883557867755282, 0.41915981023916227, 1.0663559090788097], [0.6260505761073121, 0.7737821198653714, -0.8419845933532756, -0.6821544190748678, -0.3973955467672196, -0.4833223908297247, 0.5475229886121235, -0.7713178843945327, 0.9566076930013234, 0.10840928024442531], [0.7077278189907787, 1.351740264000796, -1.2538745097255684, -0.6846455520253995, -0.6705887882819073, -0.9657601945779651, 0.8383532954004084, -0.9019755745857941, 0.6556200028951009, 0.7170104492325176], [0.6600973788641729, 0.8962396232591119, -0.953728042744582, -0.6989014597795735, -0.4582873164813482, -0.5868422657563309, 0.5886403130789871, -0.8037558105663074, 0.8733855573617072, 0.24612817067216797], [0.7085404727766854, 1.7782035185818406, -1.4984860343234057, -0.6556305937828254, -0.8036889323380354, -1.3196197877970515, 1.0236199742320988, -0.8877864573894366, 0.40778989739651306, 1.0950580000342087], [0.7114244754491016, 1.5716134507163113, -1.391851205724579, -0.6718936148855575, -0.7395475254728163, -1.1426632908911882, 0.9255682047494388, -0.9040985792116885, 0.5385188696100437, 0.9228284892434592], [0.6751023573378269, 0.9251768597859178, -0.9501640569210265, -0.6991962562430502, -0.4634796499462128, -0.5853518828543368, 0.6197647377340096, -0.8165545359459199, 0.901479119130213, 0.25543117419450373], [0.5666308202212292, 0.6680148888466425, -0.732616345825078, -0.6604980840479504, -0.3097076258904411, -0.38203024205423824, 0.49705759659852844, -0.7181620472525687, 1.0112800328862805, -0.01887217865095382]], [[-0.6858741884703267, -0.5079463998469549, -0.9635714166686278, -0.5916897884793663, -0.8003463363462552, -0.6192289318825177, -0.9810416654867511, -0.897971759903911, -0.635727977945744, -0.5413270412077363], [-0.5565746112043394, -0.4256974152564022, -0.7546044383157758, -0.4802069157101529, -0.6355562635222075, -0.5152663646030752, -0.7618710641502419, -0.6957931012057815, -0.5353647465245673, -0.4546786672962571], [-0.6019704828780698, -0.45830050018571244, -0.8445353889815297, -0.5191318253110478, -0.7058877494896125, -0.5621317927863471, -0.8562031416443808, -0.7830101776730796, -0.5615307741736744, -0.49146254312645543], [-0.5536408870344066, -0.4424553149322621, -0.7503208701350061, -0.4785503685111123, -0.6448038878326552, -0.5084115414245769, -0.7647701888999626, -0.6976428397821797, -0.5160715582413, -0.4567170262472159], [-0.5251528169531938, -0.4155976276260892, -0.6987862178578923, -0.45489572749284607, -0.5958547947090873, -0.48440893717808214, -0.7097666615867675, -0.662554865079033, -0.48974512384806296, -0.427750667737774], [-0.6599175717413265, -0.49888020911877734, -0.9296753839265327, -0.5704989368595617, -0.7763583909509774, -0.6035861910357521, -0.952093818896998, -0.8490121749122721, -0.6195612589466292, -0.5256379493827698], [-0.5396267819114634, -0.4226155801250842, -0.7404091277171694, -0.47406188160640245, -0.6259714092667314, -0.4969042279518008, -0.7424635774305351, -0.6915260442750107, -0.5049543281746754, -0.44554358468803473], [-0.6919600172195317, -0.514265408231098, -0.9698132974086541, -0.5921352904407255, -0.8003759100738053, -0.6254088077845192, -0.9808449684908751, -0.8975024989243038, -0.6328974414144617, -0.5414530719665503], [-0.5679786102756854, -0.43414535208137095, -0.7823661910595967, -0.49024658292143747, -0.6515017446190667, -0.5177754834333559, -0.7909835643995317, -0.7230225494642273, -0.5301546530013219, -0.46743582039163395], [-0.4233152499947177, -0.3547733557224212, -0.5197552566489559, -0.3625192026994708, -0.4574264279464039, -0.3803650833794551, -0.527695256614804, -0.49276161474318936, -0.3861808171741733, -0.3633038020048154]], [[2.28620171998399, 1.7922670084929146, 2.002231971223751, 1.7838232643953482, 1.6503189143820005, 2.2057506869586643, 1.7414879999318211, 2.2939017771031747, 1.8434004056992035, 1.1087716226868747]]], "biases": [[[-2.762298148527815], [-4.800257793937787], [3.9026615778689915], [-0.34565223636948467], [-0.5808793203055427], [2.067153859074129], [-3.324342690000577], [1.0786951547780228], [1.1309141139929035], [0.6123616550125134]], [[-0.09358292389809802], [-0.06394118280611964], [-0.24556045015963043], [-0.00969109693259206], [-0.1769818878075273], [-0.07136385227745955], [-0.25100649463219205], [-0.2239405377943056], [-0.050958580011950076], [0.0052759271144480644]], [[1.3532531692728147], [0.8585990147476639], [1.0789086508004007], [0.8597969752880609], [0.7169822481796312], [1.2776778388504473], [0.8107317528866123], [1.3587474195628484], [0.9200081136290277], [0.17173600062249403]], [[-6.386501204425475]]], "sizes": [50, 10, 10, 10, 1]}