{"weights": [[[-0.8235717625540717, -0.5081386001612762, -0.2316874872617052, -0.40787737790009404, 0.2207318061839217, 0.3383705981408095, 0.21278967081800276, 0.10080138997402757, 0.24343849209371574, 0.6024929907232077, 0.9197111771670762, -0.3553567739041809, 0.17370888045500116, -0.5869801876218986, 0.23612183812810053, -0.32506216301382984, -0.4937966610095275, 0.11623274607035557, 0.3407609996301141, 0.5704275659984667, -0.5690042016920316, 0.5008433101550172, -1.5687103811680432, -0.029841028959884112, -0.29185149034750624, 0.10421770056476963, 0.45941071566366765, 0.5978634526934611, -0.3466433535937597, -0.13267227214597582, 0.09973854129435585, -0.046665582641588176, 0.9574888608026261, -1.2342337495703155, 0.783156602151739, -0.40323073650009444, 0.06023774178421493, -0.18545724874506303, -0.46106538153188725, -0.7885198348659133, -0.177887813018099, -0.010345703014099619, 0.28794833304900974, -0.34684413022657806, -0.4770815242070821, 0.2613396350641618, 0.16149420430013425, 0.07644841052765754, -3.4658282808569174, -0.08896094468703937], [-0.06151514267449158, 0.8309056666294682, 0.06991581761439924, -0.017186990736795252, -0.32253656516621165, -0.05827482405179851, -0.0630717187338798, 0.026253152780821146, 0.5240890305529341, 0.004204576407263649, -0.45757187643611935, -0.3325663523583962, 0.47123655481200233, -0.30150718661865555, -0.6921780590544323, 0.22476267111889991, -0.07502353284934792, 0.5853207875492811, 0.06440220441643829, -0.38821332000981373, -0.10654238597242462, 0.5734597438140923, -0.2680969489459625, -0.4871901907623876, 0.32983525432778255, 0.6276814133283293, -1.0117635490376373, 0.6583334020295881, -0.0470604330730203, 0.35104088341247836, -0.39691368907795144, 0.2525494282387021, 0.07265991862691104, -0.18305709642554216, -0.3780950508273701, 0.9987359701307278, 0.4640706329924906, -0.8053867455782245, 0.0955537186544542, -2.0705090878108368, -0.42640020814444185, 0.18190017901757932, 0.32450348242106464, -0.03478324854986737, 0.12590121587121456, 0.5104099532840477, 0.05640963887354754, -0.6502711531694122, -0.3896011847750829, -0.974487983626498], [-0.9103322500284119, 0.11780940792416675, 0.030201124487100748, -0.7471083263623777, 0.09990914041793184, -0.31332796671029084, -0.514363279742624, -0.3901378949112606, 0.2812666467254883, -0.06755886538709201, 0.2586507767929048, 0.4846923414293465, 0.20200116729614082, 0.32240855747013725, 1.0893139793950546, 0.1834588865196118, -0.2563033935072468, 0.02545515203128307, -0.07434074630231789, 0.13585199101110362, 0.3377363557724385, 0.685370897885552, 1.007936270550275, -0.34106672309389324, -0.47827753755774133, 0.07901311400706924, 0.7547123449089221, 0.12819341770144546, -0.43044240227119457, -1.0612893259961984, -0.15649061034643996, 0.021566821745027727, -0.24754672181264517, -0.19096864148869228, -0.4500179719783194, 0.4408895765486752, -0.04114641731194341, 1.0241461388835773, 0.8580295782456411, 2.3063014063140796, 0.28877775655536514, -0.32767276378931964, 0.18482900018217652, -0.41296094787818566, -0.08165948847673889, 0.1487146994129839, 0.01634333338395838, -0.0785156331261634, 1.450497759539842, 0.825115582298152], [-0.96331149137317, 1.163712346928654, 0.061684057292528224, 0.34480661577933086, -0.38376774413341086, 0.35765636896090475, 0.18754860971533172, -0.0007064192865173848, -0.3778803705129112, 0.520768506794706, 0.13962300368221428, -0.5110461288202833, -0.3094251725860496, -0.59332797319382, -0.7089449261241758, 0.9512904769944074, -0.735328236176567, 0.9266209401416241, -0.012505655997548281, 0.29492819106541784, -0.07979534422908478, 0.24186118723925032, -0.6857993708558421, 1.032547603336738, 0.515761403553051, -0.012609295212441652, 0.004649668680562134, -0.5760611793813384, 0.6673679841715766, 0.18642350584946296, 0.2722418192856201, -0.7625614429335573, -0.3167502032212442, -0.08586087711753411, -0.3076390646433019, -0.08840613483857172, 0.13883060872072708, -0.2874019043499881, -0.07201221716385803, 0.8578258041488883, 0.3979908865773894, 0.1911760760831834, -0.18762084323635805, 0.6149612176893294, -0.19449332282702791, 0.3601203109346434, -0.16651045818517374, 0.003248118098922033, 0.403844971415841, 0.03242219777802517], [-0.055326859462498, 0.2087469035742049, -0.04642372081193185, -0.5512044490422, 0.460913100821773, 0.2978456368856542, 0.13715957644958837, -0.2803817082391692, 0.13072454393381552, 1.1233283305127193, 0.2661524615587587, -1.0065391928608998, -0.8091328558394849, 0.7909166049866146, 0.2564715197090429, -0.1940292525334782, -0.13816432249567073, -0.04785443069701621, -0.5240040088184915, -0.17470299480299245, -0.4499350365565209, 0.34137587839165223, -1.0077793148934486, 0.2740640620507523, 0.17272582553851423, 0.10351663947138916, -0.0701493220708378, -0.2541688898725967, -0.1561221673220088, 0.1897681862360568, -0.2822350200184567, -0.4192100844907013, 0.35546440155267545, -0.42682860073839773, -0.1503642000040005, 0.4450724473611986, 0.8475339281662394, -0.12692678537379493, -0.2948152044758429, 1.1630525955549813, 0.02455889992319185, -0.8055721668597629, 1.1409778793696566, 0.011973312438399686, 0.48233059133465583, -0.6932822567574514, -0.07399791246657342, 0.24689645202014854, -0.9804082440548549, -0.3147621791753997], [0.0887890768371283, -0.14797407133953489, -0.3180234921426785, -0.26411929182483185, -0.15818085687082847, -0.5859654035390355, 0.206582583791589, 0.0957742489275703, 0.16725490579775018, -0.2009938206603028, 0.027188068349926518, 0.04059672184027698, 0.05451493997669836, 0.24587961429710725, 0.5530455244298177, -0.17645951929065412, 0.5441997410337545, 0.17705038720706226, -0.2311176452572046, -0.09615893104675402, 0.2869173368071812, 0.5556528251563168, -0.6423999937275179, 0.12414673541074597, -0.11983241541985823, -0.560126789310183, -0.34840372795907515, -0.2583168305560794, -0.5900229417938735, 1.4216087493839673, -0.14735294376191443, 0.4039072456428197, 0.2458001138940524, -0.9151308987100664, -0.48867387357071235, 0.33151280165505814, -0.9452760212497355, 0.6599492839989552, -0.018130685038535668, -0.7786420122567788, -1.4461367641595908, 0.5299224734168761, 0.3891399543373037, -0.16357606632353627, -0.9227325646858356, 0.4249914121337285, 0.5475099012370191, 0.010095376126572835, 2.51185607326611, 1.2582163746545076], [-0.4524858757010046, 1.2570809217854513, -0.14748755549877748, -0.7412767798829318, -0.323028684476413, 0.28985395465913066, 0.5237615732920421, -1.0304089307126316, -0.011875938005296833, 1.0276633738672964, 0.3374869286739431, -0.47356123805687456, -0.21902126498902502, 0.664545189280117, 0.5271775759702649, -0.004576719753737526, -0.7215302538635795, 0.058030741137817046, -0.6644941176997091, -0.01160822168665546, 0.04276092472101137, -0.08420487066303554, -0.27914154747316916, 0.0672300867627416, 0.19867444733310397, 0.15756849837371706, 0.09712953542346323, -0.1779481445048317, 0.3495995941400317, -1.3274524923970732, -0.48355334008608336, 0.8390975794454661, 0.31619490388711463, -0.7807050008885724, -0.10209446434505151, -0.056298550796246294, 0.18746184234439914, 0.3403726196473168, 0.737133661386349, -2.2952565545753116, 0.34618562765482813, -0.5048398542316234, 0.3222673666263686, -0.9417276842143033, 0.3224312156642113, -0.19741594510353525, 0.4327871665683272, -0.4989190811969942, -0.5754748349313851, -0.4784483717387131], [-0.06207006269599047, -0.018779409819927182, 0.47158397581049494, 0.2529933041559012, -0.05916719127858098, 0.016888638636397654, -0.1581030327142821, -0.07632253332468218, -0.04803420888889208, 0.5347271005926483, -0.07260352561394247, -0.2696566955854571, -0.08864306685003742, -0.2797518491299764, -0.1861642527123154, 0.11952800051297591, -0.14140265430940904, 0.031963375005125395, 0.26939150390146255, -0.16815981527688184, -0.0021750134723076105, 0.6561485904784792, 0.9271294895845916, -0.13596637540856707, 0.19221392909811288, 0.13392175254971572, 0.07464722654626042, 0.3474773073561916, -0.08388549553855466, -0.032185494847546146, -0.45261395018114164, 0.10477125343758631, 0.1587484092069071, 0.43137972808996056, -0.3795590678045841, -0.14538011831460929, 0.2945101659874775, -0.028879629952286177, -0.4993302027326321, -0.42848754203418105, 0.8506124669251354, -0.3884618536150859, 0.49521826785342643, 0.7183360597452273, 0.009796220698472496, -0.3586899771312647, -0.0673169609042022, 0.38313679454638316, 2.4023378052927016, 2.726664257065535], [-0.4752290766041518, 0.09835888855437011, 0.9598365210746452, 0.24241037235135307, -0.21964782757600193, -0.04668530790520328, 0.014014228645696585, -0.16822592454567784, 0.04252490851673891, -0.07857112585204507, -0.1609333414252681, 0.0970466656818184, -1.0671748650762196, -0.0398467185563372, 0.6353871008813172, 0.03900311295351423, 0.4367191731990565, -0.00818641096380268, -0.17039954343116742, -0.26735097493606413, -2.17183228655182, -0.7361384006008864, -0.5298482073217374, 0.034111692794727616, -0.20743736073375596, -0.21554634954795082, -0.4937626596431379, -0.09268204713769532, 0.3031974795121085, 0.43129179763063274, -0.633714608654485, 0.04980376372242624, 0.18420557896716033, 0.4421522297062695, -0.41289636330118784, 0.11794203318308813, 0.17522935621430508, 0.1955044088083516, -0.26417700805218647, -0.9311574759688195, 0.23284232893283316, -0.8375587897789264, -0.6529576731472575, 0.620294958594418, 0.22321818685434086, -0.13721381932151958, -0.5175666905974523, 0.3546263496535167, -1.3519651368631385, 0.6977050316443788], [-0.1590581989302054, -0.18065536302803617, 0.6500592793412326, 0.3779645085046904, -0.4570902228564618, 0.1373712709222715, -0.18174287243384216, -0.08250887146360361, 0.2774634230491338, -0.3274226824761369, 0.07426230289918402, 0.07295873136135524, 0.19721580001829095, 0.1227500082945799, -0.3898899175136348, 0.29844370211551785, -0.43900748219049857, -0.23934060785910916, -0.014252258484191776, 0.06400781096706512, -0.9355100253254995, -1.1005805420927028, -0.8606871126189577, -0.5315943008474747, -0.11610476332838608, 0.266038875460737, 0.2511011408750826, -0.1339343658186316, 0.26396245350350855, 0.5593914253852253, -0.1766609298852085, -0.0257744979940394, 0.1033076020732296, -0.13696009964958697, -0.42168787522171414, 0.0025871519462743065, 0.44859256332863506, -0.35279982546220123, 0.25230737336083614, -0.9799242135691386, 0.4294101821608151, -0.08846561571627305, 0.7627150543113245, 0.18425683984098182, 1.3057539647323444, -1.1407906077311887, -0.9787151527970543, 0.6601744275269337, 1.4441591911792022, -0.5002032686895294]], [[0.6263146719947613, 0.8294984634640061, -0.6998207291241513, -0.6293310030175034, -0.7254611289516053, -0.6375882496620094, 0.335892584103855, -1.0012950202487338, 0.527899061875778, 0.6993002327667983], [0.39555187703932376, 1.2276701512814732, -0.39255504715689127, -0.8470031581183982, -0.8951054485556236, -0.35249962666727286, -0.0794178908852092, -0.5618740004719154, 0.11629475729793905, 0.2494867469102461], [1.2272936821490628, 0.1334032734978562, -1.061067993584153, -0.3222737466980767, -0.4233946909077041, -1.064709720933104, 1.167221553863758, -1.6062330254580997, 1.226770646624639, 1.173496697811667], [0.5150317769656676, 1.0082431970959178, -0.5211900543161917, -0.7136159703073693, -0.8049260557507982, -0.49285684571399757, 0.15792191023440316, -0.7736109158224961, 0.34210980914343087, 0.5313207307991511], [0.9383060591269926, 0.34711434169693023, -0.9246101675609932, -0.4418593396308884, -0.5173503724006764, -0.9483379379019041, 0.8654603385624937, -1.4025550871764136, 0.9398094592077891, 0.9885491859855444], [0.5545945198851205, 1.019756350406461, -0.5666557701553032, -0.7178735001093494, -0.808494420351397, -0.5008365771378736, 0.1698651440550308, -0.8042981479538691, 0.38566917206743584, 0.583506754984613], [1.2120000847745502, 0.12466085887652006, -1.053115651739257, -0.3268579030169454, -0.42644025783035105, -1.0585151582538583, 1.1776886789168073, -1.6046126533538998, 1.2145250836565087, 1.17700599602416], [0.9966168929064398, 0.34036376664093393, -0.9755054907295782, -0.4286801513951272, -0.5031180184190087, -0.9485426574424757, 0.889390689682168, -1.437962501992188, 0.9982510551318106, 1.0208229919907372], [0.6144350085571699, 0.8440246826856678, -0.6857539564673698, -0.6356454728757286, -0.7315751288359259, -0.6295845079140974, 0.3207054485953885, -0.9781905850995908, 0.5104854825431004, 0.6810867434135183], [0.5080553348201486, 0.9554396704688521, -0.5510553558615547, -0.6771762494959404, -0.7633677647902369, -0.5248350308430958, 0.18445746346463943, -0.8179650584073359, 0.36856383576191387, 0.5435138848671455]], [[-0.6233447620072078, -0.592964541506729, -0.8649415613045291, -0.5982981136788887, -0.7413267053394823, -0.6043412173723914, -0.8653897037843082, -0.7707068803968422, -0.6198666444959541, -0.5812446282258922], [-0.5646413617718183, -0.5350701974465693, -0.7656830116572916, -0.5316388508244524, -0.6613701313837586, -0.5534516248565761, -0.7601929630280927, -0.6744092009977567, -0.5750653958784071, -0.5260124905971161], [-0.5676788574251654, -0.5462495145863552, -0.789129167325485, -0.5414829396868377, -0.6806853669604594, -0.5665098110689482, -0.78600914924674, -0.6992851132630495, -0.5665990050679522, -0.5411431069212813], [-0.5478525463656808, -0.5391215882885061, -0.7401593307584424, -0.5175318022446049, -0.6534803084112666, -0.5334733884801726, -0.7419469249280571, -0.6579509378010245, -0.5423022139895115, -0.5165951421124564], [-0.5053151917741421, -0.4895975934901728, -0.6676278509256092, -0.4764903184466605, -0.5863576701498874, -0.4929032966082247, -0.6672109630493311, -0.6073769767096461, -0.4991987596028363, -0.4689076132090407], [-0.616851331292073, -0.5953727224406011, -0.8595329487925012, -0.5920414243290996, -0.7404238984523573, -0.6051430073403902, -0.8655855008583638, -0.7485002370659805, -0.6207222202541202, -0.5780479771306085], [-0.5239979349011866, -0.5074127878562603, -0.7154065037877464, -0.5036953639951255, -0.6227938640121929, -0.5121115773365491, -0.7050323552966341, -0.6394237782302935, -0.5215828066163969, -0.49695622123245303], [-0.6296101158032819, -0.5999292928661835, -0.8714243330621688, -0.5983603693187545, -0.7412742524756692, -0.6105153171238967, -0.865642918210734, -0.7705959493326598, -0.6168918912475081, -0.5805466988559358], [-0.5453175372120621, -0.519865275921464, -0.7458726826581202, -0.5164649203645039, -0.6397886183221201, -0.5284628374150956, -0.7412729170965171, -0.6591085697247611, -0.5418828325545494, -0.5170037860858379], [-0.43637946096710345, -0.4231383214404672, -0.5435621242550037, -0.39746092035235536, -0.48616920292483257, -0.40830568362389896, -0.5445475607901965, -0.49470140144601116, -0.4162113879156276, -0.40915334058042246]], [[2.263270544147153, 2.0224888779069357, 2.0710255017586934, 1.9596678484350436, 1.7621665885733662, 2.2485395051949064, 1.8769554830841473, 2.271217990453963, 1.9521932933407449, 1.3731266949940006]]], "biases": [[[-1.8037885742196178], [1.3962203057647953], [3.5350655682940872], [-1.3009630081458334], [0.27929693532396904], [3.933635496634477], [-0.8833187161384716], [5.942319369621688], [-1.6322752286891822], [2.232247304961261]], [[-0.07362654784527904], [0.2723501029842034], [-0.5327237178095318], [0.13812638175945696], [-0.3981630680020239], [0.11250170619086397], [-0.5324847181545108], [-0.42390035390897923], [-0.04511719402249537], [0.056451227661090085]], [[1.0952873638077851], [0.8997596300706152], [0.9449421107112832], [0.854730690495314], [0.6828382454809486], [1.083565578467292], [0.7818219131684586], [1.0987719713725173], [0.8493035715017044], [0.33349904420013793]], [[-5.818805309742004]]], "sizes": [50, 10, 10, 10, 1]}