{"weights": [[[-0.47104541687368073, 0.55088305664398, -0.5609582036645089, 0.06350469793384513, -0.39045169078608494, 0.8457063179355236, -0.03662142814278382, -0.060653203422572036, 0.06988029715672607, -0.12155959531507673, 0.011588500038981198, -0.07846135431103114, 0.12619163867398175, -0.21214206374329986, -0.814626065721762, -0.19429494591415977, 0.27871132781042457, 0.76910007703328, 0.5404192815955745, 0.07183416169729084, -0.2475305133704125, 0.41186111416875426, 0.45499642688024294, 0.03635333385989649, -0.3296204513819642, 0.5794848789169558, -0.3968739694556616, 0.08437402387820739, -0.454010836090668, -0.12269003223244235, 0.221414376356364, 0.5178193082738705, 0.9798358585651096, -0.02789622694826423, 0.5945244729123647, -0.17743956713090087, 0.132656096024854, -1.1351375598642919, -0.2228724343487931, -2.900734857421349, 0.72841937749553, -0.08685273344412843, 1.0455055025618525, -0.06558933963543936, 0.20753581425965567, 0.3132921696874103, 0.18855076036402393, -0.6472426952012833, -0.6619934947384991, -1.0404838585160843], [0.49706165046186096, -1.542179557712413, -0.020571913197903118, 0.469059786074157, 0.3733367338226711, 0.1974148343094123, -0.10147763334830891, 0.012013260474869466, 0.19306636099637983, -0.5944916153169355, 0.2518492217541623, 0.30547876922644496, 0.7967407594819353, -0.491484145714124, 0.22026886737285212, 0.41545216844732896, 0.32529409502106793, -0.20587835315686207, -0.540173555471466, -0.8156356556963449, -0.6518825422545625, 0.03365447301452984, -0.2233495804571607, -0.44908834715060303, -0.7155438677522084, 1.0435650402720325, -0.9621204762001473, 1.3268680551886731, 0.052153832767023234, 0.23571912324570365, -0.4911748554690353, -0.3944570668324561, 0.26312028645914887, 0.2174726298819636, -0.16982136682163135, 1.0088596033834665, -0.17940491225515187, -0.8282133814495111, 0.25073713112970114, -1.9548219020360689, -0.10965923931582029, 0.5230702765968154, 0.29882156875377636, -0.686170558594986, -0.6095711315432605, 0.8697436952529296, 0.2960330408259211, -0.4824798990720155, -0.519252651839883, -0.45554842077557023], [0.15629525443216816, 0.11564047621324959, -0.3923211288480983, -0.3679560420550187, -0.3310899587651763, -0.012807697062104556, -0.03304416392444578, 0.5268650752212147, -0.48952752672783845, 0.04949423947820856, 0.10270541921514127, -0.4227018151465835, 0.0822177891585384, 1.0274784503851047, 0.28773284350501954, -0.3633477833123936, -0.02797828020083933, 0.14699030991981799, -0.08359932694149536, 0.07297839058244002, 1.625246890076148, 0.8198702177028792, 1.5266242531590202, 0.8620515292563262, -0.43822498407699034, 0.14947250079948549, 0.2376723458846894, -0.11939630697563504, -0.31203140097412174, -0.5392979955864529, -0.8580297558442641, 0.2138049924161601, -1.0542465389844045, 0.6641800903642506, 0.3245716405312913, -0.17335786231824424, 0.8005946705601921, 0.252547971459269, -0.2972554398350394, 1.9076833481350126, 0.015884847224800873, 0.06372291133433161, 0.35621728628061594, -0.2009941176653748, 0.23451446057053063, -0.32446973962895154, 0.12745318931339142, -0.03833360854612161, 2.244119405020027, 1.6697553209453373], [0.06622276463046975, -0.842891327091923, -0.17843769076232383, 0.15467918011153953, -0.028940285444612766, -0.5018992601370705, 0.13733908950551077, 0.25511219317369127, 0.19006891436928602, 0.26235532777127096, -0.22170554500731318, 0.1140992804135951, 0.5474673496970823, 1.023514975498871, -0.510997315776692, -0.35139706511984525, 0.3758803199048371, -0.08025451909090318, 0.006320863445027012, -0.4312781457695583, -1.6439146846104227, -2.2639752280239844, -1.191229149756695, 0.17130707792804856, -0.3804198813241364, 0.6017925195634956, 0.8025532090178947, -0.19256459298742795, -0.3596709153192882, 0.011740753792515728, -0.49218825691320706, -0.7645292387609104, 0.31895580654711675, -0.04045444613841878, 0.1883265080306401, -0.7271864738408549, 0.6837432425535465, 0.1885244881436397, -0.11856263523712612, -1.0362143842951135, -0.2749297479223741, 0.30954403755624676, 0.01814950458459089, -0.03917093514523419, 0.5869324684847607, 0.014356800851763944, -0.20970620925951267, -0.38078832351471253, 1.6897118696704547, -0.30969971404207075], [-0.3083703010024235, 0.08660911847554505, 0.5095663758887298, 0.04781134257645784, 0.6812039944445406, -0.3829990044867331, -0.45643794158242473, -0.30872319698452505, -0.5986809698576042, -0.21020866420661016, 0.34573781190212255, -0.8036179112089454, 0.5274460813634066, 0.287281841106072, 0.617565768142038, -0.2028058253832458, -0.2478284153677746, -0.2817567341130983, 0.508340066768296, 0.026425595010570464, -0.007026741112863323, 0.6719880417458475, 0.5833145054803072, -0.42930301238142793, -0.17232088629118392, -0.5996408447175681, -0.5829914485771222, 0.14744042740010443, -0.33593914876888264, 0.4202683311648555, -0.4226916546322454, 0.47369040245395244, 0.37960782100579704, 0.18519156799571596, 0.27162330131299234, 0.19457200128582924, -0.11658976323806514, 0.027385880759882363, 0.04791949662551861, -0.9229500019805799, -0.2888897181030146, -0.09015299924426633, 0.5823701596182395, 0.21634259326093894, 0.01978723390267881, 0.03510568532811523, 0.10165007775232031, -0.14380766404407838, 0.32408193007427644, 0.7893730443970225], [0.24662569108620766, -0.07753947439546002, 0.08184116069140437, 0.38443148933569715, 0.8540319734467924, -0.5463430611080285, -0.5741516426999331, -0.005335945360462069, -0.6313470090968163, -0.7497237672479928, 0.08546505089887851, -0.13951258648266732, 0.49863263490777393, 0.08208941497161366, 0.11154225987514348, 0.27524523838709086, 0.020614725577873756, 0.1702959675476031, 0.30182997946305107, -0.5467268329301519, 0.8054744945176406, 0.16314264165877101, 0.24582679720979222, 0.7175294890943028, -0.1914617235903735, -0.09649305079610034, -0.9062624085731632, 0.027701529386813313, -0.49016843319734416, 0.5446265487708523, 0.11738923345156634, -0.7798988449313515, 0.5293964951534117, 0.19212466885378054, -0.5976624863687686, -0.01362456253124845, -0.9243907977086185, 0.4920222839839483, 0.3350917457177897, 0.9582805121274942, -0.6445435656039397, 0.6224945610242817, 1.1461285408960638, -0.28300254364433597, -0.49116693629424135, 0.3292792805609013, 0.2658158106850275, -0.06754647664955596, 2.355195318923916, -0.4034877376049385], [0.15316045682417095, 0.06298621659954659, 0.6912835077672522, -0.8307880475221233, -0.6705710411401473, 0.5562372318590861, 0.5806446124787424, -0.5825011655745045, -0.229358299500368, -0.1648145757574893, 0.09850492136333908, 0.028754884545234123, -0.7092065392479857, 0.05109791883018559, -0.00474350382937282, -0.02231041931299386, 0.21996768841725264, 0.6527172539145633, -0.3073837289969313, 0.3870215884173097, -1.0450208845552564, -0.34573616651830164, -1.004091277808962, 0.5481031521024589, -0.010538584978595427, -0.4658477922507387, -0.17006066893283475, -0.407943895188044, -0.0424321896170802, -0.06463494499618086, -0.3352472339254124, 0.17803208985082175, 0.10139845472801662, 0.0627552182530699, -0.7827108846346204, -0.21839960168970135, -0.13319862547871092, 0.4589780972966292, 0.681192215665106, -0.8399394600091116, -0.025193573393989473, -0.7406600631446786, 0.06604857202883446, -0.6803559696644284, 0.2836638462514402, -0.04321321362698569, -0.31598858408321534, 0.046407587801180546, -1.2980723801892284, -0.16888019007730046], [-0.3146809344093101, -0.3314500281976775, -0.030289236646742924, -0.0009609941040463558, -0.03160651960257232, 0.20942288057782318, -0.14733408980645352, -0.20632938225149466, -0.14930549657897757, 0.8567177016048555, 0.09945811796064734, -0.20040169315943418, 0.08595194291448369, -0.000855328189391544, -0.037695000308243576, 0.06827221893573811, 0.4772930493012072, 0.11618085169430453, -0.1431088262618214, -0.08975177403066767, -0.7609335093492442, 0.0027095068733733116, -0.2790835232513177, 0.2550095189284056, -0.463153472606606, 0.012794638045776366, 0.0754610125029467, -0.10934875361243014, -0.093963479667573, 0.6499446130964496, -0.17753173481427928, -0.07290728346068066, 0.5393003673126753, -0.3963850770622225, -0.28896835846331503, 0.6164236428071825, -0.015610228065922558, -0.5391099358236341, -0.07991449374545416, -1.0062237219473926, 0.18761220529088307, -0.27538276840901477, 0.8579690507911056, 0.16165820561702116, -0.3546483130234688, -0.1573216593564359, 0.18800623557110505, 0.31813414933528683, 0.40390026809324997, 3.4222317249830287], [-0.3439537320562566, 0.7618108829494298, 0.4927576298604117, 0.31394365131763075, -0.18401421664892154, -0.3063649061868976, 0.02450344827627451, 0.9555584611250162, 0.3198420520876018, -0.35433395624000885, -0.3309365880520518, -0.4579440893824547, -1.0607873677984312, 0.04441798017025238, 0.2605224501210755, 0.13613860782529327, 0.33711845439614574, -0.17806793146703573, 0.053265336343184, -0.6683598669079751, -1.7803901508039497, -1.0668870448596683, -0.8196331341103977, 0.26358044212328585, -0.1096674743879913, -0.46318619132073596, -0.9615686473867646, -0.37753652775287916, 0.5982753543681527, 0.6886189924881412, -0.17399648254129016, 0.2977388926381032, -0.33523926685345984, 0.18145591095724659, -0.17812670661218521, -0.244516839788074, -0.20507823776089118, 0.6263503684225887, -0.2584794227293787, -0.9590161766214073, 0.050753192809142436, -0.3098611217970556, -0.999695294258956, 0.7548810160648568, -0.22963961253629317, -0.5710401894938094, -0.22644680511762735, 0.9341678503122238, -0.37854421263356736, 0.56037034417774], [0.03962713426939079, -0.08243269045088698, 0.032130941757089415, 0.25179101763671713, 0.002088353939723798, -0.3825682936679885, -0.15843589889034615, 0.3210519963504844, -0.23167905484508158, -0.1857116071925304, 0.2658509327013609, 0.4125471366802321, 0.10116737157233066, -0.0690849755862345, 0.07860231074976852, -0.3688677847735281, -0.3191532013102566, -0.29241578433178744, 0.1977594917773523, 0.5068461779360286, 0.6508427148781262, 0.11180111584413771, 0.019026732015447384, 0.5749710947809703, -0.3165552515260522, -0.177636713450548, -0.025321980825101117, 0.12137243237225381, 0.2748034781045697, 0.41296516622787394, 0.04571986914169842, 0.22361109464134882, -0.37986644899585115, -0.7565564044435634, 0.11171006622834903, 0.18524179543312067, 0.07031892564838146, -0.19049170995111908, -0.3730283470269112, 0.23554156448866873, -0.9356082028762385, 0.5024288777452972, -0.5237775534720875, -0.7931517211997557, 0.9928959534764609, -0.86292230710953, -0.8093138728988507, 0.5469040373713174, 1.4386726190222905, -1.4446233908939996]], [[0.9543162813258449, 0.8272502586987617, -0.6442949164510061, 0.569443320446832, 0.6581496658171431, -0.8212694519376863, 0.4081928708448239, -1.0428861337009658, 0.5406639487018681, 0.5557321395119706], [1.2126773610611266, 0.8721597397960871, -0.5228213991101939, 0.2008931995297439, 0.6674049148180772, -0.6406604360452822, 0.424915793754063, -0.681400831612334, 0.30063675939196544, 0.46178434070464397], [0.3342331781929933, 0.6137259537451981, -1.1528018911660607, 1.0181530554303841, 0.5664065773144097, -1.1994404752719305, 0.5155988809689543, -1.602973812802437, 0.36794590089295015, 1.0478058648414998], [1.0932359840803605, 0.8184440198311632, -0.5387884832112697, 0.34065037395644726, 0.6312411712337336, -0.699835362420958, 0.42218807472968783, -0.8168707620950978, 0.41055159227759797, 0.4886807317585762], [0.4111673454039572, 0.6339144821781498, -0.9862907830090736, 0.8536207921532368, 0.5192764847784483, -1.097036573641611, 0.44979600745902837, -1.4827230583348767, 0.3779565687181499, 0.8813789237330505], [1.1888498090506774, 0.8570999297866932, -0.5832277474543066, 0.36920254792115187, 0.6993116330814021, -0.7198228197822376, 0.44104174567274973, -0.8239637878558812, 0.44936069228710873, 0.5275623986615714], [0.3387683122284063, 0.6163050222977087, -1.1309621490679438, 0.9837409396023046, 0.5529623624232999, -1.1718680278324354, 0.5173630580370892, -1.5878093251752834, 0.3593261817485999, 1.018524398123261], [0.47689161541500513, 0.6703805481120645, -0.9329278876296515, 0.8208651237810772, 0.5375692309058671, -1.0595843615285279, 0.4128605217213454, -1.4285336685252683, 0.43739621298189907, 0.8168355969329888], [0.8294698686850748, 0.7951727486747474, -0.6893560100596625, 0.6362317987333319, 0.621344771782954, -0.8734612646045345, 0.3917848709367407, -1.125535809954983, 0.5402199834711434, 0.5728004408805986], [0.9701286053560932, 0.8037736306726277, -0.5771617864202855, 0.4575936688067914, 0.6224088452774355, -0.7531859159034716, 0.4139795850211493, -0.9376829495604465, 0.468713255903235, 0.50594545797524]], [[-0.4967784542894896, -0.4264609766111442, -0.7299564698713344, -0.4393697230652179, -0.6334564087122699, -0.4700326542806378, -0.7167894346764798, -0.6169499603614641, -0.5058541798756461, -0.44790034820675906], [-0.48953260651795566, -0.42489471231200654, -0.6886708383055962, -0.427916031288089, -0.603475838876097, -0.47350872762644175, -0.6705938724929137, -0.5778168623977473, -0.5096694989046525, -0.4413428306074671], [-0.47452317562254953, -0.4241907578238568, -0.6784706398681855, -0.42321022425008775, -0.596537292806997, -0.47075893347683045, -0.66336637217965, -0.5748277159544773, -0.4832945046374864, -0.44290155403320214], [-0.47772261440209907, -0.43914553016088886, -0.6612800871955372, -0.4223865775912797, -0.595394837877131, -0.4607239268272425, -0.6513615222040122, -0.562968641877989, -0.4808708453556959, -0.43863482463972014], [-0.44493087521602215, -0.4122569302500813, -0.5786737342421879, -0.401229789252213, -0.5231244851140827, -0.43495112664185615, -0.5694141393612969, -0.5138617363811037, -0.4450452874906685, -0.4057138064048106], [-0.5005947161367107, -0.4331806956420409, -0.7475544228444317, -0.43932863813593176, -0.6505040878248104, -0.4784397285715863, -0.7392242886210068, -0.6123161952982126, -0.5175861883714051, -0.45187683594116407], [-0.45351911555662555, -0.4170348487983242, -0.6185962996624937, -0.4151042419261121, -0.5525535477785057, -0.4428969764068054, -0.59812535161131, -0.5349737821281209, -0.4585551021537604, -0.42330396044958485], [-0.5051992076257369, -0.43154269911660076, -0.7452779096215668, -0.43917156747248476, -0.6397128061613192, -0.47660536368462114, -0.7254098547121551, -0.6229706624996553, -0.5051729218420976, -0.447328233089599], [-0.464890302317906, -0.41690509688084887, -0.6403799469574725, -0.41623758189943283, -0.5614689148432364, -0.4483495811385461, -0.6251639402238829, -0.5449090569502943, -0.46955842595258646, -0.432930121554695], [-0.40240920923610257, -0.37880469778153575, -0.4827418822395865, -0.3549661449812324, -0.44605345201877794, -0.37749570519121406, -0.4776918710265947, -0.43384356482725567, -0.3862945669215818, -0.3736270761883126]], [[2.2749745474019387, 2.15048831239785, 2.1015395430131862, 2.0651669442437917, 1.7611705301173235, 2.330742256754709, 1.8883702120913481, 2.3126404766267417, 1.9581451256249882, 1.3491262760090401]]], "biases": [[[2.4664975987440854], [0.2038378327066921], [4.432023716232381], [-0.4987710574188512], [0.6110393581301493], [2.347723603945555], [-0.7999578338741714], [4.840975239503828], [-0.7272572179052362], [1.4298861427618579]], [[-0.840898798455058], [-0.5300315349519048], [-1.2053794829329516], [-0.6235716526560395], [-1.1452371341617023], [-0.6506719785685886], [-1.1978280166722528], [-1.1308150803874744], [-0.9053136779464824], [-0.7510741211149616]], [[1.4558941806634973], [1.3034330304917614], [1.2507235594585928], [1.211824057957417], [0.8558821211075635], [1.5230496830041385], [1.0001919975592393], [1.4978990622810018], [1.085598799886641], [0.40618316212367556]], [[-6.406508169063668]]], "sizes": [50, 10, 10, 10, 1]}