{"weights": [[[0.4107508013513967, -0.05546799440286857, -0.3571956411693158, 0.016911739128705697, 0.76378730302127, 0.3748485588259672, -0.1715146138150887, -0.1055483524864807, -0.1519419700322469, 0.21965876622319988, -0.090248330148553, -0.6888151004735116, -0.22270939378499857, 0.6033645084952146, -0.5560620915595791, 0.2699588973745412, -0.24932980973581906, -0.09461936878790114, 0.5807420583967174, -0.7358469503436784, -1.8902761908774233, -0.12960083073031767, -1.0893715250344365, 0.7224450954201321, 0.19181756903977099, 0.022705147829224646, 0.28540024019714066, -0.04878492141534579, 0.1063601908344327, 0.0751576802698015, -0.08708342346640621, -0.49109664023446603, -0.33864023032671114, 0.2096159044317042, 0.7447044449935756, -0.37528185323191876, 0.17079610312631732, -0.78840883221353, -0.15930762304496277, -1.6427903512334439, -1.426573857963309, 0.3917919724929379, 0.0027272884223278546, 0.6781511525635152, 0.17806595841944314, 0.5665052489609337, -0.32326662888115104, -0.4270138479894785, -0.9525482161855359, -0.47903807580866237], [-0.12556406910794954, -0.3040374957618506, -0.23198410789011928, 0.27662940786411006, 0.5547181214579333, 0.04180363692181995, -0.3552562120567779, -0.19279951328210623, -0.7275848162574996, -0.7093343370042102, 0.6619357683963355, -0.48032335491661143, 0.901417241550309, 0.39293778407865904, 0.43051269902285366, -0.059972555327406606, 0.706517084125382, 0.3380108675375962, -0.3718253103085617, -0.8307992606271911, 0.0721137544193241, 0.42199391007183407, 0.11989731353662972, 0.12270320273584472, -0.968474159492124, 0.383537117023634, -0.5757088004542428, 0.9099443026631764, -1.2224974609332586, 0.2704760105857505, -0.10955468202496849, 0.11418704370750637, 0.7048239233722737, 0.23497544055764844, 0.4715355931780259, 0.5394511234788693, -0.5488530593128904, -0.7531369873998933, -0.19591226920563545, -2.088526713625463, 0.1338070390858851, 0.306187680759379, 0.4622634944433152, 0.32216654286092183, -0.5219274080927245, 0.40747074521072846, 0.22102697122888654, -0.0765244572984957, -0.02921204999610251, -0.6146070105074448], [-0.02405247658877369, 0.058887281223028325, 0.5100541615224836, -0.539818415150068, -0.13732171484206868, -0.13094979830563966, -0.11568664742605422, -0.4029662220282766, 0.14340643987505608, 0.932353006418096, 0.007706620624434257, -0.43194459627021853, 0.1281967669015521, 0.5996458033207289, 0.03137413117158679, 0.25394113397582896, -0.3185500602899187, -0.0234315989500624, 0.08587510349059906, -0.7714129381773607, -0.32974556239968256, -0.19323801808732097, 0.7374582620856696, -0.7661975395652666, 0.19096892883481345, 0.0402001304331244, 0.1579185440332293, 0.0998269200147224, 0.140440899683113, -0.7064947145566892, -0.2968105761884038, 0.3914414086635824, -0.7525571164330102, 0.5431884602026145, -0.0207535099234289, 0.40481188480043423, 0.14302308278492987, 0.5422280641843759, 0.3213408634289321, 0.29387564110635117, 0.21624138531586792, -0.42176572251536515, 0.3833085872602949, -0.39489950972261545, 0.19913934239058426, -0.5022011774197683, -0.04880168460973976, 0.3241824646900441, 2.259371491238845, 1.5222191875448332], [0.1727365629421543, 0.4832535567142689, -0.5663977319936039, 0.02260544352766809, 0.5665106136071838, 0.004946005035714705, -0.2358070248693486, -0.22609274900732054, 0.3468435213493239, 0.23478661641728651, -0.31700663302679477, -0.21127374834946425, -0.23525827382169448, 0.3204537602874863, 0.372893964797678, 0.016982469517266778, -0.07757653571033597, -0.26281451950951223, -0.5325746325051155, -0.10919025487081654, 0.15752051498694228, 1.159483644312908, 0.5366626451838279, 0.4217665137327762, -0.04084391209718459, -0.0313852243056781, -0.5056253434380135, -0.38736089159490034, -0.5575267676964945, 0.02299787907927732, 0.7147501784474584, 0.15779425369500183, -0.170305314389727, 0.14948813615593107, 0.3186114700756084, 0.37259532406056517, -0.33105264972607795, -0.4287318298189538, 0.3280530067559013, 1.3903648914910198, -0.1276829411454392, -0.28307951526857683, -0.5090534188757178, -0.03576820275855508, -0.46630678128793096, 0.7685476803222339, 0.21041980293398796, -0.4533555013309235, 0.18893965699372783, 0.45628989949242355], [-0.07959276784438829, 0.4839369207256702, -0.9322098856797316, -0.6291811140832259, 0.6355633482699443, -0.06792090944474562, 0.2231940221817462, -0.7838428343160212, 0.8206358188989639, 1.3784881736067403, -0.3238109698099928, 0.0031312733593579943, -0.878667079373267, -0.008334766092456126, 0.6091579992730967, 0.33846690154925735, -0.3468279246183857, 0.5942967855943939, -0.2493867990937897, -0.6772712942733923, 0.19369475696544103, -0.8722734855161955, -1.6454693328684629, -0.5037848032609858, -0.09220479936621995, 0.3616715486993892, -0.23844805032535676, -0.3135928153923812, -0.47993004779508847, 1.0967553506491465, 0.532319511112323, -0.792262580001686, 0.4378046495138993, -0.2580873405703548, 0.36001245485206607, -0.2795000938705617, 0.40834314740756394, -0.040443600294092205, -0.2403032235227042, 0.558750922238654, -0.12289040078952054, -0.8502519813415781, 0.7799477740514124, 0.5088636196649073, -0.1339465652993664, 0.2478539690292357, -0.3816806478159883, 0.2212668747455814, -0.8840808648917339, -0.16889737986049017], [0.23655396874086662, -0.26183948946023866, -0.1320763064541762, 0.14734397335237076, 0.1666097369339462, 0.027440794989556188, -0.10482709925312972, -0.03902306896077561, 0.10889982322999954, -0.4421884147291264, 0.2832302373247184, -0.4358539360702061, 0.5600245747256388, -0.09723378362360315, -0.23339818141808766, -0.2960620841981134, 0.22873062564031682, 0.16813104313621832, 0.16079061233111158, -0.06399474974881844, -0.0433463977183438, 0.936118355689446, -0.8666106784687467, 0.4704296624069367, 0.0791867198095875, -0.05276947011872998, -0.2578317234638632, 0.26542910099568195, -0.46002173638318966, 0.906445667733491, -0.21370310601807072, -0.049408695996193124, -0.1006405013929951, 0.11214673403354601, -0.2423025733318593, 0.20259656682106056, -0.6523813985486009, -0.25905288668206194, -0.3990907491990123, -1.0855411380707831, -0.3471090063558118, 0.2429999633191532, -0.0868040598812867, -0.056172963088667746, -0.4488594050768544, 0.05310013723844421, 0.25344676114349085, 0.1640954064530402, 2.9475223376478357, 2.2621752107878224], [-0.4883618722036738, 0.6665322120801174, -0.20368908656134246, -0.5073917341789308, -0.9094043307828346, -0.0009082347969613605, 0.6880952558822424, -0.6746562144066237, 0.2956892523469638, 0.8339561507665172, -0.2231176315798155, -0.5171895354177573, 0.12298404199655265, 0.9146425013649521, 0.29705524609413386, -0.38782467953931127, -0.19262991901571022, 0.43712765313199203, 0.07799517501534099, -0.11785560912956274, -0.24165673461856388, -0.12856116671386336, 1.2950536457027402, -0.6833031619415605, 0.2617412731011157, 0.40961072332543846, 0.20742752849799212, -0.2100485356967148, -0.07295547003262712, -0.19950843238605237, 0.02730316474505696, 0.9511007037563163, -0.43032687395050767, -0.9393540873936356, -0.022790391137232045, 0.5342103631480011, 0.08694705107197662, 0.17129079821320067, 0.5022570548247965, -1.8835565108866106, 0.11745270811293627, -0.3419743744717691, 0.03456670237417753, -0.33341462053487386, 0.7695358454962711, -0.41705980779098023, 0.4629605719288701, -0.7502494326941406, -1.3190183820981094, -0.1743490836177382], [0.09316808531182476, 0.22183479378838797, 0.0019892261109900854, 0.15528832126934203, -0.319246664102171, -0.2575932892256315, -0.312639720948727, 0.3974999117380673, -0.7422635406501007, -0.28178530028613646, -0.3751896701512499, -0.07111153510001833, 0.2693943172455154, 0.7829329730835788, -0.0980761395556935, 0.1605966465077013, 0.28873492918457067, -0.06084713962761057, 0.15613317193104972, -0.029906129762181866, 2.201057535163133, 0.6370014648388665, 1.8644515967817927, 0.6360043719902111, -0.37554731877353464, -0.27994470942458494, 0.3731997564976766, -0.08572259209656409, 0.050523041093378386, -0.7373352592929691, -0.6922786705670168, 0.15306922738256298, -0.38227541595465353, 0.19041758711902684, -0.1669438892229944, -0.5913596326355285, 0.4133210078734351, 0.33764589568235354, 0.7604353161421581, 0.8578124787158367, -0.3452011162453896, 0.23177712451001684, 0.23428357867162133, 0.06664121819409347, 0.31973716077984426, -0.1195725784396769, 0.12425780162314422, -0.30615882166018743, 4.391075073702772, -0.11819059521542118], [0.1080561146031156, -0.017037031910799645, -0.030575469075965093, -0.09354930238776496, -0.6402939258430772, 0.027445057741276525, -0.11611713702954811, 0.5032119473455684, 0.8365978240110838, -0.10922116430135864, -0.6765914107278, 0.589566522659981, 0.8154028088145655, -0.7233662650131609, -0.14691895020454168, -0.3024691733432979, 0.30658957542889986, -0.43802812846401956, -0.08496274180126444, 0.3244902555772315, -1.2638269174726793, -0.10657786669524816, -0.4228053652983796, -0.6443314264194381, -0.3319658071235058, -0.17508284031099167, -0.43894360994003057, 0.9377319742291215, -0.2915515508139591, -0.23351165535812698, -0.7888256952569378, 0.9496392387682872, 0.06596470519441523, -0.05322291718929843, -0.2833868028314443, -0.5770487172198505, 0.47573883180050586, 0.03207625931194752, 0.8051170253437435, -1.795408701387092, 0.12642916043469807, -0.9992665944055216, -0.3323512065106147, -1.0734086197380053, 0.3133118913015523, 0.2977211971148409, -0.3488326316956329, -0.29510080035476244, 0.013664441164658436, 1.1708361709878572], [0.3138424933561707, 0.4268844196142428, 0.4255761320241147, 0.2244774148851225, -0.0034532335765110425, -0.5062515904191132, -0.5369979223059385, 0.013648244213335842, 0.3889498724845231, -0.5306813260532776, 0.13559555578303856, -0.10489040932263277, -0.9183469794305208, 0.21705941576411117, 0.2382324418111045, 0.49000848549203707, 0.0945487374709276, -0.2040936924051731, -0.3641746958903715, -0.18730566460923787, -1.6603182947414101, -0.9574569152954626, -0.9490637188959009, 0.4641019568803406, -0.501087753596057, 0.0808841512017911, -0.791999140634411, -0.4035781693792679, -0.07232424325143019, 0.6219445220921683, 0.12639140310810457, 0.46713641628394664, -0.17679244995474278, 0.7778878095708989, -0.009950303976914812, -0.11065078468559414, -0.5138938625078656, -0.19473846325603383, -0.36477455902032935, -0.6817618909028005, -0.14844551022475339, -0.681892388416744, -0.029314263705251725, 0.11475014015922004, 0.520241639751794, -0.5604230084649685, -1.1139848814240028, 0.9886736841361424, -0.5935675960251331, 0.024068136568541346]], [[0.4938215481693944, 0.47201547391136756, -0.8712329071434816, -0.5334579819448251, -0.7747594923600213, -1.1195277987700294, 0.5326589043374415, -0.9021415170740275, 0.5175780846516775, 0.5620939226890606], [0.32163759887489196, 1.7158709556317924, -0.7467269696936802, -0.2908396935267635, -0.7451449158363218, -0.3992034701981116, 0.5893796038449928, -0.10357552092598575, 0.8053563523881145, -0.18720849685753588], [1.0880636176540408, 0.11134710682765911, -0.8432299755486421, -0.9871359839211683, -0.702020827246167, -1.2749662556014243, 0.9803524495700721, -1.7371709295505031, 0.7686280799472622, 1.2097555890040785], [0.2894746938761199, 0.8061369499443658, -0.8445630864259629, -0.3261415984677563, -0.8005706707557113, -0.8742847973326447, 0.40098215644338847, -0.504515853410904, 0.5385030939191928, 0.2869329940393935], [0.8683559582068489, 0.10950145600863694, -0.8304738376707411, -0.8766941327333961, -0.7522025906454626, -1.3200320655594846, 0.8210872512304742, -1.4424125180430185, 0.624985955378014, 0.9993592953456553], [0.3030311727399392, 0.8546191694585441, -0.8484071348468205, -0.32020552273596214, -0.7887493414989734, -0.8443519086776426, 0.404168470705893, -0.4964026259080367, 0.5521480749200834, 0.2926904378124136], [1.1144663616316286, 0.13394529286135295, -0.8389816804888894, -1.004293431890837, -0.6820875129288544, -1.2441853067875073, 1.0260192670140558, -1.783686309843519, 0.797725897108918, 1.2497536738595514], [0.936669836995193, 0.10323007999860222, -0.84453981497698, -0.9096478289851874, -0.7326908759227138, -1.3011715234690928, 0.8567874386276233, -1.526340764144565, 0.6720986328506313, 1.0628935405465951], [0.41014081660915375, 0.6207937569430098, -0.8757362940652894, -0.4430773733551615, -0.781096076474928, -1.0189326732231039, 0.4848199140024581, -0.7500796038636028, 0.5261832003004615, 0.4550922608455726], [0.2778074435321028, 1.0457181049471649, -0.8064345471775519, -0.2737807250243005, -0.7671052311296607, -0.6908481296638069, 0.4430431029210176, -0.3790594664638271, 0.6267170474870203, 0.22913850849704862]], [[-0.6288103122251143, -0.7112839236737153, -0.902815046718911, -0.5939638097566846, -0.7965122053642025, -0.5885298186002407, -0.919717118985665, -0.8330555069650334, -0.6102578653387597, -0.5950249806926944], [-0.5550301574508769, -0.6012886328997041, -0.7724614528880429, -0.5101080835633026, -0.6912370366014116, -0.5218559366781005, -0.7790582688593494, -0.708027796936843, -0.5505177110139567, -0.5143782090481038], [-0.5706967299159311, -0.634772679082244, -0.8180020575823045, -0.5324375429983255, -0.7289571108697586, -0.5467047217591292, -0.828634363588238, -0.7530547241942275, -0.5539226703776075, -0.5435872494740354], [-0.5473395592250413, -0.6116081466994652, -0.7597736257020604, -0.50462107242159, -0.693745346400388, -0.5109124152064539, -0.7733741841833064, -0.7024416645548837, -0.5268313644034854, -0.5126676312652642], [-0.5080789471112276, -0.5463564105601811, -0.688322414432206, -0.4659160077106453, -0.6265359515971858, -0.4735566735947566, -0.6975438105412134, -0.6510716452982923, -0.487290585696423, -0.4630166720849926], [-0.6175597300771002, -0.7055025882830873, -0.8894925764631484, -0.5829976382953264, -0.7890737764903407, -0.5847330261327917, -0.9115570849437467, -0.8037018736177425, -0.6065485591232561, -0.5863873469658564], [-0.5287450339588586, -0.5768383209274361, -0.7423603288313557, -0.4952119122853939, -0.6689401483210473, -0.4939086359823077, -0.7432198135935746, -0.6899463271081582, -0.5109196374369527, -0.495113762285767], [-0.6307921823544387, -0.7137744833557613, -0.9026169927871865, -0.5899398086884825, -0.7907993423977439, -0.5907747708376315, -0.913079874782784, -0.8269313921375003, -0.6031902125773321, -0.5904013437736295], [-0.5513811470283437, -0.598869782222483, -0.7765805350590054, -0.509450703835481, -0.6892807669836719, -0.5115333776651715, -0.7840676008979802, -0.7135363043397065, -0.5324427381340218, -0.5185565198383013], [-0.44138761118113723, -0.4558412855243795, -0.5603923155085339, -0.39040400273096076, -0.5194104093298718, -0.3947654271404687, -0.5672386682563894, -0.5298147876112888, -0.409091919210487, -0.40187706225252245]], [[2.3459587254011263, 2.019498204820354, 2.127104285679529, 1.9902655547496901, 1.7952081029512572, 2.310545004059401, 1.927062773750859, 2.3374534784782384, 2.012189524653711, 1.3979915672772936]]], "biases": [[[-2.5571392829331385], [-0.12754027897659145], [3.5335032736635137], [-1.139626978098418], [0.4794675333936125], [3.75412794317439], [0.4244856552414604], [2.92240936193605], [-1.8118226562554824], [1.281457766921669]], [[-0.13421368467897773], [0.598107169365508], [-0.2635169701880789], [0.14125410597153754], [-0.2535387624002327], [0.16697151175057848], [-0.2639276356372528], [-0.2597227074381535], [-0.017698053821521748], [0.32237875094623647]], [[1.144037121905543], [0.8912539176711772], [0.9814732525554098], [0.8730803711386022], [0.708986746929328], [1.1173027940056992], [0.8200220844998187], [1.1352131805459091], [0.8929343091969772], [0.35569659884155463]], [[-5.9424976788828365]]], "sizes": [50, 10, 10, 10, 1]}