{"weights": [[[-0.41244121249083576, 0.6081760000127628, -0.29045751879860904, -0.03547053249322044, -0.28347670349965637, 0.6378614329713964, -0.2325352739446096, -0.10255089383625281, 0.4171142014075647, -0.20202332791795258, -0.15823526091920895, -0.04271199669756447, 0.23563099721378086, -0.24814746494262974, -0.9614920658023637, -0.26903801361743473, 0.40321497014016805, 0.7354420686444046, 0.48204419754135874, 0.021338152834439853, -0.5340912900466498, 0.32910691985489293, 1.121617685536246, -0.3335058047546112, -0.6854596917580497, 0.8754306665879728, -0.9163637102660338, 0.10672932730864966, -0.5319745264670831, -0.07571563252190443, 0.18139480965888213, 0.13765162602539607, 1.5288659080886164, 0.060926616193973666, 0.9365278972840188, -0.28825249298530414, 0.44985001251404344, -0.9464412398325001, -0.23185245279499142, -2.8491108028753374, 0.3841452570300122, -0.06004648484731645, 0.49846862974604816, -0.21723798397537894, 0.24408731423838348, 0.15036607762892235, 0.19667698468545297, -0.5351598472386632, -0.5248609887497734, -0.889547820294214], [0.10299185943651759, -0.8736546024374141, 0.3616321344899829, 0.7889741071426049, 0.235274262538838, -0.041377312583040615, -0.32212094349264137, 0.2691999961612497, 0.19758667692545587, -0.13961955248291164, -0.014330373311268173, -0.00997403845521507, 0.5300521890401237, -0.701672623031638, -0.5836036584885536, 0.29512639847980554, 0.6426281534690387, -0.5305245059934911, -0.23366862054166354, -0.05498001430684088, 0.11775060623849233, -0.2287259424878991, 0.09688210248475766, -0.46685164178830607, -0.6715423615061022, 0.8705811156122022, -1.0536886924658133, 1.3129231492665534, -0.09839109213045807, -0.11146546773087923, -0.10862565140841496, -0.1655691034718912, 0.5248865000241024, -0.20308842487953085, -0.15386827095662606, 0.2821528486157609, 0.26287968810948453, -0.4549094655759999, 0.30062363864082076, -1.6386537903763758, 0.6189807851136357, -0.5080682968575292, -0.9311245685270648, 0.07320736471466599, -0.7259694256739793, 0.29001370230571005, 0.3912011813439135, 0.07944415476101879, -0.2044013547691506, -0.7352594525999543], [-0.2432664955826263, 0.3012005217472432, -0.024460753819552046, -0.5901494349515072, 0.3753402317084477, -0.2937587105604032, -0.8082374482352103, -0.263653953296644, 0.08963216923661689, 0.5914513212267867, -0.14288312701599676, -0.452875598591773, 0.054944922851582874, 0.39208317605172816, 0.529288795448828, 0.36693641708097924, 0.2504366914363554, 0.17667979757173133, 0.08642140768188193, -0.39575746211169915, -0.6236443526665302, 0.042555845725044686, 0.8012813484485468, -0.6764248137361167, -0.0808786779763603, 0.12550358246554227, 0.09735646433966101, -0.12948623121247943, 0.2772622157683886, -0.01299645727074256, -0.8566574980179598, -0.7646033165675028, -1.0952878006094415, 0.8469097842577608, 0.7066580013208367, 0.7520644849704484, 0.9440279853170794, 0.6946666054436207, -0.3418834803039668, 1.4421613875024892, 0.578624613989318, -0.8824823097124297, 0.31490297790196803, -0.14850874038337458, 0.3588462726539428, -0.3620766874703263, -0.2747288978764867, 0.22679595437261021, -2.1985408324752997, 1.6065737625442325], [0.6960745834254233, -0.7908161013366352, -0.8040543410491691, -0.052770299385020675, 0.374570279625821, -0.2117274733399957, 0.1323084027034294, -0.1083354501680664, -0.9686373715261777, 0.15454359090597894, -0.43927779728563454, -0.03343192675448381, 1.0674300423276464, -0.11566599055159825, 0.15093271756778764, 0.03751918994422069, -0.04070508952004229, 0.5217143799547198, 0.9800339517234573, -0.213473500790302, -0.2653160865428878, 0.3554400403826013, -0.02096909409484533, -0.23017266247392604, -0.02364552508749096, -0.4273609713059744, 0.19914974702277824, 0.7910590163681783, -0.2615647007762691, -0.36426526999880443, -0.04000379327079445, 0.18438295287847575, -0.42788416602913076, 0.09354323289069845, 0.27184042883534776, -0.19835498902311674, 0.2030180701355211, -0.030275728517138566, 0.146610942308959, -2.271632191423403, 1.2812640392983632, 0.3041030221256511, -0.38106626896525914, 0.19418174139349031, 0.7059573717734352, 0.8154869499368838, -0.4393251317468541, -1.0207373315155222, -0.825516157843006, -0.5500585521006018], [-0.4623595083581135, 0.6086661079088891, -0.01998011307747406, 0.02745435017976914, -0.570100822288955, 0.538270161121493, 0.26992502267468693, -0.14517367479855142, -0.02856415424311883, 0.6932824656713396, -0.05832423119336904, 0.10441584061672288, -0.46840520666025626, -0.3179021365478509, -0.0796861444875021, -0.3138651029379582, -0.2635073716930036, 0.15089613672468896, 0.24266607243473373, 0.4371740364470318, -0.4293337733298391, 0.5146343012784195, 1.0512021281264874, -0.3310392277914851, 0.7662222675257538, -0.09424794646995557, -0.0298764662814838, 0.955943260506388, 0.20776075359239438, -0.5561049604388538, -0.21918011150793473, 0.5562450906680627, -0.2731194708875282, 0.0023078229135781742, -0.5764528821027343, 0.3791495215465227, 0.09826772310020003, -0.25836931743232405, -0.2426634732558251, 0.7419005137684993, -0.002616036799775024, -0.2892526720858441, -0.5400131809042645, 0.08984914444837253, -0.6680341500924725, 0.5621606742052715, 0.8797149812269869, -0.6523647306793612, -1.0294383153313929, 0.14353479554562618], [0.16906140271572379, -0.11318023104771555, -0.09189761027882273, 0.4223252058731136, 0.10559523505621038, -0.6839651641396612, -0.17546464805960085, 0.7196045535940216, -0.47143017410839033, -0.3390396096098795, -0.04044040712533089, 0.09436786987390479, 0.3535066444202443, 0.027441479274647382, -0.16722766326509295, 0.09254203049914404, 0.19071973977463552, 0.22448989173786993, 0.021587873848050786, -0.21017888833950826, 3.4986453819127097, 0.7547168125097408, -0.1289801301299253, 0.5276564717179866, -0.45581421063467165, 0.3149659147502943, -0.5156945658759388, 0.21600255770998875, -0.6053159907804675, -0.3484551432497337, 0.15428791337562472, -0.0016797564715500253, -0.026639940140526806, -0.03586558263439887, -0.20133461223082447, -0.33250634117289035, -0.2749285129361313, 0.6963367030833826, 0.16704812642887773, 0.7866837305509722, 0.43848235204923036, 0.3040695002356829, -0.012827646994192532, 0.10757898081056344, 0.01942916882002696, 0.14368682874319674, 0.131088936204477, -0.26439275532384915, 2.2256982280963618, -0.26788729405167294], [0.09216835881784516, 1.0687610045007752, 0.6818758944740004, -0.21561272731519332, -0.47026710218284357, 0.07954591378086708, -0.020188653891426243, -0.5726865018460698, -0.10716909314830715, -0.32430878538242824, 0.5176302600037048, -0.0875587465746299, 0.011237065118576233, -0.21556482387217155, -0.06827761228461116, -0.41016924663909016, 0.5044764906691795, 0.30634263777485776, -0.2998397668670456, -0.5111651691814719, -0.9683284054676656, -0.7089055180085657, -0.5438368429625232, -0.4958401422136234, 0.3744099900486797, -0.3606646746510927, -0.46447122640596794, 0.0664194602545259, -0.2778315465781388, -0.24800995637544182, -0.03268680557338001, 0.04184837594332668, -0.1793371454921278, 0.9167616706790879, 0.010984688100275756, -0.12918544099778537, -0.4904346746436933, 0.4153340240485515, 0.6506026625444395, -1.2845684412946154, 0.14755597135440368, -0.9715136035435727, 0.7597665296059404, 0.5600191597569579, 0.48977766894300784, -0.12825337900253067, 0.20775197329889436, -0.5270843417136373, -0.8588297982260988, 0.06298216455946229], [0.0433432924295531, -0.22162462962404003, 0.27456788813186583, 0.12520577144482403, 0.10483417740200457, 0.35139862720610265, -0.14810790801596385, -0.2648383642560935, 0.11116058645245365, 0.38656144185574737, -0.14224381725047996, -0.17130088186079875, 0.26456563529251886, -0.5066494036782812, -0.2762998199450275, -0.03191114533624045, 0.20927568673790187, -0.005866322248034206, 0.12861209636079926, -0.16163875570975839, -0.044588676692848994, 0.05364772534350625, 0.702508878859012, 0.017293058634566493, -0.3403805982352774, -0.23232828927837942, -0.009510016138783972, 0.455143251303062, 0.10831577441835827, 0.8494472309571058, -0.06697259730078861, -0.16642594663961321, 0.04197660601307062, -0.009284803957999199, -0.586930956574313, 0.3768556088426354, 0.01953603404417252, -0.7949102639712419, 0.2301651215093464, -1.4302677228807046, -0.04286843203361969, 0.17533886050278827, 0.6373034869451499, 0.15925294794285358, -0.36844439916672217, 0.04826558349313937, 0.09193701018338887, 0.22261225379478608, 1.8473052726068053, 3.1413333807166195], [-0.7694489255188088, 0.42222147949305583, 0.5556309408208149, 0.02648695398188499, -0.1721939540407536, -0.025162375539577203, 0.2566595038945281, 0.7765631102762768, 0.14503784934585676, 0.30144036031102955, -0.4389549011061518, -0.3484912131964656, -1.2812359685803913, -0.02376866226825278, 0.8494011984672027, 0.36906100122354063, -0.23003910557782742, -0.10024340883391254, -0.042493347006968524, -0.3659661335549269, -2.174931856901944, -0.8725935925622821, -0.7127320269557459, -0.19876603928870645, 0.10145169482840047, -0.24051152525669803, -0.5907685050456232, -0.09202720536863182, 0.6543866467163378, 0.46656618495339397, -0.24567129707560748, 0.4130867793086917, -0.09615158664940739, -0.426317625720631, 0.05517088505757936, 0.1039268318685229, -0.06982448679439475, 0.33374945335199147, -0.28046250101317777, -1.1107205127745357, -0.3098172444753182, 0.10463262641721713, -1.073751480609518, -0.3327530241565121, 0.6022153724208476, -0.15208235903306322, -0.8745013996491945, 0.32126345491328, -0.8608422963039313, 0.719695540766102], [-0.3325356942255085, -0.35658913444863816, 0.42153576971564777, 0.17320071937951134, -0.13708006799127923, -0.6396962905409187, 0.09400565225673581, 0.33646608527842375, -0.09483508705104436, 0.07329910155034687, 0.19737145909089052, 0.6303462280713045, 0.005843970756437436, 0.02838294582562662, 0.02985031252577373, -0.2889097972604895, -0.4107473633179162, -0.10795311230955956, 0.09691380530720937, 0.43986606031252, 0.3208546519274892, 0.13085644584263323, -0.5550321773459486, 0.3042186596677207, -0.19217590526549205, 0.1984576744165675, 0.013008922023070862, 0.4413074347964519, 0.22108785973535883, 0.16107522052201606, -0.25029349340102575, 0.057114067475314084, -0.07134463730400746, -0.7443255608127513, -0.08978420688024982, 0.4518953275444278, 0.28839408912789405, -0.09129567463310052, -0.6690851979509029, 0.6188613035807203, -0.9670908239721938, 0.47642636630227, -0.40617615059946066, -0.7780722930480788, 1.1802033875693922, -1.0462151791104963, -0.8143349322053062, 0.5393915034980532, 1.0559713936771993, -1.1908887534181418]], [[0.8193561030636375, 0.7362369888978102, -0.7450306425329202, 0.5827821688225373, -0.5213218447742776, -0.8310745484430369, 0.438184289281763, -1.1458086582174134, 0.46455487811346624, 0.5016209256254481], [0.9663071462440305, 0.6692887885393142, -0.5672455825214929, 0.5085733363485382, -0.2833766441099407, -0.6774504482676358, 0.37380191297392884, -0.9459776051941816, 0.37941755574336816, 0.4668422776353489], [0.6327880989508791, 0.8617012096296243, -0.9505194851985506, 0.7015627016348436, -0.8105813430801966, -1.054712322895591, 0.614625515540612, -1.3744511095777217, 0.5762433744154956, 0.6373963426373066], [0.8796272322268268, 0.6792501116735824, -0.6643784420642548, 0.5508395069950277, -0.4178074805415207, -0.7658555637729572, 0.40082618553812416, -1.0483483925524573, 0.4219938409561679, 0.46859755544444026], [0.6126522678454375, 0.798317885761987, -0.8930975425173686, 0.6306412177884598, -0.7140127701442889, -0.9798524658278174, 0.587194310771215, -1.3312310434694228, 0.49128701765041494, 0.6001519461202557], [0.9620379134922679, 0.704766249989209, -0.6456472843954171, 0.5743386670079832, -0.3978771339985997, -0.7491177687184165, 0.3899138395529948, -1.0204047903361841, 0.45617344915123115, 0.4821938824463925], [0.5938637119205249, 0.8521241747389694, -0.9485051322509439, 0.6712130752083372, -0.7984248583872022, -1.0342868640094813, 0.6317583815272549, -1.384150620743383, 0.5390945633745765, 0.640382108629564], [0.6451602442034101, 0.8068030219159071, -0.8907128292507743, 0.6343334195172221, -0.6956927315038058, -0.9637336770823616, 0.5551411459858562, -1.3081636371156669, 0.5101578656521538, 0.5819609855770895], [0.778836422914004, 0.7387980130900604, -0.7686625689957725, 0.5857004466610206, -0.5373038029926445, -0.851333207467596, 0.4545415791416824, -1.1602834639043385, 0.45961418808773424, 0.4973500741011786], [0.7673755763055528, 0.711509250568809, -0.7431583947541861, 0.5688721402022614, -0.497877212979532, -0.8246499520181714, 0.44503785349902936, -1.135904771049549, 0.4377400225274426, 0.48614282771057327]], [[-0.5349958130382524, -0.449672981543831, -0.6796742380854724, -0.49559402003692465, -0.6252152267355772, -0.4941206469674925, -0.6759039537967286, -0.626964975675943, -0.5393128433118844, -0.518979611078505], [-0.5194595282822505, -0.4370563779790434, -0.6402458045764078, -0.47148959633284204, -0.5935874179326044, -0.4884604313485108, -0.6308619087442375, -0.5839083127644036, -0.5361286574628426, -0.4997812965936023], [-0.5086704682349188, -0.4380830625641642, -0.6412214426937572, -0.46965704237145073, -0.5950096405741669, -0.4888156384034341, -0.6343736413545725, -0.5890824814630432, -0.5144205173828422, -0.5049038005228179], [-0.5109434125548742, -0.45094879467805565, -0.6264190007404553, -0.46604431238675603, -0.5949186003012428, -0.47754792148550135, -0.6244336648141836, -0.5774799360821922, -0.5114311631504974, -0.4977585168609531], [-0.47441029950394575, -0.4187573009094721, -0.5603459229335902, -0.4353355069998138, -0.5302611258068928, -0.44841655192519975, -0.5571694320647449, -0.5325019635120474, -0.47313730582830354, -0.45405676063452627], [-0.5379250891624772, -0.45859118737991145, -0.6892785314378009, -0.4972602954079947, -0.6368949399232823, -0.5030314596996547, -0.6908792521154891, -0.6176822819777178, -0.549681017557964, -0.5241249309898413], [-0.48671051767063733, -0.42662063271225786, -0.5978301308328706, -0.4549869185197243, -0.5602373499884161, -0.459196499864155, -0.5841527408734978, -0.5556945274523551, -0.4899967401877655, -0.4785080444034586], [-0.5427964579868593, -0.45604691022560384, -0.6895936802023885, -0.4962398580437814, -0.6278507812213928, -0.5009554835336417, -0.6795190540029223, -0.6297437086916957, -0.5377387516486266, -0.5187937429572687], [-0.49795002940043714, -0.42715760422456794, -0.6136050521639042, -0.457377192440655, -0.5656922389715184, -0.46469578611817647, -0.605623586482648, -0.5628524894128818, -0.5004432516180176, -0.48944920220336857], [-0.4363171636706871, -0.3922803127475871, -0.48964107296827797, -0.38892499125921237, -0.468134620129393, -0.3983108676275407, -0.4886306245579918, -0.4636722474418004, -0.4194037760911183, -0.4187362467803641]], [[2.142059862553602, 2.0101869893892546, 1.9994139133768287, 1.9681625820392588, 1.710767357690772, 2.1744389497762855, 1.834658707901114, 2.1635215538948334, 1.885188905668965, 1.4033570581237667]]], "biases": [[[2.560047144496388], [-0.9303652561367262], [2.357572787661682], [1.6881035017313581], [-2.8546788438872293], [3.076275802489411], [0.362415020432484], [5.572384428357197], [-1.8694554944060826], [0.919048818193489]], [[-0.5762551872982181], [-0.4188824311567758], [-0.722649863231571], [-0.49162480757196575], [-0.7147984397838331], [-0.4614121735859201], [-0.7428006166240804], [-0.703232870066319], [-0.5914643762759932], [-0.5948888449882642]], [[1.1880162786317043], [1.0497847881582911], [1.0433242226524964], [1.0158415977463477], [0.7434753363925859], [1.2217675850695557], [0.8712959788684622], [1.2070800023287367], [0.9276767596386194], [0.42534068269223907]], [[-6.492857013706114]]], "sizes": [50, 10, 10, 10, 1]}