{"weights": [[[-0.7410963978648208, 0.20779932559177655, -0.08901873671721651, 0.0544263181002389, -0.0055465397254758075, -0.12233400702884441, -0.10764278846473947, 0.02494044566614598, 0.5880421350304702, 0.5184872754091587, 0.36858847672328643, -0.6323680554457592, 0.028028631765580188, 0.4482428442495669, 0.026441469255458736, -0.2686429921973875, -0.32576687973600355, -0.23732754534951164, 0.3575256209868986, -0.10627737662361796, -1.4638311686790486, -0.692906993534409, -0.6021226260548311, 0.44087472709649966, 0.384089845279586, 0.30556030382601856, -0.12255456463086925, -0.43883964755571747, 0.6798237634844823, 0.5785202677780624, -0.053347031486147736, 1.0116410799729034, -0.0843096232390464, -0.43086267277117857, 0.23740049884100586, -1.3775793127302352, 0.643528602123197, -0.6063433055936183, -1.0282298928472993, -1.7524939789458822, -0.10822129763673335, 0.11549206771177196, -0.16655490584370375, 1.0003488570069146, 0.38758435811707886, -0.31901003729397387, -0.019636487133834424, -0.050915367363412935, -1.0681000384889325, 0.25269183121193495], [0.056098758459403146, 0.03885712977430797, 0.4186060135147318, -0.17974381128714492, 0.028961284198049587, 0.2235772532806647, -0.3100264003017783, -0.40248728712848375, -0.23267319662560024, -1.0027726827514247, -0.15324651601371042, -0.8146150668718528, 0.5266241596462996, 0.289889185003733, -0.08241191525968643, 0.4879235304850002, -0.05084737996403458, 0.8996528393059048, 0.3461136748634691, -0.36471122305797327, -0.014538944451259809, 0.7688703826559204, -0.40555444326478235, -0.3555768499249264, -0.028500185349911517, -0.2414658525258381, -0.651628879609589, 1.165404844432327, -0.2797639581710424, -0.18817606386617713, -0.31793074917043096, -0.10546493224549841, 0.32839520989138754, -0.1711557656414665, 0.5431328478038765, 0.6382784919290351, -0.384511487609808, -0.04363786746413107, -0.0755169035457768, -3.1424909549091673, 0.023171742923544843, 0.342793154152237, 0.6014504300959961, -0.49380964973501695, -0.17744864668565025, 0.45037883408507146, 0.05374566276535915, -0.30038338313640045, -1.1162733455551028, -0.3859919345677047], [-0.09905711697617417, -0.027443971702214826, 0.17806183851236443, -0.31232787396692185, -0.007850576203741563, 0.04850398522453381, -0.41336163181871977, -0.16199259036678598, 0.2833499469337844, 0.4392489126965017, -0.01408376756974257, -0.6476369530765803, 0.07453724197156074, 0.4135675529708734, 0.05957997028549228, 0.1645518007235881, -0.4374402688111246, 0.0990220118551912, 0.3421075745961686, -0.07973467620691842, -0.40363724317011185, 0.7993210639191806, 0.5322711769258034, 0.15500866250383635, 0.15592164026314834, -0.2519423062852379, -0.009647382035366081, -0.015522921506812924, 0.4278857699048209, -0.16526673203327533, -0.5825858217434381, 0.09755102163082796, -0.6237353160864938, 0.02234103906161921, -0.22469578014867997, 0.3425045316156681, 0.5208694179039416, 0.27459759861625105, -0.019487363862900817, 0.5158755263770713, -0.04808946869668877, -0.22178864999789005, 0.629149390275185, -0.381507061304307, 0.21877795649857082, -0.7772826057453128, 0.16487440520435204, 0.3721576805052596, 1.8161022934209754, 2.7892417212741187], [-0.6660149669483316, -0.22934033894900502, 0.10894748449510235, 0.04070479000103119, 0.42659806478291057, -0.04444246409809524, 0.438431331614862, -0.37745968788351114, 0.4464085200369349, 0.17593471052108214, -0.2783109528379742, -0.7892098425906344, -0.39631499297631306, 0.17560614087615167, 0.6816613462638502, 0.007414416973258442, 0.1632397411939572, 0.9644234606622036, -0.6427952826662499, -0.23440159264141758, -0.5347518516927738, 0.022730342746679896, -0.852815869607096, -0.3926058612237964, 0.4120618445553378, -0.5817211234529293, -0.27527194832068275, 0.11373926009607276, -0.34412691324664785, 0.36410663399634785, 0.044376463389646154, -0.2671746755254472, 0.30541084222244896, -0.2455527043298742, 0.365808738955364, 0.2443247962811056, 0.22100921540956212, -0.005341256647364566, 0.03977062632331478, -0.47322718677595166, 0.07658812190721855, -0.3695876333028244, 0.15016567052793905, -0.12790429834141276, -0.7444233307108706, 0.5744942179634509, 0.03950161745994457, 0.15051457229152865, 1.1714025645103947, 0.3183515284164043], [-0.14650175162002704, 0.2045801023009654, -0.09950603937755793, 0.2160429523623956, -0.012644032739502578, 0.10808115543032863, 0.071183636986191, -0.44089010982275956, -0.06410024947099141, 0.47872668680016905, -0.27438103614891807, 0.07748013144645445, -0.5084613509622911, 0.13349109003845616, 0.1568948125068684, -0.2305823844103983, 0.09476615332320994, 0.22459466174627982, -0.23922554990675046, 0.41330210262443123, 0.9865566064927458, 1.104284379866184, 1.0569253074771714, 0.3401778546275131, -0.16809069896864037, 0.06951646700509245, -0.4656294583954322, 0.5912366497655922, 0.5482883764539465, 0.011430382665211469, 0.43194854032740604, 0.595091480854783, -0.08530898637355981, -0.14083421571015195, -0.18881010332691642, 0.40815342945581323, -0.37969651382395553, -0.5039956137973984, -0.956013597463263, 1.1211936439039087, -0.049188726183807735, -0.11799646690797135, -1.4229750576749245, 0.3264157157420019, -0.6392750225536955, 0.48529362337732496, -0.41163874224951413, 0.5104182732926346, 0.7592484464446259, -0.21788573972659822], [0.021015906555033333, 0.7199040621355832, -0.17878129007213503, 0.03732868221345482, 0.4792681484855396, -0.022910389997803902, -0.20197442515855155, -0.0694252656784408, -0.27013144874856726, -0.08191491477851011, -0.04006676318597698, -0.2730977138258986, -0.3559973175390152, -0.4871088692188216, 0.1888723423329874, 0.2216017992456734, 0.13078608579141957, 0.13173592554408178, 0.350188639124464, -0.25749307437045205, -0.1512916098013562, 0.07812287549379833, -1.754961191361346, 0.9983697156159494, -0.38535039053811987, -0.5019375143581611, -0.2438269528316011, -0.36242942514171506, -0.24664581673461264, 1.1896936612532023, 0.2592270262563433, -0.563317270153169, 0.8631938325197969, -0.6933038509448878, -1.051654287460388, -0.15675164552844492, -0.8520992879966942, 0.47511565446607945, -0.04822180818791657, 0.26098947632475417, -0.6179550327230623, 0.3405002747784932, 0.8629213423846158, -0.147375546787093, -0.3685948884541488, 0.2772912909083564, 0.1315588010065268, -0.020902599826081465, 1.240600905620565, 0.9310296013072294], [-0.5655379456767796, -0.020772708658380414, -0.3792165511981215, -0.27269721556371074, -0.4067238065938899, 0.774910925253842, -0.1946963125608701, -0.2883823132205181, 0.11929725956455212, 0.7325769239341122, 0.17082501190444196, -0.4796115749979189, -0.5126689589692943, 0.21198221246870225, 0.6980298217003774, -0.01754048595462812, -0.35444012034762773, 0.14710478436150248, 0.4582666090551295, 0.3458820421860171, -1.0639969367979156, -0.6741754327209966, -1.094356734087686, -0.2406588156948973, -0.49140787854644447, -0.4998843917515477, 1.0630191663772188, -0.44371806724571167, 0.30500211085509665, -0.6622150443548384, -0.296529421372573, 0.4203602586406499, 0.28206608942414174, 0.0009876735868957582, 0.29659551255792904, 0.783026603008707, 0.426970453265822, -0.5113958756008713, 0.27147228538226525, -0.6650100324149261, 0.5615941192791741, -0.27030795263460905, 0.14156670543185287, -0.6714167518514423, 0.24865780993936554, 0.3720515679157818, -0.47681040528666824, -0.17204244898991816, -1.247857540889844, -0.15226086750074866], [0.3739310513950243, -0.1094687365493672, -0.41234256830028615, -0.18476749885442567, -0.6282599605759405, -0.21213924592564523, -0.4390642759859925, -0.1384532266107961, -1.033843621661549, 0.22684194499973293, 0.39932408501069916, -0.2345924915306935, 0.10303414860762873, 1.1679590808291187, 0.32503731391606394, 0.8572210942127318, 0.12834902528914727, -0.2772661943418321, -0.2059118445438495, 0.1956140324804123, 1.2147858336540878, -0.1287967344731318, 1.7516357535437501, 0.590319615391872, 0.05919391935471831, 0.08387348677288213, 0.9655577223564016, -0.17620169672877156, -0.09026145627379827, -0.8470395717519287, 0.04483155103967072, 0.15298465341792516, -0.3706952821499287, -0.07066401377618588, 0.40613863498758507, -0.3329463887206434, -0.7385146252030209, 0.49631407390571003, -0.24296527653250796, 1.1005982388768207, -0.37110892400776907, 0.29383162655945, 0.8775156364896547, -0.12902514496408155, 0.6715742155971994, -0.28037180044373206, -0.56834957942834, 0.10902608863423931, 2.7291964160518183, 0.7796299005282473], [0.21323253901646605, 0.31771994401715825, 0.42623418757006404, -0.33645499429927994, -0.9251537256042166, 0.33816697665051965, 0.48311733929044776, -0.7976798133236501, 0.3137383389185961, 0.30718131202537624, -0.4451987428035762, 0.3683788750567096, -0.984658863677272, -0.3109361485245315, 0.042337020890191104, 0.731857325663586, 0.5993365412836208, 0.16515204661523458, -0.35070388704214467, -0.23411719534949943, -0.9704889959607477, -0.806782721131357, -0.9099470420508994, 0.048003341014766075, -0.04909484032032471, -0.28489923179849813, -0.8085277025086869, 1.0929695484525945, 0.4501631043674366, -0.1607717977560543, -0.5066946055448152, 0.8343168496280721, -0.1691944605254978, -0.14645674394282698, -0.9124061772111347, -0.05899336821389838, -0.11042853852675566, 0.6475716322132623, -0.5508234568509867, -0.5928159840254433, -0.21617793557677428, -0.23327623176090861, -0.6103588342737426, -0.4446310157078675, -0.027718833009066635, -0.37781480280252416, -0.4586401427390716, 0.767091359664713, -1.1134717428479435, 0.699515511457348], [0.3411355627301117, -0.3282269419818787, 0.13086646993032716, 0.43826909631942945, 0.5233946651576828, -0.2664870421916086, -0.04823436268543216, 0.03305956384244151, -0.36686884161943756, -0.4338785978840408, 0.013394750877214777, 0.2188968976687168, 0.05074762486384886, 0.13955328516277493, -0.05513434674140468, -0.20560647417773859, 0.032722496853477445, -0.20303970443413907, -0.43058734814609906, 0.3165890584997306, 0.05588472909479781, -0.17058959093546586, -0.0006295135074072339, 0.08866413938098903, 0.10403295088315817, 0.524165865022849, 0.017464701382894424, -0.16982315062683118, -0.13899669178073454, 0.4454379231323832, -0.08720361412130744, -0.5297097126734298, 0.5133548367150016, -0.18926714211766252, -0.14638480825483574, 0.3595986419142486, -0.1058275374129367, -0.22523131215031725, -0.33921705263880897, -0.346587647056061, -1.422534651644599, -0.42958545689404787, -0.23443900147453572, -0.4399245026875529, 1.0463331660103126, -0.7973221370861833, -1.1261996112592174, 0.7101782941526953, 0.1956829929044769, 0.19045625620616902]], [[0.7000904735949341, 0.7625538037781422, -1.100266269192016, -0.7351098977264431, -0.7367886561773703, -0.8812710561150925, 0.6189591925646785, -0.8464555507859348, 0.5986985247996358, 0.7643442235620662], [0.3118291750600346, 2.205457291902278, -0.5112203831526841, 0.027562843930658266, -0.10508309500243763, -0.5328575814323533, 0.5050983210493151, 0.022212286306805544, 0.3583922276822379, -0.1980675548170915], [1.22284688819499, 0.26037714511509064, -1.475149283640833, -0.9480835662176906, -1.0271183808020363, -0.9443489011209061, 1.239281299635813, -1.253468053016512, 0.8305232676051293, 1.2424005803709401], [0.5167977627632422, 1.0431441768394556, -0.8696699954913356, -0.5916334678440698, -0.5861372652719692, -0.8057917968188644, 0.4298285806069551, -0.6132197748852767, 0.5381946321526063, 0.5365395373588945], [0.9517845958960656, 0.35000233702371336, -1.3800167806609922, -0.8677036108244126, -0.8896803027828069, -0.9598223076433319, 0.9578064750093135, -1.1023698489547373, 0.6921234468600161, 1.0540169478431727], [0.5828548036555705, 1.0416736392823978, -0.9125995714774672, -0.6295980041024808, -0.6350902841324618, -0.818943656728793, 0.47766636490049297, -0.6581114825231079, 0.579378149791377, 0.6075578642157323], [1.2165543953885052, 0.23151123817568803, -1.4853164131537295, -0.9583670488820475, -1.0245601468976582, -0.9421920802344143, 1.258184232038955, -1.2528580027999818, 0.8225416276029305, 1.2483668858391093], [1.0720285529608833, 0.27771030744099506, -1.4522142014083563, -0.9071457165799206, -0.9442066791366271, -0.9502299431989333, 1.074832825094969, -1.1805386783109089, 0.7592121534822787, 1.1397041739693878], [0.6160865112493367, 1.0883070281156768, -0.9083690783790884, -0.6417518532674132, -0.6611105683749496, -0.8159837497920901, 0.5118945271922289, -0.6653555268617279, 0.6148081259573609, 0.6302694315905195], [0.49778679099253437, 1.2966742895891785, -0.7458789410071192, -0.5184879304440865, -0.540108757878452, -0.7395538537478422, 0.40340219435459423, -0.490449690885076, 0.5810200454310583, 0.4621060423072256]], [[-0.5910695719997614, -0.6679201094255439, -0.875298075152378, -0.5077830791200598, -0.7473492142785879, -0.527153882241232, -0.8809457907273521, -0.8155964927741929, -0.5461466572627499, -0.5025589438064711], [-0.5109237240351151, -0.579497995819721, -0.7410378845242438, -0.4283274799187762, -0.639352701761768, -0.4603375772377954, -0.7404501196243459, -0.6837054648603419, -0.4828888404688264, -0.42993766313024456], [-0.5292916528014108, -0.608426169217593, -0.7894315721554785, -0.44921198933495643, -0.67869057886397, -0.4860200785406064, -0.7913098160200192, -0.7325649708201438, -0.48732286120549273, -0.4566498564496263], [-0.5101208253536431, -0.5985137752344275, -0.7394380628504846, -0.4290369730822046, -0.6511286777583577, -0.45576538657142057, -0.7459880557874407, -0.6880394204147388, -0.4657880602209959, -0.43464736618273253], [-0.4732077341897487, -0.5464236354894513, -0.6732150323676681, -0.3974086077117461, -0.5890898883497581, -0.42346340955267736, -0.6771555046183115, -0.6400962608639634, -0.4300769430734164, -0.3935141060033705], [-0.5762988269994763, -0.6616904096212469, -0.8577564587046967, -0.4946560602736845, -0.7364319229484042, -0.52058571319104, -0.8690267778579469, -0.781901480048667, -0.5391749421960494, -0.4920715778241122], [-0.48651707103165936, -0.5631258308530366, -0.7146650068924544, -0.4169172951804264, -0.6201973664293247, -0.43556065707095953, -0.7087838642124057, -0.6686307857535565, -0.44525247997264433, -0.41493321149718393], [-0.5991038677705754, -0.6772296383626144, -0.8843038339330556, -0.5094793650765626, -0.7493535274833397, -0.5350443141019574, -0.8835804456271029, -0.8175228997492769, -0.5452675141315134, -0.5038895773925713], [-0.5065309507117238, -0.5768557749912229, -0.7439771736689829, -0.426845480784161, -0.6361889201669103, -0.4495231711915512, -0.7441090683894573, -0.6883464953766185, -0.4636858870708439, -0.4333444104084733], [-0.41455590720803603, -0.4729722823532767, -0.5544899513430758, -0.3389948497315169, -0.49383668636171585, -0.35686992359809233, -0.5588398191156637, -0.5252348696766607, -0.3640967250326986, -0.351270165083104]], [[2.039156287545448, 1.7420003138854236, 1.8438483640295964, 1.7432080558944507, 1.5841776015915523, 1.9987335542478435, 1.6692605682930641, 2.052724102180891, 1.7323399330801619, 1.256576852511799]]], "biases": [[[-2.4087422158000344], [-0.03426428913413998], [3.3549898939827822], [1.415674321705342], [-0.7633684379209124], [2.732812422140003], [-3.1669918096829783], [0.47848941842563775], [-1.8179583332975102], [1.2496615180550845]], [[-0.4101962231829863], [0.289037218202862], [-0.4396734650623754], [-0.2824534946829503], [-0.4503284532489171], [-0.2945774181635686], [-0.4412677788998398], [-0.4486000039631177], [-0.2661546648840838], [-0.17386727226004658]], [[1.1958181549755948], [0.878632125156502], [0.9924943245414389], [0.8871972729643983], [0.7125073849338912], [1.153868294387219], [0.8040567637009641], [1.207055754433764], [0.8764887177397329], [0.35256188989390747]], [[-5.8240439710581295]]], "sizes": [50, 10, 10, 10, 1]}