{"weights": [[[-0.696231211681877, -0.4254515307109998, 0.12853921255885487, -0.11071188532987611, -0.2979108308177321, 0.4507260495144516, 0.6842205554924148, 0.9017026012745861, 0.23287874082738372, -1.1530553161678105, 0.12982033230696882, 0.5527325615411774, -0.6722167741038494, 0.07216884242015074, -0.39989743083665447, -0.06629182797818747, -0.22654252188153814, 0.03992724792189196, 0.1929734460885158, 0.6173692064846736, 0.04905252067580804, -0.013108901368002468, -0.05101895545524967, 0.6050007904765151, -0.12253521024251536, -0.5757499501938592, 0.43886786230235536, -0.2878401466539353, -0.5853402733356232, 0.4570914705514467, 0.03805790481443885, 0.6607910102893746, 0.788003671653097, 0.13397987922587143, -0.9983182373079176, -1.2475357626108514, -0.14413971701629696, -0.719012302647097, 0.6604218592666591, 0.026391437987680746, -0.5278290428552517, 0.4590566616251169, 0.1623821831693964, 0.037992554546595746, 0.5353567561440788, 0.42476871234766306, 0.2263861448609606, -1.108843699465628, -0.9111098446594738, -1.83075485160163], [0.5532169526077715, -0.7282085349249342, 0.21132920438738662, 0.49955240579942767, 0.08941552856556721, -0.2884046981782073, 0.16842457360500984, -0.48202000104206444, -0.1389730907205367, 0.17644271511990048, -0.3084833079450667, -0.17660720363729476, 0.5411102672568753, -0.16963255749914505, 0.3678136421190469, 0.0710513037561106, 0.14510528708355366, -0.8922516151592295, 0.2111443186174316, -0.09334472833160158, -0.28817450203109646, 0.39263875577470486, -1.8482503380597175, -0.9083899165891921, 0.24870247179155916, 0.5124072230380724, -0.4341282047993303, 0.7658782678745744, 0.3923890700670846, -0.3220637989384756, -0.8618833211497623, 0.42048210582727197, -0.289617407921258, 0.5189501212358463, -0.37487830994392257, 0.734447381765003, 0.3803764770782481, 0.6683610374346991, -1.093573343942474, -2.3446921180236626, 0.6648528281721463, 0.4223324769039051, -0.17848812710535425, -0.4606868165247371, 0.13433532419510522, 0.4635540530220741, 0.0449095749663051, -0.608326451924024, -0.7327689367948695, -0.19528237595010173], [0.665184091897745, -0.10403795953523345, 0.3319342695061219, 0.346796197999531, 0.0014974518653892719, -0.9398775462177491, -0.025226810523041678, -0.07751381683899453, 0.04981868440686059, -0.04093600026297812, -0.7411741681887225, 0.23802900913240757, -0.2963649251723215, 0.6005852966603878, -0.09642222203424267, 0.36034974122791924, 0.27780203698484474, -0.7624515066947538, -0.49535774822482087, 0.3512533044063632, 0.7027796835710755, -0.28050683076412397, -0.042454119638758774, 0.06545445745440318, 0.4309320439830036, -0.3381856045600963, -0.5688200602897926, -1.0434224057995898, 0.2977645762958613, -0.3620960136800618, -0.14478349254352166, 0.37698946946116885, -0.5205281425698819, 0.3377529962448653, -0.4028996709627322, 0.07757537954449846, 0.49619152024778285, 0.9921720021133201, 0.3298722614290523, 1.1853440538179276, -0.28401484111676484, 0.4415934159812619, -0.43799545927737077, 0.5537444927607611, 0.3177817388671178, -0.3302464266837378, -0.30107170567984914, 0.26386169060371006, 2.6671300789480408, 0.553481648818197], [0.4416166176903022, 0.5945808862052302, -0.6634368703980863, 0.24243223443025255, 0.4843431503339482, -0.14634403190516812, -0.3517764183522037, -0.20565906056505698, -0.019808705251720918, 0.47004072903559224, -0.22654743884703646, -0.0004159681975521668, -0.46419804836623163, 0.3744328758391245, 0.2254021171219545, -0.44798070303519366, 0.0556263988329954, -0.3200274093319856, -0.15713878747279625, 0.06933368923025321, 0.7673217355098654, 1.2161730652311367, 0.43029033727984783, 0.09949948961394524, -0.5121756085182513, 0.7879174022303994, -0.30856011080842205, 0.21377539269639445, 0.6101244290914674, 0.006853331728280976, 0.34666705763162664, 0.4453877828669045, -0.3389560408082313, -0.05369658086266158, 0.07268074079670885, 0.5706606622567058, -0.31645414216155776, -0.5203598533115598, -0.6126178211744071, 1.5727022772798223, -0.24575304652063884, 0.04907192530845055, -0.5224743449867034, -0.6473325108553821, -0.12793136391380494, 0.7941551296202873, -0.621815916117512, -0.0787560399825547, 1.061459133782991, 0.3863598721040184], [0.0795035579436546, 1.253382083495782, 0.06032816671944302, -0.3899370665717432, -0.27398255516650427, 0.5256456103945508, 0.13098639324109335, -0.16817502215204294, -0.580200861786129, -0.34151837898757703, 0.7357832893254366, 0.32377692000160296, -0.4789597793293623, -0.8504001528128589, -0.7449246988640833, 0.2145297110495124, -0.41599908847314526, 0.29561254792492564, 0.8927145181220436, -0.0638697592379593, 1.1465037393862059, 1.275829663391312, 0.20584284538464045, -0.8299647826151667, 0.20634672216109534, -0.9100116697726784, -0.42940559357658914, 0.23599467694744752, 0.48205494125244586, 0.06904573813436087, 0.1617865190620393, 0.24318017003711148, 0.21988377693925362, -0.5115378701583435, 0.28263492932926587, 0.5060988564518968, -0.4138677859465434, 0.08899134341391546, 0.694536428268142, -0.7705202465102019, -0.3269460723292461, -0.026030967678620592, -0.0931521502872648, -0.6328341104126824, -0.4701404235446692, -0.2629163757934081, 0.4831651772712481, 0.27726407126211455, 0.11703626765343116, -0.41239843650806635], [0.056832235198038525, -0.25799359573431785, 0.022817147806330144, 0.14522142042724065, -0.1935748404056918, -0.058463702290682096, 0.004258383012463346, 0.0349851190181061, 0.1838472025249139, 0.06046835806305052, 0.03996400537038691, -0.04318954942968234, 0.18812559369695064, -0.08183802502370219, -0.03437778372655391, -0.12206935540648584, 0.09009124730536268, 0.09386207984142426, -0.07971880852306087, -0.0038760995231934916, 0.6962560494328607, 0.8889091835294044, 0.8441595052700808, -0.13767095792423506, -0.09261133500483243, 0.18633668534904826, -0.23126510093235786, 0.2856698891408615, -0.40460438723180087, -0.1396017986896079, 0.0021880582733359733, 0.44210982707353813, 0.10464411525718034, -0.03546769945829996, 0.017518770019402063, -0.14425009879037673, -0.1604614370202635, 0.013956837415029698, 0.08855142408004375, -0.3872943599811142, -0.16728833562388828, 0.010181772549140574, 0.33682280443477025, 0.12784765809769677, -0.1666687161825788, 0.017433064975233132, 0.28754471186639485, -0.10775832582034733, 3.1644157115089926, 1.7270454552350074], [-0.2835210072031018, -0.7184274091865668, 0.2874785886563839, -0.08579274412756398, -0.6242710483388068, 0.05175497307435422, 0.7106204750419769, 0.16553247212290062, 0.25551871628850364, 0.557426210557149, 0.3204320960533452, 0.19477872179912478, 0.017511015771009292, 0.033526512660757395, 0.016990946394019317, -0.44689332370626517, 0.03236352351190723, -0.06306895253565672, -0.6904843495536886, 0.4289682274264209, -0.469091564118294, 0.23890266061939344, 0.25220188839163793, -0.19327626199740766, -0.721107784492149, -0.1285250105894621, 0.1540119535068837, 0.7368867603675522, 0.22231596843065352, -1.4334128094111045, -0.44668542608768375, 0.902584854010622, -0.1590164363432352, -0.3726073493324422, 0.49687663999549747, -0.08483097638429962, 0.6486128052320997, -0.0048133519987557764, 0.622922981349333, -0.6023474622650631, 0.1029506778135138, -0.4584427806727782, -0.400522448718417, 0.23873519307965232, 0.38449861497103155, -0.3546446529759976, 0.043857861788350765, -0.06939552288406045, -0.6312899764932324, 0.008484702107042172], [-0.4802905576458719, -0.7005842769091761, -0.7099422254204453, -0.45622787496230666, -0.13909040731768257, 0.5297478216938296, 0.13148215570335892, 0.12750894669097532, -0.3789417521481133, 0.48259170676870883, 0.11498338797880196, -1.0409670505594393, 0.7113932359256684, 0.028765005600595587, 0.7335148680284781, 0.7525352192461875, 0.47001426185736983, 0.27756482676955047, 0.08405054533244773, -0.3267400981131255, 0.6001506896811046, 0.0683817267276885, 0.21692042160993624, 0.937296996689773, 0.03493258990587335, -0.49543064096084516, 1.1619178523843485, 0.47952320626652734, 0.6350055708300212, -0.23677945790839083, -0.3129548256286692, -1.1746262740721178, -0.45726817143290605, 0.07527532852844172, -0.07064026183407467, 0.0039162408893305195, -0.33797779608454387, -0.04135741719874037, -0.24455753888717627, 2.706204243149864, -0.054728270462958035, -0.46742345575430333, 1.113456104759484, -0.4178593478682366, 0.13633316788260005, -0.34454638346823113, -0.05427394837678204, 0.24026476994997426, 1.4997070141884885, -0.05946185281250963], [0.17146104953119287, 0.9617607685707851, -0.19388378836179443, 0.17439035363290262, -0.600480235440123, 0.03973393375543663, -0.4198977071503209, -0.369961316742337, 0.35125265706475534, -0.4931343931940056, -0.20055886762513586, -0.18422561240730342, 0.47511284878097104, -0.6343361429314034, -0.3800202874860122, 0.3455001454959394, 0.6402444102237222, 0.32578161084042073, 0.5252091136464939, -0.4241643297652356, -0.03656449151291638, 0.19549222844170072, 0.3961699420393926, -0.5589226275992832, 0.05992779459244036, 0.3739324533394251, -0.8996855772025162, 0.16401994978403847, 0.6277948064617024, 0.6673432094938633, 0.04507995139929758, 0.17600309632806563, -0.022003359966442475, -0.19524235741024515, 0.5461733492158151, 0.3780790781101453, 0.07389535445114338, -0.4936336009190941, -0.4709468193880689, -3.384867315306624, 0.0028243440621580178, -0.2173731814015364, 0.09092091317478845, -0.052948568851888644, 0.01548373259241747, 0.18580754801415858, -0.21635461246699988, -0.014271657306790432, -1.591418455439146, -0.2767018147498952], [0.13315870751300377, 0.2829873945216888, 0.028998984604587948, 0.13814706332706125, 0.0032627662736085562, 0.2552845423267491, -0.3202042529918675, -0.14343828749321663, 0.02017355839968148, -0.18205812994119364, 0.13737006126936488, 0.15345955932684546, -0.5461529753960269, 0.09837684784569914, 0.03724321223793127, -0.058575924701304016, -0.14901717229549108, -0.030134735882771498, -0.0894578108710851, 0.15437497954631257, -0.44754910015966776, -0.589953905739827, -0.21941300170407999, -0.31742178913497165, 0.006704908325601345, 0.23737317195324603, 0.17135336895872447, 0.0007182839487530633, 0.4477096704374262, 0.801012247114661, -0.15426932130793694, 0.4610360780437872, 0.14947819866615664, 0.0017065662383861542, 0.01782376953811677, -0.2577079430691438, -0.3441607779412144, -1.0013369588964705, -0.060781321775529744, -0.4037751436378833, -1.994363113159354, -0.21944295299040678, 0.11883161524068811, -0.2585051804170906, 0.6775397135005371, -0.8564390838251266, -1.2317007725769558, 1.2185272779925869, 0.3847459000899246, 0.061109138048557464]], [[-0.7297754660213016, -0.7715694187468147, 0.6626308356359344, 0.7266085762075035, 0.7389981279651336, 1.2870387328718422, -0.9157292995064507, 0.6096949807667253, -0.8925360736286587, -0.7530322912111997], [-0.7439703170994403, -0.7904055523012378, 0.6977480974871223, 0.7080006225216171, 0.6695577148843478, 1.2442052727014639, -0.9267726271627312, 0.6023502495696756, -0.9671000298506698, -0.7295459105873693], [-0.6526703075962017, -0.5965146736202291, 0.5090235281197855, 0.5613513037875919, 0.5334371882781322, 1.0411417924414355, -0.6748208135007638, 0.5288812893223397, -0.6812836965979671, -0.5751081622926973], [-0.6867575408061891, -0.6965334063864318, 0.6010319544003137, 0.5938850459677145, 0.5319791702329346, 1.0965000298632102, -0.7680612170491976, 0.5346562919780343, -0.8163568633144401, -0.6086429865663089], [-0.7058648121671884, -0.7165245875730409, 0.6202468314977447, 0.6278959078983167, 0.5891241222950829, 1.1432031622291996, -0.8013886031693186, 0.5513658360021375, -0.8358521781095142, -0.6438438033957457], [-0.726875085653171, -0.7872746272422114, 0.690291337207428, 0.6831278480154658, 0.6338397053671985, 1.2227618511791547, -0.9225090807543511, 0.5899915967616555, -0.9584768603425077, -0.6994218263527626], [-0.6560140807058493, -0.6021114231903631, 0.5160388693216114, 0.5583822957649406, 0.5332171013473778, 1.052610606006571, -0.6683688427942376, 0.5288167976731039, -0.6847140850683449, -0.5751445454174582], [-0.637332951725241, -0.5626805408177761, 0.4714339927455489, 0.524795576162196, 0.4996840880905281, 0.9991010712529085, -0.632500852089971, 0.5050248417233834, -0.6297186101627097, -0.5284218515309392], [-0.7363742226974681, -0.7617081794462995, 0.6512099910359944, 0.7713592754348724, 0.8292994275002972, 1.3405986930756502, -0.9206595930624271, 0.6429104230399986, -0.8597203136977515, -0.8078038996746841], [-0.7535982556677773, -0.7988250106270156, 0.6765988810497439, 0.8018139393951225, 0.8742030850357029, 1.38210687606027, -0.9440032195908339, 0.6463599383445107, -0.8659447747181471, -0.8413286559471181]], [[-0.4553403538350163, -0.447548506737603, -0.3714345421224461, -0.39845218444925135, -0.41380606387786306, -0.4413481498674063, -0.3780183214210087, -0.3573331211539668, -0.46532663974979654, -0.47769288629055295], [-0.7343114750210903, -0.731404401697359, -0.4888705519583491, -0.5865486573618887, -0.6149805856895836, -0.7255967974135862, -0.4895920954275007, -0.43483552339267234, -0.777104081181116, -0.7970095349857902], [-0.4590065659414245, -0.45875738341413497, -0.37526134983012105, -0.3976922226173801, -0.42234598349036995, -0.46282428662466196, -0.3768595126218871, -0.35401680756305554, -0.4714041225547746, -0.4945902181761871], [-0.6149729282478846, -0.6274138772790938, -0.42800739885780603, -0.4982628811495464, -0.5370847785286487, -0.6030435246619295, -0.43589865020151114, -0.39332095581309356, -0.6363070883319998, -0.6649581126079852], [-0.5654306681275518, -0.5650463217066005, -0.40379862042351616, -0.4647602477219897, -0.48816692745278184, -0.5542719775708574, -0.40836107133034544, -0.3862177622873318, -0.5816110480523397, -0.599269230090478], [-0.5158978031858004, -0.5187604910773022, -0.39774686707128937, -0.4398312679745449, -0.4642739368163727, -0.508961963166374, -0.41129837674521813, -0.36053727978667205, -0.5387474339258271, -0.5515850818478125], [-0.48573295502730807, -0.48512372466298687, -0.3815170722124223, -0.41866601452725977, -0.438975344591184, -0.47761216103675236, -0.3764715807145358, -0.362517272519245, -0.5002034433520637, -0.518406992210702], [-0.5180573782622704, -0.512199760674518, -0.4016207676140028, -0.4374624805058364, -0.4557003747808564, -0.5049625241424948, -0.4013913209168125, -0.37364784747522084, -0.5253576613792319, -0.5447970958310397], [-0.5258772214462182, -0.5183891818172502, -0.39834747093278045, -0.4404059667923844, -0.4593339435323815, -0.5119555076180959, -0.3995254656016641, -0.36881089851340293, -0.5419491820993461, -0.5650317124632566], [-0.64200476141199, -0.6441501992726538, -0.43290500661257036, -0.5055689013952211, -0.5376049133509354, -0.6126648592003711, -0.44002363248722265, -0.4004239583273298, -0.6481360648705187, -0.6868138354224702]], [[-1.3232711870933929, -2.3988431951762395, -1.365456000657932, -2.019905719510479, -1.8125923477821235, -1.638868661725608, -1.4787207199891237, -1.6209938410095956, -1.650727923726443, -2.06571106034838]]], "biases": [[[-3.6883934922520427], [-0.6959726721537605], [0.7625512741079032], [-1.1202792781095405], [-0.14032267655256897], [4.917674907595091], [-2.7137940330832047], [0.5323454145051427], [0.6174761307332585], [1.2105793476822149]], [[-0.8799852001051979], [-0.9154260892092642], [-0.7291278232796472], [-0.8447348614828166], [-0.8535995056355359], [-0.9301147477083964], [-0.7382155302734851], [-0.6952825237540253], [-0.8491873119077888], [-0.8544075075897479]], [[0.46708556204510854], [2.090871980690788], [0.523597392512372], [1.4931917774619496], [1.1653153118381228], [0.8994498266095906], [0.6697408954158148], [0.869612064928624], [0.9191192683807528], [1.5722521013605881]], [[5.788666303615162]]], "sizes": [50, 10, 10, 10, 1]}