{"weights": [[[0.23967232460832125, 0.11709873815882405, -0.2877850946031817, -0.3516563823219177, -0.177941981191879, 0.8601346904793706, -0.444226080057299, 0.2809760283497433, -0.19104227432604565, -0.5619892858154155, 0.12446601785349626, -0.526938203541529, -0.2452380651108171, -0.13651331447149373, -0.5996867489018713, -0.11094545782107933, 0.009893700013412839, 1.037661012301957, 1.3295458247173957, -0.11954118184702917, 0.3484995877833505, -0.5896948845638672, 0.4286583942840483, 0.09219355151275373, -0.47049422120525963, -0.15193416707037338, -0.4709434864433776, 0.05324624768915486, -0.6995526298286419, -0.08146418586075806, -0.0493194518665111, -0.04103271017796415, 0.5422090099271695, 0.5725487819471499, 0.7117143475967855, -0.3472870234245646, 0.5424809760895722, -0.6906460643875484, 0.32559654902084934, -2.533139920253312, 0.3392709658618071, 0.001236166374533713, 1.4238038555578327, -0.39041752525969675, 0.3315999053904871, 0.18703028170849592, 0.3054521957877745, -0.7487742451141356, -0.9320218958226627, -0.7703524045854754], [0.08151161197001057, 0.030514766030179868, 0.7784642626451029, 0.38176190954955713, -0.08415416282962103, -0.1268720492128121, -0.40497069403794206, -0.06228033126124684, 0.7225360403843256, -0.12527712345656783, -0.3564345122370194, -0.08133657957266328, 0.3268922155927799, 0.12288275010483407, -0.0690457093241477, -0.6070419654804129, -0.2167268357291322, -0.12392787297079333, -0.0726389100373087, -0.4002870218246186, -0.15759921448069042, 0.3730440265349705, -0.6210207390410031, -1.3036204861591003, 0.8731790707450509, 0.6756271669822105, -1.4232535923349383, 1.3620382938450444, -0.07093306612642097, 0.0404192036477108, -0.9116896588087593, 0.8223314187936175, -0.019154769668874513, 0.03845163183105839, 0.024652128797600367, 0.27411093707029127, 0.7286507975894976, -0.5698287871831562, -0.001522502807836916, -1.6719391168265845, -0.16106427975785667, -0.05667911872605012, -0.3437909215613302, 0.4364935186459791, -0.2485205009269291, 0.147996395051623, 0.047875396357989916, 0.056716777871499195, -0.824137112012477, -0.6568356791496052], [0.059615988795555644, 0.12182525426290247, 0.20341989627819562, -0.16806566539480056, -0.07596357264977618, -0.0688708050053463, -0.23968623612193243, -0.3512892620655248, 0.056428284876154824, 1.1320100835159417, -0.14933253555344578, -0.5432683275687944, -0.47546280026826926, 0.7745149403284535, 0.21071578014638367, 0.4109413469781296, -0.3298120983078657, 0.07907717651529848, 0.1403380146475042, -0.9069460909422599, -0.18576194104753402, -0.2520406449194563, 0.2621801920088434, -0.9557808218356162, 0.4266834881379168, 0.17630749659500364, 0.241869320557699, -0.21499243842382215, 0.1483649420227866, -0.4639234096113423, -0.3973170562044433, 0.24018472135884944, -0.43741293715695007, 0.6455358898968238, 0.28128577565422574, 0.2204782918073455, 0.3505023850490147, 0.37775098329387635, -0.03201042292518384, 0.707039966763115, 0.4358082521778663, -0.6235245467320122, 0.7226660691347846, -0.22252838285628151, 0.33725345365788534, -0.642927148124973, -0.19530428834531563, 0.43795322902497813, -1.61540904181806, 1.6777399478660253], [0.043180411818452516, 0.10259378669149985, 0.004077670016773443, -0.23107650719366463, 0.16780059523066823, 0.061711955754335114, -0.2381544744778068, -0.21892255950872044, 0.026031111679879506, 0.08427612176318384, -0.07146566306192746, -0.7253309937184913, -0.8044461291055599, 0.8788676720694254, 0.4787844871541285, -0.1521347569448794, 0.2851689527980611, 0.754340909380333, -0.4438035890158805, -0.12341787418628296, -0.7677052174931362, -0.27860563939032074, -0.21853888460292414, 0.30005928284882344, 0.8275249470637032, 0.01600022657040812, -0.020529885185391977, -0.2984743594237668, -0.7008614051169657, 0.6010093995093636, 0.05545672438102939, -0.8992684874225981, -0.006604684233725336, -0.1023020280656192, -0.26214677295267474, 0.028268318731632668, 0.6604718394612648, -0.4693320669410098, 0.4525873663266881, 0.25058230862583153, -0.7908949019679632, -0.3107169833655117, 0.7551586528477817, -0.3273682935408433, -0.30994396074435443, 0.3362920716049657, -0.2944792799361365, 0.25282277225184446, -1.300459687452059, -1.2029257031531393], [-0.28092172134116733, 1.6650914278627542, -0.00873479150233591, 0.01651491571517221, -0.22589315715444105, 0.4293457873174881, -0.20740113648494954, 0.03392795917021781, -0.21235079512141813, -0.2816298862130299, 0.20321511123025796, -0.06425042261782574, -0.5984210396100891, -0.5479972372520661, -0.08899968164150587, -0.2555217926597062, -0.2968831520428647, 0.19836953560890022, 0.2824579636107083, 0.41584611550056266, 0.8352418069225845, 0.648313426747034, 0.3249350386322091, 0.16830549668865594, 0.05154992207455306, -0.5940481667699654, -0.8855262893338836, -0.14164152018313309, 0.5462626109940674, 0.20565825733436266, 0.7020333241099405, 0.4371014685205442, 0.1277500717016731, -0.2397376271617484, -0.07114062766469358, 0.41689927247760156, -0.9031891334790793, -0.19947614723169757, 0.26506966368459206, 0.618068668195052, -0.3670208675261885, -0.5944210994726161, 0.7242174656579331, 0.3017630325285388, -0.4585418227736101, -0.4051245815399711, 0.992665972062141, -0.06074515108660802, -0.0700721938200826, 0.529716814481271], [0.25413467469056855, -0.1707030653194667, 0.04672141162068514, 0.3382452424473369, 0.13624055769013552, -0.33501993224348375, -0.07592170157670784, -0.13748985930579571, 0.30863654932379736, 0.048270644348680544, 0.17598814820213704, -0.37229626993245807, 0.3248922034257903, -0.02414905489138398, -0.18718340967943828, -0.09266743517525063, -0.1305945398146275, -0.01893988536574181, -0.12785414603927397, -0.05522023691566215, 1.1528244249750166, 0.7135071157590693, 0.29875235256295474, -0.024146344578067813, 0.2684809348070914, 0.11894567956028736, -0.43042187725985204, 0.17842503439794413, -0.05629921381359323, 0.5798120824288252, -0.25434043690430647, 0.03773910801924345, -0.12958060107571762, -0.07092896965826338, -0.34720772958816876, 0.0745455061038147, -0.16218697821093275, 0.17973502405611713, -0.23681216216022366, -0.7483237685216645, -0.1415708347440383, 0.11043261895643182, 0.31661587554262005, 0.2959729359537584, -0.17906930814649072, -0.028742105321788558, 0.16575580285978012, 0.05036702117730418, 2.569652428504375, 1.9986869534086384], [-0.5663241161359827, 0.971818402494608, -0.21303977351530426, -0.63460383767197, -0.49815527071851173, -0.14321753024119638, 0.8633445522362903, -0.5495330866137308, 0.2575859455708641, 0.302102257617071, 0.43960551119345553, -0.2928327697230298, -0.19819851971927094, 0.3733183384772677, 0.5331771254184299, 0.07798779090849998, -0.19856957978951473, 0.35652734379091106, -0.29215289923344145, -0.621857314246855, -0.036664386082935055, 0.15769826261281417, 0.6429703600150358, -0.6025037579542897, 0.4419071320693584, 0.22903722205932267, 0.20902315724723788, -0.4036549844106646, 0.31616807837492256, -0.06255965956471748, -0.033411700972854924, 0.31849122989584777, -0.3437787104074296, -0.41863891370701173, 0.43901605013374567, 0.09697816006293128, -0.2608733860732447, -0.09295641505201122, 0.7747885973286555, -2.113898847839651, -0.018133814225741125, -0.48308745807751785, 0.5948395889924856, -0.1156332737281182, 0.11674154560861545, -0.04269985205236709, 0.37614663433344336, -0.3962526472613837, -0.8705347745205794, 0.04703043571300834], [-0.15177865899180504, 0.37496096382481875, -0.08817710587429224, -0.5077499758811196, -0.5542268131336716, 0.4117910806269562, 0.18967858900216406, 0.14706406492686055, -0.42362013793619624, 0.07625204119742078, -0.4552412815813533, 0.22859201399139306, -0.24278921270103623, 0.21941520138249815, 0.2735223904695873, 0.2412544565873162, -0.0721802410761053, 0.13241103216252284, 0.25276924826659747, 0.016715427510740774, 1.4389132080301796, 0.3456172074352795, 2.985992549714611, 0.5611828326766378, -0.5228971793618118, -0.47449564023983737, 0.6516158008066341, 0.0026952387583364474, 0.2328211162792811, -0.3706044437075155, -0.4502071664751189, 0.25455884767379394, -0.7687405982012891, 0.12013302480954458, -0.055387620203023895, -0.3081702751145382, 0.5196242146787293, -0.01374460010358556, 0.40875364695607275, 1.7016233391664861, 0.5246864557540131, 0.34872305172167334, 1.2482405859233383, -0.043780250127328786, -0.02478672319465949, 0.14158715208569111, -0.12592594227241077, 0.001225460210275565, 1.9409544398330307, 0.012255971328138066], [-0.1593640369963875, 0.05031091852685655, 0.7029917851617532, 0.018375907982385538, -0.746590531973905, 0.8173829028418971, 0.16331010057202505, -0.27824362667063735, 0.14171937178318558, 0.3737460007858355, -0.8539385459515821, -0.16873043690271117, -1.2200424726841956, 0.0036274894183366702, 0.5117910575479422, 0.6226087194310763, 0.07379639074239137, -0.340210658618136, -0.3361371063244642, 0.3776319251731723, -0.6743945389054118, -0.36728011745820616, 0.055918095719753036, -0.1065218959793843, -0.07933793030554442, -0.2569320146778513, -0.4222577881659921, 0.05316592627295711, 0.6771954655788173, -0.14359195336988287, -0.21721640548249543, 0.7013911543099163, 0.2748795810572308, 0.2524471475108333, 0.1043631257267688, -0.16650643956728, 0.27036743260428403, -0.4205327536754039, -0.35121961029980486, -1.0654426413998501, -0.26617625130968414, -0.43598625882566333, 0.0801196423198494, -0.4547628139645846, 0.18506057930329936, -0.1650576318785931, -0.5315390386157168, 0.42800028019152353, -1.842880901822083, -0.27769459885640685], [-0.2427346237587543, 0.5727771675288037, 0.23233102546378703, 0.523805038629182, -0.3516778821325385, -0.35315453877445824, 0.17251133490805676, -0.1273915022732094, 0.16109960808184223, 0.07025268038404157, 0.24733024672036188, 0.0557578145129817, -0.12834865105240062, 0.40282856476467205, -0.4680385504511083, -0.20649229334358385, -0.33427913378970603, -0.0072582808417359455, -0.048457115861173655, -0.18232857531307975, -0.509503263296499, -0.5468469037928761, -1.0414656284870638, -0.09312283367113769, -0.43799339879137594, 0.2711073296098292, 0.26665432757522184, -0.21427654316631745, 0.3828662329396063, 0.7734605299331726, -0.33055247075278726, 0.11233671893202017, 0.17949427282858768, -0.7697449115747218, -0.1724414304558072, -0.18324938030394763, 0.21928816407158994, -0.2068983469465183, 0.09560188975506521, -0.35652171567819346, -0.07373807193464478, -0.3625603719651958, 0.5696653108863147, -0.0994550881812002, 1.034957677061748, -0.7824147186586327, -1.3144622679469697, 0.8722986371375256, 1.0265170389275091, 0.1413692390841481]], [[0.4456812179398438, 0.6376731558066029, -0.8063904074409106, -0.8275003398561847, -0.6584791454010085, -0.9947300267516594, 0.3932641044047604, -0.9122773550422779, 0.42842856508913796, 0.6435585605857257], [1.5007925002649212, 1.1418458130537048, -0.8591148534074081, -0.3785694380725989, -0.2813103793273999, -0.6953563883386903, 0.49843957377054554, -0.5838821234409258, 0.7757432934882516, 0.10373776162875237], [-0.01736625511892245, 0.20347064681009575, -0.7716377108545953, -0.6870626697592022, -1.0286829781563587, -1.4589764811092423, 0.9642697097122376, -1.3138010631451602, 0.765388595821308, 1.2974310995454323], [1.2892730039053957, 0.99861797400513, -0.8363118174988453, -0.5016575286505248, -0.3399459809016667, -0.6101181916665491, 0.3617725009978781, -0.6412353533988124, 0.6901614969619004, 0.16517676283199215], [0.0608083324643981, 0.284915877263486, -0.776650489183779, -0.6954461080203422, -0.9376284525094717, -1.364268931415675, 0.833422021245827, -1.2075707359833714, 0.675415963582043, 1.1258395037902076], [1.3767940063719757, 1.048234287829749, -0.8510293601021444, -0.488187498459946, -0.34068181571859096, -0.639533277742151, 0.4018688429484556, -0.6375429994899736, 0.7490901608264084, 0.17383418181187096], [-0.019147658365114534, 0.20479121821031998, -0.766751292904595, -0.6921900070975513, -1.0343437160100242, -1.4505592514395695, 0.9742224451215327, -1.3189934477287728, 0.7679427213276102, 1.3045951284444435], [0.019926659128859086, 0.2602207398844684, -0.7859897613118066, -0.6973045460902066, -0.9706692985999354, -1.4007672608250625, 0.880751388606984, -1.255387694049771, 0.7101416183547969, 1.1992855212418414], [0.9143696428925077, 0.8880792442345529, -0.870642892610396, -0.7565188732469821, -0.43816421626553914, -0.6760378840520941, 0.20933104220892407, -0.7682380142608398, 0.4701698435205254, 0.29832831511983754], [0.6770843603070379, 0.7717314596326973, -0.8470038639475865, -0.7805672003722923, -0.49052552745295247, -0.7876785397779258, 0.24064058935761887, -0.7856602720963032, 0.3968435938310149, 0.3940102078630489]], [[-0.5792307151542541, -0.5956129962270088, -0.8266567587856217, -0.5511031060090611, -0.7445922448961609, -0.5693355236220161, -0.8312614956862017, -0.785255537329936, -0.5345404609178321, -0.5222992786874144], [-0.5357984860554363, -0.5397754456716138, -0.7306632767929948, -0.4982288092282999, -0.6651487977620681, -0.5302937639366194, -0.727519195467547, -0.6868204311387509, -0.5109242568732809, -0.4870731252078213], [-0.546856346986641, -0.5654778212969144, -0.7782071542041229, -0.5167572153834395, -0.7051297960810363, -0.5522798710991965, -0.7774021510359684, -0.7341816140545124, -0.5065555226231251, -0.5069413069981422], [-0.5424172907229445, -0.5669065337764583, -0.7477282093629601, -0.5040129766498244, -0.6935002435645512, -0.5330987265979148, -0.752303295687792, -0.7092772472197735, -0.5012643448830075, -0.4941700642035085], [-0.5194784040249143, -0.5270233424060775, -0.6992544589057227, -0.47983606122061706, -0.6434667786095564, -0.5073560462140485, -0.7007354715969144, -0.675699666877089, -0.4785058102654393, -0.46716468969968483], [-0.5704843443417269, -0.5959374566737481, -0.815890943717249, -0.5448794457368699, -0.7399575114255075, -0.569408759514697, -0.826857652503387, -0.7590722181846363, -0.534919394090437, -0.5175519174973333], [-0.5275799792256559, -0.540328465641661, -0.7336837971121317, -0.4983391819486903, -0.6700686807669197, -0.5188930452534105, -0.7259263760596553, -0.6977589426541488, -0.4894179578685618, -0.48433088062905605], [-0.5872346235799628, -0.6052893383677089, -0.8402345194548116, -0.5550449127172468, -0.7505671435542194, -0.5805127511797095, -0.8375492023882403, -0.7910798970229399, -0.5347648119014307, -0.5233488833556831], [-0.5299756741680072, -0.5337549503902501, -0.732585066132283, -0.4932546370675667, -0.6616331916721894, -0.5153435184364621, -0.7308997477696922, -0.6906103539353171, -0.4901639689058613, -0.48682415079352415], [-0.4932985019687632, -0.49310028146578716, -0.6360002831100218, -0.43671987086972397, -0.5892793977850047, -0.4592824858377318, -0.6397382530383982, -0.6103481652024255, -0.4405149483140378, -0.44708632732208076]], [[2.4073541861093024, 2.1198290551164582, 2.253331186187216, 2.1890955568765555, 2.0312555127501284, 2.3756829869400127, 2.1181972734330174, 2.435613419763162, 2.1092080174624654, 1.8128958328726703]]], "biases": [[[1.6907710253599317], [0.8620364183727214], [2.0736320281532685], [0.3691791168309734], [-1.2542305626195311], [4.312797454737939], [0.7108153613422652], [4.557206620437476], [-0.5854415473119436], [1.909692139262399]], [[-0.36098342155085833], [0.24284236864035433], [-0.31389356817702757], [0.16714851505458042], [-0.3761811145990971], [0.2099015079224202], [-0.31543047590312046], [-0.35352592687130024], [-0.0622024818813195], [-0.22337872252915303]], [[1.2197031501038222], [0.9861048078056587], [1.099314001074686], [1.0408392979133774], [0.9099777078620783], [1.1934996624154914], [0.9859358201566246], [1.2389207855782605], [0.9796058367436818], [0.7227192022553235]], [[-6.27011270720862]]], "sizes": [50, 10, 10, 10, 1]}