{"weights": [[[0.4714980686578084, -0.16477865253394755, -0.7187372914867743, 0.0891005502084073, -0.30595354879713116, 0.8568872775975723, -0.0944754253695558, -0.22930632340913956, 0.647822642713972, -0.33213838610712193, 0.02201305713206184, 0.3273944710970974, -0.20707725897624113, -0.7050065652229598, -0.75925014099729, 0.5675452739167431, 0.564342934226861, 0.3129658266451159, 0.2996509493378729, -0.5524107965324402, -0.66949528018894, -1.0735238732557206, -0.15447263324881433, -0.004024540459420078, -0.29687419887691996, 0.3490824956925392, 0.5241180332890654, 0.2878935447176269, 0.028831916979120853, 0.3006673846846419, 0.1319899414795278, 0.28653963193845133, 0.07293486385332988, -0.17628489083773727, 0.29516655347008136, -0.6781321312277001, -0.11048248312189995, -0.8669384972277284, -0.05510214798706232, -0.8284665945206777, -1.145459556737093, 0.39976047806020426, -0.2653410049836139, 0.38579667329853656, 0.5987364341724878, 0.42311351159120003, -0.3408422437360146, -0.7063624045711642, -1.4912329090654066, 0.4727192033743518], [0.45394439444232315, 0.1182054621801486, 1.0366716473377555, 0.4691798147986513, 0.41869231776414917, -0.4932614943734991, 0.10473775138661076, -0.027874919223397323, -0.4298169533522116, -0.43389686460234134, -0.4124975432912189, 0.14014782316101296, 0.7920678932073549, -0.6185363595919502, -1.255099451347286, -0.41405207593194576, 0.415048969586603, -0.06695883695481927, 0.28988509100391563, -0.09846178414490556, -0.08607888748422612, -0.47849537859465746, -0.20148704286320282, 0.17155889505577157, 0.38646153994612364, 0.04282398897265216, -0.6258435284572925, -0.16017489112978098, -0.5586921223209769, -0.4062349221456154, 1.0323892844766778, 0.2274347415078569, -0.32977434792486243, 0.4554258930374016, 0.12814804671959779, -1.259908383267176, 0.731648018944413, 0.05438357958391955, 0.12380776985700062, -1.3073407796286547, -0.08740465467897249, 0.14932399364246546, 0.5978085581137913, -0.21667927024093045, 0.09254654522636453, 0.08856033403752914, 0.2273202668087601, -0.3763128029826539, -1.594148824720012, 0.04431764060223737], [0.13073771353311262, -0.12227181754331529, 0.028551183811932387, 0.027320580728650883, -0.10676603663967028, -0.01560982972888027, -0.2550312535004647, 0.10783947500248484, 0.16100127330215352, -0.07668848815207564, 0.03265951651011512, -0.08763352816359755, 0.2770146582328001, -0.18333652554309615, 0.03516921985051233, -0.01194341743885993, 0.055370847225059354, -0.10886974309258363, 0.12089938913439842, 0.017110940374464166, 0.2393229823468602, 0.5058143597296572, 0.17708004152848036, -0.23362455856704104, 0.11690157424965898, 0.01739280096204665, -0.2819799143664973, 0.3918874870264469, -0.3043729160805366, -0.12209513555151827, 0.022248821716322007, 0.13388759350445376, 0.1822596611851096, 0.18722396476972722, 0.04005792112578402, -0.06902809704185567, -0.39821801026953235, 0.0650805239169103, 0.03859575906927241, -0.7345077679676488, 0.16756863610211783, -0.15992988544769743, -0.10128915930087687, 0.057844719757976636, -0.07947210726762148, -0.17162640941678942, 0.07488637128615278, 0.178950634758927, 4.820627356934399, 1.7958453374552152], [0.2574847817255704, -1.2527318758723973, -0.03149272327355399, 0.4940998417501441, 0.03937113387736225, 0.2642897056659682, 0.1870802310572062, 0.23555419178406115, 0.40553469006936615, 0.9839734550816198, -0.23656148697683968, 0.04576721003909107, 0.14164420709307418, -0.6055340495670823, -0.1993420778634777, -0.1294712059748477, 0.2962989724756502, -0.40459720221726353, -0.14840793851681994, -0.13940149192204054, 0.1251461748477884, -0.6841635616477386, -0.10819248872932524, -0.07968115501020157, 0.2976683037819657, -0.016455242193091565, 0.9120857612827138, 0.3871032876881766, -0.06295775598049073, -0.21770574580748467, 0.40210711560659, -0.21015040647790784, -1.099918194265104, -0.36558259316542785, 0.06854634680407555, -0.5055708958302597, 0.316346186313831, 0.8580364423389856, -0.5686503616171341, 1.8438807208214472, -0.9967060564353584, -0.2637405612525013, -0.16289404402709032, -0.19658372635121932, -0.5671911987850398, 0.15316822219318108, 0.2633484159532924, 0.18849387867783662, 1.858131735415291, 1.2244938435023893], [0.3627065768957316, 0.03512926769609368, 0.22372205330683426, -0.0920836139137128, -0.10852456895394373, 0.0801842421091798, 0.3582200618803466, -0.11189936908073224, 0.27940847335727415, 0.9742760169237007, 0.8871566950718995, -0.19038750855053532, -0.6728376783858745, -0.9836368930116832, -0.16454285679490888, -0.17313581413943954, 0.3719740381000727, -0.7791467638328182, 0.5501421476114582, -0.7420387294281783, 0.2201429493688433, -0.007529094570226384, 0.7926071109549584, -0.2842733159007418, -0.2956157313234724, -0.16821719053586331, 0.3932299865050019, -0.49395986003621084, 0.13318195798472937, -0.12745945735061393, -0.19576844904687735, -0.4860576812411533, 0.29763784668474175, 0.010553215142855801, 0.10787524495812056, 0.4579651337040323, -0.25938040950730695, 0.9254524479252958, -0.10143061941175377, 0.53315282245588, -0.42910388176288544, -0.9713678177084082, -0.8401430507881972, -0.9988482385068632, -0.010353475077046738, -0.3234488544575811, -0.1559911432356954, 0.45902126942006344, 1.4248090448170319, 0.3687355789997452], [-0.16479322231796154, 0.1758398440244542, -0.08773874745501196, 0.2930813244849568, 0.690423688414433, 0.4043178939268915, -0.0894178915010619, -0.1407524000834371, -0.20164456237126951, 0.12619361460022088, -0.12570073266335607, -0.3373095681481437, -0.3442252163848176, 0.2932835923334243, -0.560156780274553, 0.5604229231806418, -0.15761362918647784, 0.47977855109547574, -0.6120666865580833, -0.34202512773875643, 0.07083030725876165, 0.2941554522667092, -1.5673993277481038, 0.5150705058159484, 0.5359425383215567, 0.3672699713819924, 0.27926251973627675, -1.2162959610935977, 0.09636811863171874, 1.0069717835144383, 0.9342349816325913, -1.0027890357032585, 0.4516893028614863, -0.5737318037248336, -0.46682567809810466, -0.27954262886157427, -0.11734180089914545, -0.03862947426592458, -0.29360881457917815, 0.8917783038673727, -0.1055953308149714, 0.5922899360330908, 0.8834030792693829, -0.24824808226279457, -0.7330987513298196, 0.5842742308623965, -0.2998575579546468, 0.40326945798462005, 0.3853714639028772, 0.01321178922551637], [-0.47299773056393746, -0.4019646059062014, 0.028784679372849876, -0.5705952075459944, 0.10589661397430504, 0.49190822995496325, -0.06571496601423697, -0.01834179452374122, 0.8895912282856957, 0.9730384879002146, 0.33358682606628715, -0.175505325645049, -0.7241295591722795, -0.5420017850736835, 0.16075447748610436, 0.32871612207388107, 0.044673120968013666, -0.27212079359002367, -0.15622748375068157, 0.09865796855411843, -1.1198351089886551, -0.23067919615704405, -0.25146156331250386, -0.6601601986101677, -0.234886469186931, -0.14582100908444054, 0.5985983712366325, -0.045408696957218435, 1.0624891632182427, -0.30827274905975754, -0.011316497965475233, -0.19735870959889057, 0.28953358309892097, 0.043610616555706555, -0.17791598270308606, 0.40931086496984886, -0.19917707989043892, 0.40243806251737013, -0.27191776758432695, -0.7930535316142182, 0.4182952303012824, -0.7844678281021794, 0.08734197350493204, -0.728530024923112, -0.3913708029585499, -0.0841090165011818, -0.22363467290370223, 0.6646470568040215, -1.3763135320380968, 0.7118619237148013], [0.004231246509321375, 0.6118382643213354, -0.1934889156281371, 0.012166505845012804, 0.2543345318494449, -0.8791565385769297, -0.1892655271415195, -0.0346815959915333, -0.07560342641264488, -0.1183674291510275, -0.6292590910611187, 0.4500509616112263, 0.250412645473875, 0.12025652288804015, -0.6502646426426679, -0.27713702886067243, 0.7458110989741598, 0.7384446454782154, -0.31204937670848826, 0.44752867951322156, -0.05457915908929645, 0.33651458777784177, 0.4097777717646851, -0.06934819540834894, -1.339640413202815, -0.2745020994297941, 0.6906967773569356, -0.3589374688340706, -0.09225861498793007, -0.49960266588806623, 0.2643079005749967, 0.24570369985760634, -0.6592576234240273, 0.9338451901399055, -0.14736848243069234, -1.1569502170431905, 0.20010816991749064, 1.00079615311411, 0.5687948242492779, 1.14167417414763, -0.1588382603824312, -0.040972615872585716, 0.01655854582747932, 0.03807586637563101, 0.46118022155778793, 0.343371283574494, -0.371418250447681, -0.4713288794639904, 3.2191158247233096, -0.6834154560463364], [0.17162743079894657, -0.3603649501936596, -0.15826989398960592, 0.5220450226641445, 0.5054019773857849, -0.5863098450253567, 0.17455582530146377, 0.30307994100811075, 0.3701888322499482, 0.07799265691200308, -0.35012244200464165, -0.17551554060733074, 0.7421469268520721, -0.6517024295665618, -0.029665485368868337, -0.33904560015205737, 0.433013090761685, -0.025114559882813636, -0.3971077093068435, -0.05959143950030458, -1.289811002806193, 0.14537710657189268, -2.0710988914921895, -0.8528176365463412, -0.6161501222805899, 0.6370033417395375, 0.16116499616366514, 0.9189628725254754, -0.6621906758204641, 0.5656331030318283, -0.41484280071617435, -0.755158139326912, -0.01977454974393255, -0.06342535599972446, -0.27074241620996436, -0.3656282898557942, -0.29887948512883405, 0.944357171217526, 0.25595193032394703, -1.652171936972804, -0.15384664977440868, -0.42382451175068897, -0.5401221927075329, 0.13852852957178288, -0.4907037962683051, 0.2785386912016839, 0.026645098639325765, 0.17367571254150402, -0.29466921447438804, 0.17306255678005425], [-0.13698220332047678, 0.15549562385007457, 0.2650836130936384, 0.39386262826341667, -0.786414012027489, -0.21760470097215487, -0.2946097280102978, 0.24796000254123232, -0.22357535682652244, -0.4108507825929538, 0.16269888075831032, 0.3548830039081048, -0.18562213153420418, 0.5335340867685419, 0.05567820426759035, -0.12041795133930541, -0.06543124953125123, 0.2497693669771907, 0.04434845875916471, 0.040007203180452276, -0.5441893218083168, -1.2724438210041968, -0.30165011325818325, -0.4373581607335321, -0.5577000011792809, -0.41300552812795127, 0.051118609219462235, 0.10212991234600376, 0.27136043284768613, -0.2467318367539389, -0.22288031803393632, 0.5735420827570035, -0.21689974710620102, -0.012360034357829477, 0.2469845903942484, -0.22038153065274266, 0.048007551736726446, 0.5635837400448629, 0.16982397652474637, -0.6252949473553835, -0.534492953096947, -0.33148943255942487, -0.1068735373497477, -0.4254586617006237, 0.6770440608830157, -0.557574186498301, -0.6270282024115148, 0.4164924784467449, -0.46516621238671957, 0.13200836232157592]], [[0.47461040350626965, 0.6653148136168365, -1.3535355788504915, -0.5687904761421391, -0.5920142851640985, -0.8009328167484053, 0.7830860177954087, -0.763784408592336, 0.6812967003258538, 0.4391010338810426], [0.34345895207764754, 0.5208888117833569, -1.1364093494794132, -0.5316284504387124, -0.5872349233688707, -0.7156283577166841, 0.6134618971972857, -0.6683218902776777, 0.5435789661436445, 0.27722124584190705], [1.064430738699454, 0.9715332208125909, -1.8025427739771451, -0.8930535582006737, -0.7216288182624159, -0.9606856948607406, 1.2950101493805581, -0.9407570236122881, 1.1538441156504884, 0.9726026494788567], [0.4524598091713401, 0.6258911146888984, -1.3078837859578203, -0.5557194693194558, -0.6001438605219696, -0.7879122673220199, 0.7621685497816987, -0.7378862775875448, 0.6632250721642332, 0.4153356893912383], [0.7476527296691035, 0.8525892763397793, -1.6517536302102753, -0.6768388069574873, -0.6306327435532899, -0.9290365267186785, 1.0891395305786506, -0.8874927748018684, 0.9038717574702778, 0.7357710769568078], [0.44121262106873343, 0.6174752995366358, -1.2896485532362476, -0.555956446592097, -0.5946571891487117, -0.7803875974169862, 0.7200489956340212, -0.7175717688995557, 0.6412761254034741, 0.3905834474416418], [1.0571525393523096, 0.9679744117203966, -1.7937632399995003, -0.8944159330817069, -0.721958119015219, -0.9491808938093319, 1.3015803995446176, -0.9426926812983623, 1.1429550537513564, 0.9683041135942871], [0.9036145058431033, 0.9211673350612135, -1.750418439682591, -0.7820202191330758, -0.669219383626887, -0.9436965247874811, 1.1932447526060475, -0.9194448986639117, 1.0379282757822645, 0.8651906876257495], [0.3904889176742766, 0.5782362608297748, -1.2202123564802905, -0.5448292209381854, -0.5872248347696731, -0.7464823941053523, 0.6755934099710934, -0.7041694724965487, 0.6040749104063009, 0.3320432087617509], [0.32860730877799954, 0.50273425462029, -1.122323545519868, -0.5278544468411245, -0.585029450862382, -0.7008247344207352, 0.6120751668432305, -0.6723514423990867, 0.5729101733392321, 0.2754593292397222]], [[-0.7338990584518578, -0.5937187325428803, -1.0974513224358675, -0.7163033693959588, -0.9424674317049424, -0.6867879493752765, -1.0967238556454768, -1.034287634224051, -0.6493497670037759, -0.5914497795329229], [-0.48304335342716237, -0.4083811220395771, -0.6307784130430149, -0.4641593283054004, -0.5694933463166177, -0.46575262035589643, -0.6253126686763208, -0.5969233479009143, -0.45709865948310235, -0.41536757739092955], [-0.6398685318392664, -0.5295908773149566, -0.9417200126197293, -0.6237380435187863, -0.8188314277905698, -0.6179010234267814, -0.9363971640210982, -0.8853423920438842, -0.5711931816106045, -0.5325832577699631], [-0.5428630714682681, -0.4684341048069411, -0.7445645271093861, -0.5215007770387783, -0.6745373797131557, -0.5155401809773077, -0.7458888861686707, -0.7079418773286063, -0.49006983154140443, -0.4568258326643278], [-0.5227432800202052, -0.44336542782320426, -0.7025081017755628, -0.502167123683371, -0.6315391372442046, -0.4977878605081693, -0.7010466984548048, -0.6804052457858587, -0.47184233318799584, -0.43439526425185965], [-0.6826197567056449, -0.5639295948972076, -1.0116668935916533, -0.6680593110496506, -0.8781878405497415, -0.6477334048632479, -1.0177737585519868, -0.9395651145350703, -0.6137972883291519, -0.5560564718598836], [-0.571894124710169, -0.4791455301292121, -0.8115512374954781, -0.559706565402459, -0.7166403876417659, -0.5441661105580324, -0.8001154607098888, -0.7706839578184267, -0.5150648603984361, -0.4772103976887389], [-0.7376318458138442, -0.5980751648758991, -1.1021422826319816, -0.7152990748733214, -0.9412841757765275, -0.6926805211247457, -1.0942071309582628, -1.0321048373482353, -0.6457461620686428, -0.5900686642704289], [-0.5633597343473679, -0.4664229774937712, -0.7893785166108126, -0.5446429046185589, -0.6917611198872169, -0.5315067360518825, -0.7842389851742968, -0.7443985495605707, -0.507739987525305, -0.4735776029901642], [-0.42279417388696805, -0.3744984587807648, -0.5074875027165586, -0.3902754955474223, -0.4727768575504557, -0.3895885618303409, -0.5096302223642833, -0.49397824686304526, -0.3769354936260142, -0.36907233610064727]], [[2.2651360304405204, 1.3645706964669242, 1.9760842224653736, 1.6226281766094508, 1.5316679688166857, 2.110510132336951, 1.7348930936001763, 2.2686114731779057, 1.6892677403483194, 1.0380585727611453]]], "biases": [[[-3.1362567691613172], [-1.181109755907756], [4.624288098898029], [-0.7672323274801093], [-0.7620266543819633], [2.375832633935194], [-2.9899381186999374], [2.3969256481784704], [-3.234175116685931], [0.1885290635076271]], [[0.050811343129514144], [-0.040010716173882854], [0.4329686146356062], [0.03254753710171948], [0.23592458735411093], [0.01829954598454524], [0.4251562836540309], [0.3402091699373283], [-0.009503890936494955], [-0.04154093540639471]], [[1.4038686431150913], [0.46920025328940473], [1.1089699931635577], [0.7351040780565855], [0.6408600970733113], [1.2448043368293604], [0.8571550869224293], [1.405266874846204], [0.8105134433596435], [0.14887764810182827]], [[-6.293106275753368]]], "sizes": [50, 10, 10, 10, 1]}