{"weights": [[[0.021201710942113025, 0.41445800711606845, -0.3959109599015424, -0.056346644561429834, -0.0746198299035769, 0.9976313042417349, -0.4853555349054135, -0.07068186956630343, 0.9939196490158043, 0.1907211184414468, -0.14152421519205588, 0.32146666589385103, -0.16814157598402146, -0.6857745855768584, -0.8382014971579521, -0.49136351809107803, -0.43436542515281557, 0.5091472916074533, 0.32127191579462727, 0.33206165105834373, -1.188685918786287, 0.24271013964138172, -0.13662359775264413, -0.4669568460523217, -0.33446094921183395, 0.5387601997842318, -0.2422276807240659, 0.6695609307683342, -0.30050420574577563, -0.2660898123984529, -0.24146229138489347, 0.6479255226893476, 0.37137553486962954, 0.34907016692169124, 0.5743482676700761, 0.03275866911043223, 0.5139850348330786, -1.5067053511983548, 0.23361301188623537, -1.8402909801045777, 0.983147927561243, -0.1297308042735801, 1.0339535824250368, 0.3664176020041646, -0.48444263154272604, 0.765032737796127, 0.11735132170691617, -0.33857099727816853, -0.43229139560700364, -1.1155483597283207], [0.4046111819810634, -0.925798962623124, -0.27232271401575703, 0.6488584750368372, 0.37948668868579444, 0.17364744758716452, -0.06957264339970314, -0.3737508087154473, -0.34777924434609697, -0.22262592368816533, -0.151064720071507, -0.11102622749542096, 0.7555018410995311, -0.08568906947756691, 0.15408305148939191, 0.34574546882558355, 0.3375315815747433, -0.17277820759974125, 0.1041530083500146, -0.7337043134302814, -0.04763975279501869, 0.2078936836353433, -0.6499133348201451, -0.04293639138025044, -0.7505995272453055, 0.2757068009363517, -0.7310964509296367, 1.0917256734964522, -0.03686230370108927, -0.13186737104763893, -0.3824901060696201, 0.3405918478499003, 0.49634668025445666, -0.23552553422230443, -0.4347797358693962, 0.46154909630618185, 0.06454302774935167, -0.24904895987675843, -0.03526838668301581, -2.7063747134099545, 0.233660731755043, 0.4797820416783285, 0.20428993463289238, -0.6321750978423988, -0.13897830527465085, 0.661576010881266, 0.1251911336980816, -0.5871866246582629, -0.4204480748012498, -0.2624935994668051], [-0.06935393110210265, -0.031099456749637287, -0.14404219180142527, -0.7274487219656693, -0.04151544889853572, 0.3104219788323323, -0.0682971625390233, 0.1226131727268597, -0.39095298278430485, -0.054096025977443674, -0.02014992253809008, -0.36422997540431384, 0.05735352149171653, 0.5833035111474889, 0.7800221648459811, 0.19365678366218114, -0.4010516657087257, 0.17996931556487902, 0.04923113567186437, -0.07095782901374365, 1.3397168180724304, 0.7184732633689702, 2.746773523893652, 0.7101141842936902, -0.01628726329401963, -0.20822178876738806, 0.2812191390214047, -0.17921494767590698, 0.2561238235164844, -0.1927128944886254, -1.1857489595839839, -0.023439148213937083, -1.0865553131785708, 0.6218166245237561, 0.14288704739691824, 0.14305843443256586, 0.8451229749471373, -0.00656428657111384, -0.12642448951944077, 1.8907210984949652, 0.04602310177619309, -0.2080122814080483, 0.8056474767966979, -0.3348655090620706, -0.06267688543247761, -0.13071973167135084, -0.11275239496039528, 0.27497688988748836, 1.519895007819406, 1.468557838493148], [-0.39873249472209094, -0.05127790418163275, 0.0204024915458188, -0.31815589772625325, -0.9869451655997641, -0.015496439265401537, 0.4058839853279856, 0.20395340828316674, -0.2612160022925589, -0.5549059381997469, 1.063936438601542, -0.40918139406468446, 0.2407224564836967, 0.07933023596394728, -0.4736817295103479, 0.14516759162492857, 0.24717626104017965, 0.9192084954101218, 0.5820341042169599, -0.18223163599109068, -0.15381499620031638, -0.33013537200548665, 0.4902084175891335, -0.08365715291107803, 0.26813236638803645, 0.04419457435638185, 0.42414889609200807, -0.11014417276155675, 0.25656249033081974, 0.2781346482784414, 0.23460140424689904, 0.2287364857646081, 0.23345651331817294, -0.29594774689296743, -0.23206325107707906, -0.6825185191575097, -0.18192176571629032, -0.19212770908010499, -0.15341093806775816, -2.5156541371380743, 0.009820389058415101, -0.04733525060974421, 1.0317437144051709, -0.021730968417703205, 0.28015758819893194, -0.6793574698910596, 0.7186093622192361, -0.26149165944992975, 0.17810208412689896, -0.5599415480371343], [0.16411785551342625, 1.3375883612598358, -0.15059174292603095, -0.4188402428579351, -0.624628954651131, 0.5699265962712234, -0.07325017943357844, -0.3271668642831015, -0.32790811127814395, -0.6031172999303969, 0.6641251502356149, 0.2275233166890877, -0.6952285013692067, -0.11749911895090019, -0.5761501160203771, 0.3168767375711153, -0.08730342053034039, 0.5699596151339053, 0.4955369440650606, -0.2571214744509248, 0.04452442338241154, -0.49031885216615506, 0.4916804722119502, -0.9098686544557265, 0.2866777328749837, -0.6842897997458625, -0.46774630169015036, -0.2796722591838326, 0.4017010361691358, -0.1393679925317129, 0.35549684424550165, 0.5564342949927327, 0.11345492244800816, 0.20170916077975257, -0.01256427274894153, 0.48470989178706697, -0.7570376409837488, 0.48398121491290086, 0.4577888682975158, 0.06763141584054333, -0.5107643861680766, 0.037820996268839085, 0.15441515531274355, -0.7611341231320541, -0.104092625981603, 0.07883856790572492, 0.31680118256753387, -0.25426903964092434, -1.326206429601089, -0.7526486774399864], [0.5674938775625489, 0.2331048230772792, -0.18371427890344225, 0.8839655977099242, 0.26382033435202074, -0.11817033955038413, 0.001436801342441573, -0.4244888213143337, -0.8493061285820697, -0.11299824663427772, 0.059673637378450425, -0.2717772750462312, 0.23178897551567315, -0.31130372809803986, -0.4381907069437736, 0.4005284941843569, 0.18135593160047372, 0.3063807956000695, 0.09148151486257466, -0.4418569510754769, 1.4369892969497964, 0.5073935957495675, -0.21739912396661923, 0.8531467806126297, -0.5965343930495182, -0.07003332453934993, -0.1486727163973395, 0.4591961206019319, -0.18548004465769163, 0.22352535993558834, -0.08375129263787984, -0.33561156810803255, 0.12279607063196694, -0.04488175152857884, -1.3271432405248191, -0.6819044865910414, -0.21640493171029845, 0.7796460273398363, 0.025503106728355766, 0.260834175069343, -0.5405211904207194, 1.0045866240586114, 0.9949074900504943, -0.5456396787122566, -0.5929408600039862, 0.4087102826187885, 0.41823066315399116, -0.17665447774636242, 2.2989071923915114, -0.042718615579943456], [0.09826846898366556, 0.9543842464106422, 0.5591094948057849, -0.21798489987249572, -0.3941661458934478, 0.23204819620980544, 0.2760865954833067, -0.5553108272923882, -0.40225248301905936, 0.13578015243329478, 0.020121708244202056, 0.24094161691084684, -0.4462632360851363, 0.2441597253639373, -0.02915035140796934, -0.023165079155132152, 0.08836493638316183, 0.3132098998688748, -0.6721935794959425, -0.5129536365108601, -0.8057159082430974, -1.0136200534793571, -0.006224603165545175, -0.6241724176148827, 0.11263874858493966, -0.254756536700387, -0.21848649170363313, -0.27892826707079016, 0.22317029471630923, -0.4826350427597815, -0.323821892347576, 0.7127155768919378, -0.2906121634472623, 0.585869201946442, -0.18717395253932662, -0.41346026616454906, -0.1293561317153965, 0.618849063352093, 0.844469926220265, -0.5296473599325847, -0.26921514839084626, -1.4676152993567506, 0.3979990673636087, 0.4749864931219968, 0.8344210743294528, 0.09543584177232918, -0.3911902997288622, -0.5376683980173317, -0.9237505331294115, 0.16684861502450557], [-0.3422726735643821, -0.4240482425959173, -0.07383278620515585, -0.023296720708091388, -0.010122067505579691, 0.1206730193413676, -0.08417726118363056, -0.1962500596945213, 0.321087978629309, 0.7597171807035671, 0.18324489359176405, -0.05487801130616326, -0.06834496015580087, -0.15342259595569677, -0.13791491015184812, -0.056488918484918375, 0.41168569973324776, 0.051037325215675666, -0.11228889174280882, 0.09674914802815945, -1.0533667837967793, 0.04326207726239687, 0.043899580357349706, -0.11218215175523909, -0.3311300758252043, 0.05210452014690987, 0.3178756191687798, 0.28659095517869887, 0.07489376314621422, 0.5298727044672437, 0.16154624592519487, 0.11611181955890233, 0.16532290986195494, -0.7027017522581313, -0.2455662549182629, 0.7069468467144585, -0.31451372790239107, -0.5844345607471452, 0.04041618095651331, -1.3164964931037164, 0.18585044101497783, -0.3112512651578906, 1.0540393387440439, 0.31989674607168045, -0.1661579328045385, -0.1343782328073165, 0.2083317139543106, 0.09703078369696883, 1.0192791437989512, 3.4208517954333613], [-0.3441369528289755, 0.513923685596465, 0.2179606542951143, -0.4431372968473909, 0.0979270241428527, 1.0230527084564434, 0.29979716839620957, -0.26156402744421753, -0.1272965528866933, 0.15178862661271336, 0.19064886140912216, -0.7150735892381819, -1.226849550314359, -0.5094397130638404, 0.7086953774415475, 0.6467009379261645, -0.25232977399771084, -0.5289880808680899, 0.25373702356305083, 0.05396555337613877, -1.8271881616633958, -0.8758987118442091, -0.9536083724097842, 0.42185427290367783, 0.37270105325150704, -0.2846637588652817, -0.6618127264673047, 0.5216379896279757, 0.4932495537444786, -0.538628898880262, -0.44648996642253935, -0.1921409941068902, 0.781245389645467, 0.07270350882156984, 0.3726988808938448, -0.08633374590729419, -0.13582619210355504, -0.1027677456137454, -0.6264664174695889, -1.3825508354146523, -0.7894652863068617, 0.037793146806485, -0.637658122545957, -1.1486945463246891, -0.22254335762305347, -0.27722109104813314, -0.01037373446842882, 0.46482982734404926, -0.9093499287699318, 0.4783807079748504], [-0.040030766795188626, -0.24122671345957344, 0.28995531248219036, 0.15668100613106414, -0.210775967220986, -0.5571992421933963, 0.17544680312325592, 0.16514485481547167, -0.35816347873816085, -0.3873871601888929, -0.05685636796641593, 0.4623292305266455, 0.26435658544288787, 0.2855129029395379, 0.13103955032555464, 0.005094568859318932, -0.17054573608147638, -0.2967681983224428, 0.105889643782581, 0.23309443257842377, 0.8416798229436271, -0.0856220958471552, 0.24626231509182844, 0.14176042481759188, -0.5166011224750406, -0.1773479270777229, -0.4062359120148629, -0.10487159043015135, 0.3189067824361464, 0.666843665912528, -0.6889975457305659, 0.15245499296526002, -0.08812031377916019, -0.6318955986853024, 0.2604456855940511, 0.48898640063874693, 0.45809234395178466, 0.08480472004867061, -0.22061255768296723, 0.1889699293764301, -0.9929840440659158, 0.6492708898081908, -0.7125304690383917, -1.201699378684137, 0.8389737078675376, -0.4874128380019507, -1.2426619597145196, 0.7272169602876255, 1.2264109517296127, -0.805816060983532]], [[0.731880361523565, 0.7608722321878532, -0.8521111802846966, 0.585767702757603, -0.6450460045690021, -0.7746210326420812, 0.4629709621903158, -1.0310665942279942, 0.5555630536355846, 0.6270668805566424], [0.7137481146198705, 0.753830950762468, -0.721224093637705, 0.5368485170355011, -0.43429809204951986, -0.6504315630624291, 0.3840989442611017, -0.8379778059438295, 0.502078544345499, 0.48571761938422353], [1.093105049777281, 1.017488054247163, -0.9431870286429457, 0.7908430152454295, -0.8288032009843976, -0.8042040166078663, 0.5324898760668706, -0.9112866030143918, 0.7822453463886095, 0.8968956263507731], [0.5845541238973907, 0.6240167445012039, -0.8193499028019122, 0.512041415709242, -0.5418769589051268, -0.7758569476129993, 0.4328982741820422, -1.0399655925925102, 0.4594545162168056, 0.5261137015632293], [0.45357096902077765, 0.49570672541579425, -1.071504153382772, 0.5257627043018727, -0.6850781319155917, -0.9846336131102227, 0.579393608523656, -1.4143564216966196, 0.43504511258724565, 0.7908082722082538], [0.7960356494603713, 0.8040604611717566, -0.7951967949355029, 0.5922578174664198, -0.559945181429118, -0.7000237348866072, 0.4178297718726443, -0.8951994734797587, 0.5763981940383296, 0.5953646758969072], [0.5608522238885861, 0.6009851085383308, -1.0795653157204075, 0.5908659713846454, -0.8234848841583198, -1.0058223568141207, 0.5903943371349217, -1.3909055009864961, 0.4957928676322218, 0.826726109279092], [0.496243576859341, 0.542394213614998, -1.0573954106417496, 0.5431757968331481, -0.7181242620016726, -0.9655831445738727, 0.557524386376675, -1.3734215030107724, 0.46637864642565385, 0.774673979323387], [0.6658229666092482, 0.7072867443137868, -0.8700189285831366, 0.5731053124635608, -0.6394723768722691, -0.8040951233194348, 0.47232218351883937, -1.0748191169802144, 0.5228265403471493, 0.6094065396379172], [0.5940439314406599, 0.6456297262739674, -0.8294423215706219, 0.5351620635459452, -0.5510870986713657, -0.7735620732450235, 0.45037560465640397, -1.0505864084792076, 0.4859927268398239, 0.5420179651636365]], [[-0.5472783899744436, -0.43583667138901006, -0.6921827373897687, -0.49351007974211386, -0.6564038240723721, -0.5051580253764595, -0.6991286270707658, -0.659725773216369, -0.5458736048427979, -0.500251740891857], [-0.5251815946323968, -0.4184374303303884, -0.6454860645157193, -0.465120268413066, -0.6191361703411659, -0.49233883500121345, -0.6474485374631849, -0.6099039779013331, -0.5373206347451829, -0.4794387099034834], [-0.5145051020984731, -0.41891729253371485, -0.6465695774385775, -0.46277922381202413, -0.6209463182935023, -0.4925598915083541, -0.6517163882817156, -0.6157312307306874, -0.5155458846907417, -0.4834316144016911], [-0.5124459857455615, -0.42944460063243095, -0.6257719844962041, -0.4565210267422733, -0.6160234515971547, -0.4773562106595749, -0.6359510240168011, -0.5987781328409159, -0.5087339217366994, -0.474653080999963], [-0.4792403300305126, -0.399541164961386, -0.5676534704890224, -0.4294570354089622, -0.5573202357742094, -0.44936925883058215, -0.5765566061004936, -0.5591743333443252, -0.47493766881252336, -0.4381802369816899], [-0.5491369297238735, -0.44455599930982936, -0.6994889971079745, -0.4942725524589773, -0.6654825772617953, -0.5137717589266114, -0.7111593112423341, -0.6480550000363092, -0.5549039805961953, -0.5039001801196211], [-0.4880082510671371, -0.40436714191162604, -0.5985501166628611, -0.4454076334455725, -0.5820334584979283, -0.4577033589959048, -0.5973382951939447, -0.5775889539467799, -0.4875830752507402, -0.4567565984565063], [-0.5563242651723348, -0.4437198990335068, -0.7037484038410926, -0.49526096662849445, -0.6598048135263679, -0.5136163528110211, -0.7034930401320288, -0.663363973713298, -0.5454711427851041, -0.5012227969497732], [-0.5025181316332338, -0.4073331664938366, -0.6185948607030713, -0.45032316115630733, -0.5912941870516528, -0.46649253675758745, -0.6227741685856931, -0.5886549452485114, -0.5010750908305668, -0.46981314629193865], [-0.4357730047241512, -0.37286882227006524, -0.48989742118102736, -0.3813106110470874, -0.48701259971120586, -0.3942352989393108, -0.500091946281078, -0.481441854634698, -0.41720058532397414, -0.4042469671331669]], [[2.2152720047380092, 2.065605700015059, 2.0563792401705703, 2.005769592212948, 1.78442315115367, 2.2353708136505506, 1.87956120730236, 2.2385078400320455, 1.9447876341987518, 1.44950843631457]]], "biases": [[[2.0767154328175823], [0.559971478666594], [4.369144075662185], [1.4213492733172788], [-2.7643362522178085], [3.816321359040579], [-0.5303992094858043], [4.922267645581163], [-3.0555860212613264], [1.452339587109367]], [[-0.456889481568379], [-0.39920769175346205], [-0.2743317066135778], [-0.4995067386698065], [-0.6212858555435815], [-0.3872761525771288], [-0.6003366668733976], [-0.6133061217655197], [-0.4837281887916161], [-0.5114707008788797]], [[1.2189498248557575], [1.0754279216163736], [1.0710196392783031], [1.0272640579214403], [0.8030296047685531], [1.237663294628566], [0.896834035711189], [1.2372678081986053], [0.9647431709599136], [0.46347066562134875]], [[-6.2824963869019035]]], "sizes": [50, 10, 10, 10, 1]}