{"weights": [[[0.41975970514189875, -0.27237471173923766, -0.5595980786117299, 0.08776572150097528, -0.22408994407125313, 0.5646000154659837, -0.06532143614068768, -0.04714729481296365, 0.7351091423602287, -0.8827824685611312, 0.3102750459320453, -0.4223021985744971, 0.6756112898795192, -0.3896397668375671, 0.24060469176375637, -0.21168601240376145, -0.4004424102091234, -0.08811206356086461, 0.6539849700694942, -0.2710959935128758, -0.023716623915617515, -0.12119020434339327, 0.4250917983229653, 0.6076068596778877, -0.2765759324593651, -0.6975591666541185, -0.12661842461813344, 0.892139602118223, -0.6797680418019673, 0.24332190323198863, -0.4240510141041375, 0.8379066373593814, -0.07739883256804049, 0.7426723651802385, 0.0030262670420390164, -1.063384658013813, -0.8488652400071354, -0.24025495311390888, -0.31392670022013786, -1.3677749482890065, -0.7375936149985859, 0.8740452187818052, -0.697079534587825, 0.7290354255667437, 0.6509000431849379, 0.16423489659700177, 0.2234920213598093, -0.9836022171430576, -1.202416206081729, -0.1970442621062311], [-0.002269301011529122, -0.27001479241158133, 0.08226448101415491, -0.11762669962812856, -0.21690210615319563, 0.25713999700848406, 0.16811130329655297, 0.16123019447194992, -0.15957018167907114, -0.03633303220735015, 0.06239263626221472, -0.02879626005928346, -0.1450102713281581, -0.17680495796399673, 0.045854468973833155, 0.45804664528776656, -0.01899805433089591, 0.21398882884455128, -0.004586073682513778, -0.2938860424019083, -0.2863357059194484, 0.23087920556119365, -0.15906099234947346, -0.4343405095743407, 0.07535080856777304, 0.5991710719052691, -0.028006581256545152, 0.4646367359268782, 0.23161033109282733, -0.24776029502660848, -0.17459022460926588, 0.10430293763138401, 0.43853385846114395, -0.3746879120649071, 0.49481779821123023, 0.844637479701219, -0.14151929066809885, -0.3635729389892424, -0.7654843509751422, -0.7800067472921703, -0.09699928309717167, 0.013656009563379147, 0.1972274693327771, -0.10821882006034256, -0.5784859428747379, 0.7197171755234385, -0.08429075146471637, -0.06262943114600264, -2.829807604151715, -0.48670386849292135], [0.11091435292579375, 0.0832761191012768, 0.08255002705672061, -0.016662932792503114, 0.02439844590130567, 0.2057763483779596, -0.371833876690552, 0.1364963815508439, -0.17099370415088921, -0.011917353814170969, 0.27711561465057166, -0.416313050220626, 0.0837134394851603, 0.13254125057213562, 0.08019206609299435, 0.008575340414909951, -0.20006776963607073, 0.28164627561033156, 0.10840639626358806, -0.4379037125312709, 0.6503512979938875, 0.5374759246069906, 1.3069354657430043, 0.05954219494867716, 0.18846369665317625, 0.34197299330671843, -0.3540476215852942, 0.3248806082816639, 0.05882701609921362, -0.2167187794626462, -0.46534566008398376, 0.20359660599174037, -0.2096009902717516, 0.9179707864927988, 0.18420139004706015, -0.19117144934302255, -0.15418564876460428, -0.3886620069360802, -0.2532991220256413, 0.3791790902702752, 0.39693465027207636, -0.3574235517283901, 0.05170299452774007, 0.2751563259354971, -0.17379872411002864, -0.33398217578791306, 0.09513215719249121, 0.407947811437112, 2.82790299001263, 1.8638071502552422], [-0.07923408523300028, -0.8284368370796718, -0.48337285080779685, -0.02349193505149838, 0.8913923305928714, 0.0743514945613066, 0.07757238826651541, -0.02593230390812986, 0.3430602553441754, 0.7536140474748689, -0.473208382082941, 0.1727553540383278, 0.3804253749213345, -0.34462711410424585, 0.544257460159526, -0.526986796045673, 0.19659130819706064, -0.7126325341557677, -0.2684668879148383, 0.4217979936189388, 0.21517924367932834, 0.7134757983562516, 0.25825442637912915, 0.48532191346922776, -0.2574747787531619, -0.5711883421045283, 0.05772212613319297, 0.6397486326226969, -0.3721481146639509, -0.006781834808417851, -0.06135781206029349, -0.09665690132507104, -0.5713236396687653, 0.11219691470008399, 0.2986901290240482, 0.5496562080192976, 0.3977483318231984, 0.01655310993524857, -0.8557686993921995, 2.032929383446303, 0.14590834081457416, -0.15463499452758567, -1.0963974829905299, 0.04249623297043033, -0.17780171373714493, 0.1361047044432132, 0.014247729071936163, 0.0388476801366144, 1.325550042944201, 0.16216927469209738], [-0.5263489175549205, 0.6916635148123123, -0.922576670552215, -0.8555247995471189, -0.1953215348340032, 0.35905211396009945, 0.678650932398185, 0.07789323839861353, 0.7488826915799436, 0.7269289562563785, -0.39365466722913073, -0.5970893315257773, -1.1493773132471305, 0.771019437414026, 0.06914039438985939, 0.8241955654883453, -0.15151255187404186, -0.02409360124389245, -0.2250173171795736, -0.058350883940454096, 0.20881409908127155, 0.4812836252211431, -0.6615190468713814, -0.40116034686990876, 0.15230121943724476, -0.3426660805218458, -0.29833435631760885, -0.33095662131310577, 0.5488034586273183, 0.45210618769278527, 0.13696988337829236, 0.4359919436962619, 0.4809518994352436, -0.09533084861275287, 0.1015045802202365, 0.08295272191185549, 0.10864817517637632, -0.18614208070970617, -0.6531261478313902, 0.48347263639611043, -0.08958267009992993, -0.22199096484030975, -0.6338064098910908, 0.765126021073423, -0.48410714546096695, 0.1954874908226772, 0.2655014462188062, 0.049272999317456594, 0.6382638289681486, -0.012441053361393443], [-0.1253841473552111, 0.10692015787869107, 0.5014226535233655, 0.16356765685759145, -0.17811888098047868, -0.4622363450157191, -0.13947888106432096, -0.2696851238383867, -0.03750557094609375, 0.8290156636058151, -0.4353473860848796, -0.30847369162201643, -0.4728981936930767, -0.25721593257422726, -0.3509026015668982, 0.9412323543718357, 0.1466989002952757, 0.5684773806336336, 0.3901629785636535, -0.4669512500761324, -1.0228422795908338, 0.1285961909703164, -0.7155302118710554, 0.5644798904916839, -0.23727992079725885, -0.14866079493351758, -0.3242377786502914, -0.5065551611130774, 0.21183975190741283, 0.5480572682839024, 0.4450835169236033, -0.03249647233386587, 0.28609760343718454, -0.6312188583714483, -0.8143429348053293, -0.07488342233293459, -0.547380110433429, 0.5918116659577877, 0.012780995036515868, -0.19405766227985416, -0.5743606298931964, 0.33466338120867933, 0.5914097932947877, -0.3571826240847837, -0.41488338287210197, 0.6919106017868819, -0.2265269317174384, -0.0702949323416484, 1.8266001093851092, 1.1611331546168335], [-0.597911703460552, 0.1830289496663174, 0.3654915615319223, -0.3342692119853663, 0.05976636361803897, 0.5811290030172744, 0.04432133437893, -0.42442420277805587, 0.044908097068252266, 1.132617048042934, 0.2332695277663335, -0.38602591300138994, -0.9042645077822962, -0.14053619832418554, 0.023295805323682906, 0.3018725563002447, 0.048847797086573136, 0.06915894913683539, -0.2952539110154279, 0.085989353473076, -1.3259550743947894, -0.9572380697499713, 0.5826040731202782, -0.5231188851643069, 0.4480601619683259, 0.44176935401866746, 0.7319315738362674, -0.052715170421516695, 0.5070712233697052, -0.2063066854626643, -0.10305012781513868, 0.01329324783939461, 0.0030511820476447414, -0.1838131429167659, 0.27332030461946955, -0.024013285353468937, 0.22825834551004076, -0.4050555780572991, -0.18734935329411292, -0.2768187302863029, 0.3369908304616852, -0.8239518533163811, 0.06075514199543431, -0.09107283890465644, 0.7280357902030831, 0.25915445389858854, -0.9428901390868786, -0.14190850065635316, -1.6055471039117108, 0.19597912063697506], [-0.16553116754915928, -0.1514627664701053, 0.20299805833837167, -0.5240187523936735, -0.35009378681845116, -0.1918706558469362, 0.16118728970196913, 0.3398748394741694, -0.2889155647796524, 0.1337748632617158, 1.2929018454411147, -0.336540275874473, 0.1116539760666802, 0.05249718576042027, 0.15688132244496003, 0.21287376513192008, -0.07563582408796082, -0.3362038181681654, -0.43513944113470465, 0.17193931320807274, 1.2774527809960978, -0.35366672996490284, 1.0510371533371625, -0.15531723277672493, -0.09626700282930993, -0.059015952854138146, 1.7123219073961753, 0.10588073476132115, 0.03308291349018624, -0.1613655664458306, -0.42651801496395186, -0.37224481042729274, -0.5509422403240276, -0.40873246930995144, 0.46989609397032484, -0.08453517673463366, -0.2849419214579775, 0.2769957050574344, 0.1764452318365076, 1.3881892947008643, -0.689172529682055, -0.39962908390730734, 0.5409805881177577, -0.26391568268576565, 0.3006860442087837, 0.0949787404787289, -0.42027376410115563, -0.02305637400212417, 2.198574347033026, -0.6861732122873796], [-0.4363764255036555, 0.020580023701070208, 0.1642837187287009, -0.15994773164242362, 0.0069817953721574505, -0.7256787897673312, 0.4534723789306146, 0.6171423863593022, 0.2776537712417765, 0.5047746277148331, 0.29369467730033516, -0.3616919863638719, -0.1106957864740451, 0.02807385660836944, -0.21504896433093354, -0.06984036695295175, 0.02828165447058907, -0.028231467737978095, 0.009811686711672481, -0.1676679787121721, -1.2016916533434308, -0.03593511638517802, -1.6586533588075052, 0.2967123967769966, -0.2936696964672439, -0.5706841867328343, -0.715199839646934, 0.5036170782324397, 0.10794831740565165, 0.3774683127084637, 0.2220567798947129, 0.5625648162425417, 0.040949865365806304, -0.2702262539823379, -0.2537577265078899, -0.009594143049835111, -0.561838468258883, 0.1117195996848499, -0.31818610520937857, -1.5471008740605738, 0.24663153884150818, -0.21954064931318223, -0.8089442322156669, 0.09441374371413372, -0.5194568137582483, -0.3159659258050061, 0.34300344084818607, 0.5057596216789515, -1.219300007842352, 0.22650294945982713], [0.24703254620077014, -0.14874162540803743, 0.1270330654382607, 0.3420766145516245, 0.1180815774108722, -0.4400130456235036, 0.0639163850880817, -0.13671353157517285, -0.08700054715540835, -0.07514898304825729, -0.3193131494621338, 0.2096888887784123, 0.028697007445395814, 0.08625760047037126, 0.23889413996255718, 0.35144439240022307, 0.0676264468714407, -0.7535492457951766, -0.17650622764616275, 0.03846642069908773, -1.0635540532092265, -0.7696542774325975, -0.8552525601415591, 0.03442438943456615, 0.09188123986996019, 6.168652617819419e-05, 0.2290384401372572, -0.4773286214268544, -0.33485055097207805, -0.182243971076501, -0.05943285678510219, 0.2991118835019836, 0.19932852325353698, -0.08168925970741332, 0.10269873388479993, -0.13226738240841499, 0.43029086378884257, -0.07403712362585427, 0.06341376836290463, -0.7215029677960626, -0.9920010370556673, -0.18842339377544404, 0.12259938316189663, -0.5974693615100538, 0.5964972851925876, -0.4797494065370825, -0.8562903052238721, 0.6171528286610457, 0.05123364630600836, -0.04464180351713252]], [[0.5758567698770067, 0.8260034506757193, -1.1834981495496304, -0.6514567561106043, -0.6854863819853613, -0.9938557568507104, 0.8478273008879864, -0.6790851725091043, 0.6707794521767353, 0.41272977726814064], [0.320583731756838, 0.7851878003303169, -0.8947668441478086, -0.5206616804079542, -0.5570861696367937, -0.868521594527769, 0.5837268956934801, -0.45173805069978606, 0.4306288500558648, 0.06041037975183789], [1.0121718721713653, 0.9272461097514356, -1.502300781947671, -0.8072974545276017, -0.7434130694432821, -1.0121007302012897, 1.2229008773706656, -0.925566255314384, 1.0109953927244957, 0.8237987942911942], [0.41531036477044836, 0.7739499056063159, -1.00835978728975, -0.5838062877520491, -0.6282580744994536, -0.9354100560453625, 0.6765890216124589, -0.544189846600056, 0.5249815983940307, 0.18814706701112094], [0.7370916649777822, 0.8527969892329195, -1.3147502760582055, -0.7046491462933714, -0.7117234736616393, -1.0293380516499664, 1.015843489376974, -0.7899761605279737, 0.8036242946953518, 0.5965981034081618], [0.47386901748686244, 0.800578111676941, -1.080731732839918, -0.6126659457002717, -0.6540168832004829, -0.9656150684376009, 0.7317190999502329, -0.5856604096423268, 0.5762499951094422, 0.27422416399940064], [1.043773414666737, 0.9310681857821617, -1.5227253552215851, -0.8288141173030531, -0.7494180293518088, -1.0023121767495782, 1.2536316509090786, -0.9465063679165738, 1.0315048958034927, 0.8530077993530439], [0.8631872210547453, 0.8852586737636235, -1.4164486455436403, -0.7499903716400275, -0.7188237260351547, -1.0087679081961882, 1.1025759294122226, -0.8575668710065979, 0.905249558978507, 0.7137284799839142], [0.4938042369302257, 0.816615707524969, -1.1075003393375484, -0.6150743184703433, -0.6586542691683089, -0.9755265539523277, 0.7753707033840987, -0.6098358621333976, 0.6039578359120621, 0.303735062636047], [0.35288272616792704, 0.7717237472989036, -0.9395862690331332, -0.533377930009387, -0.5743329478672848, -0.8834744045581859, 0.6196123071413817, -0.4914138214047696, 0.4836092199112368, 0.10527344674915541]], [[-0.718633904801447, -0.5208144296030622, -0.937319745698348, -0.6064400157904601, -0.8126754427786179, -0.6433268115375002, -0.9540074412224023, -0.8785400089993425, -0.6676004891683666, -0.5464747225695248], [-0.5886550594609605, -0.44011679737107007, -0.7315059949093765, -0.49898126708637797, -0.6486738907131144, -0.5412843888939474, -0.7372333023735823, -0.6820617422376644, -0.5672989979553499, -0.46371935607838033], [-0.6193344389896576, -0.46393641391728285, -0.7947408949650392, -0.5257090302694604, -0.6994324418305369, -0.5752903331945441, -0.8045572862186541, -0.7441714373912661, -0.5804902398757233, -0.49058222608375013], [-0.5725506053349414, -0.44958952812987746, -0.707385813251271, -0.4877032872196352, -0.6420804474946556, -0.5234732615794646, -0.7199824087442122, -0.6659374277966531, -0.5362125785827861, -0.45792707623330886], [-0.5302238256120387, -0.41493462855968144, -0.6378638083723959, -0.45468167195077497, -0.5772988814463499, -0.4883842546964683, -0.6464322433941402, -0.6148610417145827, -0.49765709664177343, -0.4213541236801329], [-0.6974826035511897, -0.5153937594203016, -0.910245791241029, -0.5898804529740123, -0.7944039526368566, -0.6323418840302428, -0.9320056066045583, -0.8362191625235985, -0.6560502138372053, -0.5349432051397163], [-0.5458651197011333, -0.42237443894312426, -0.678404688444737, -0.47427169247089274, -0.6077422155426347, -0.5015964383923827, -0.6780329781022335, -0.6425778443038768, -0.5140094249640893, -0.43949747497414027], [-0.7309301061169944, -0.5307926709133514, -0.9533449080366632, -0.6112757238479974, -0.8203238049524134, -0.6546381391944679, -0.9638008155239225, -0.8868562353030214, -0.670195655219869, -0.5501686026803329], [-0.5783001020141549, -0.436052966513665, -0.7245714656660585, -0.4927540871790568, -0.6373859523873752, -0.5254229634370824, -0.7309738008330017, -0.6775930860030469, -0.5427808369334994, -0.4631820506594629], [-0.4222878821287343, -0.3527685217592674, -0.4680369104718948, -0.36053261223262206, -0.4379098612041423, -0.3800627294221846, -0.4738917616154572, -0.4523755727867491, -0.38789933843313124, -0.3578472495750788]], [[2.137193731722596, 1.7381290896588528, 1.8569935414657366, 1.6859662491029512, 1.525124621515861, 2.0848051541686896, 1.604983218831976, 2.1620471898918545, 1.7033660825832435, 1.0250813608281555]]], "biases": [[[-1.643545627691248], [-1.5247505464249678], [5.080558698823254], [-0.8351661544577661], [-0.4436190566891939], [3.1064760898816193], [-2.7021342699499677], [0.5778240893492369], [-2.6537632097262995], [0.5050336469226517]], [[-0.07148216812203015], [-0.17151081029008827], [0.1382795238803662], [-0.1339893086907351], [0.01779651335287429], [-0.11814789652026053], [0.14680310139289468], [0.07190591016675593], [-0.0969053560958071], [-0.17378218402041784]], [[1.2211651250832474], [0.8364622844578413], [0.9582581721539609], [0.7941707852882948], [0.6251976020959573], [1.1737697610420588], [0.7052207943569918], [1.242406821917088], [0.809194899839068], [0.12721580546861413]], [[-6.041906436606269]]], "sizes": [50, 10, 10, 10, 1]}