{"weights": [[[0.3881599264533011, -1.0429077468862038, 0.3382495525366772, 0.4117222213864372, 0.5187329246012965, -0.4091904089456014, -0.8598172656600486, -0.18830421027250802, -0.3116404059165721, -0.22136950546653925, -0.8152931623948706, 0.14723741615570554, 0.8622545155790944, 0.5900994853668288, 0.9425769283224374, 0.746113918961976, -0.057706667101827744, -0.3615914102371842, -0.5700169046455879, -0.4881185984301162, -0.7078390455474803, -0.5339663315731017, -0.25002620118457897, 0.34622408051506015, 0.09151955973560705, 0.3717517345433364, 0.13807881975115371, 0.12909952391076682, -0.6114222978866808, -0.12405244617479484, -0.3474856648448574, -0.2540247098600265, -0.5815539434033424, 0.2711201208434494, -0.4368465320799601, -0.4262494164557179, 0.5875180643190546, -0.048560100562205305, 0.7284009962186896, -1.163911306394085, 0.5377858995121293, 0.20919714424622682, 1.1946706510529574, 0.9266040970198461, 0.5517902884517534, 0.11858907244049818, -0.3603142643284139, -0.3296461828686298, -1.0944975464445956, -0.4099317511975574], [0.5556678539728082, -0.8151333064553594, 0.709556072934477, 0.4644042917199007, 0.01741652232482395, 0.3409197053810275, 0.23519597506771217, -0.0566763088440545, 0.09055947234554279, -0.08169628970751147, 0.11246050170503431, -0.3775757257247193, -0.01739715260353413, -0.6891963764060322, -0.08415771042525093, 0.44216067274110404, 0.17179633380986775, -0.7081370176896777, -0.17251979981129992, -0.49124272829837257, -0.1625335272029376, 0.018530504851915465, 0.03233749808548189, -0.12250474039234348, 0.625813345216395, 0.380499915841785, -0.9250864374006372, 0.6576481929530054, -0.04575992190744813, 0.2970034097049933, 0.3060673801626727, 0.0386665065841778, 0.08868122247893188, -0.21534291292366006, -0.5339290409025077, 0.9633368883667366, 0.25292742263565804, -0.6585743521819641, -0.5743401607490068, -1.1493839741780707, -0.0765108254145498, 0.16229954341938513, -0.28309904631182503, 0.16537472363424005, -0.5993995673752817, -0.14360146031052085, 0.6574174922381797, 0.14560726230205756, -2.6220574987088505, -0.33700757537261544], [-0.43617097711979486, -0.598912040057185, 0.48240768478913815, -0.25032247915719175, -0.18782202080197063, -0.47146791207411, -0.17119042961538306, 0.09891374847688435, 0.1526979626010165, 0.22188785584244386, -0.0060955829753754995, -0.03975233894775475, -0.15254440525603882, 0.8581938925117497, 0.7093343933596098, 0.23350215359570747, -0.16524554687279902, -0.2584483486423177, -0.5381599037304469, 0.32083616498436646, -0.1356037967816319, 1.3764499636757526, -0.35236290820382493, -0.8137462532760041, -0.18890285363643924, 0.2604266685883364, 0.20441949107633298, -0.04978697244514546, -0.3508352552844149, -0.8341534300145426, -0.14440446966721687, -0.34702496129380717, 0.03507430150808833, 0.38022768175750077, -0.06913896437321237, 0.46858101489706255, 0.41791035722616177, 1.3396807151155234, -0.12633008815160537, 1.395034392245281, 1.334496000741483, -0.40022546566761996, 0.1156521824362026, -0.47338335799914105, -0.08680610324314733, -0.7160153831573988, 0.2748823485658554, 0.5263708863557639, 1.3176756973830341, 0.5250080914441508], [-0.32903212697173395, 0.6558976525613796, 0.5804360847505987, 0.04280899267506018, -0.23826209422753944, 0.4465905093836193, -0.43798356982355957, -0.10225543511714565, -0.20551594665438044, -0.13874216853784865, -0.26591048563796726, 0.31994423916659165, 0.41314847155319145, 0.4547477697071141, -0.30821877225767313, -0.7088340856555485, -0.5608661671240567, 0.07954801947779395, 0.40189311124929894, -0.13964361562580663, -0.4285351915033908, 0.33832931213058354, 0.4829886251871833, -0.1955722347355474, -0.21460115329418566, 0.21267558949077123, -0.9539191761717162, 0.43475700179493065, -0.5870147041495503, 0.22720481033910256, -0.11465578544078364, 0.42378026631705723, 0.4849670286858871, 0.028133732219884557, -0.022620237024297316, 0.2749638896804315, 0.1406320234843915, -0.3438418863964299, -0.048424371746542294, -1.0233831712071482, -0.09236882373866376, 0.029560285727623672, 0.3602823850225396, -0.4616065531297767, 0.5146663180873086, 0.5012298847176568, -0.2964514311241008, -0.7090509799021891, -0.11070042223887544, -0.7575029941956003], [0.41383051537270776, -0.3967003108282468, -0.33472718576747656, -0.09303679054289786, 0.7146332112803315, 0.17795295872851538, -0.0011689736786597734, 0.17016156373273866, -0.06184244152787545, 0.2008199043683339, -0.2971180806963498, -0.44129706877832625, -0.44322607290179195, 0.25524167811414483, 0.4254445604336358, -0.05250179159631986, 0.06867483833463896, -0.3457548509673722, -0.4472390555979771, 0.322262253455428, 1.243906181502239, 1.3193949556899978, 1.385141106620083, 0.40333253227222554, 0.32725456893876737, 0.2661400218615866, -0.5778902000823957, 0.6454669170428403, -0.16257817349862339, -1.0437701813197389, 0.4656726676335095, 0.0790394227456613, -0.3419540427948673, 0.054184437624303146, 0.08097335353300743, 0.6395300497439602, -0.07140256813677229, 0.04706502480209078, -0.42796396961423794, 1.0935058512101192, -0.35565358776399375, 0.19019588280416502, -0.4161536719297785, -0.17004407501708627, -0.8207638790175706, 0.6057882113795711, 1.1466585506403628, -0.7823590587811933, 0.4119058800087524, -0.44170379159098877], [0.12532105990506714, 0.2560243481286862, 0.47754742587198634, 0.3053968024851464, 0.3683704375709277, -0.016686499654923807, -0.461279361051843, -0.19439863013454936, -0.07052519125139341, -0.36126371424296316, -0.5066367162030143, -0.142911236238687, 0.07173717367009379, -0.2076256587258632, -0.15395667930732213, 0.4117516718940541, -0.05559229001889137, 0.1906181844343654, 0.3542223969276302, -0.5790832968565304, 0.15021101405203885, 0.9959248707274343, -1.5726107607789943, -0.11945721296744137, 0.8118712756160441, 0.21676932649027186, -0.40266510756320745, 0.0050827288767939455, -0.6647542804803568, 0.6357877636818435, 0.88774457728868, -0.7610013350257879, -0.2113961827534028, -0.18270833958810676, -0.5454131390236318, -0.6225360440594663, -0.4489246683419157, 0.8290435393871615, 0.1173998172707513, 0.9741562844631372, -0.6858561931334202, 0.6234649821983079, 0.683409296788746, 0.1437670297213436, -0.45259085782673814, 0.48307300033017486, 0.05904740369596803, -0.07618273942336329, 1.4469160427649357, -0.3483048511717195], [-1.0497297764280766, -0.17146577393962215, -0.12075639858388182, -0.715364121942297, -0.3349957599612627, 0.42524000335418516, 0.14449333606694978, -0.13938155493069773, 0.8302833557222987, 0.45697666407239806, 0.2722635324867121, -0.018937235519065208, -0.296532423952751, -0.2759972032439108, 0.8478503510471639, 0.1022999374388031, -0.0900300563006258, -0.2261034573626792, 0.26293282816872354, 0.1831068521797633, -1.4582948209615916, -0.2966580791964348, -0.7057905179753078, -0.35650678214828324, 0.12769951122724868, -0.2182001482860841, 0.5109964111588947, -0.11513989534258649, 0.1620793884678567, 0.27279542592282624, -0.04007010231873387, 0.3377008259599104, -0.35535697864526583, -0.6146271684246287, 0.07629058885419858, 0.3270124813514921, -0.29937667002136276, 0.47276199439637273, -0.2170633757172049, -0.31370504233831953, -0.18178901530539154, -0.14343660357510338, 0.298598052264328, -0.8924344878516824, -0.39156472352358146, 0.11918525162582015, -0.13776847372017892, 0.38532202932297094, -1.9604312883186845, 0.42503355334293447], [0.0691406422400792, 0.0846558175581886, -0.12058706651357948, -0.24992647664892056, -0.22777903033849603, 0.24583236473978443, -0.18215986651433005, -0.2225245013546297, 0.05331499569928351, 0.27662930687303317, 0.1586886093592414, -0.21956039660695661, 0.25395110986112335, -0.12211256927067529, 0.10518190924766746, 0.10231273972153163, 0.07450833318046912, -0.000989171999206293, 0.15062964595374026, -0.19064359815139387, -0.36445112553390957, 0.1001877670330402, 0.702444441442018, 0.2807599067361894, 0.2908243390694504, -0.1623139369125605, 0.14565356631436682, 0.25060850487070835, -0.2579769396450756, 0.3107161857327047, -0.3086057557395596, 0.2563530280834259, -0.1789663597310587, 0.06254640875467157, -0.23642528600453228, 0.2884318976154062, -0.3566928815117782, -0.5210798592872001, 0.0037499760978268455, -0.2925484474698115, -0.15854203987802223, -0.23183828850951313, -0.19163995177943882, 0.2680817122267772, -0.3543194529885756, -0.11972970218248791, -0.0730366492061263, 0.5178812775336427, 3.2453076415618733, 2.770124194113547], [0.36529774657802677, 0.05490109847759147, -0.5493171661164853, 0.004161910024804722, -0.1232899570567194, -0.3593158373609017, -0.04291865188111881, 0.7782676909507094, -0.02535418562085039, -0.6162533296359054, 0.3268355558962404, -0.7027783920941721, -0.523973551236358, 0.5239677716648886, -0.4631415571067269, -0.24700385016605494, 0.7665289748515044, 0.8645152961349598, 0.055978001860108276, 0.06341616673317196, -2.093958207030852, 0.6879123233221409, -1.437813775915784, -0.2001160169896024, -0.37162358887363467, 0.3696302938615323, -0.148169560722663, 0.003285744014813339, -0.19367679621478226, 0.3394934396309545, -0.01348487763091251, -0.6439467254776472, 0.10700378332034978, 0.4764661170765987, 0.36538781938596626, -0.5224430268240745, -0.18514227225383711, 0.5388274500935083, -0.3351525057977791, -2.054686506479285, 0.5791192253408407, 0.4269537993646978, -1.344439149814442, 0.15534789818492867, 0.12636902922333207, -0.2763547679844275, 0.3197415466732309, -0.14502878342878922, -0.4287387530633415, -0.06449502646241947], [-0.06340158783245071, 0.6583430347013828, 0.42675144664993175, -0.047069182794666244, -0.21163167052546608, -0.2811940497038001, -0.02983074767370768, -0.7567974663014513, 0.21744577222896824, -0.09549315746973452, -0.4361484953463778, 0.409276553010455, 0.12745390175381913, 0.2941099395278846, -0.22889709335754213, -0.0932642179201419, -0.24863747458263633, 0.0604292253914832, -0.33238225928349174, 0.5171312875175856, -0.5021636382082261, -1.3268968487208652, -0.06976430377920405, -1.0582752785146778, 0.03871052581263494, -0.11785027949594463, 0.7469065085836469, 0.5542953769902355, 0.45729861582477926, -0.8876360463412901, -0.3774501067075402, 0.6870436795650632, -0.5797124146233669, 0.24352641644781342, -0.1276909209635193, -0.20870325436319342, 0.10182135619084609, 0.09381752173027699, 0.8870044127040055, -0.9235689972903128, -0.8611863852724417, -0.5837754913478508, -0.38472459971342815, -0.0722942160037364, 0.2699345505159134, -0.4077817682397096, -0.30411623073680544, 0.3830451262494407, -0.2877893606143108, 0.5625537677990553]], [[0.5502689742764368, 0.9075457490703412, -0.7985909768033982, 0.4798666510537899, -0.706646552034456, -0.8857978375711835, 0.8853114752949662, -1.3403850860074664, 0.6013366846126984, 0.5401040951467619], [0.2530844773487353, 1.088278766731571, -0.2828133219294449, 0.826602712780496, -0.0899852634886474, -0.5462302826682609, 0.5366326416661508, -0.8568735227203678, 0.587754391217058, 0.1439720585613275], [1.1765647702380226, 1.1898457629812633, -1.1781332332509866, 0.9139927204592948, -0.9892397380314677, -1.0911576154543443, 1.251190644854749, -1.7116906634366804, 1.175034575289652, 0.9966704925033648], [0.36459811025536826, 0.8803267474476577, -0.6213433324414065, 0.4636223500513832, -0.5423864111811613, -0.8055708405578792, 0.7179120076343137, -1.1645581235890767, 0.5384493636763212, 0.34717275072466686], [0.8454383249873472, 0.9021609443823689, -1.082536070046837, 0.5272424673220447, -0.9358391365245681, -1.011052793875815, 1.157982954912915, -1.5679700774728471, 0.6789955484277782, 0.8225752044093506], [0.4090421073282625, 0.8994356497992705, -0.6593750810275862, 0.4697209573187636, -0.5757397323706339, -0.8220990322438758, 0.7444382980355728, -1.1927041433763457, 0.5558485502893223, 0.39343499323493464], [1.1523887695747719, 1.1372812573010997, -1.1934893433044884, 0.8399895831368498, -1.0042017859120291, -1.0750028791224326, 1.2789886876104068, -1.711809774373458, 1.0890948649892258, 1.0008732795709565], [0.9115338155861894, 0.9720015741391274, -1.088040613050509, 0.6150369158178723, -0.9346831430202832, -1.0084857209074036, 1.16582039591236, -1.5881697254269944, 0.7914073483338924, 0.8589328722865931], [0.5373767808289232, 0.9107689646525887, -0.7836462350743018, 0.4927829403071536, -0.6932135563332529, -0.8828218951070655, 0.8783833027886937, -1.3246627681283392, 0.597762312598822, 0.5200800313952729], [0.3207540841338269, 1.0665634822879324, -0.3563565369610194, 0.8016119077462939, -0.20240700175998755, -0.608207075526726, 0.6070361170729218, -0.9689888687885456, 0.6391362304365396, 0.22260540016278324]], [[-0.6337783185082768, -0.4794050649710935, -0.9691384842072623, -0.5309920286295485, -0.8032489507491118, -0.543695340457966, -0.9597209655528471, -0.8387744663741558, -0.627481150964624, -0.5125567698368877], [-0.5408089380934271, -0.4245992070163833, -0.7853963342180943, -0.4509249547556076, -0.6674390260374968, -0.47658036018741745, -0.7738627915890918, -0.6810956714886349, -0.5493959160449775, -0.4492855121826622], [-0.5332939709746634, -0.42691639748072663, -0.791784071673835, -0.4503774979900074, -0.6727035812939322, -0.47902720947541116, -0.7826874498114786, -0.6909051681417578, -0.5302970635839593, -0.45413833041110546], [-0.512499086869354, -0.4278238199118651, -0.7330787224964773, -0.4313080270419976, -0.6408294374889009, -0.4502892932875757, -0.7298082852503937, -0.6442904308707421, -0.5054119467198738, -0.4355700336864256], [-0.4434318467590007, -0.37811962701652735, -0.5960968903513654, -0.38021912477197894, -0.5285992047979382, -0.3975265043702287, -0.5929850125145132, -0.5450607355572302, -0.43661680422794497, -0.3798280523298108], [-0.6357030446559243, -0.48779028031968474, -0.9775172746450735, -0.5317312057567447, -0.8131620970076334, -0.5519715138375525, -0.9734864932160106, -0.8281274241704079, -0.6365816480688762, -0.5159706211634435], [-0.46670030743212015, -0.3910851834063388, -0.6598090066528056, -0.4053248797517523, -0.5752739963469777, -0.41535550672685173, -0.6457568585933755, -0.5880333041647696, -0.4632073828651492, -0.4051129428978379], [-0.6544318865735718, -0.4929591050360693, -1.0029533762623883, -0.541575158587002, -0.8233073848736976, -0.5611197006530924, -0.9865226405438408, -0.8604610545133485, -0.6385996097102582, -0.5212631470702586], [-0.49144624382144897, -0.39944050030829614, -0.7024996954902976, -0.41720212009974567, -0.6000078143399884, -0.431303455914409, -0.693660299665582, -0.6163255827411867, -0.48677044757639504, -0.4239308364622713], [-0.3462757804235025, -0.3103630984601054, -0.40491674901577696, -0.29539077941518804, -0.3785069701642109, -0.3045533891577486, -0.40567058701511893, -0.38023140878470113, -0.32637834151803297, -0.31096773555149315]], [[2.009434493548627, 1.6822715557557866, 1.6841996487590605, 1.5814309409236713, 1.2854290518468623, 2.0230673311732854, 1.4167604869707153, 2.0636819118474903, 1.5016160220400097, 0.7180174238106032]]], "biases": [[[0.9537671882538685], [-2.544146696860048], [2.6772149407794035], [0.9950387696059976], [-1.6020412208419719], [2.892172897165356], [-3.629692461099573], [4.570338335366788], [-0.9023059175198456], [-0.7088140894831152]], [[-0.572365665582495], [-0.23795333824688536], [-0.6541411825376299], [-0.5038227811870789], [-0.6240139674836621], [-0.5278430435210621], [-0.6562610040813183], [-0.6308850165449275], [-0.556408264178593], [-0.30119425463423777]], [[1.5176096273479232], [1.068251576447237], [1.0760641811204315], [0.9407266644065156], [0.5418953244458237], [1.5372211645114358], [0.7117195830490191], [1.5882436191019957], [0.8305870397059048], [-0.0546766309348175]], [[-5.538157297086801]]], "sizes": [50, 10, 10, 10, 1]}