{"weights": [[[0.0726635440595329, 0.44530952474436486, -0.4487071789086927, -0.01296295655508584, -0.35889666380460916, 0.3790791571917661, -0.2231411132127535, 0.3300296308459445, 0.47167556374478287, -0.4222335697312856, 0.09444780378748256, -0.42855919530682063, -0.21350531737013775, -0.13147681978150846, -1.0030025916625522, -0.09438558059308454, 0.22654910907300838, 0.9331117333318137, 0.9777243420667223, -0.34692579132478135, 0.25568005466130594, 0.22862816794252597, 0.18694034536550916, -0.5260264394622622, 0.0986898165217193, 0.4848700193566526, -0.5737891773734656, -0.0934996299399021, -0.7713534378749417, -0.1502976220328088, 0.529298693355186, 0.00546693677470625, 0.8531475579448718, 0.3696312853044199, 0.5787539179066953, -0.3602367526885146, 0.3186048926792426, -0.6378020360493931, 0.23888876414922042, -3.0306248807937624, -0.10915687879560558, 0.04608848358621239, -0.09710045271565308, -0.14471294217325292, 0.330305825411012, 0.012577738509581974, 0.6928490380092394, -0.926141734432416, -1.0763236918769694, -0.6661675280072311], [0.09529245366017244, -0.7759199032803318, 0.05013008148999023, 0.8289884432342035, -0.16383646381983197, -0.1719016479721983, -0.013430524997683043, -0.030198245158918596, -0.18275418376367578, 0.04856950832279653, 0.24078486732523907, 0.3311550350810349, 0.4577965213760766, -0.4604988139499027, -0.3790029025271313, 0.515390166379488, 0.1768446507834683, 0.23162461927112385, -0.3147327819193607, -0.3650684513588952, -0.6518377930444094, 0.334223765599104, -0.25684381014399865, -0.3245833390131735, -0.9170345088713485, 0.6755909286379692, -0.4650572139759383, 1.188750227307211, 0.48931561365084114, 0.21199154925520527, -0.42155871540994533, -0.1638215141509609, 0.339996055397217, -0.5102228389738708, -0.4188487852047345, 0.8314476585655165, -0.11978603010052213, -0.1767942656059286, -0.2278431512374226, -1.9028349742546757, -0.22835491087676052, 0.21407348171765858, 0.23687790831360342, -0.761411655822964, -0.3530374226812818, 0.936417539850323, -0.1545585142921428, -0.4009433048828631, -0.09705459963704213, -0.4183264254480533], [-0.1710870103247863, -0.09007249582157108, -0.26599917607828094, -0.6698581868268023, -0.214825646254616, 0.015411016618657621, -0.16842377962434735, 0.24322604876423984, -0.29360738365659506, 0.00584393879592816, 0.40521507259825024, -0.2255352994324013, 0.5229562337039249, 1.0275984707123962, 0.6126847416903439, 0.06894868764175635, 0.16680550228648133, 0.042746896639425006, -0.7589756535942191, -0.3559093946945599, 1.9861664632495155, 0.5866275652007868, 1.2075316691283136, -0.15100626807169998, -0.03069145088508617, 0.697934297509394, 0.4429987918457215, 0.24299378672623154, -0.9938403684408408, -1.5425659034722883, -0.4633085061769942, -0.10750880726216791, -0.4035693873824863, 0.5697164147755649, 0.5481119108846316, 0.5669194689075334, -0.15448288405638272, 0.8224204701496112, 0.14160510618654265, 2.6427938469469807, 0.5947227879972754, -0.43272738079427253, 0.7655981611184722, -0.6817461231372701, -0.18550399013727836, -0.02389114436300694, -0.0551314626476123, 0.24386993572883742, 0.4870859815538448, 0.8098261075397372], [0.14980705294101107, 0.37671865069831856, -0.13205231244674526, -0.07183216045961513, 0.18965714837477055, -0.0004731262165119138, 0.2665223231931627, -0.19820194510383313, -0.2348773386042098, 0.4322092916399758, -0.3481243062816782, -0.006193310472188038, -0.161374277151018, 0.037382751972759865, 0.21379264932617206, -0.4799919477067569, 0.10462171370722642, 0.18354272909982397, 0.011283975051320262, -0.22574775420067378, -0.1073506872416113, 1.0596320674747668, 0.7213205590995546, 0.07711736890393511, 0.18802443825837856, 0.03337627025300698, -0.10014397898820825, 0.20833094411071348, -0.5528037609426854, -0.4188185545104373, 0.0877182157308662, 0.23674184876360374, 0.22246239917013622, 0.009458875618102403, 0.2540551496029781, -0.13600444663715658, -0.45349751524314513, 0.19705333861243515, -0.07092395828258691, 0.5924717001684661, -0.47655212433162986, -0.07946065033291928, -0.7633959408737941, -0.7980217788291624, -1.3255808827126887, 1.3494233745014648, 0.7233765876897502, -0.610126216862534, 0.6338443054728813, 0.7773011072201313], [0.48689924136017826, -0.05674327488942972, 0.964158467366375, -0.30674927344358194, 0.30220332710907444, 0.42549205783450605, -0.054200022456043113, -0.270264709414254, -0.06846622672444883, 0.11971548184707201, -0.39852535356388047, -0.24696764553322398, -0.1666768841390756, -0.0660420609515388, 0.2814192336927532, -0.5661619187069309, -0.07717569884644113, -0.3303004915981629, 0.14072792020939745, -0.38503848381407507, 0.2565518106008478, 0.48358181213143153, 0.18076029892538384, -0.6551037920642, -0.6209932640697332, -0.39961105693190563, 0.2866869825952601, 0.4716480135610944, -0.1768187864019679, -0.3999812720412222, -0.31417328130363775, 1.1649171394745397, 0.14096411990270924, 0.2345901277857055, 0.3041711789862298, 0.13486073750969724, -0.3386163827296474, -0.13596181762785156, 0.06794178547653622, -0.6036466960685969, -0.3227911108623176, 0.3617811597644958, 0.2918573145603602, -0.38502651596000076, -1.078350433316321, 0.33997089920792106, 0.3938753942960008, 0.3656271184002578, 0.4764354498203692, 0.641829120868215], [0.11588537297079235, -0.1194714863080542, -0.038162406594638563, 0.8189740986700882, 0.2516047239053418, -0.8522213201640648, 0.1569486654824978, 0.27882388021133353, -0.6576562068750962, 0.07898625949392671, -0.19915253880992262, -0.3299719956656877, 0.08540212626945792, -0.11731823481642127, -0.06304400722317886, 0.20057569877313647, 0.7191765930524244, 0.535220619501356, -0.16143470011444122, -0.4742719761271828, 0.3795604594353616, 0.5432349879559525, -1.1086238944197364, 0.532452482665137, -0.9554295448748411, 0.025715495142483814, -0.4532611545734358, 0.17654318660002397, -0.8844871077162425, 0.8202180547254813, -0.0021352823730706365, -0.593356378245924, 0.41555494298407814, -0.5732961360256852, -0.4688381110878108, -0.13531216418271738, -0.5976407219728217, 1.14464386910219, 0.039727250395394195, -0.3219940776371741, -1.0196304386543258, 0.37772260344688385, 0.8410839727668932, -0.46782411618931213, -0.7866793580645053, 0.6914160362060859, 0.41104160699134573, -0.2499999150624215, 2.3928914225864952, 0.597297358573202], [-0.27438855851531, 0.5233421131806132, 0.7132109728580992, -0.3955674956354119, -0.6389730291425212, 0.2677049270281108, 0.2263257572777924, -0.5985131166862575, -0.32381441665276334, 0.14066854765695394, 0.24630265611487412, 0.2960365648401677, -0.05058912295382832, 0.44058814517424194, 0.23190039167322482, -0.2664278691970651, 0.1932008266389644, 0.20088147118451874, -0.6738652770203885, -0.32406618188473607, -1.0815886408008695, -0.0027730625105702503, -0.056108884464796144, -0.1829152744525044, 0.2158831701155674, -0.3410220182437727, -0.6243068789310359, -0.11346491416935034, -0.2101697663386055, -0.41215818649973524, -0.15021938080996336, 1.0040012229574835, -0.4175894133240439, 0.06540801689484832, -0.4668903880301886, -0.058162088580761266, -0.2238656259130415, 0.8728162213404752, 0.6038215671417755, -0.9947750707812815, 0.49747667375591836, -1.19780394499459, 0.3919366028073237, 0.26403016529788265, 0.6086553828655026, 0.30132514395838356, -0.1209360863925822, -0.7532804890933877, -0.8181608865596236, -0.522665107555108], [-0.06494988334307973, -0.1341476575175234, 0.2188910739224595, -0.029272678485112683, 0.06752848121672386, 0.2941512759488209, -0.31525203907567606, -0.4403010805981013, 0.24947407307157599, 0.7126202819712343, 0.1210611840085941, -0.09980402347201194, -0.10356153392741481, -0.08394943690563687, -0.10076290034317935, 0.03383799810721535, -0.29001199280965023, -0.08104008679401006, 0.2938154854100743, -0.2520876149804851, -0.1428421376088494, 0.06690775158124242, 0.5215085909206247, -0.19646758201788134, 0.10487304529262058, -0.290442066615464, 0.24348401582780269, -0.09581580515083694, 0.5217341808739557, 0.7575069111832273, -0.2435595206460149, 0.14809356858720749, -0.3654835185637732, 0.012794434119047434, -0.33039583553349255, 0.7113710320154376, 0.08910706537383686, -0.5293167179985647, -0.20139708361606698, -0.8904972625436608, 0.2353856376856421, -0.298941079729874, 0.6335704868059744, 0.3372716432272082, 0.103609905466447, -0.22494950588436793, -0.07439307277149726, 0.17338459694941466, 1.044810688030849, 3.1423557332393717], [-0.5758351874233129, 0.11170754426903529, -0.06348907055398528, -0.28305831338739623, 0.1277259479139994, 0.25923737869581076, 0.07792156199081988, -0.21316107216560845, 0.19691880418922197, 0.31657069569780055, 0.31143373631325644, -0.30745811896025366, -0.33314369459666127, 0.06716073872149386, 0.31634928806139523, -0.03733775710349753, 0.030925372066778176, -0.3141300737299296, 0.09021684273598417, 0.1945653023474796, -1.7141720137377912, -1.048602904246723, -1.6869489939083635, -0.43309086076957287, 0.09539493343873688, -0.29116835370662675, 0.2460417385824694, -0.10460945183232906, 0.3952289900803684, 0.5928294277465013, 0.2925725222785933, -0.15821557430992036, -0.34949283482995464, -0.6045875868553523, 0.541626898000427, 0.9046837879122636, -0.6132728244037491, 0.066971200785027, -0.25466874005519285, -0.7407678467814441, 0.019695961494427337, -0.14056313582182806, -0.47055451637769485, -0.5988458799129838, -0.04640232477512541, -0.13841242268548035, -0.29464162224888546, 0.41990869979699535, -1.5487071713949545, 0.24370356600659046], [-0.08654113681768942, -0.7338152225938736, 0.15345893919275205, 0.5488718015961033, 0.198406913380095, -0.6417776200596212, 0.39713342532181817, 0.3984596193160646, 0.10928708174117577, 0.04867936258974897, -0.5369145760878842, 0.4105317080881285, 0.7490699341769481, 0.24114297910103166, 0.3416284076904685, -0.5678544115987868, 0.18243916976602623, -0.327656333802926, -0.6840299530007505, -0.19502910655320874, 0.21805562817222904, -1.2948097318703637, -0.6329575695510481, 0.23444303264685845, -0.24566778803326386, 0.5439401491065059, 0.42556950532327675, 0.48295725929474387, -0.8997269796179761, -0.29009625118035115, -0.6730760190072181, -0.32587116387872195, 0.6021837385658468, -0.1300965727618218, 0.0017413848105762033, -0.2234047301821987, 0.5005259547403013, -0.19892246010224493, -0.059463116391062845, -0.45425473989113974, -0.5283290640692926, -0.5348788292287916, -0.6346301278221197, -0.6442738809891828, 0.5541662155994834, -0.03437393080753738, -0.7071555589363944, 0.11152928636819912, 1.2705103355077578, 0.23776507442208294]], [[0.7577567746204426, 0.7682449351805855, -0.8427872501951863, -0.6676375240811488, 0.5201122908990523, -0.762577240816925, 0.38919134146843815, -0.9997611291933696, 0.7087322148961426, 0.5500153578426834], [0.7833885702333446, 0.9710091517692222, -0.6390235860071501, -0.32782377336208757, 0.5521680069792857, -0.5595846132634364, 0.18216321218558051, -0.7166523856441014, 0.5011353022418813, 0.2790144159612911], [0.8020502083367902, 0.6315718832473185, -0.9232384182009502, -0.9376054837745595, 0.5042843057264906, -0.9293990853637264, 0.7159102899778985, -1.1626946323869414, 0.9719250340984763, 0.8475995790078525], [0.7113095847066264, 0.8264052135088685, -0.739127128808338, -0.4666468316366647, 0.4936068271323694, -0.6622552809355975, 0.21626525528226181, -0.8489638986880981, 0.5396589796061869, 0.3522542648210101], [0.5647500894825271, 0.5779717219972147, -0.8741088285545426, -0.8642758015286645, 0.4492498604829061, -0.9655582487195649, 0.667597739251575, -1.2490768120131537, 0.819612878102874, 0.7573066699514917], [0.8325061726041766, 0.8904451341457452, -0.7542931684231649, -0.49911160645485225, 0.5459862466593919, -0.6415026539593893, 0.2611317230422044, -0.822936955935071, 0.6160151166877161, 0.4108539022013895], [0.6973474373410176, 0.5714022989712177, -0.9165185676010875, -0.9734429519093546, 0.47756497315993063, -0.9738596074273212, 0.7710161056100799, -1.2423661460289428, 0.9673987586545877, 0.879373243459497], [0.6574435540783593, 0.6088882622262912, -0.9092729717581327, -0.8802353433071602, 0.4840584055042076, -0.9276013910851677, 0.6505471859036003, -1.214772753746573, 0.8824850285443386, 0.7803675899217545], [0.783734778083496, 0.8309402118796392, -0.81089792887329, -0.587850727024726, 0.5405681814867439, -0.7084131210170521, 0.3211283967261735, -0.9207836431656645, 0.6615149234112084, 0.4756731371124527], [0.6806710959738915, 0.8118937659660783, -0.7602709077635383, -0.49006918530150717, 0.502363770260099, -0.6809728003517386, 0.2387188298929543, -0.8930790026395489, 0.5669812133912683, 0.3844594619535839]], [[-0.5795400810944583, -0.47357628360866433, -0.7176482895270453, -0.4973881812375757, -0.6696365164308401, -0.5234846262919777, -0.7348988922355862, -0.6913339320727274, -0.5541354461104508, -0.5011999020129638], [-0.5328603715573249, -0.43481228969906116, -0.6428536531903185, -0.45095780880359865, -0.6081655497042571, -0.4889496686261325, -0.6532163023142177, -0.6130798277928201, -0.5241300587040592, -0.4631726293356218], [-0.5325202265963181, -0.4420549220385172, -0.6584909160443444, -0.455369962281904, -0.6221516405500597, -0.4974494293867396, -0.6719935070572041, -0.6324395014786679, -0.511164491819562, -0.47373795914022526], [-0.5279662770268361, -0.45044486278112916, -0.6357455577898194, -0.4482217292116871, -0.6152677218559243, -0.48058586493994637, -0.6533301126032237, -0.6123086323673996, -0.5031345974634195, -0.46442965012980414], [-0.492728736199702, -0.41601085606434635, -0.5800647255494703, -0.42083024681022246, -0.5589354428429038, -0.45095784023484664, -0.5943555236934175, -0.5728077060286217, -0.46937415357216, -0.42816752717051065], [-0.5755029392928475, -0.47828122880831503, -0.7162076036582392, -0.4937272994871159, -0.6718666857229358, -0.5268436350771488, -0.7389367430769662, -0.6723909276074422, -0.5575939702421246, -0.5003421403589757], [-0.49986456422078634, -0.4203739349761634, -0.6065582303844351, -0.43437039116238124, -0.5797615236013064, -0.4572667348569099, -0.6116736303813832, -0.5883699826734922, -0.4791097979166728, -0.44394898731152516], [-0.588696512315116, -0.48228300452623596, -0.7284404757624809, -0.4997724648795096, -0.6729371960051524, -0.5324126133082173, -0.7391585350373053, -0.6948789261198303, -0.5540601956638147, -0.502741309688758], [-0.5166480624122186, -0.4258355685971614, -0.6283271426608472, -0.440752138371193, -0.5904963496827026, -0.46804581443350335, -0.639561631404662, -0.6016638369932699, -0.4942929383966121, -0.4584644216328267], [-0.4460652221033197, -0.3846877467298483, -0.5022998728548342, -0.3737401941127705, -0.48932188394088183, -0.3948275965580431, -0.5152549248189693, -0.4924010155475814, -0.41239683796853654, -0.3961149070139599]], [[2.1582096979627257, 1.9538881646339896, 1.9889002529508963, 1.9384919480188594, 1.7562915125269487, 2.1517758035177317, 1.8243886323789058, 2.1768263191416604, 1.8872009395108416, 1.4546222148935257]]], "biases": [[[1.3852468417725454], [-0.056749912282787175], [4.16296172258238], [-1.6564017799652728], [0.32159560052039504], [3.535289870726742], [-0.3654807910409627], [4.694539150400743], [-4.175892595419704], [-0.27910925063431286]], [[-0.3320066517142303], [-0.13934035208436749], [-0.40122149033151516], [-0.24801018441237388], [-0.4974813546365242], [-0.20163356884737765], [-0.46876766931319735], [-0.4658881753103221], [-0.2613227933132636], [-0.2943428158223022]], [[1.1181585551893554], [0.9489914175740038], [0.9837957385141175], [0.9442903437047144], [0.7740144904496425], [1.1137951363824274], [0.8366120922646166], [1.1298488521618937], [0.8973369711180884], [0.4760389246446198]], [[-6.1756310854440315]]], "sizes": [50, 10, 10, 10, 1]}