{"weights": [[[0.1677619136011949, 0.05746164092768421, -0.36300797618577263, 0.26264534919401394, 0.4663270696123131, 0.10910184226303596, 0.16776881208882422, -0.06322448801800468, 0.20466238454107535, -0.027394033419326284, -0.030353491685566194, -0.12458013986431708, -0.30014138556232917, -0.5155574232725461, -0.5497039136146625, -0.09741145833943013, 0.3065870546843608, 0.1493316343767903, 0.2598627493166777, 0.04556933149991201, -1.1131032974500255, -0.8755570036723637, -0.8200485147351412, 0.8821156175457326, -0.3722019821060593, -0.3291841746501576, -0.0028583230891748904, 0.08561518913286585, 0.4554212897775011, 0.9994072878999448, 0.30239671797649836, -0.21662203111464481, 0.4136036148379898, 0.20390174815554424, -0.725132689868142, -0.8743337978089344, -0.07392378627415741, -1.051602668961831, -0.26326099320321844, -1.5516949492886065, -0.6927381229020322, 0.273163242755194, -0.0911855216654388, 0.46089728654504974, -0.08677906996631454, 0.06850282982950029, 0.07130982093179425, -0.03972644641960794, -1.912096239022046, -0.8861593201440157], [0.2689204323425712, 0.12232251795420743, -0.39235004717312766, 0.4483075477570087, -0.05359514977857623, 0.5611817415469106, -1.0326525096897454, -0.3537772042229642, -0.08530257047406871, -0.962948769868055, 0.14003783410692272, 0.3417098162143721, 0.3611015658996745, -0.03212965097754346, -0.08171592052273413, 0.5811166013294765, -0.283472631326804, 0.7156796085090188, -0.012282971931815701, -0.3607929858155755, 0.2528597353920104, 0.49023509647197283, -0.3501142817106654, -0.05894846369991983, 0.04277454016557253, 0.5425259867385914, -0.3213412638270703, 1.2260206954932689, -0.6391308076430172, -0.9321535647986728, -0.17645596271895442, 0.151444748975129, 0.2182285441243634, 0.043954230857157904, -0.11656272163044148, 0.3482914439602166, 0.06857528668088028, -0.30473070531239255, 0.059914603194172925, -2.7077607221152853, 0.2250542286648538, 0.32716508527753746, 0.4995662418039411, -0.15975698087056914, -0.237349526507399, -0.19952505151404337, 1.118522271705385, -0.5477669350575818, -1.5574839111689462, -0.7312822996707495], [0.15491134402669587, 0.03569340090793329, -0.005417213990861917, -0.1596010235111272, 0.07461931173782393, 0.23537684730336705, -0.11860421457465363, -0.3699810451249239, 0.013448780203227623, 0.1738184774567847, 0.1652940648773524, -0.15911891241530543, 0.1148852305900742, -0.1757610562752527, -0.09262119810457904, 0.004302937519578756, -0.04036087736920219, 0.15937644668044784, 0.12260185732046518, -0.08991729603126597, 0.05311987234743703, -0.06575076035501334, 0.4895706469115366, 0.33668751849224016, 0.41017003048241607, -0.20405047177488625, 0.26303002579286167, 0.41693916637279893, -0.08380100235230122, 0.03243558244626907, 0.0759556694855213, 0.27502022377342134, -0.0680850553759292, 0.10048954324704863, -0.5092358068606841, 0.08443356041079518, -0.29453001036028237, -0.6652372217954677, -0.16692192730445782, -0.722953174624321, -0.1685961313377589, -0.2371806648831414, -0.07411056392983961, 0.3121613520702217, -0.21164553334008204, -0.2763135554151214, 0.07366466562902146, 0.4070044937654797, 2.900189345724313, 2.3941411534894983], [0.08254984269726452, 0.05836512641277241, -0.9681519089267245, 0.12575197990902517, -0.3799016287184939, 0.9707398625531731, -0.23314656378974943, 0.23294841711203043, 0.3529474096296148, 0.08754874032906432, 1.3562759844673278, -0.7886042687530976, -0.2566525959378761, -1.2474645582096493, 0.19532503086735675, 1.0867273675731304, -0.6251959449858743, -0.19708748934063133, 0.0751383269437684, 0.13982029481455902, 0.10075196580472756, -0.12313381400984123, 0.11175687436029567, 0.4770085157886793, 0.24048713401276928, 0.3978088819286089, 0.2091853538939335, -0.39689500361843993, -0.12731573763876558, -0.14306276573657215, 0.19502431846988355, -0.8881225666770944, -0.2617573016355636, 0.03588368654091334, 0.6369509012696964, 0.690679122992905, -0.2127826539745983, 0.08833019149210111, -0.45453774016338155, 0.7020149401971163, 0.14743238701134037, -0.3461212736913761, -0.24233004207273087, -0.3316657144401508, -0.10110787889744519, -0.5444464211474249, 0.4167596650116225, 0.27432217511252727, 1.2077119653786896, -0.0728058558455612], [-0.5294843134347332, -0.26712463244787293, -0.6671054886640229, -0.3943036886211877, 0.03987128554345092, 0.8419797447468205, -0.4099884107875681, -0.33793549003710277, -0.11885932512642756, 0.927447696389137, 0.06835499450794828, -0.07093264300879558, -0.6804339428280974, 0.9730317984298257, 0.407844015814995, 0.20657329910158137, -0.19765093076948861, 0.2719713891232252, -0.5244123757954317, 0.571794922718915, 0.0026436667621513713, 0.5935544455312084, -0.005329489984689241, -0.14071905801814918, -0.2961780667872521, 0.007809908523378769, 0.09024795293699127, -0.1036297075572126, 0.6370563150143648, 0.41148131916147884, 0.20237519089027653, 0.4522607298909482, 0.03627152349339447, -0.014109622223884297, -0.538332961702838, 0.45188661158596505, -0.2226042876590914, -0.46446954863613243, -0.30216628767008913, 0.9616196268075269, 0.14860977830976857, 0.07435899543015637, 0.27958176295684534, -0.2924487442011677, -0.22118636448941353, -0.6629953158323646, 0.7663496501737187, 0.1885800201980523, 0.5785154360073729, -0.8249547985912425], [0.12477932778189203, -0.2518102185736158, 0.4846533409588753, 0.581871567437125, 0.4492111087551549, -0.2667114424568764, -0.22606415870760443, 0.09776076498185503, -0.3066448295928842, -1.1785899000153486, -0.8861982633465382, -0.3720899022143007, 0.39188242722261385, 0.08377321465371992, -0.05107118811334567, 0.49330023228441333, -0.1037014297934124, 0.4232898593538531, 0.6066245912019098, -0.35244335305011626, -0.581797717930302, 0.5800009498852791, -0.9015886297667384, 0.6500380650810591, 0.008712636979874087, 0.16132226601109986, -0.8080102579280349, -0.27458962759296845, -0.17778066429969855, 0.5068926593274468, 0.4546505197882063, -0.4130836341682437, -0.04959321278952165, -0.6812623290174982, -0.22380041431283582, 0.29379737786900506, 0.08986867991579367, 0.7136472166976674, -0.639650819614169, 0.6332410178719143, -0.7641353580680781, 0.6129650127911771, 0.12942410432578103, -0.061362252499532075, -0.7634253012559467, 0.6337623961126176, -0.03912459447337342, 0.16214388713391023, 1.1557809969624813, 0.3130392336319263], [-0.6169173328579821, -0.15663866826973566, -0.3644811313796013, -0.32033988051993895, -0.2019796229929729, 0.5137195150257303, 0.15363469786432166, -0.04369859211496057, 0.015510355922420716, 0.9256188219407958, 0.6468723207821792, -0.5097043710414981, -0.16539137902843148, -0.2318853889517042, 0.6068367107002726, 0.07430277166414156, -0.3612426058123666, -0.04744356431089299, 0.3278230936909641, -0.0013864589940559716, -1.0991635807737656, -1.129758493568168, -0.09203483043626173, -0.2672052482039118, -0.24062896424538102, 0.06313235994941761, 0.6142062131365282, -0.15663123601214873, 0.48476829976347435, 0.2474647008694519, 0.05057726176439049, -0.04066348526750257, -0.20594669717752215, -0.2853792065429814, 0.5579986898171796, 0.6218882007884137, 0.05439754243386711, -0.27453864202797784, -0.5834237544097882, -0.4437340820218644, 0.22715404691561067, -0.15452511823447238, 0.019430844778408635, -0.257931760348957, -0.06973628859654135, -0.5922747169679021, -0.1846337373238256, 0.8061746814521038, -1.1980648806126832, 0.25459934492408703], [0.11345766876190636, 0.5857784809072242, 0.24363471408868664, -0.09334123912618694, 0.25304097970910444, -0.4419554186756384, -0.41027338986140127, 0.0481837532993492, -0.5461213160460066, 0.2092565526906736, 0.01096876191984858, -0.10394588839879745, 0.03678916533990443, 0.17064000478087568, 0.17573132066228664, -0.1442344672912103, 0.13878924810193002, 0.1539026030943853, -0.2643652234149042, -0.10122195280105419, 0.2424413297215446, 0.8428267293110708, 0.16024617379725822, 0.5372755178344825, -0.2793967260463, -0.40976066184239024, -0.09536088119742066, -0.18483307767207882, -0.10559056947786931, -0.26731487017129496, -0.04691884202003403, -0.4431886838363648, -0.12031380115849323, 0.430915761803393, -0.057356024659542613, -0.8056079509447206, -0.23735937246750835, 0.482650102814631, 0.9015314928650126, 0.4366664120065709, 0.05063188136282876, -0.01461569099579341, 0.08528757172968872, 0.15730771092292967, 0.33070546546312457, -0.3824792439467169, 0.16438639063338542, -0.09597150602058008, 4.02018829170973, 0.25372007353194875], [0.264054925114971, 0.0074446102259113234, 0.703716730415905, -0.7314560795335592, 0.021514989455760313, 0.7834473826060134, 0.006182142027580927, 0.050276837795724595, -0.0775929729086173, 0.1989227768056019, -0.3921522912869111, -1.0360907854238408, -0.22299611882080947, -0.22880290771351272, 0.326255749752758, 0.13351490871360003, 0.1452892189667149, 0.0408992268118354, -0.42110180734737346, 0.2244314359144982, -1.4813815957948622, 0.25831562698001664, -0.5730576089689183, 0.43285083827415805, 0.49722072395539285, -0.22428579852371333, -0.9382635712245595, 0.25281533694413294, -0.32887310824207777, 0.12568698597673522, -0.5020180361356529, 0.3998993577119341, -0.4177604408211594, 0.026022610743346553, -0.2460752180704872, 0.09800327524291544, 0.2049015581997631, 0.09502142541494703, 0.07180015700136949, -2.4736751609060064, 0.6848538035243705, -0.1931744580976743, -0.25856201829265585, -0.6280535958037237, 0.37068039536619435, -0.041866840609666986, 0.20371256941876076, -0.5089897934708846, -0.6403722148232495, 0.14040936059650594], [-0.2558094325972317, 0.0500602910139343, 0.7221908379295191, 0.4853988618819723, -0.3467836949635626, -0.20208271587233345, -0.20882288171832444, -0.23409420706833892, -0.3463509337227042, -0.32302950200075015, 0.36238220053287495, 0.3533591434944327, -0.053361112048901496, 0.054783618632388516, -0.15962375675706367, 0.24156342182500548, -0.4193581693974533, 0.04238230715877572, -0.032038985650126424, 0.24747102239007568, -0.8572937880512114, -0.8795427277155269, 0.020844465489096773, -0.42171869253157723, 0.02192227004302217, 0.03291508430791357, 0.08730487914793299, 0.06531438276540044, 0.2214291389277562, -0.35304363848084264, 0.0649337899951231, 0.025016804167477962, 0.39017457186591187, 0.193718658681717, -0.05634462434219195, -0.11047574660333857, -0.3586887233628325, 0.19681303601603162, 0.08344112389093267, -0.7243839992038736, -0.7134854546503313, -0.46332328064114864, -0.2205330404484911, -0.24486305483211268, 0.8593168783895481, -0.9365072519777856, -0.5330920480678168, 0.5232426288099841, 0.015949135705891952, 0.3102856480827727]], [[0.6610396938225348, 0.4976285699190371, -1.207997219600214, -0.7027067596005802, -0.7968900014889579, -0.9063907298943445, 0.5985358400215928, -0.8116647209017223, 0.3541716116582138, 0.5750207562376142], [0.46342874409220997, 0.5398344876508278, -1.0483848334305892, -0.6223069462311588, -0.6282959205125253, -0.764259917993854, 0.4346053778297207, -0.6401848101747223, 0.25578237594087133, 0.3706489263897864], [1.3428056745528818, 1.2219996598909701, -1.197719120488252, -0.6753323895504746, -0.649716067711814, -0.8934792251645661, 1.1926935326882442, -1.0893634712770208, 1.0299905624293362, 0.8671368749888608], [0.5897416725481108, 0.4899073831762163, -1.1498431991808031, -0.6748545402193907, -0.7558762118350669, -0.8712437086690357, 0.5452846416781414, -0.7464071911478896, 0.3271275690500933, 0.5056607688536808], [0.8300997252600347, 0.5229860769118826, -1.2827581171185867, -0.7329190761814663, -0.8765674124846142, -0.9863036614609789, 0.798755598631424, -0.9561721703285804, 0.47263931774986284, 0.7304658214707881], [0.6008436787732239, 0.499683577840508, -1.1665933851671693, -0.6847501406229108, -0.7581086296631793, -0.8771836786510303, 0.5361831502668271, -0.7482666920624065, 0.320961954346929, 0.5165932012814421], [1.3646143286987766, 1.238752392890156, -1.200525554002005, -0.682468276026016, -0.6583688782355527, -0.9039948415216064, 1.2181634482669221, -1.0970143204692469, 1.0503227625858889, 0.8837742633889974], [1.1791210292230232, 0.9761408132814029, -1.2156498010253387, -0.6866871502197957, -0.6960357798766075, -0.8602825933016977, 1.0806792975988042, -1.0841930098239638, 0.8612713855793466, 0.8382155456300999], [0.5595862221745475, 0.5168024421023744, -1.1310494334904853, -0.6578853090324653, -0.7075854246184454, -0.8300931951483096, 0.5089768942951812, -0.7216127359192679, 0.3072924184189704, 0.459856449743009], [0.4428415896083028, 0.5307725459970906, -1.016415138423167, -0.6002263240619469, -0.588148308158651, -0.7144587890897746, 0.4119815811214594, -0.631107696701272, 0.2798139887121422, 0.32366675273827156]], [[-0.6979082463188752, -0.5316984876293858, -0.9690722065130951, -0.6469018504326532, -0.8176895146335028, -0.6447078449999102, -0.9835887159464788, -0.9224015066826801, -0.6115509908226407, -0.5027947544042465], [-0.4980349460483609, -0.4029565881153239, -0.5836514293094865, -0.46251511187567135, -0.5454606507105584, -0.47719891730572883, -0.5850697680806151, -0.5582363086711027, -0.4667200456795704, -0.39574598923486637], [-0.6220090165511414, -0.48620593518388544, -0.8359730144978499, -0.5772594171432053, -0.726907114772022, -0.5945756010241984, -0.8434268037365339, -0.794311012112313, -0.5498747141778524, -0.4659892693795834], [-0.5319679683336344, -0.44003039976258845, -0.6475466099257884, -0.490995764435514, -0.606171618902508, -0.502254713807869, -0.657721422083814, -0.6241838919448126, -0.4772964257694653, -0.4117252723411391], [-0.5431462857182939, -0.4365387955517662, -0.6615125710989482, -0.5008213665633947, -0.6071019164929603, -0.512514842457414, -0.6688923300921392, -0.6482836405509601, -0.4845771872447747, -0.40941662885153424], [-0.6482803150548133, -0.5069168290305789, -0.8798431719601342, -0.6042012021561655, -0.7606721323031227, -0.608774277526588, -0.8995380982455549, -0.8243958359253472, -0.5783591286417252, -0.47509195513930824], [-0.5729420840897337, -0.4542699300581595, -0.735397698295256, -0.5358548412195043, -0.6581738752814662, -0.5398220094780127, -0.7346186835028256, -0.7067017022897962, -0.5106800384678211, -0.4318698420429], [-0.6954368485823912, -0.5325923515048954, -0.9624304605874915, -0.6410926594662795, -0.8088979159799727, -0.6454293708250604, -0.9694447607547255, -0.909467825840507, -0.6031898909994469, -0.498878803214863], [-0.5693690821434833, -0.44629825601868567, -0.7225155813862421, -0.5267748785640329, -0.6422200033780169, -0.5322171940614457, -0.7274860776954267, -0.6887282633557897, -0.507850893873241, -0.43381133926598975], [-0.45730820653135773, -0.3870886116477264, -0.5019320880981478, -0.4109413921815389, -0.4842466484782524, -0.41983590562620915, -0.5091750015975655, -0.4933318192595653, -0.4037573645759249, -0.37004035887670134]], [[2.2216180884421157, 1.4340903320953269, 1.9716128783569746, 1.6028367290539802, 1.631907775743626, 2.0618804275498492, 1.7742853775846288, 2.205424080562638, 1.7447099850722065, 1.1930077090531772]]], "biases": [[[-4.161287384585096], [0.03968854521738144], [4.060504537899252], [-1.0163957133364023], [0.5644143592696309], [2.9436032409159627], [-3.501274346350955], [1.9180193837599704], [-1.3792877464793911], [0.05414761971100923]], [[-0.09677563076043519], [-0.18573986880282933], [0.3077929297192256], [-0.14106973722754942], [0.01090699557391548], [-0.13167539736462489], [0.30057915620287146], [0.2519995743439677], [-0.1517506421706812], [-0.20505468884540784]], [[1.2840372848106485], [0.4988555146253211], [1.0435316086323931], [0.6657151460971977], [0.6977123930535417], [1.1295463756051034], [0.8451520345496878], [1.2664136110431932], [0.8163977861899457], [0.2592480114577902]], [[-6.366159078536553]]], "sizes": [50, 10, 10, 10, 1]}