{"weights": [[[-0.127070833184371, -0.18105388943610287, -0.04131341114234785, 0.5853209737222744, 0.6324440964322273, -0.15033282377585416, 0.24487373129801063, -0.4683169968697675, 0.07946977790082543, 0.17411433354444797, 0.29368622220921753, -0.3728258731530772, -0.17185407803541294, 0.29754121554774227, -0.03756677109825608, -0.015646846178383068, -0.23777599109173317, 0.005438752104703633, -0.04979358918651035, -0.6089943210190469, -2.0340235651014447, -1.3816861279877832, -2.0972249238431186, 0.5377716592265029, 0.24272597277918018, 0.4038503568102438, 0.29885748883304214, -0.21499471522582303, -0.29477231177954466, 0.03333829654147379, -0.11500633660739945, -0.5920597402597452, 0.8817295493741583, -0.17135181262773844, -0.18816489378127477, -0.6105522492475778, -0.23745469083248932, -0.30991894570604767, 0.18776285681108137, -1.086585495068764, -0.3901359553227318, 0.20178189018173753, -0.3489689293117269, 0.5213501422458812, 0.46000004648482423, 0.34366622757097975, -0.5196506609230004, -0.3176926243042538, -1.286937581924319, 0.37330175594406523], [0.2051657852694274, -0.6383266456850594, -0.238674805487105, 0.7505049310925676, -0.0951726345472168, -0.31994655591107485, 0.11255143393695327, -0.05146272634785144, -0.4902795273403143, 0.6223133694501496, -0.3532760582278769, -0.31179454352285674, 0.3313731569199911, 0.4411157739890883, -0.03560513462500953, -0.2301990854881689, -0.20852321735688964, 0.35557965800648067, 0.6484990722432411, -0.28614748666581863, 0.4755872663628609, 0.7194210437818032, -1.0585538490729385, -0.2973319137149483, -0.5044956420024137, -0.17197382648444465, 0.19621193044103666, 1.2926279120318998, -0.24014256407160495, -0.8610870060381436, -0.847032023530217, 0.7797952233485987, -0.0382622067962589, 0.22396437204217493, -0.7006391906537293, 0.20483229002764114, 0.08900281367132523, 0.6331029167661926, -0.29286139211979667, -1.7000763081514898, 0.2557611062524502, 0.4152205533682912, -0.2312894186303018, -0.03446488961700989, -0.706950906681234, 0.7098719236314333, 0.6628666974083894, -0.5720546447446113, -0.5071371271448605, -0.22893131487769988], [-0.10769015291816737, -0.26293960993610704, 0.1926429578243059, 0.3359381128820958, -0.14911789867286163, -0.04089419971553826, -0.10907406027759353, -0.237845048039076, 0.07376229244706892, 0.3260667355145759, 0.02038611355429973, -0.45868834226230387, -0.08228971365309244, -0.06426836046784958, 0.206083369514362, 0.10305498173791727, 0.06353764063258478, 0.3705658234008183, 0.1379778001416845, -0.21534780344680354, -0.3616232403729271, 0.6595070584818721, -0.11593547389453408, 0.16177838803427302, 0.08203682357471805, -0.013141328900206415, 0.10012672041949754, 0.2379405740908326, -0.16587140469385708, 0.3003966421428282, -0.5451501743178144, 0.2152445446867223, -0.05721264217464817, 0.3389609917338808, -0.897962070560105, 0.05995027364822595, 0.05139776944631896, 0.07488839537976145, -0.36329108697597434, -0.6874900493838303, -0.2664921798507716, -0.306555922897097, 0.15950872406786268, 0.21536263647743883, -0.33024889317601425, 0.01705392062554713, 0.13178947689190865, 0.1859253698341898, 3.479431981055417, 2.2747654571083293], [-0.0659785434896992, -0.16056840133130912, -0.5329370026924083, 0.06778575427740854, -0.6812930205918987, -0.15250735437860416, 0.6965293542111866, -0.1708068788649747, 0.4874988079991886, 1.161982622083004, -0.24053694121112745, -0.2799802679610731, -0.07705178816971046, -0.7932429816877168, 0.5531358189644123, 0.25066857925357516, 0.4728514944389402, 0.06077776632425725, 0.06468403622298995, -0.2992141351827449, 0.37018242686868025, -0.08585357608125546, -1.5062048237559391, 0.09955944958107682, 0.42939362563326205, 0.0027705478587112934, -0.13897693247654058, 0.09953071681295747, -0.4231467707603825, -0.8604580942400982, -0.11667646223693931, -0.21145761800087537, 0.461916095108425, 0.03978082790266929, -0.039442413167654906, -0.22319234308204874, 0.892209349590393, -0.1836485848790822, 0.4961450119964691, 1.2287196468229353, 0.09984926998106602, 0.21081404230545392, 0.19973769185558163, -0.07827064227328297, -0.11972924849451672, 0.40460938306007616, 0.29618405685131105, -0.5179341525362864, 0.33307291963797925, 1.3695788867114393], [0.1679294373531267, 0.14657648910479373, -0.7872215275501432, -0.4926769797189926, 0.34550794727255807, 0.5992727046448212, 0.015164890195713933, -0.3523290499546247, 0.22017264794996966, 0.7402844243052384, -0.9886747620534534, -0.5666487196559198, -0.46100971272472874, 0.7438575393182246, 0.053366150945315396, -0.13895754988929535, -0.03726709310048974, -0.13835214238668353, 0.3168712777625585, 0.5726901548650701, 0.09060621727388238, 1.0295260102872947, 0.018145390323139176, 0.1645384696572041, -0.4204063798554452, -0.5441404926459911, -0.4752581206799559, 0.0527845358187044, 0.211644330513404, 0.09377657770113845, 0.16562152676491718, 0.756938075456524, 0.05564262455715973, 0.2067942838011094, 0.33199012467808553, 0.003189973805013497, 0.13235600429408573, -0.21173459388156152, -0.7609434547005183, 0.880165118297534, -0.10207737599085456, -0.14839894622164793, -0.2658395052474038, -0.019140595785790786, -0.7850199074192523, 0.567308116750655, 0.2861254103869783, -0.03504298083226754, 1.1538044074723317, 0.45568757453372793], [0.07542769633030977, 0.1292296351037416, -0.4424326170530553, 0.3360547696504832, 1.0783127791771807, 0.4294172936193392, -0.23795624935257306, 0.3285868111258684, -0.7279874457876185, -0.47808141487057676, 0.28306609508203445, -0.4174812266000753, 0.14796046434340263, -0.20315242810013542, -0.44483451340439384, 0.5391064256762416, 0.07727984366772853, -0.18437375952822002, 0.06610515224968676, -0.47172593933883367, 0.10450654956655935, -0.00301968510050517, -1.6454419699743166, 1.5909493193064956, 0.17200914483453622, 0.10422579815918662, -0.5428224529630242, -0.783237786355275, -0.486012438008371, 1.1587593671492407, 0.9732392508271963, -1.1756009079620418, 0.9413616064905516, -1.0786446966364822, -0.4710092731358214, -0.5390711089778373, -0.6209779891074577, -0.043242801980551505, -0.0602392309057083, 1.4114701696201983, 0.046186448227130555, 0.6577986750398067, 0.14514156638612283, 0.13078478593793902, -0.38871854720801047, 0.20109848740558667, -0.06888223370050527, 0.24328722745344253, 0.43455942327160607, -0.6665473417589799], [-0.09717235276241712, 0.21607160578490953, -0.042235481156778984, -1.3599315769406206, -0.373329023717387, 0.7840277997455973, 0.2847031514851972, -0.27797531311045137, 0.6448879831740127, 1.0416077173713347, -0.03958265421190043, -0.2580821062993996, -0.2278739337806507, -0.6212699870345587, 0.5384807787434595, 0.6344208503172512, -0.3511586109780834, 0.12300607156694389, -0.36428884023344393, -0.2381553690706663, -1.0646615587675663, -0.19157178587509396, 0.4149918834933041, -0.1513883714935695, 0.4408919097998144, -0.6396968493265996, 0.250385199040903, -0.24885538412848116, 0.23198244235398965, 0.24565927589089578, 0.23932434647390685, 0.5050206214171057, -0.15103725606517146, -0.5744739789595187, -0.2699959620564185, -0.46393030731631296, 0.5936583963402471, -0.2176657750778253, 0.3829917403084598, -0.8474346880002456, 0.2424317264539565, -0.834633153496687, 0.37246072393566576, -0.2184074410546405, 0.4761845924645773, 0.0990742352067257, -0.2948701245017843, -0.2974622916222716, -1.1469190230136614, 0.01908184408001534], [0.523204803419487, 0.2875293214489332, -0.23416926240467903, -0.7957234520570967, 0.17650366288520286, -0.5284009372374318, -0.6956614807928976, 0.09021757744047217, -0.18113772904548817, -0.12984499832916482, -0.202309146418742, -0.11904346194304312, 0.07424347258771868, 0.709385252003345, -0.09574086566260102, 0.31474385951687506, 0.2195252040771125, 0.5462449049502915, -0.03869187783062959, 0.020108527704336965, 0.6418424139584659, 0.6027578548445987, 0.7926627146352259, -0.08116703923617502, -0.15797626439498155, -0.27298405331052233, 0.7695728483741686, -0.012653942638368902, -0.39231572631162304, -0.9231416331721815, 0.12203495883414386, -0.09380960237863924, -1.0984498711132045, 0.5409860655274841, 0.41903078725398557, -0.21451750098379463, 0.10946655923974935, 0.7042791051527586, 0.6269688822433049, 1.5830448740877534, -0.3307152109587086, -0.19591854503249082, 0.3109222542352267, 0.35673931626349964, 0.47560054164600096, -0.20938005798293355, 0.041520669693401686, -0.2974057814688404, 4.040989597618303, -0.2625031020308175], [0.596538101840997, 0.2463735103628414, -0.2202781729724557, -0.3129751843554328, -0.19833116158306752, -0.30388290184813327, -0.3940383352765509, 0.30710711690045256, 0.28811303984901726, -0.7891787653501301, -0.5616997324546238, -0.5753553228210595, 0.17876815042821514, -0.6682980308020405, -0.5637367448702157, 0.21835287871850906, 1.377491924211536, 0.6679292116628522, 0.6290192032639452, 0.28500609510200386, -1.4801331755371707, 0.5461583361192474, -1.2399565827641204, -0.24475213070704008, -0.2729242362491146, 0.07856378227644598, -0.684674786375671, 0.6104797124368949, -0.6799363927167452, -0.013590769489051488, 0.43912692883991594, -0.009538855775645911, -0.29550773269956, -0.1383383520583938, 0.6102385687688272, 0.12539138971598535, 0.27304563232458656, -0.10238695545105685, 0.2128219294294786, -2.303308938900939, 0.11999895489330438, -0.09036885043182452, -0.14872385487469833, 0.47916824333265745, 0.07627855704262097, 0.3051233286679895, 0.009499124076316177, -0.38333660988730983, -0.559863611461172, 0.02756480614229353], [-0.17700098169410114, -0.3616385920511335, 0.2172602614020605, 0.4422850270634213, 0.05054913748206067, 0.0529294187377384, -0.3157566270070985, 0.25076472568024744, 0.42621286685750254, -0.2416658123231997, -0.254215875043821, 0.17785293107391878, -0.30317396197598445, 0.22647610889846154, -0.08955693285939959, 0.0061906767486505625, 0.27188902868137216, -0.3352467508874782, -0.3965235036478205, 0.21264924402509983, -0.9057046135620958, -0.783175242536775, -0.4497796569716832, 0.24260657747531922, -0.5917200922984563, 0.015517515356418573, -0.09672594482000182, -0.36569808555606326, 0.025315824961536327, 0.487240446199586, 0.21263415623448081, 0.37777839996682855, 0.25835109703552844, -0.1710922641002966, -0.04192224911733085, -0.016143432949143804, 0.48157258411536097, -0.7611099603600955, -0.05746221082003063, -0.40135910988295403, -0.8301499552577256, -0.21470696610256787, 0.17520037079970172, -0.09719837488845223, 1.296855135048604, -1.245750127478103, -0.48867228051250655, 0.35136973490623963, 0.027065506123878348, -1.3628505752450317]], [[0.7196491884442602, 0.7666895718071034, -1.3486981547984576, -0.6651435222634593, -0.6262888179005056, -0.8635017603300471, 0.613274627299132, -0.875721699540497, 0.6064334711567136, 0.5205611039985039], [0.027290030538567527, 1.3863175320227066, -0.6356361369846283, -0.6656580162171497, -0.4173934222885612, -0.34184763020557485, 0.45183436258827686, -0.19097180365152855, 0.49461612071871086, -0.28426289521380327], [1.3662434290301155, 0.6138860051846013, -1.8171877092739155, -0.611050674347336, -0.5212803633470946, -1.0697716506752468, 0.9995256081118717, -1.523868727811017, 1.15691095551309, 1.0711131918288583], [0.448413904937587, 0.9192433301959322, -1.0865582397549527, -0.7012581365924966, -0.6246499600380507, -0.6885932497415075, 0.4870291561701473, -0.5933904804850799, 0.5009641934562438, 0.23072774018436562], [1.0828482762188587, 0.5992961467372674, -1.6377065952498338, -0.567074053780709, -0.5797004359360685, -1.0455047147217096, 0.8485234926618459, -1.2471097939976383, 0.8320726531060026, 0.8707038431593207], [0.5321664731222452, 0.8801926031508843, -1.175410470391941, -0.7034669631808175, -0.6337775089684385, -0.7502970864052795, 0.5027068172550441, -0.6698784050798314, 0.5224676801187841, 0.32421267748950083], [1.3819533745390407, 0.6086565865427547, -1.8299863306829436, -0.6120986998360057, -0.5067386049806649, -1.0607072795521144, 1.018075974753307, -1.5520798526663289, 1.1735035408420011, 1.0798150545875278], [1.1682652490766359, 0.6092094385334141, -1.7054787639193405, -0.5839086612644419, -0.5582723557474742, -1.0371785086367407, 0.8847047454040127, -1.328444825983476, 0.942762228640621, 0.9394801129958521], [0.5910334381017837, 0.8551887724938286, -1.230388795080883, -0.7006645452993974, -0.6341500544883629, -0.7786833612891353, 0.555078949048107, -0.7398862670792831, 0.5593951202955185, 0.38040258142884453], [0.30379995684620936, 1.0761361730775048, -0.9275070590817466, -0.7206268801859365, -0.5695696180035087, -0.5253560002597766, 0.4742589912017799, -0.44614465274360277, 0.5186429289111869, 0.06623278556101599]], [[-0.6577802889982711, -0.584650523839194, -0.9347647793427274, -0.5895093527690811, -0.8018905913759274, -0.6007431440057214, -0.9459440800477109, -0.8490787246936662, -0.6235796407350567, -0.5672480704655989], [-0.5648873081511369, -0.513858807108402, -0.7752791411175466, -0.5002496274462911, -0.6745492404749241, -0.5255900714347309, -0.7783197464940984, -0.6993745589199198, -0.5514290537523399, -0.49281627525309557], [-0.5830246071003383, -0.5340485592081936, -0.823001661208924, -0.5212160568638539, -0.7134137185179757, -0.550406871903883, -0.8292241173000193, -0.7459831682106919, -0.5552768988916812, -0.5170007833392193], [-0.5526278467956839, -0.5234235856774361, -0.7555325668483028, -0.4912219172041708, -0.6715381340013824, -0.510715227645527, -0.7656047800144044, -0.6877429200085843, -0.5237172584984704, -0.4880379938237733], [-0.5084254181242104, -0.47747962441066255, -0.6778889641402072, -0.4525618910579281, -0.6003281966343926, -0.4722681375057225, -0.6845982663068934, -0.6315880056073563, -0.48166101171975895, -0.4426418010212845], [-0.6448959364677636, -0.5835221445737984, -0.9188455243232171, -0.5782323214453884, -0.792590230028912, -0.5962696549918473, -0.9354654039888869, -0.8176130492975546, -0.6187840598070307, -0.5596162332126913], [-0.5281744361436292, -0.4931935357378758, -0.7282602439760687, -0.4781849750828884, -0.6389606126835496, -0.490131023328481, -0.7257976448396958, -0.6667634803997996, -0.5028745805338032, -0.4683679826761274], [-0.665063304979118, -0.5921208168965639, -0.9432596031431245, -0.5904209937101574, -0.8033971713315743, -0.6077856370754117, -0.9480997521308554, -0.8506092933170821, -0.6217406405934492, -0.5677619131404492], [-0.5529210619313926, -0.5062968350495517, -0.7652179622375507, -0.49249491335084083, -0.6611045575090619, -0.508225022774199, -0.7689341311307119, -0.692513966789255, -0.5255392582689744, -0.49010357746007077], [-0.4245079799354211, -0.4036202209517957, -0.5265136250705325, -0.36812872179959344, -0.4774374350128442, -0.3812602683650892, -0.532202316819264, -0.4917424310025564, -0.3902770935803668, -0.37794409182961153]], [[2.061778620008855, 1.7271803347339945, 1.8211602469884511, 1.6856465912045326, 1.5079462052540331, 2.02691282008398, 1.6104018356604086, 2.073373826332754, 1.6880339521171714, 1.1037347861988613]]], "biases": [[[-2.032033201552053], [-0.10627318144044143], [4.354851650316776], [-0.8177870459340162], [-0.8146525868755705], [1.8078784389082392], [-2.054516536476259], [2.276493447325989], [-0.4941061730027398], [-0.17206881757844797]], [[-0.22696315091547783], [0.3317831510373192], [-0.4306845609271931], [-0.05160253675965215], [-0.34986493089937426], [-0.11925434236852094], [-0.44297899325350276], [-0.3812061117270377], [-0.1349759227083792], [0.07293507470631562]], [[1.2314725885975184], [0.8444420352515576], [0.9567360385185089], [0.8059451279190017], [0.605269526175794], [1.1911252423790606], [0.7175878327794708], [1.2419325989329832], [0.8090439738407681], [0.18140018500930602]], [[-5.4633100803969015]]], "sizes": [50, 10, 10, 10, 1]}