{"weights": [[[0.6763056375296069, 0.3332785031513026, -1.0751152780334423, -0.3197684241617084, 0.10298208163792683, 0.6020185039069482, -0.29161685396049963, -0.03327775156823398, -0.06175792058600538, -0.204774476516828, -0.08172723357881058, -0.30230358208963226, 0.04458269698248575, -0.1349154288612926, -0.7741228478079368, -0.0694904340280777, 0.5615335269496653, 0.4646479524853002, 0.7821785962812475, 0.0194561686256678, -2.4013632943722496, -1.027103345782264, 0.051036173787368404, 0.25677254516745346, -0.1626848144515728, -0.1834255709215158, 0.6038649722268039, -0.1737705492992366, -0.30456809262200923, 0.37675788742604827, -0.1495468369905397, 0.10600997132223143, 0.15417648782069462, -0.18381093957802058, 0.9061628760079226, -0.7728547256274724, 0.28543032808996505, -0.4044589391368585, -0.5337777168216141, -2.0182331529011734, 0.13294214405305482, 0.24118022396585248, -0.45419268973398685, 0.7576218694478167, 0.6259271596983838, -0.22056736397093527, 0.07592985538582248, -0.4552657284655385, -1.8407796755994923, 0.0008234279896636782], [0.31903868574006855, 0.08704490006277857, -0.25758824570323924, -0.1689722264367095, 0.08927170540853731, 0.11888834641894487, 0.01356662877204079, 0.22343445662683178, -0.5787767222677771, 0.037780943813316474, 0.2905228381992259, -0.012684445315383201, 0.9845502640098398, -0.7526042911148132, 0.40854994240923076, -0.19101022151479938, -0.15210022560255865, 0.1840014700633641, -0.48529322529887897, 0.041006179050040115, -0.3256755053961026, -0.014462574988973975, -0.23823899428050274, -0.6033667326593531, 0.1240402752903687, 0.34928544308532017, -0.3961824215297157, 0.3989820377929785, -0.39736076194539754, 0.3554709678731885, 0.09704116579865973, 0.35086311840058404, 0.5840026920551129, -0.7096510281635963, 0.4958903286644478, 0.5927644471942746, -0.2716792045327614, -0.5997012321618641, -0.07062260251538659, -1.174515510803463, 0.15276075897903993, 0.757630496884243, 0.847574235940269, -0.330781685717079, -0.3352929484992552, 0.9346027088019828, -0.3439772709746809, -0.26129732568570824, -2.63125858209047, -0.7258742067606611], [-0.06796082842064902, 0.11835228441427367, 0.13921391030695454, -0.45947758400209315, -0.2926437969508736, 0.19101489405460897, -0.46162562214805647, 0.013686417554604539, -0.3441633143254231, 0.5679306168931475, 0.22571572087698552, -0.5456958818719588, -0.03791238860117953, 0.5787037545681512, 0.4351667291196491, -0.09721578075629791, -0.1750968134312764, 0.2171776750520814, 0.1990096953201891, -0.1366795057674118, -0.019907143000283716, 0.7304359113030849, 1.593871076111015, 0.2971153295461025, -0.2231570926660716, 0.10343422796061047, -0.24053574918427006, 0.016636839135715304, 0.29577496746103443, -0.9703117273605779, -0.8789007967102372, 0.4373742326331634, -0.28308729970941077, 0.7176175257134609, 0.6994293853959678, -0.5297885070104716, 0.42915579038406426, 0.1384813997491555, -0.035556748843568596, 1.0104033802485939, -0.07260994192406381, -0.31226905672043526, 0.12487535247641855, 0.040928864398397054, 0.3593739985410198, -0.27434950378230316, -0.08199777562602083, -0.019314303860547034, 2.1660927560070733, 1.8214779717629905], [0.2542649440150234, 0.11963865277357237, -0.45185230498365747, -0.0574033513308347, 0.4981820866031943, 0.1824225499306737, -0.5893307645387005, 0.16887929228312887, 0.1667607223816474, 0.36813998973827455, 0.07188428911033297, -0.031713815100270236, -0.6801796024120714, -0.09114725717486336, 0.10026903975521194, 0.10807245801919148, -0.07313977630217931, -0.2363651253431706, 0.1562559391394904, -0.008339882724407948, -0.01851593936354784, 1.025401213346424, 0.5245465057325875, 0.6531150738236925, -0.12225713688155881, -0.2796161079393808, -0.0015276628572071824, -0.0470376131577662, -0.1016925455648559, -0.4027201343611893, 0.5093322509080341, 0.08065229011287832, -0.5465848386661049, 0.3775437023957208, 0.0682781809765305, -0.10366879554864611, -0.10600271975727778, -0.12993180079864605, 0.08325018422941655, 0.8336254734350064, -0.08453105739178461, -0.037755932961423884, -0.393121004575509, -0.0010203130534707932, -1.108356957004168, 0.9220049627855007, 1.2291851264413804, -0.8584641888636645, 0.014543939795812304, 0.6234248086641241], [0.07961088661971097, 0.8237476842919419, -0.077624505442454, -0.6458536669142354, -0.4322144729263886, 0.8770756655985128, 0.7417381070794529, -0.16235692559085887, 0.026955714491787592, 0.12760231703787764, 0.1085481487805669, -0.05932244762725268, -0.9545623306000468, -0.145326149640899, -0.7278861473395545, -0.5036857602054211, 0.03104313539064982, 0.47636837471742177, 0.48197726025955695, 0.11621368811460162, 0.33295625922749206, 0.8458145699817351, 1.3356124968761534, -0.32697185005575463, -0.04750364374628102, -0.27520573573427765, -0.5598524831294348, 0.9478388378163587, 0.37715737337931177, 0.0768848769792234, 0.2375600403916233, 0.5176791695677921, 0.03837814895519876, -0.6533270843915061, 0.4765856001849288, 0.1832712978451149, -0.5095957616637024, 0.1462196826085752, -0.7902560925052019, 0.21069076679656604, 0.7509676268730426, -0.21051593636287075, -1.0516077858983257, -0.40850835182851297, -0.7284456862792181, -0.25482938862147675, 0.05673907532817294, 0.8875976195406864, -0.15479843829954562, -0.7087220353208898], [0.13911039600419192, -0.07938911683052738, -0.2447778838308827, -0.01880939041761854, 0.7449577680506281, -0.03613902802079581, -0.09130420598062039, 0.08977049146620335, -0.45764147690263096, -0.0287206471117825, 0.10697758759710356, -0.13588877642721733, 0.03979472095479614, -0.45652838418967095, 0.15064735581849142, 0.41150609280557104, 0.0757217976317726, 0.04429976265296591, 0.01133362843808265, -0.24476537173750743, -0.10176365957346346, 0.6018029775503453, -1.2773558645107275, 0.7784504002821345, 0.1249250011591319, -0.0823057164004236, -0.4424960930647355, 0.09714311613358408, -0.6311688955121222, 1.1893254423439237, 0.2394676530231939, -0.8323829194771446, 0.4273502635452325, -0.669803620215438, 0.08261463165545448, 0.06714018335595612, -0.9365304760518547, -0.13278587938569694, -0.0937941524515925, -0.6818646818126696, -0.8527073450433558, 0.16662942582008472, 0.9972319565019765, -0.058669638065039525, -0.7371766721753836, 0.28290150367020644, 0.27916493713695634, 0.2001460323363159, 0.7081406022424337, 2.2359944850199183], [-0.33731122691339216, 0.8590299468973817, 0.33392037731258833, -0.9155219761709421, -0.004440331142180665, 0.5954223557316096, -0.19064805595557743, -0.5028062528866472, -0.4333407346819095, -0.12240373559981392, 0.8783284140857045, -0.26549243875160433, -0.16077303334511311, 0.6489229060484776, -0.01394656087306414, -0.3628845041459863, -0.22263854910339073, 0.22526031876389616, -0.14662609900066753, 0.0027682678302010967, -0.2810857124297435, -0.457525271842734, -0.022569448836612917, 0.17804843776553808, 0.391973653618985, -0.0011685996426716147, -0.3447368944393332, 0.11482704429236995, -0.20316024759714882, -0.6319573686336937, -0.7916644716878737, 1.256649320215803, -0.9490762656134121, 0.4800009222311509, 0.21774608892381467, -0.39150413156747566, -0.5137999768555394, 0.0638268165958357, 0.832511335800107, -1.6031540339091244, 0.420097814885183, -0.5488699860628798, -0.09555402622740591, -0.1703401473027794, 0.46863579150493634, 0.7393379545699627, -0.49791026612843337, -0.713026670407949, -1.0007907006478454, 0.06405757485179275], [0.8399712620076765, 0.5790503185301693, -0.12149606035694555, -0.405419069864603, -0.5241756182336602, -0.14525369124535195, 0.19721528384908205, -0.8398407944440788, -0.21598298995576964, 0.36472048673645563, -0.2867716169222255, 0.045560106771565384, 0.7040593508537817, -0.2597473604960872, 0.7876365475245618, 0.22575460772139114, 0.04441401493531916, -0.3184871224766325, -1.14479038302572, 0.3533005265367187, 0.16656159872474707, -0.34982523328754306, 0.6643605106024526, -0.1147741960063956, 1.097219668695192, -0.3607802291008174, 0.8082886294290196, -0.3532733844351074, 0.22380590767632594, -0.22168274501572052, -0.23155959903903428, -0.1738761503276745, -0.8205083997849189, 0.054257559024123034, 0.8238024219726929, -0.13374479637704567, 0.012564586866110465, 0.3317778866949078, -0.4006023936856586, 1.4474318001932962, 0.06730898790977285, 0.58051536015193, 0.4844849620587028, 0.13131085397153267, 0.4486914925621136, 0.04396609140290528, -0.5911926761503321, 0.03858093603974694, 2.122412748707338, 0.4597259198831562], [0.1591519664442411, -0.22068317610730895, 0.5549220779943748, -0.15274015473427757, -0.38447324509032466, 0.5502096300029801, 0.4863006635663763, 0.291926027112684, 0.3935949891127653, 0.6263484226830274, -0.283925951786225, -0.23510355734879546, -1.136392918117949, -0.6066613123761687, 0.4854710743980627, 0.17774210585840322, -0.3850403122522699, -0.5368205160140256, 0.31009604841344984, -0.23245103327087002, -2.5294300508682745, 0.20083928121724634, 0.03384877815481708, 0.2437610138083573, 0.0014448245647419409, -0.32906032224854337, -0.897948394705034, 1.210067180269466, 0.7546813914092075, -0.1648836499146152, 0.02504879946424467, 0.29527270318444643, 0.009405055723894941, -0.19860966648665776, 0.2726918206505935, -0.13278940004364298, -0.20618724197227553, -0.269806052114507, -0.7648716700280347, -1.7936676690104543, -0.48461689321825113, -0.5291020960501039, -0.5735331067898404, -0.642289475935407, -0.24702182141018938, -0.20846774535191714, 0.03250134704647097, 0.39549067475100425, -1.102311934916669, 0.491630895957246], [-0.3033523119547801, 0.06315203727243404, 1.0041694084942698, 0.25035858379968523, -0.43662304979429745, -0.057800308450315176, -0.24068550460314922, -1.2246270910453139, 0.444518630167137, 0.22619932508673918, -0.130759437721455, 0.1980779964372067, -0.450076911578481, 0.31784927957929754, 0.33966259882784244, 0.008572144461938087, 0.06428436338573042, -0.05712822828875433, -0.23855558988399123, -0.0014212485096923694, -0.08741373555436781, 0.4779570690348872, -0.38698085275124644, -0.31449918011664535, 0.026724025116551236, -0.268279324584413, 0.06503885900038456, 0.1817059407066993, 0.731846321301168, -1.2791297241842314, 0.3098313110175228, -0.09873277922164266, -0.15712517888328484, 0.16738209916077906, 1.2127882731489508, 0.4932132342332892, -0.21608446168346168, -0.06707099691975274, 0.08219781248974119, -0.6895466857579321, -1.0349094405637371, -1.0337343367446234, -0.5234158734362659, -0.013260259428307865, 0.45099042771217746, -0.7755969220016652, -0.2933754965044654, 0.5416164679627666, -0.7134515381951877, -0.21202144021428448]], [[0.5187569866477136, 0.7737592403677388, -1.0923421312972121, -0.8081185640649176, -0.7791706325155068, -1.1105593323030998, 0.5743317122300807, -0.6898910321362787, 0.8691279880878147, 0.6334513247679048], [0.663497211196222, 1.5816780433252675, -0.4676181923052353, -0.18191187539726458, 0.33844104012943677, -0.28963947153189856, 1.0477389635425618, -0.8672291822974453, 0.061005945228762515, -0.3793546570760606], [1.1305944257064373, 0.6707683233652325, -1.700967129716529, -1.149293744387177, -1.0510857053650133, -1.2867899721162248, 0.7829026699963224, -0.437352632905773, 0.998748623962733, 1.1823777712610608], [0.31216291468047075, 0.8714685269460899, -0.7897143616739791, -0.6049739454833514, -0.5996881656051382, -0.938614729698812, 0.4836334541273503, -0.7953694354933081, 0.7812263691716644, 0.32821187779542443], [0.7411889355874669, 0.6181325739997019, -1.439004376795262, -0.9947258382749685, -0.9064800654094053, -1.2752120279210981, 0.6694892175052083, -0.5133231867803, 0.8706520702353621, 0.9334538367070948], [0.37768321933813587, 0.815819451699637, -0.913231580609492, -0.6874849735612755, -0.6706903590522191, -1.0204764416611416, 0.5055469102624879, -0.7396870387203927, 0.8059172432267259, 0.44590076741230644], [1.1563499663391668, 0.678850001325265, -1.706938612963639, -1.1612427584581453, -1.0637699387833544, -1.271141580224886, 0.8145215618071744, -0.4448657908232448, 1.0031251496948062, 1.2033309345012766], [0.8535046048676143, 0.6015030713329146, -1.5726443959425247, -1.0632628020419106, -0.9446645303935852, -1.2976429554389597, 0.6785658352178763, -0.455629715831819, 0.8971923464384225, 1.0336738001403178], [0.45727657439065766, 0.8449024569011676, -0.9720754513293681, -0.7403299772963462, -0.7206265315870432, -1.0434654300310255, 0.5557139574387828, -0.7488160952150118, 0.8710131417418766, 0.5183311116317793], [0.39131056254437196, 1.2769979258053774, -0.5430972722861986, -0.36237610450920466, -0.10809135691757384, -0.5730162929564099, 0.5556619955668894, -0.9388120645351371, 0.5730031815758095, -0.04924432654466362]], [[-0.6421628780931984, -0.6038232579228866, -0.9189940484326012, -0.5338297740921953, -0.7727836243283087, -0.5607061362339343, -0.9303131785120063, -0.833160020833513, -0.6048568529672915, -0.4975847478885392], [-0.5509465846656708, -0.5150052359156782, -0.7687340482299065, -0.448617580249408, -0.6566444177130062, -0.48939050719051075, -0.7710857994367531, -0.6944208933115498, -0.5316453193312377, -0.42061021837890494], [-0.5541849784732163, -0.5265449168502586, -0.7913745257664374, -0.45639210495323995, -0.6745964307881351, -0.5007846602414745, -0.7967276604055332, -0.7186495434828962, -0.522164600073214, -0.43289962113633784], [-0.527255131041037, -0.5129826129108414, -0.7309796818824739, -0.43143665261123204, -0.6400501115714609, -0.4655634045841661, -0.7400461819225557, -0.6675629918048838, -0.4931838699378967, -0.4078388248143899], [-0.48075100124501746, -0.4581528232419433, -0.649327480452414, -0.39431544563636767, -0.5679832694254242, -0.4276013860666579, -0.6546501519412007, -0.6090150916443536, -0.44872591852088317, -0.36277125724396464], [-0.6334952107593143, -0.6041781824359664, -0.9102695960146526, -0.5261718446420938, -0.7695386051003464, -0.5600607777673547, -0.9269901801047764, -0.8082195491077155, -0.6038053797825323, -0.4929236426056257], [-0.4948791344213475, -0.47209038883229426, -0.6903141724887534, -0.4133198542434033, -0.5979952873740351, -0.4393345825074094, -0.6865306379381985, -0.635614333849165, -0.4648277578573049, -0.38214969974275076], [-0.6570004026666045, -0.6186762772790233, -0.9387651783406342, -0.5410453602407367, -0.7831223181946354, -0.5742747063347544, -0.9439993405920206, -0.844295091674866, -0.6103682275480441, -0.5049486931031162], [-0.5192681240518876, -0.48797664640597954, -0.7269753347672765, -0.4260596814314887, -0.6189368160359472, -0.4561509392456522, -0.7295137485690867, -0.6606380732779558, -0.4873223683503425, -0.40289961898804577], [-0.3911265161152874, -0.3697750551224257, -0.4842934694447052, -0.3168322198294781, -0.4386417515624146, -0.3388881520675555, -0.48830220991354917, -0.4582628833602342, -0.3536523720215278, -0.3079907995970905]], [[2.041339924964178, 1.7391344068505135, 1.7771714066103925, 1.6589727692532101, 1.471061584621777, 2.0224797158462473, 1.5531335166913736, 2.0748651245174394, 1.6306315219094942, 1.0010022777688898]]], "biases": [[[-2.56995162290791], [-0.8197124099316679], [4.079621384427246], [-2.145438144104639], [-0.767318324631884], [4.011931135049765], [-0.5143816971074652], [0.9151340885049742], [-2.5836265234708735], [-0.1274591887770667]], [[-0.3880833765348882], [0.383086968214819], [-0.31172255959052686], [-0.3399332123034794], [-0.3871293438497356], [-0.3816930596131342], [-0.30063661126449803], [-0.3839765496903], [-0.3574901166010467], [-0.020884445059890188]], [[1.2652912336184228], [0.9224143087471576], [0.9697297287541279], [0.8395499524107852], [0.6225198052703527], [1.2454055474708872], [0.713925813670624], [1.3010092736568928], [0.806489338361379], [0.12294619406350278]], [[-5.65788634881568]]], "sizes": [50, 10, 10, 10, 1]}