{"weights": [[[0.01833409009868514, 0.11291574753197495, -0.2824729733139258, -0.043287005901229775, -0.4667662927475151, 0.676633099324313, -0.07163765880421599, 0.009497469643299571, 0.40677995433728714, -0.3266967705468186, 0.5513122003447827, -0.3415134303077621, -0.2041311904441587, 0.05523091123670864, -0.6939158214859094, -0.050394194423863684, -0.016021164167034228, 0.7753975320256442, 0.40256086221727616, -0.41242598222663834, 0.01940571110479805, 0.35449476469728913, -0.10801104334741503, -0.3302217631993385, 0.4734975788929881, 1.0806789258558613, -0.7939823649435581, 0.08594865161298174, -0.30423559735013045, -0.3860616857567926, 0.28259161817881523, -0.21634193034164662, 1.1528131763633298, 0.3362961472373858, 0.8998440839137997, -0.2805220098553462, 0.033295319842962655, -1.0135876448589212, -0.22427297398057366, -2.9256186698659787, -0.03738685243083913, 0.01768503752468522, -0.18253810644509794, -0.14175257953966494, -0.02101817249669366, 0.08638548098890854, 0.48572456289625504, -0.4773660789213817, -1.1835694771111567, -0.5451141198146354], [-0.46084171074992636, 0.005747406227692461, 0.25013551754001556, 0.3607956538400477, 0.658645741079823, -0.2510270955888622, -0.07384096712864192, -0.032842601188750625, -0.5336844620457175, -0.21141685188873247, -0.08173942327821251, -0.4263464356571411, 0.5963602814285701, 0.2503390977525907, 0.4158518320595646, -0.25915785467145347, 0.03328404804869885, -0.30357278759811873, 0.2914894516057404, -0.38493450855607564, -0.003391949480252912, 0.4380781022482309, 0.09550740496755035, 0.21019001301465332, -0.48126513336623095, -0.15023459726811517, -0.409647398265205, 0.9344613277932285, -1.1880899583591067, -0.042107590667173796, -0.26182121498219074, 0.44071297825464345, 0.5416785744552812, -0.5715809938364174, 0.25326361216398036, 0.490088622137734, -0.034195686448006156, -0.2300998845631837, -0.13447798298997146, -2.2853224987583034, 0.14956398168197582, 0.176558363701686, 1.197658880520247, -0.5114442039526763, -0.12729716035665345, 0.3620418653670424, -0.06782802070249422, -0.1587546650616422, -0.24578436615031724, -0.26744568672649477], [0.4831862616285785, 0.3718746290589888, 0.09477717248803323, 0.14018546821818323, -0.052174047664585915, -0.21654544620314473, -0.39706832581468154, -0.21466237409561562, -0.48970008901795326, 0.5461708771150766, 0.38459265195656533, -0.9261532711261538, -0.03171623230586219, 0.7657631178776003, 0.26373987032646745, 0.15736522442722686, -0.35012273680019645, 0.03393112473074361, 0.1946299523839233, -0.9207338884180957, 0.4056626757368554, 0.30412665075488804, 0.46956345596033094, -0.14768525105101038, 0.38548189793461135, 0.273746821057874, 0.08049656423353851, -0.044026011811133386, 0.10929990115671494, -0.55738228234782, -0.8087886658240194, 0.2540353604441922, -1.1943818994142406, 0.6594490841951726, 0.4427266516263079, 0.28746214599332093, 0.1759914412706509, 0.7086373636000033, -0.3904726069574782, 0.6710587189432801, 0.06375069088331094, -0.20582654224167307, 0.21012209012933888, -0.1314401724234965, 0.08569644192340993, -0.7310376098947285, 0.20741210080093375, 0.4155569220183186, -0.18218428263187877, 1.0074325810716924], [-0.16950683167704578, 0.6165785771803558, -0.29642988810355503, -0.05735695866164363, 0.24366843534440466, 0.09891902398212529, -0.48090762010327576, -0.14479407416038312, -0.16294433159821545, 0.1911651627688978, -0.03632227034124935, -0.3923099451145669, -0.2402418431020457, 0.22612616570118405, 0.4459096443441131, 0.10914180567493939, -0.14902140722193655, -0.03008191573540674, 0.13280081628473717, 0.0553016713659907, -0.5492216612821552, 0.1483031779306461, 0.4664120054471183, 0.6668336516866219, 0.2576113829934248, -0.4247426150362185, -0.14899736370850228, -0.1729879340553332, -0.6810263537617768, -0.6220822983011327, 0.5496428854268796, 0.23940925353750175, -0.38872202334043837, 0.9396938125566711, -0.01022522595764049, -0.15900073275795817, -0.7727818197598467, 0.027857856666271833, 0.3379563367659075, 0.06432757849010012, 0.061629855686055175, -0.19687577237692377, 0.7144125413894317, 0.42172450098418424, -0.8832683429604101, 1.2135744564586113, 0.9469008095870126, -1.0977640824199595, -0.523676337995319, 0.7632968039808208], [-0.5676705645598634, 0.06830777863474671, -0.19001364148258762, -0.190728864686273, 0.4997293450143856, 0.10518718647950373, -0.13175480895376177, -0.2899149655132144, 0.23756445329628784, 0.07923793263965861, 0.16279345206222529, -0.5587909470712983, -0.9752235285651738, 1.004665191199143, 0.5642355617355629, 0.030846321032041824, 0.3318956338210022, 0.8791097716354062, -0.6925291759219324, -0.47391168311898707, -0.1958119712096554, -0.3167863454938569, -0.6668920153677325, -0.24443056796424215, 0.4596533843633707, 0.1295430012702163, -0.10072803392327181, -0.6440400294098788, -0.4218940219215006, 0.6055343757975964, 0.34444177811368215, -1.6838829620563853, 0.44640805631332925, -0.06899977477607443, 0.08194107321957639, 0.2437976080650636, 0.8567535149088712, 0.09476812028031116, 0.29579455804618543, 0.36199767064845567, -0.33387786098732924, -0.3781967924570029, 1.1316483535658348, -0.6525766407562493, -0.0039585122337447145, 0.2288945155616221, -0.14490239378433997, -0.08833851567518745, -0.9857070528444011, -0.8741824326186802], [-0.18817020676820193, -0.059482564828114134, -0.22725386401546271, 0.5606597259862977, 0.5190737628444645, -0.4870164109840605, 0.03850000394443951, 0.33425760954304584, -0.6204436647793683, -0.6522287926332975, 0.14488981528395972, -0.23049984646711386, 0.5598371119938931, -0.1422308888580653, 0.158464323083267, 0.18985093629126928, 0.04274320081733548, 0.1121071426563045, 0.2576932388946107, -0.2758288787373769, 0.3738956394988251, 0.7090136945319134, -0.9977611582240783, 0.9256683459871334, -0.333218596733703, 0.32176151893870863, -0.41853228903767636, 0.05629417087703726, -0.8740599179436543, 0.4615047731117404, -0.08747814736722742, -0.4468559506595591, 0.4403694633149353, -0.3718134168046987, -0.38442756954461416, -0.09246477019120443, -0.4286407173527825, 0.6567695761852187, -0.471298865586826, -0.06707852817985091, -0.721988116724977, 0.739236346080127, 0.8312877806548218, -0.4149594039850352, -0.39750284715016254, 0.3449549378156161, 0.11373742755661768, -0.0411006924592402, 2.236214664316501, 0.6722611442352165], [-0.014495023878889837, 0.6525732698792316, 0.14342667265063036, -0.04288313106129733, -0.5112395227408745, 0.06772648259971555, -0.0842466868500116, -0.15650366089170387, -0.007507054564432518, -0.5365491769093608, 0.4209558053710199, -0.26985088594679235, -1.0017465757011816, 0.48416374963227543, 0.6151726271609533, -0.05343464747983849, 0.2311768897345017, 0.4384415075884279, -0.4589808309119743, -0.08062568087325665, -0.8009379963868636, -1.2086734808568207, -0.4572524761788817, -0.28355698419114433, -0.2889336074926181, -0.41785514327264056, -0.282634229882836, -0.4910048896966239, -0.014216316666832077, 0.19341556442055, -0.06770916825098194, 0.277034736975969, -0.39471684102164684, 0.6932556060487415, 0.18100907073168732, -0.1315076764248442, -0.42652905016274006, 0.8918245646503152, 0.06578745525193166, -1.578544282479695, -0.35777976625528324, -0.6372024551996239, 1.4530118569957489, -0.29629099826476746, 0.6070404893460297, -0.02131526253500533, -0.2885392819833283, -0.30807121355460343, -1.3105332182506637, -0.25456836441164815], [-0.1952073389390054, -0.16260283154079042, 0.07812263701726396, -0.2713003932247393, 0.03790805350721484, 0.25179816490205664, -0.12134211206175452, -0.34051068335720414, 0.24960916260590835, 0.7224829254731993, 0.06718721316234363, -0.18792613695011756, -0.23862109175669932, 0.06063830318781392, 0.10337685398213046, -0.0680565443235467, 0.018419263990699337, 0.02144985067344213, 0.1502698815807206, -0.12730026973095146, -0.313650019549352, 0.1808445730050559, 0.8688610032067754, -0.11629853139137697, 0.07660882574545975, -0.31381508845193173, 0.12059874841026863, 0.019384677712882978, 0.08283447702375044, 0.25774046459127165, 0.19890360708205204, 0.14154984631445436, 0.09199264489438147, -0.09386547810762176, -0.09658454582316353, 0.4003553883170335, -0.3216006788248156, -0.43190527223592995, 0.13596040967933207, -0.3458976023713149, 0.22881561999642236, -0.34184936044309117, 0.921202695890244, 0.4445542207375833, -0.27430203390958874, -0.26019499132957763, 0.3146745178304412, 0.22899198634336862, 1.4553014192529687, 3.3797636168383414], [-0.20077748831988212, 0.15526492137587136, 0.011147092362285164, 0.022296325977945827, 0.24754775524104775, 0.23057198218129427, 0.34791509879073285, -0.2790483830172531, 0.20443475711521855, 0.5111719070863067, 0.03631520981111983, -0.18992462409588914, -0.3065352142294476, -0.26631654928853454, 0.2264689787139701, 0.024675449022986806, -0.2586499921418481, -0.2842723090574742, -0.03602930314933944, -0.25296405390481697, -1.9376914943922976, -0.6298749986403086, -2.1072299986950664, -0.36848495744107185, 0.3629281600679031, -0.013743392727213777, -0.10791145448284897, 0.19940223963249248, 0.08005496637003037, 0.5522830727150728, 0.06166440955803493, -0.04992719044412799, -0.1262373755465817, -0.4732222562702358, 0.11514686110485504, 0.42377654264030645, -0.12365580985975741, -0.0009032597387797403, -0.36050137285581474, -1.1507614396565697, -0.12478524541185837, -0.3450717300739612, -0.49287028809337535, -0.4442547099243242, 0.14788705781265074, -0.10643341783241689, -0.20308426819620273, 0.12410824944619017, -1.831914731519203, -0.07740410672641801], [-0.40395197842348735, -0.7777354839673354, 0.7654203800436664, 0.9450010780315788, 0.011534336377781963, -0.884951217608604, -0.7172067789721449, 0.0370305050507516, -0.5407927350056083, -0.05215960534830105, -0.09198079108906745, 0.10741232745900763, 0.5034904865097705, 0.5373849035422325, 0.28355474189463714, 0.237342421706438, 0.3047115413738439, -0.006176953184222123, -0.428860520513392, 0.20608596476109237, -1.8916662530788084, -1.7494278296833061, -1.172699209137173, 0.8197194440694964, -0.35042970826454484, 0.36448656439768695, 0.4179028519696463, -0.7195835318045699, 0.29764235934394884, -0.4112792111765549, 0.022232640044238847, -0.11977795603496674, 0.14841385160383755, 0.3953542621120695, -0.6039061444087971, -0.7911959051454635, -0.16370558569980073, 0.050172935404049115, 0.41740757826065444, -0.2623451104838106, -0.5351948297984185, -0.14733698852785698, -0.12634380620532154, 0.8945796336013765, 0.2883175592594654, 0.25186986553248736, -0.1884435470208908, -0.35535179822133717, 1.1321878193795312, 0.5275287515469951]], [[0.6975780213048406, 0.7619443582267247, -0.6538083608040569, -0.5940642964172572, -0.5950503660260285, -0.7554394477942092, 0.49668218753584653, -0.9650450211661372, 0.7285431992371175, 0.417445975552919], [0.5873194721113669, 0.8013655672542436, -0.5171936381685431, -0.46564171238977653, -0.4842688605119213, -0.7286431666682059, 0.4807234396299805, -0.708427863219667, 0.570914719665253, 0.11284446974559084], [1.1305989101259017, 0.9643627312918311, -0.8385090309678987, -0.5347100436369567, -0.5339877468292991, -0.6513051408313096, 0.5856848411205954, -1.0951702550640374, 0.9891192636360931, 0.7677833863392106], [0.5526991316115107, 0.7281397797380456, -0.5560091854715641, -0.5419661025694174, -0.562826418560809, -0.7747408365565288, 0.48273269625374654, -0.815415474279886, 0.6094701124623838, 0.19127289368629785], [0.7645562495516162, 0.6625673506357538, -0.7791737281927039, -0.7205109404015548, -0.6963474400546296, -0.8276335108765129, 0.5255899778597473, -1.2224643766041074, 0.8425696652039493, 0.7227473509637209], [0.6828779952558541, 0.8267306739189632, -0.5717991411206172, -0.49039138450706193, -0.5050789933804414, -0.7171653071661318, 0.4880507452997718, -0.7675439602966545, 0.6524873077039638, 0.22440882526753203], [1.120516910496989, 0.9178432880084955, -0.8699190078785196, -0.5735369225935261, -0.5624584370945278, -0.6570795560641113, 0.5821070465274573, -1.168683449073987, 0.9975462339878273, 0.8464625445589019], [0.9844728775504451, 0.8182721319279996, -0.8390533136145101, -0.6135764367723485, -0.5921322820164031, -0.6963848113109243, 0.5344613281846542, -1.177572202727092, 0.9312927885393856, 0.797901610444268], [0.6697065178623042, 0.7797933538306908, -0.6210200266696791, -0.5650000675054022, -0.5731551684941526, -0.7520991511969175, 0.5024033594864374, -0.8974590991917678, 0.6962706147401834, 0.33354982559333524], [0.5630644249737173, 0.6800495717005727, -0.6193368249491044, -0.611651634639225, -0.6144515954139321, -0.8018157444208412, 0.4953270513887691, -0.9603076941103187, 0.6759402637154485, 0.336333138246577]], [[-0.5984724434454468, -0.5127388279225611, -0.7139736851905742, -0.5464284901794807, -0.68712539521923, -0.5459022534123256, -0.7307106828500598, -0.7083695972361445, -0.5822905688403126, -0.5766068645889882], [-0.5418617512418697, -0.46291222259514836, -0.6238153470076403, -0.4878809417988443, -0.6118321242877431, -0.5020707032403716, -0.6321783819610325, -0.6121143293761304, -0.541555833767951, -0.5223107261291015], [-0.553226200407184, -0.4802657400861421, -0.6563038431075977, -0.5032019567022762, -0.6411644648772779, -0.5206633754070704, -0.6686370378335394, -0.6491862938691825, -0.5403176163966917, -0.5463484794808998], [-0.5501629926440627, -0.4887389960106696, -0.635288523907073, -0.4958300194784946, -0.635019166469372, -0.5051221289152178, -0.6512081851064138, -0.629150768313626, -0.5330700682754247, -0.5352855154819159], [-0.5129867101383836, -0.44979060133959603, -0.5772300626824232, -0.4637492007343741, -0.5766703235077636, -0.47287324031803607, -0.5897493355660228, -0.5858945008647872, -0.49648290452054855, -0.492048548612864], [-0.58635738150745, -0.510783922457378, -0.7016016324082265, -0.5358670237676576, -0.6800828220223094, -0.5419898836625336, -0.7236691726222905, -0.6787756191534029, -0.5779793790117074, -0.5682793556834058], [-0.5252450275144308, -0.45943082368419047, -0.6108612053497476, -0.48292129135734285, -0.604386354139358, -0.4836184813581073, -0.6145857915983961, -0.6096297866294114, -0.511716358041327, -0.5155832060937007], [-0.5980168150541522, -0.5136300642265506, -0.7116262391511576, -0.5407575106947821, -0.6788847330882314, -0.5461983302628448, -0.7215520207752524, -0.6991815551503501, -0.5727931361970273, -0.5693127926722146], [-0.5417485762455094, -0.46573440315323317, -0.6320720640112871, -0.49022657865839425, -0.6142398989908054, -0.49475614335397383, -0.6417820636379159, -0.6225035495870924, -0.5269570174029219, -0.531202244888501], [-0.4759425210314461, -0.42142082491285626, -0.5151639215616309, -0.4190796957113989, -0.5195386314337406, -0.42365062516470636, -0.5264411462272447, -0.517298912256669, -0.4467698575358485, -0.4590946364224896]], [[2.256220799366578, 2.028511618050334, 2.1078782907879923, 2.067135400475959, 1.895435306197237, 2.223706082993273, 1.9803972159698893, 2.241177507307167, 2.033134750519608, 1.6718246058071722]]], "biases": [[[1.030464354258784], [0.2381169956681096], [2.2224347324625064], [-2.2638062209288874], [0.2947150635102757], [2.6405710702933125], [0.23842274050979154], [5.125637090394649], [-3.910819237510659], [-0.4702955210513571]], [[-0.1463359145904536], [-0.010031109715125925], [-0.1390794291742321], [-0.0709435964647322], [-0.2825315723886304], [-0.014952078287911497], [-0.19838451330815296], [-0.23118758928607916], [-0.08910523761856057], [-0.17743410466086273]], [[1.0708629659823414], [0.9155814527850558], [0.9762110417322611], [0.9512719145206308], [0.8180846601347825], [1.0513981913899202], [0.8834433165665739], [1.0597586009154472], [0.9256471496735922], [0.6230096997591907]], [[-5.851769487996847]]], "sizes": [50, 10, 10, 10, 1]}