{"weights": [[[-0.13768295362923624, -0.008418208414065664, -0.12125539764121145, -0.12488315520312325, 0.3496125245558328, -0.03313537231942268, 0.048958357155776844, 0.014470142244370671, -0.07847819089828711, 0.09890406153394811, 0.05240630974314289, 0.09839694332352399, -0.20191283875857427, 0.04185764925563599, 0.16700566623251553, 0.012417452921381446, -0.15496470703047088, 0.051435008656719544, -0.09694131667481458, 0.03295573892258371, -1.1958785805772112, -0.44952327539657344, -0.3986964683080197, 0.04310965346986765, 0.009821511856468875, -0.10292045518001819, 0.42650102556162695, -0.31779857672036516, -0.0015581468839269209, 0.302270513039792, -0.09667192012011612, -0.6079006175559571, -0.16970436854333046, 0.03906923315323344, -0.07648362758009257, 0.14868252468508147, 0.32473907618189674, 0.2751448485177818, -0.13420847639917685, 0.7686685400352338, 0.155560833008766, 0.02852795572585825, 0.11886839211427037, -0.2883753463734681, 0.18428246733302517, 0.21745660212457993, -0.09820441734889558, -0.3057356408974861, -4.406860922462206, -1.451991747413783], [0.16524357431817255, 0.08980942716818927, 0.40192906419255164, -0.5087222418490223, 1.2752228522537135, -0.24701959278050872, -0.7108962152400152, -0.4803169991692551, -0.07333988526134852, -0.3652910975067987, -0.6459278135171621, -0.43518365004844795, 0.4831242244307587, 0.32413109790639244, 0.2737542998635935, -0.13862261812713644, -0.09238028197450324, 0.052863366522185914, 0.7145949477612916, -0.4513405901546883, 0.016891292455688798, 0.6211026657781454, -0.164122625107903, -0.08886843663335907, -0.30718221909115806, -0.4598707906422703, 0.45481030038307363, 0.7928961260709442, -0.8655242624536801, -0.36512834644244013, -0.04392660854273732, 0.1877356398008086, -0.26865744602035446, 0.5387193438554668, -0.0194069851918559, -0.7377300573444644, 1.0109574020067889, -0.4451812717182554, 0.34786401804325573, -1.2881687793532761, 0.30653937825916827, 0.21410297197045045, 1.1904893696990444, 0.44358389796439274, -0.021720446696984076, -0.0017438790546118674, -0.12723704198476601, 0.13089905941370863, -1.8544170248424425, -0.24495419269762872], [-0.25308834452933393, 0.0011371078528331201, 0.3428654422923459, -0.07394257127424982, 0.007922956692848888, -0.02001679875979544, -0.36189344323542877, 0.17308109654861153, 0.22651521034226618, 0.06845971698087426, -0.10927470352656737, -0.46996318737872644, -0.06625562048175034, 0.540199359011805, 0.4461092634671659, -0.18340014802781424, -0.17666561142045611, -0.2731402027546158, 0.1735002940016992, -0.1836238396788496, 0.4119284826329381, 1.1863845965094264, -0.2643556666364355, -0.10612136119148795, -0.540022724835808, -0.17982285232565817, -0.2994784345318792, -0.3850060959693964, -0.15952732318814583, -0.929975099937977, -0.0432114572722353, 0.14293401761767088, 0.36165304076908195, 0.10575897915046464, -0.3674763224274016, 0.24840944812834373, 0.15349414725718122, 1.4196547142233753, 0.21360664094239118, 1.2668967373983266, 1.14081352900968, 0.24421949476706556, 0.05458926141542944, -0.4191374185534035, -0.11479756213841442, -0.40115417154650734, 0.48071765963910623, 0.08920065549064936, 2.0973165731714642, -0.6063409921389843], [0.8124635667151723, -0.8919248658754623, 0.015599528382725611, 0.11642868347996264, 0.6828694766260085, -0.12729374649114236, 0.37507990281294323, -0.35303420595878965, -0.7489178461052541, 1.2396696049074851, -0.14743522086910954, 0.35542074491928194, 0.05092946958231123, -0.991999022618348, 0.6255020424705316, -0.17564325894764696, -0.05718963228724393, -0.4312936501588438, -0.260219187377053, 0.14705269970476328, 0.03968840005412154, -0.07079465814866592, -0.058567748372241865, 0.7410060244724079, -0.1645649275137392, -0.18977686763190738, 0.5573511014227204, 0.20319265212812482, -0.12072364898165772, -0.2462195802877176, 0.03824550357431279, -0.7190506851344906, -0.038191620527122994, 0.14003837776582329, 0.6625329894659255, -0.09261001025229156, 0.031737844613669096, -0.6587160315813478, -0.02075575652635588, 1.6597667418252506, -0.6617098134528245, -0.2669803482591544, 0.4250549850912957, 0.12218263447759313, -0.2385312350066793, 0.27233700172816055, -0.2831085123087512, 0.2207175612957357, 1.2461816727268284, 1.000782507073516], [-0.24297446888589525, 1.1015821274895352, -0.9505306188491026, -0.7484984303977755, -0.31434732909232144, -0.060041024851903775, -0.09472672118444926, -0.3178667428868631, 0.0575236806406536, 0.5531662571870701, -0.5746642628402239, -0.28962144327804046, -0.40797771184904097, 1.1146446938301355, 0.48807978186014617, 0.6057804690259555, 0.393103377581697, -0.10053535029415973, 0.15316813713650357, -0.46462054797437163, 0.5464930415469861, 0.6445736174827504, 0.37524831250424195, -0.33274864856692743, 0.10601842479642788, -0.34467545034702946, -0.18293920344857742, -0.6125510950974381, 0.1922126354681451, 0.08853424638304205, -0.00649946024184656, 0.7346458084417365, -0.20674841636880334, 0.3711178155155063, 0.10706809843095852, 0.04268220171480471, 0.014884877203749947, 0.3529935521827213, -0.3169008875753303, 0.5104811734201359, -0.15487691422872815, -0.6984696835966827, -0.01997249181975234, 0.4332505432236623, -0.69333532194864, 0.37126905498651414, 0.31812399269274394, 0.036477756155331165, 0.703823483731439, -0.010207909157291861], [0.4211217405744071, 0.18949143439706276, 0.29024461628607, 0.7753976578147175, 1.269696647991636, 0.12752392582082211, -0.9217712846839364, -0.20777712398184967, -0.7404725580546877, -0.6607302790717866, -0.3298542192711659, -0.423249734826145, -0.15516669565698837, -0.5199115272525848, -0.17685615677765756, 0.8533196667073298, -0.15302566089446865, 0.4192855236483462, 0.21877986275799657, -0.4974365598612557, -0.11274507809699928, 0.68034404333632, -0.984551173929759, 0.39480560088955796, 0.19713192171750388, -0.008744196795851939, -0.509117088062007, 0.38052119128581074, -0.42420837302913517, 0.6280141168377577, 0.8839060987135741, -1.2152064546598513, -0.41866764431281034, -0.6433479211833555, 0.14851818349720855, 0.05521435147117991, -0.6315336819207703, 0.3730523558098285, 0.3503952650149899, 0.9008220613180211, -0.7346466017697408, 0.6383016648881137, 0.5829820917827971, 0.06351897706110529, -0.26361407902824985, 0.6418857856853184, -0.36907045721142107, -0.055409420320007764, 1.4708699657569049, -0.25206895654755856], [-0.3034632364340903, 0.025937315104555554, -0.05587935364760032, -0.7210667107755124, -0.14805031762653104, 0.7054333474669614, -0.0557506879878564, 0.2653255103557344, -0.026339067073020847, 1.5274346712042746, -0.058905154781934595, -0.24673138678249787, -0.6187239039793406, -0.2884057404968815, -0.10851900419579169, 0.7163485408525863, 0.6216305364412515, -0.6129345833189963, -0.4987541183501148, 0.02535100386343883, -0.9633812467420221, -0.3902963120635173, -0.3715881084969504, -0.2516840489551942, -0.20282671127250287, 0.10828905608323577, 0.4055143746333069, 0.02226528758203524, -0.03125977794251932, -0.1648095017044151, 0.2518471014813304, 0.7564897264675579, -0.3085817646986296, 0.16329151040217615, -0.04498592035097475, -0.1463753564359134, 0.05128313545168503, 0.08426146298274244, -0.5277602435138119, -2.024796495960865, 0.304446136279619, -0.29411472897120755, -0.22943556056615738, -0.08748091376197624, -0.5594335578714569, 0.06123485928224748, 0.09517972764585877, 0.4089626688384188, -1.005106713979512, 0.8658778132028457], [-0.2966633780546969, -0.05340414239740624, -0.1888393859733304, -0.8131970515800547, -0.0536908314163894, 0.5176922518876474, -0.24183427314876155, -0.18222058005135117, -0.1236125427370082, 0.5169754980423016, 0.5876256545811864, -0.01228094293892803, -0.14953662302744744, 0.5388909060476018, -0.09552487401648382, 0.09336710479352768, -0.1447643750320086, -0.3057501034713691, -0.20082809233282606, 0.5794821671421764, 0.4088899040648507, -0.2876834144216018, 1.5355111362164748, -0.07843911565884208, 0.15248034220365134, 0.16569036148997102, 1.0238030527723565, -0.3877426941192795, 0.13163812132637737, -0.6218593762197244, -0.028522621586844918, -0.31177769778160763, 0.13280993189386564, -0.3680517820409106, 0.7280987974030526, 0.26284351741425765, 0.3013391037519371, -0.5225585657169293, 0.4192622545154798, 1.0524353293424145, 0.41721586130002475, -0.6369382394862086, 0.2468165961202967, -0.13653212582813187, 0.255812603797957, 0.3466466665350195, -0.4812257071508041, -0.17853873396632292, 2.4767189441773567, -0.50857258155974], [0.11657450962430504, -0.21962865879975815, -0.07335066906251404, 0.8826435674671596, -0.6769032434619935, 0.9838642599234017, -0.21002703445535217, -0.44095909822117524, 0.32068310463223304, -0.08572060258272805, 0.025838897966576468, -0.4799254768596202, -0.33560419675010966, 0.28409847864012927, -0.18529079384874633, 0.8294866362711999, -0.23575814599879943, -0.9988433803316749, 0.6661458348982617, -0.5764187998340622, 0.038410224361568504, -0.3382791814708132, -0.2734192629210157, -0.6698523938347849, -0.08953219731704881, 0.554176974658514, 0.15630200539073516, 0.6873115991489182, 0.4432123140836938, -0.08003339892644401, -0.14003508944626394, -0.11480691495925475, 0.17748753814299775, -0.5527947888408141, -0.16443624180903135, 0.4700749395917183, 0.26881515479874, 0.025610596231690944, -0.44235743617626955, -1.411833599512343, -0.0691893261137843, -0.2721144023257334, -0.12612432281008953, -0.05975086181676261, -0.48437131275462014, 0.4246878271085841, 0.1937693738379466, -0.12080057977722083, -1.199210990362833, 0.010511355885106412], [0.21825517815253365, -0.2303993691119933, 0.7399524626832672, 0.5988995083192226, -0.20739720617165397, -0.23317273084347492, -0.3601268569794006, -0.12295827476302064, -0.41120805909216507, -0.4985409758253354, 0.024189555861733228, 0.4605868126527807, 0.4462796773408807, -0.6925663544940955, 0.3293325930200635, -0.4167652676083428, 0.047272925650679455, 0.5381194917753055, -0.4372084339857596, 0.44201276049579363, 0.07179510970299048, -0.17633517481437425, 0.7767201937988342, 0.0007993922300180244, -0.022470013819860028, 0.022671630717588386, -0.22327246539965595, -0.05002036468968977, 0.4555927693297875, -0.7532712955434789, -0.5883021879297288, 0.3983765905220848, -0.09853231555924928, 0.2216783385468549, -0.04335224526523683, 0.7339681455432235, -0.18230959400725852, -0.030897514663879747, 0.48259945127645615, -0.16522859848201665, -0.5510868152463358, -0.16810419938733617, 0.19616929483153928, 0.08852981140208004, 0.7921028983736431, 0.14678041275022383, -0.6497769427498497, -0.36982869944174235, 0.015602160111287278, -0.3172816193530204]], [[1.3687141480946128, 0.688180520025617, -0.923565160919289, -0.6459133782698587, -0.7492608989118503, -0.8352456997154559, 0.6617736327871072, -0.7474312337091188, 0.6551215079960333, 0.582931518570146], [0.9092425520268057, 0.5224030069048977, -0.8161872991268452, -0.5625473408138998, -0.6198878343077343, -0.7033565339047567, 0.4395496359412815, -0.6205815876758739, 0.4304587451705548, 0.3720341916075974], [1.9151261814868523, 0.9287370437302537, -1.030275674471921, -0.7615829471327475, -0.8414675010531097, -0.9778778745454809, 1.0835512750952105, -0.878996652682917, 1.0311462631407573, 0.7583024593401737], [1.1369743658381386, 0.5845640712501964, -0.8801555421901184, -0.5977899205051378, -0.7041099100064446, -0.7867769095546635, 0.543987753642857, -0.6905521687925514, 0.5405133489210195, 0.47579739653102565], [1.6398375334349118, 0.7959171439213432, -0.971431207215609, -0.6971109355901628, -0.7944180223941258, -0.9097480169159707, 0.8671529093096467, -0.8156832772922357, 0.8399523291323453, 0.6846007992583982], [1.2565521987587196, 0.6372582215309034, -0.9090361997174171, -0.6224863150626057, -0.7298411652411697, -0.812738247216216, 0.585441065291453, -0.7090299643112287, 0.5845366411883354, 0.5324410367640062], [1.9267850057485036, 0.9390741141077514, -1.0335136240346534, -0.7731960011352855, -0.8445672453519845, -0.9745484114459213, 1.1082371494533412, -0.8856444161369051, 1.0424470609109486, 0.7667206447454884], [1.7278442055152265, 0.8436094638728004, -0.9947603282319518, -0.721551072320781, -0.8071791762857426, -0.915693376456721, 0.9252891945528273, -0.8288807605932912, 0.9034993083723087, 0.7185675918651232], [1.2886143348863617, 0.6551054407864321, -0.9145894702356893, -0.6271152398351549, -0.731283615468409, -0.8239653537473265, 0.6225926646558696, -0.7282964667994664, 0.6094194330526989, 0.5411389835095739], [0.9956608045223473, 0.5434046121199155, -0.8389568644368318, -0.5665069770761881, -0.6504600382873083, -0.7323090780784728, 0.49147042167098054, -0.6556658297810688, 0.4967571915789781, 0.41386634768179376]], [[-0.7112567822519491, -0.46624197887775976, -0.9987981576004418, -0.599713113528484, -0.8529552093020852, -0.6478134002265087, -1.0110463003457175, -0.9075550918616204, -0.6707454761229227, -0.5181677873029621], [-0.5861085940361561, -0.3960420276321245, -0.7874879530658117, -0.49266545675253176, -0.6837809033870192, -0.5448713029595237, -0.7905653506939266, -0.7122247232854034, -0.5704683606557183, -0.43984926259131535], [-0.6146669944231474, -0.41632483869963394, -0.8522332134818186, -0.5189950500489071, -0.7358899640785072, -0.5789971605692638, -0.8588033692004734, -0.773444874297645, -0.5831929767650392, -0.46537817898726463], [-0.5641416600363448, -0.4039975132022658, -0.7521419002969333, -0.4769976098240085, -0.6683177461640681, -0.5216470467619152, -0.7621136397029101, -0.6869258038549252, -0.5337131367665082, -0.4313522528541538], [-0.5080442762356381, -0.3674065298463785, -0.6541142674241519, -0.4337250687654394, -0.5809995694043023, -0.473562392663725, -0.6603024489160176, -0.6131047638872973, -0.4816393722832171, -0.38916138978584613], [-0.7000563825052533, -0.46742794282656774, -0.9856250795744627, -0.5903485254207751, -0.8459083229908642, -0.6448513424269744, -1.0033633525844685, -0.8782874844815303, -0.6677228405509528, -0.51307041786506], [-0.5312400903164616, -0.37630093481484794, -0.7106622612050381, -0.45924760878439586, -0.6240522407102068, -0.49421398435669817, -0.7077361856946571, -0.6533745222900934, -0.5055501039769454, -0.4108902349438738], [-0.726974388187588, -0.4776324636127443, -1.0205229114948355, -0.6071560341272971, -0.8653319985159422, -0.6621378834348669, -1.0265126200477228, -0.9208253268183935, -0.6765810484541629, -0.5236536984796947], [-0.5649531603512288, -0.38764578096692986, -0.7624820500914025, -0.4786532806722529, -0.6580168738974822, -0.5198227556953262, -0.7660190087601392, -0.6920709676027801, -0.5361386687267576, -0.4338366360232703], [-0.37403508622335047, -0.304939939640412, -0.4264698740338712, -0.31986783539625563, -0.3963091271362803, -0.3392330672243722, -0.430709967958029, -0.4059565940878839, -0.3453447325410223, -0.315774722647559]], [[2.277900940646981, 1.8115181000668805, 1.9494113917711071, 1.727132140921868, 1.4717609677082248, 2.2479834602002216, 1.6048286942033936, 2.3183698726267945, 1.7301472516606993, 0.7265213702049154]]], "biases": [[[-4.385288241348566], [-0.5398421725791257], [3.285437557642659], [-0.8396748088311802], [-1.0385244172020938], [2.244402155458572], [-3.2080102046384136], [2.2590607223828294], [-1.4161356977168058], [-1.1592146150533333]], [[-0.29591950864210553], [-0.41885761920317094], [-0.11666911429373986], [-0.35313633674861333], [-0.19557175520419637], [-0.3304090993369108], [-0.11048761201612924], [-0.16790646468027517], [-0.3130339538766185], [-0.40312340433423804]], [[1.5463844717412696], [1.0310806999126831], [1.1924291190644725], [0.9442224612027424], [0.6409827922331484], [1.5164257278640223], [0.7941400751556504], [1.5869960169907775], [0.9446002001909016], [-0.07726248629353238]], [[-6.690370872789399]]], "sizes": [50, 10, 10, 10, 1]}