{"weights": [[[0.015023206680663589, 0.2651802752202407, -0.24008351275863277, -0.23433966833445885, -0.22506050507741862, -0.18201425561033255, 0.3376415111352761, 0.006075539564935959, -0.42198406526760984, -0.22461472625064913, 0.7296613109185773, 0.13153856655839832, 0.238575691781954, 0.18043332950826366, 0.03494139726640848, -0.019602975285061955, -0.1313748098784783, 0.3520830393951427, -0.23730862032135944, 0.046073413927178425, -0.5667697958875273, 0.04733799857163965, 2.4434969361211403, 0.3756556065850771, 2.58559477684178, -0.04711915047272186, 0.18461617801259497, -0.026611463642376258, 0.018512552101642966, -0.13227823552810647, -0.03189616123104555, -0.06060874384617501, -0.655738539575511, -0.10603884973049396, 0.029668358182025845, -0.192735658931566, 0.4055702647606038, 0.112700565012228, 0.10529327469605852, 0.3093009513475096, 0.11386219133157423, 0.10692132854187142, 0.28413426002908143, 0.19414036192938763, -0.031273405156497146, 0.6291319211767271, 0.30035520787407033, -0.3842103885291335, -0.12576374249859226, 0.005919763917829608, 0.08060493329798701, -0.5316913216088348, 0.49251125659209877, 0.042062994934391314], [0.08946725513604507, 0.05933612618937528, 0.4644109999610133, -0.15594395047342255, 0.34746343402958485, -0.28079985061177115, -0.18725940103277125, -0.29179255246181707, 0.2691086472930123, -0.15463772786309557, -0.06950279392892944, -0.28747528329463623, 0.19355448813980872, -0.564478763993445, 0.242599675241003, 0.7372264856163337, -0.27257662670677185, 0.019496478588533976, 0.09532783531190514, -0.03845331317747818, -2.0901400155397085, 1.1093254504737953, 0.19723851665148137, 0.28061559895919785, -0.4959561841391145, -0.4957452642071127, -0.20595368984120424, 0.0878936155950418, -0.4675483610125496, 1.2044975404113314, -0.0557188841818629, 0.11855599178718591, -0.495251982660394, -0.04082381433000225, 0.25531443868367815, 0.18711732177438414, -0.6702332110909928, -0.43880735284180955, -0.09603828111035197, 0.3005810825412238, 0.05084156691759823, -0.9726317394555992, 2.099016171688137, -0.03494788671263746, 0.04477662802843592, -0.919757643054286, -0.8140461735391855, -0.1930807836503541, 0.4579523444034671, -0.037058306200813095, 0.2465503950897045, -0.40825290714940715, -0.44287373564207805, 0.5700597558697532], [-0.2603087484321872, 0.21014315606115114, -0.18441534175382523, 0.07530458145337823, 0.7633886322685302, -0.06316718934709828, 0.03588993383267139, -0.06456287577109948, -0.10965875350992577, 0.07438452241301569, -0.6334668556971819, 0.3357666468619289, 0.31842063459200354, 0.22868494943540363, -0.18449551170016057, -0.33335629144536594, -0.02048907742998745, -0.012618480972202958, -0.25886564297197867, 0.039030657016747905, 0.8363252688012365, 0.5943980218985299, 0.04576090619824945, 1.241240751658936, -0.046976154101184026, 0.5005739915512504, 0.12937282056474117, -0.026933694707909156, 0.35987520444033233, 0.13672855909159717, -0.22787636814789644, -0.40462230167649527, 0.2837978102637682, -0.20802784665866345, -0.08300887747222942, -0.3383155540353589, -0.17326337053262797, 0.05670024787963331, 0.2779263855432619, 0.1966597992111915, -0.45659668992805263, -0.6683090140895801, -0.47870056689111906, 0.19803663359007173, 0.06572207862124409, 1.8021445144654602, 0.31323934047425445, -0.4402423395324754, -0.03878691085283367, 0.25061180149889206, -0.40388631248670004, -0.2953209927061862, 0.229906905815474, 0.5356435423477222], [0.5893487638132452, -0.9671679814254243, -0.4570743177495688, 0.0657745443856726, -0.3849311497671283, -0.1610565026515997, 0.017467787751450883, 0.1099791795890092, -0.1316149902412544, 1.5865084838454426, 0.5244440141402655, 0.22609058560201642, -0.17408244342638207, -0.296444184998649, -0.2259940882970417, -0.24303100815100484, 0.2874951571204759, -0.18800313134730173, -0.23909689973604636, 0.075810360482514, 3.3169478373383496, 0.15274725491991445, -1.7405106649250477, -1.8914009066731228, 0.507934600725028, 0.32764845484621813, -0.2572140645997618, 0.3627631826493041, 0.25446474524623014, 0.15560913971476528, 0.21538321764495544, -0.2862070796296301, 0.3511981375690214, 0.17519889747052333, -0.5742882698724258, -0.23622932268224697, -0.1568192880321651, 0.02743381171334701, -0.1470939085836885, 0.13992243940468363, -0.2443897233648939, -0.23011723654263072, -0.14006820770598646, 0.49473015536945486, -0.041827781500694446, 2.864003449574593, -0.18476545021099997, 0.014691136347921598, 0.015315543739838313, -0.716769582309642, 0.008937000318524001, 0.08682254189866795, 0.1713789729182963, -0.25978000026409603], [-0.365912758360764, -0.30166155265879147, -0.2087693320811125, -0.19224287656501562, 0.20710534978389278, 0.5288766361811207, -0.9101766103786129, 0.19026051255930565, 0.6870617112581744, 0.37244034311094004, -0.09891899463018528, 0.6374308553442942, -0.7507423010779879, 0.35661955748207885, -0.3053785526167446, 0.251701102643881, 0.1071647397223901, -0.5422996055926019, 0.24511628133369645, -0.06062431093572815, -0.560690695745688, 0.2616290360499952, -0.2513122547438816, -0.9924644039620585, -0.4995408831014737, 0.4432761647768653, -0.7976846690951999, -0.1354937816918567, 1.2475346983133555, -0.7640144776633432, -0.04837893701114447, 0.17790785051157676, 0.23698633809002148, -0.6330611506119653, 0.19127345888437444, -0.04815382744943721, -0.07959193925544367, -0.15751679093792625, -0.10580105823669386, 0.1420172548481906, 0.21287781135735823, -0.11081858425271136, -0.29635045232310214, -0.06641226424500764, -0.03894595201961975, 0.3668496579088583, 0.14530412485243052, -0.44584510581191317, -0.1561684444326912, -0.5576395259433452, 0.2158915282960712, -0.031134467242014328, -0.8251249477495471, 0.5352362177905559], [0.33914171793081055, -0.12428508013970915, -0.03399546028214778, -0.1028299679403823, 0.661957698181903, -0.3164676821413454, -0.1597877926621003, 0.12656325192724174, 0.1385773107419866, 0.3669515503749901, 0.2697325929176793, -0.5178546602496539, 0.11774752838199624, 0.24826880077916696, 0.619140449446238, -0.5025825921747855, -0.1438024547164681, -0.15750571319898538, -0.5274546718745285, -0.5290698257496022, 1.669518546986099, -0.5338872977548004, -0.13442087339411843, 0.7567752590621096, 0.4052392697397431, 0.391887784231146, 0.5970586669207183, 0.4213513568453432, 0.09770261960746972, -0.3674994721446031, 0.11130096832909371, -0.06461506754989045, -0.2951047493607105, -0.7874246896361651, -0.6079033944819323, 0.1857498188473888, -0.08954591626201282, 0.02471721731674577, 0.33347978796292477, 0.17121273948282142, 0.2562216892175869, 0.7649929388786684, 2.2945007351397355, 0.2550195563523479, -0.8451426336173963, 0.6718689184775938, -0.19956898951080096, 0.25757463227021415, 0.47122442188876373, -0.21854329991646182, -1.05559461914905, -0.5875520671045537, 0.8613075368462156, 0.9603748957397698], [-0.013432770883184451, -0.08579730971055852, -0.022717269422558965, -0.10725755859432348, -0.11836735975136028, -0.10908666558538743, -0.16316404658235537, -0.094270861681657, 0.02614380482159267, 0.3574648670182144, -0.06410030583781053, 0.04212757805452727, -0.032077467115026535, -0.14538184266940918, 0.019245278411622265, -0.07001464928018361, -0.07307168851733076, 0.051972271938534674, -0.1338120816547697, -0.04464535331328591, -10.529182310770626, -0.3355913480366048, -1.1582393920069418, -0.7448882804696745, 0.3980654434715728, -0.06458767105739222, 0.17137308857591182, 0.0590726622482424, -0.005703268034660169, 0.2986482802591338, -0.08592013792067285, -0.037146515735747676, -0.11663548880036455, -0.04355304545901387, -0.13844309861763227, 0.08269194342013936, -0.10255383103990466, -0.033199004514893084, 0.035864550648849886, 0.012712540145021198, -0.04004959018136676, -0.5661710907425417, 0.09047440460791949, -0.5397049839774146, -0.038061789584934995, 0.04588426949271413, 0.050870303783978076, 0.05698165895488643, -0.12528344036769087, 0.009858813246444763, -0.04745830326947792, -0.23825500898808263, 0.13227017676999045, 0.18493529531851402], [-0.1041122331823307, 1.1272823940022938, 0.051863175129779886, -0.14130298827979015, -0.021648600122111495, -0.10282291218879165, -1.0868664003273067, 0.2724204977956627, -0.06588117579528092, 0.1366130552579623, -0.9271898389170585, 0.13324067282589644, 0.2358778512744545, 0.4882456631558094, -0.2105893925915605, 0.17150074004760008, 0.15592555268517524, -0.2841740882560442, 0.0571997004363698, 0.3007945835948228, 1.1716473450278708, 0.7078016053216873, 0.4007797890249206, 0.524872315729403, 0.534097904887445, 0.3968277775070252, -0.29596082056749984, 0.058260100705611106, -0.21094131891245219, -0.0196798960683928, -0.8964105806119445, 0.6694347654876099, 0.5327695355609877, -1.746009523252967, 0.191743653268625, 0.295476193156577, 0.305500056191293, 0.2873802497968771, 0.08485060344120227, -0.14687505518957672, 0.2931159147762584, -0.5792925614975816, -0.053375276417676115, 0.07752521500352079, -0.1384785702553734, 0.8369882406799771, 0.6144881710300091, -0.03564476442762012, -0.2541788623119233, -0.05760818530508719, 0.9476655763254046, -0.7916926661501322, -0.18464620762946196, 0.03183273573362301], [-0.18497576365388893, -0.546449287712809, -0.14594997579521288, -0.2986573929731143, 0.04392720930721564, 0.17859026522451052, 0.01453349458295966, 0.1149103187752234, -0.16853073081891864, 0.011362468933245655, 0.7309097843697776, -0.02177189491727634, 0.47444684794053077, -0.03712525526761428, -0.023903311687823316, -0.3288874759661638, 0.008019537732967291, -0.12063325840398574, -0.015484636556301166, -0.06231611563488071, -3.026141800804426, 0.1749105489494712, -0.6501695443290015, -0.36476195946609763, 0.8129135473154727, 0.6950353990142475, -0.564076791623176, 0.4695063410309519, 0.28438502711742997, -0.35845042975256924, -0.2804114213984558, 0.14009606844560824, -0.3170884773025285, -0.8660236077414788, 0.2638858190517642, -0.33282957543379504, 0.05486962793651271, 0.056912670164720965, 0.37829481759742845, 0.4229203748184657, -0.29991548398858114, -0.7760505417093729, 0.29071999278726507, 0.018366132055515367, 1.1924405372045332, -0.7836305249080107, 0.46600398388231007, -0.8741394696193352, 0.9432525660775396, -0.31936555256646887, 0.1927762757901252, -0.08935874963018808, 0.5189130748581487, -0.564800858953709], [-0.050320720804237905, -0.05420131263524174, 0.165675984407144, 0.7509888162190733, 0.2234121878708, -0.7923875432699783, -0.34825108472138255, 0.5427370004036753, 0.5413043508024769, 0.43470169727480035, -0.3468848378936611, 0.6904873939593217, -0.11903447390042969, -0.18569097032535006, -0.40018847810623365, 0.43171947683822476, 0.1448907274355568, -0.6244223671771859, -0.7949343284339563, -0.4109352171543563, -0.7677134079746621, -0.2565180667630143, 0.1714759112921291, -0.30662105976617304, -0.40473579322682707, -0.8229208859446944, 0.37039871618194437, 0.5239607287226907, 0.5599802012715502, -0.12355201726622558, -0.5785904590966784, 0.03623471703419353, 0.10001687944358899, 0.030657465392471984, 0.5996160595501857, 0.7697422097953135, -0.8418114310574798, -0.5784615968197836, -0.3388926222398338, 0.36066881469957274, -0.10872074995353481, 0.2195633711605786, 0.08702924853593579, -0.26343118907973617, -0.4912435330511146, -1.0018012232706852, -0.30387088668230716, -0.33673085724522883, -0.2242605024317827, -0.24129865328041575, 0.34637161891217577, -0.7617622884031514, -0.4633863942038694, 0.8542288489987684]], [[0.6772139630581733, 0.8956845306552929, 0.9277884353429441, 0.7113887633086255, 0.38224065669307683, 0.4133675953145786, -1.9854607604583627, 0.3040750636444433, -0.5384895249063593, -0.5813385608674416], [0.6323448866666266, 0.8620918836740065, 0.8976923953970699, 0.6769750619204054, 0.38823808042365104, 0.41857356198133183, -1.9118730295433997, 0.316121221689209, -0.5699847132572411, -0.5379038736768043], [0.5698751159578986, 0.7724719143945532, 0.8275125145478204, 0.5891690200549443, 0.38687383598141956, 0.4270877635627216, -1.7603037248977393, 0.33076033110109315, -0.577941762131548, -0.4700353798453587], [0.5245976274593943, 0.7156809353153533, 0.7926546985682649, 0.5499131003778889, 0.37995631172248895, 0.442498081533512, -1.677292246537683, 0.34053915486616476, -0.5931111541211098, -0.42930942092621416], [0.552047088381133, 0.7669510136423728, 0.8313193788845877, 0.5870021905698027, 0.3934208203792303, 0.43687411505573626, -1.751109684990748, 0.3247515260643146, -0.5902106273688061, -0.45371792986680093], [0.6072889054783338, 0.8142792206153241, 0.861598397785758, 0.6296182280547341, 0.3860399852609162, 0.4241810556642844, -1.8486944896729862, 0.32900514115888124, -0.5663368047392427, -0.5014839333400071], [0.5388110533321062, 0.7391695929548038, 0.8038344448533207, 0.5558307951077828, 0.3875328008315171, 0.44197368997043557, -1.698047792861694, 0.33370679225002986, -0.5941210483275936, -0.4408801350691734], [0.5100653334645934, 0.708167883282515, 0.7685692840091204, 0.5281363168006739, 0.388309998771732, 0.4431225990267515, -1.659191174452066, 0.33038750642849024, -0.5960015198256206, -0.412644602273453], [0.6466541243151553, 0.8676595091093119, 0.9032691316221809, 0.6843331032964873, 0.3865997369168346, 0.4189593362665257, -1.929179992695461, 0.31530397851454217, -0.5535390794450753, -0.5555484016635399], [0.5960620078849437, 0.8195145085793245, 0.8772538376083991, 0.6526381448511743, 0.39004482137912805, 0.4359595679540695, -1.8567950730003866, 0.32454063617047985, -0.5698088707274597, -0.5112365050408308]], [[-0.613404653815719, -0.5867074575750554, -0.5389678918012107, -0.5089335310119948, -0.5365378485345305, -0.5627310196817583, -0.5235267587082795, -0.5038066826320534, -0.595326299735088, -0.5711803483990079], [-0.7095290067601063, -0.6698623374607162, -0.5934173720115413, -0.549783803794758, -0.5889431857510311, -0.6426414555828854, -0.5599258425818964, -0.5310142640043553, -0.6987897678634564, -0.6408916334564334], [-0.5964559119072818, -0.5764539044849055, -0.5293106157885341, -0.4945351378351669, -0.5296845486832964, -0.565495466874865, -0.5111133512236499, -0.49068440222250387, -0.5793211976964863, -0.5674846084751841], [-0.6773288717655136, -0.6596093737245953, -0.5719119369739518, -0.5321113466559364, -0.5827380446324244, -0.6142123443323374, -0.5481679528335189, -0.5204983767096065, -0.6524386826699042, -0.620977516492722], [-0.667130651752874, -0.639846269679834, -0.5588902124180444, -0.5264908365994876, -0.5611848504193314, -0.6070926339711424, -0.5343732576538708, -0.5221286604275578, -0.641332255567121, -0.6032228716969724], [-0.6305076478138947, -0.6111716886757094, -0.5520096272506798, -0.5163288352425492, -0.5525144491117092, -0.5832697002957651, -0.5404270629993893, -0.4958701398303298, -0.6178250185806957, -0.5867904222683074], [-0.6161313661600128, -0.5947628542892213, -0.5365790166906962, -0.5082346983913653, -0.5398372386527226, -0.5688818883021787, -0.50905481111886, -0.49946756039337975, -0.5980001833633023, -0.5762177758902628], [-0.6550859637686658, -0.6251375968034427, -0.5686582108822668, -0.5265202093649751, -0.5568333095767779, -0.5948368841157302, -0.5405219817740642, -0.5190854998591696, -0.6263558920552497, -0.596386867866453], [-0.6428495172568227, -0.61116662447053, -0.5551649926073012, -0.5170002298705438, -0.5479950238521022, -0.5856336468121733, -0.5306076908272926, -0.5071279847149465, -0.6220368043199853, -0.5981326466061812], [-0.7151616881457916, -0.6835483515564623, -0.5844587092219274, -0.540430906986726, -0.5842094511231641, -0.6267955817897415, -0.5557873216179613, -0.5331779195501021, -0.6724599501614776, -0.6418425768102589]], [[-2.2597065340474374, -2.7131460475823235, -2.1906557090646297, -2.57047002282615, -2.490530507521135, -2.3669264366418092, -2.267031763580594, -2.45151560770689, -2.3857567032234814, -2.678128100820059]]], "biases": [[[1.7305648487779415], [2.8683763546689165], [-3.0246086623051474], [-1.2833330675660164], [-0.21194360071256943], [-0.9900319149044041], [-6.879840212230654], [-1.200779379998244], [-2.1123395793443915], [0.7266835261320873]], [[-1.4457866493974587], [-1.4233926565619974], [-1.3225322240757853], [-1.257604948930197], [-1.3308389302611887], [-1.3700697895112042], [-1.2906984109695738], [-1.2451296853694638], [-1.4219238666990666], [-1.38280310826969]], [[1.481362704274049], [2.022720264292279], [1.3921271459800664], [1.8571030184853392], [1.758015030662024], [1.6083043967040869], [1.4866044182985843], [1.7136969932459836], [1.6356239522097908], [1.985692946565961]], [[9.218336550898051]]], "sizes": [54, 10, 10, 10, 1]}