{"weights": [[[-0.22490451376477347, -0.013801652244480515, 0.1586146418343381, 0.509227134331558, -0.532914163731034, 0.031633537482122005, -0.6954622025323048, -0.32809632516394577, 1.0488081252880552, -0.9733089781460991, -0.38262222703675863, -0.4196936318764742, 0.936340632716114, 0.024563925959053292, 0.2988999409971729, 0.0667718967777791, -0.11459615849369961, -0.29687458326268334, 0.43142823008872155, 0.13871816927494704, -3.3012551654705344, 0.0011709235633971275, -0.13488698974939825, -0.5951576424454036, -0.11347168698540236, 0.16352197319074613, 0.254141786522077, 0.2393793890824989, 0.15546703640744783, 0.604482276084976, -0.2684156632104046, 0.4552509343343884, -0.2866790152784665, 0.01171378897087944, 0.4299209742674718, 0.21389986585788232, -0.7319243311993833, -0.3695984724262001, 0.3934220973426346, -0.9112506203901523, -0.40295654802883374, -0.1664244235827737, 0.4609562462117534, -0.3160385484264057, -0.21121228100991685, -0.15808989463091902, 1.4813443692473665, 0.23951182991668704, -0.4295613835381038, 0.28658471713718964, 0.07577268070104197, -0.1716366996204904, -0.13424889592330752, 0.20854176412709743], [-0.14441875609213675, 0.34947435896883217, -0.2025306598434427, 0.2827450034326048, -0.10400965117104942, 0.431990111662912, 0.46317786226579655, -0.06497152808248713, -0.2433448691264906, -0.6148825667994652, -0.3297599220889984, -0.2752770686796612, -0.05855167083612689, -0.005220965422999984, 0.07582877145252703, 0.8265669188064195, 0.10000726765274741, 0.12312863117108921, 0.30127747330654303, -0.7968237407212687, -0.3839238885354615, -0.6882627532791723, -0.1422318769762055, 0.09087466754730565, -0.5756834923753424, 0.5553540256355474, 0.4461903524044725, 0.4364575974439951, -0.1701995307812573, -0.33177718101926856, -0.21693652655593493, 0.7572758429031878, 0.8477003469954216, -0.0028309768685243217, 0.47945984014259, -0.7102144212334226, -0.6597582955940554, -0.33001625257875844, 0.10156860692458196, -0.8352147106554177, -0.2108032506104399, 0.40600873365806706, 1.5812789944687802, 0.6518888582655349, -0.9987799044425015, 0.6999653158580557, 0.7076259300247778, 0.30418246342694744, 0.4148477203677533, 0.14312625804491622, -0.05652584637511984, -0.37475764768304803, -0.12011518389367153, 0.5083595376652558], [0.5986149303619209, -0.41061935667326, -0.14173647368885678, 0.006374573645703266, -0.412633380301108, -0.29848393791538663, 0.08047540210449389, 0.37611382002764887, -0.4109498870329608, 0.049058714379121834, -0.5481037632208668, -0.12869931345801058, 0.17457103749066735, -0.024899577202851002, 0.9221159141149949, -0.03801380679580525, 0.5168468477169625, -0.11485892784066684, -0.3429353434502909, 0.42990811792741085, 0.9886126742888441, 0.1025608718710113, 0.849632588568916, 1.4237967901122743, 0.8245095485038545, -0.41833590752258926, -0.15970825687779167, -0.25905177593597184, -0.03225927352857238, 0.3479882398609393, -0.1559250105827026, 0.35139237884449176, -0.19068096740919535, 0.9178213832093967, -0.2036313302523675, -0.5308852353721245, 0.14022364305442558, 0.1310396053571172, 0.41515985730951815, -0.08417798006290497, -0.3688129234897283, -0.251016300713315, 0.5654313277009424, 0.33220850732924256, 0.25124478146736196, 0.6252734650453977, 1.1166280079253728, 0.7710968911937125, -0.038880614878353786, -0.08723967075828094, -0.6470949457513688, 0.45035223842709127, -0.033516313760850125, 0.21263608990618074], [0.02695660544340823, -0.20817888858815797, 0.11303725724046183, -0.11507593760614408, 0.33974933148255604, 0.07181970695097113, 0.13122166485301445, -0.6769135747226409, 0.8307364691801353, 0.30036405920201253, -0.3168519502490914, 0.3968750116562102, 0.2531074282466363, -0.6606297281702396, -0.13342981799720724, 0.13259830893870148, -0.21349509952142767, -0.4396889376503429, -0.20717218799525086, 0.41098662455906704, 2.168049998274303, 0.798153815246172, -0.35951192194090675, -0.5036038168171751, 0.48729006796485974, -0.7640286940053062, -0.12769965701395647, -0.16691979344309812, -0.5125525420422548, 0.1909649935433254, 0.5366613039579882, 0.03814248380060024, 0.33708373429270216, -0.30797249465872445, 0.3692558566861174, -0.27879778518696946, 0.5345729927015032, 0.5753936032199781, 0.21246486520838662, -0.1706855792865296, 0.13191373781465973, -0.6289445957092406, -0.3296304012615055, -0.024124999818066074, 0.40643301541435883, 1.994750231148024, -0.42972086749601734, 0.4252736305275051, 0.08216322120843637, 0.29343603893807, 0.14357127645117077, -0.34493966993147934, -0.49091491226614775, 0.6020981600197444], [-0.9406001389280523, 0.2702350777397668, -0.049701040985072734, -0.14995038611916658, 0.19041908047338418, -0.28403653532242207, -0.0759766899353418, 0.2205862821458334, 1.1429079770893618, -0.00875218069068257, 0.1891176396905947, 0.7951356585902298, -1.1090644106137186, 0.0374548108735028, -0.5851989638639948, -0.2032532140770932, 0.18237015099003082, 0.3396669254026719, 0.740687922395811, -0.3249348446116796, 2.163911606564838, -0.19793385756878834, 0.2428224249256856, -0.7877289622376048, 0.6957506029832813, 0.3731505558547033, -0.5000131821078645, -0.07865110005187119, 0.37824455811267416, -0.16673324135248382, 0.4642513366743035, -0.5848682342822141, 0.8611770606234497, -0.5143257398199492, -0.20284371011159, 0.15094919206370183, 0.46035214758870413, -0.48613776588955965, -0.007806910774177024, -0.16506199424817847, 0.25471624599055, 0.5010990384411595, -0.41944029131221855, 0.09546872639633935, 0.001139810733600199, 0.41516633115452223, -0.4095839737069078, -0.31318934693615924, -1.0735161162289595, 0.10433150486434273, 0.6152665601847667, -0.18416326210089462, -0.012759472232508683, -0.40753875429528275], [0.013286610123407098, 0.404942713701895, -0.0380936989107829, -0.3264774477669106, 0.15357268697794874, 0.232183301986409, -0.7899812079570915, 0.10447865978102405, -0.23363659109264304, -0.4578908672765981, 0.7689443790671948, -0.14820075790472526, -0.02413604886403849, 0.2796515500499842, 0.25105699553005095, 0.3052147222047287, -0.22847494509590008, -0.14854640348781437, -0.148297611053572, 0.1676239883905954, 1.267282081657301, 1.9789554344203042, -0.011983664733526248, 0.40345848574479265, -0.4312535837456773, 0.4311674062512194, 0.429072759430841, 0.355939588747383, -0.06478149477012435, -0.3116675419848379, 0.03530713022284451, -0.03280133152942746, -0.14783616825228094, -0.30908908245878863, 0.42426394928772, 0.06469377263679242, 0.37160548682889044, 0.10723529512579294, -0.8194170724023534, -0.3821034154203141, -0.011405627692215784, -1.2091031620041985, 0.9783907261859557, -0.8223110671743928, -0.9257797395286979, 0.5162474028031679, -0.26394262598969614, -0.19207842334444508, -0.10716903130294594, 0.018821430686321985, -0.2516695861582017, 0.0036417400813456803, -0.23850956926979888, 0.43568902363104334], [-0.24559000526555017, -0.16031962623538215, 0.3969856191760046, 0.02216412589738862, 0.6942177162358311, 0.4559930745492402, 0.4486138803024226, -0.17233216986002928, -0.19672508901056426, -0.008661521231127123, 0.5378771686988288, 0.8287610476600022, -1.4059171549439586, -0.7267838624390824, -0.09109859063220364, -0.11807497083939456, 0.10501709181125794, -0.20809411473598646, -0.07438724862951798, -0.2166180183821902, -2.689294696080393, 0.039878927517189924, 0.3016781863753816, 0.7498087620095854, -0.43774461281795124, -0.46412206830476815, 0.08541072052616494, 0.2475923531915341, -0.25856646665079963, -0.18690027867017128, 0.00048714897481687454, -0.30163870726779024, 0.050541691159721416, 0.40791483004930246, 0.49921773137023984, 0.5027477095009025, -0.344145865438785, -0.0567632071517415, 0.2698529940705831, -0.4077157186662885, 0.36102808412472454, 0.008419247145097614, -0.6430693195699003, -0.42810537066504, 0.49504106937995546, -0.9427024940932889, -0.25124692626438205, -0.009701230700309923, -0.1950585454643974, 0.35077618535157595, 0.21769446824679337, 0.02741443336226521, 0.18518594468298796, -0.38628856261339706], [0.4384160039255629, -0.16871366328740048, 0.2730375527333118, 0.6406115863705644, -0.21470485078727203, -0.013641998022536335, -0.44226835719990143, -0.10153648461326129, -0.4238290238386286, -0.0025298156645915636, 0.14783041307903758, -0.06531660324081905, 0.12916660871904656, 0.15145955771064684, -0.02495439725344952, -0.2334257779804865, 0.3921972075261136, 0.08046829136269833, -0.1721304199429374, 0.04539995457280311, 3.213067254227536, 0.30860006281543245, 0.1879423642557664, 1.048603539492806, 0.17054262472145296, 0.5238065515433218, -0.41272133173763514, 0.4479241601655972, -0.5244788261189386, 0.36912841735473284, -0.5944450744996331, -0.3379369015544007, 0.11196266307250165, 0.038550511371851885, 0.20079016863956514, -0.17261239608877027, 0.3998681361934347, -0.8959982298822714, -0.3773359239111303, 0.14403458844992653, 0.3876305691286831, 0.0014411993898671622, 0.08347437411521928, 0.09016541174089403, 0.9055139988922807, -0.4036592939425435, -0.10267469943791817, 0.24069036316431944, -0.07108417780131494, -0.8132512406433587, -0.20783115629627663, 0.43768763744153083, 0.12751734790084363, -0.3140620770243741], [-0.016110021784938013, -0.11324373021176001, -0.14444429974812764, -0.18545838665415587, 0.005931202260026757, 0.10056669816086869, -0.05705270116708802, -0.11882395710928687, -0.06842915235391692, 0.27252021697493534, 0.17997210936192168, 0.0032377851973598207, -0.2527126284731557, -0.0414890070750507, -0.24160875591454273, 0.34228162343234536, 0.03976161496113805, -0.004602510082926713, -0.07676245519331466, 0.013122222455013663, -3.2847507892565395, -0.45402167489886214, 0.13938484792354952, -1.5346845339135275, 0.909612428692714, 0.02895961470208061, 0.01167693393383293, -0.1090803066588704, 0.4156402841094645, -0.272881832498824, 0.06647374828944166, 0.36657745509609657, 0.400874161988035, 0.026999877586840453, -0.14870426592451627, -0.14233836510232706, -0.22165520957004514, 0.11300718463008523, -0.24046797523602917, -0.06680097490369769, -0.1591061927632138, -0.022693511076125238, 0.3985755550016304, -0.0120669133561407, 0.3162701528322769, -0.5911523895212843, -0.1396928747546111, 0.29016053701845823, 0.04767103742209609, -0.0651085212481815, -0.0768082019535617, 0.40074081707611275, -0.17666178571877966, -0.1565379921275905], [0.48634893623847336, -0.6141629488461159, 0.3280249114118444, 0.4628703384619067, -0.19326639652099817, -0.26699403504793323, -0.21711988138691976, 0.40692612460010547, 0.0029680806408120632, -0.24010697430270692, -0.35367761755780525, 0.155247213487951, 0.3821687739172341, -0.21143061296859106, 0.23954352073493437, -0.3229635402454095, 0.20469834138162343, 0.14722858787048285, -0.2560268741077509, -0.14025022964216763, -0.8417697599141415, -0.0804283814545371, -1.4083717298811038, -0.7509058783673852, 0.2502597581171643, 0.2223088966919165, 0.2590049749601646, 0.30768063835367127, 0.15798079019431663, 0.6938245644946819, -0.48119467054466714, 0.07003380766750847, 0.0922190080973406, -0.14121386817503764, -0.25580354176570735, 0.005998578659361013, 0.28429161518085283, -0.5203963083682163, 0.041541074848879735, -0.26550061665370467, -0.6314174118112037, -0.3286531904842439, -0.2635599051944659, 0.07554563871050739, -0.07449719311949178, -1.4425903034230854, -0.36583463283565265, 0.2549173247653892, 0.12187228107169155, -0.43584751486916484, -0.26763788459040927, -0.4998518172716083, 0.060134045789972036, 0.6725305295502891]], [[-0.8136416951768912, 0.773441076077034, 0.6163676026185393, 0.83983169946876, 0.7238777815390746, 0.6915625152972708, -0.6835693490702052, 0.701774974317509, -1.052955478975788, -0.8207092201191082], [-1.1660253020752158, 1.0169279118433796, 0.9019550818074114, 0.9104215561077819, 0.9858514017345339, 0.9550965096150641, -0.9745614764471257, 1.1863585153413636, -1.5107937814293488, -1.004570616754082], [-0.8008767913376389, 0.7637720001599929, 0.609370457220901, 0.8434606108840926, 0.714059689837706, 0.6719535531890634, -0.6723203027785248, 0.6949850634145465, -1.0401594335609188, -0.8220256464232344], [-0.9871048101357706, 0.8963275701471778, 0.7734392533675057, 0.9058822019262305, 0.8526899249246751, 0.8176422905936491, -0.8346385493017257, 0.9430558844173429, -1.2823316337025137, -0.9284143575764147], [-0.6557209118871207, 0.5989876982511706, 0.4731426035680668, 0.7281868454021996, 0.5805553296274457, 0.5553325176732559, -0.5334244778360918, 0.501095975014139, -0.8179965852213786, -0.6879347614793224], [-0.9378516532080088, 0.8723455297645594, 0.73095345354147, 0.8869757516418473, 0.8205601249691649, 0.7844807002985009, -0.8009384575167, 0.887503249897948, -1.2275454505782406, -0.9004447735742171], [-0.5970286033438031, 0.5237651519746697, 0.4158422755281798, 0.6615159308698678, 0.520171146574841, 0.5068204211420513, -0.4894903698162608, 0.4412620904107161, -0.7323527860786004, -0.6433149066442626], [-0.6271354111341921, 0.5674756945377731, 0.43604663520325043, 0.6982371325543526, 0.5543143968894686, 0.536376928555102, -0.5191422958739299, 0.46952984167257944, -0.7712496270754923, -0.6639513726013924], [-1.1546060025994496, 1.012149253086287, 0.8969635913751296, 0.9134662247462636, 0.9816705715897315, 0.9547786177835667, -0.9705044791902394, 1.1689471828629203, -1.4884453116283822, -1.0088619308682532], [-1.0694169911722513, 0.9429262961644673, 0.8306174112742568, 0.9129849520110577, 0.9150115888826802, 0.8818809086053593, -0.8939735987601946, 1.0400433116993568, -1.3709936830176164, -0.9652184059588298]], [[0.5984378097458294, 0.9306916965166256, 0.5855594410750907, 0.7647468900631336, 0.40542391255383764, 0.7307856802645482, 0.3221829271811741, 0.3625212704366909, 0.9184466862137958, 0.837554255722427], [0.13194625201585686, 0.20196043404512426, 0.13255165985653386, 0.1690159161790958, 0.11194277319476413, 0.1543614956674767, 0.10719333242000799, 0.11209618538396243, 0.17578472930386982, 0.18057242636043289], [0.6888789753971178, 1.086410838214784, 0.6714009043144401, 0.8940850524063626, 0.45415056537864973, 0.8319107054281223, 0.36540061059573375, 0.41275176438307887, 1.0763640239846393, 0.968575554026488], [0.3902225869145926, 0.5770725617737544, 0.3896908056071409, 0.49898432986206326, 0.26495190008743846, 0.4685145792295742, 0.22569560878184966, 0.2542356817013897, 0.5833410916879811, 0.5338648357718321], [0.531319210154652, 0.8180759778492223, 0.5342662754709974, 0.6861918179679122, 0.36977653873632976, 0.6445953412275723, 0.30439648653335166, 0.32911410527368057, 0.8121961480511785, 0.7492633513827078], [0.5630917804550049, 0.8575397138608107, 0.5469231433462376, 0.7124737474003882, 0.37786814396498175, 0.6757466567126338, 0.297110157127928, 0.35777479688480135, 0.8474963437312375, 0.7786989374156359], [0.6761321139751206, 1.0674045414812008, 0.664282438263185, 0.8767730925997685, 0.44701273748915066, 0.8296309091646565, 0.36954010617744065, 0.4050917287772392, 1.0577384110013295, 0.9581075425699551], [0.38856490959074014, 0.5869134231877251, 0.37630305034941613, 0.48934626325078373, 0.27577702467380416, 0.4684186961105504, 0.22015004374110808, 0.2451518567736374, 0.584826287240376, 0.538524938463085], [0.6084905458723546, 0.9543903014663487, 0.5975391709699044, 0.7880052996951379, 0.4155152985363421, 0.7454135371243216, 0.3330985671434281, 0.375874064244391, 0.9391860056056192, 0.8512817644942071], [0.38365758093794317, 0.585347156872018, 0.39555024640719233, 0.5107589381676478, 0.2787645638329646, 0.4824630170349554, 0.23107714443857785, 0.2528547719841581, 0.5956809097923181, 0.5400026931991364]], [[2.3729966421574575, -0.7854401336501687, 2.9696001594201897, 1.149670278141717, 1.989924463287921, 2.1206110838029635, 2.9088578207725786, 1.143737533713955, 2.4609220605020545, 1.1868871947694237]]], "biases": [[[-1.592277487201581], [2.336027691550289], [0.8622910286416194], [0.8085637890463656], [1.7977384854633671], [3.279239957218774], [-0.3947828698704733], [4.4535970830914815], [-4.139835045452442], [-0.5400768225389969]], [[-0.8940769479413307], [-1.0450253344515303], [-0.8891669158397033], [-0.9926224320092922], [-0.7241966448129492], [-0.9663285004551139], [-0.6432038996056936], [-0.6862984146328285], [-1.0520526309757101], [-1.0187246159291594]], [[-3.128938173936375], [0.11129356418415927], [-3.658675610109796], [-2.05692872779499], [-2.794817017929945], [-2.9080774624401333], [-3.604904989378388], [-2.0503116374940555], [-3.207607898048466], [-2.090915349329018]], [[-9.830498101135566]]], "sizes": [54, 10, 10, 10, 1]}